{
  "narrow-insurance-weights-l2-gaussian": {
    "coef": [
      -126.89363909497126,
      76.01807081295064,
      270.0030670983526,
      -57.42870535437136,
      55.86048972975826,
      -14.153849306078177,
      -73.10388809352895,
      81.6974616474854,
      -33.01204621499103,
      -98.37328645842246,
      -38.08093024957695,
      85.58429938835718,
      261.0568270901388,
      4.3873052062508275,
      190.28688592375016,
      23.52997170569074,
      167.60407107906386,
      -75.69606963296583,
      -19.673635080266234,
      -138.4838328435924,
      -51.90100008635309,
      28.234202050372907,
      -11.853884986802893,
      -74.35873771571262,
      54.2998916831674,
      -13.382727989451372,
      -131.66861930987426,
      79.44087426389454,
      -33.092165106253674,
      -32.90776728968688,
      272.7795015112102,
      4.384606522044159,
      -31.519498283438487,
      -72.6158566452704,
      -30.22405278791894,
      -3.3588578907567577,
      -150.9395862933983,
      -147.26355710680025,
      -36.290205799872076,
      70.76012102276637,
      -10.490748722654706,
      -49.48607287863337,
      -83.11399271620922,
      -15.528718150325195,
      229.98263910246754,
      138.10914762638654,
      23.082296126091144,
      -32.85890180753846
    ],
    "intercept": 1686.3588954212069
  },
  "narrow-insurance-no-weights-l2-gaussian": {
    "coef": [
      -106.95901303046905,
      66.88262280514228,
      240.4085027814869,
      -48.354006293354495,
      83.2345481282341,
      -11.402680561355089,
      -91.20253794632603,
      74.78733725280175,
      -39.53952119326032,
      -90.94777564894017,
      -40.98517527875867,
      58.87691967404213,
      245.37118380553332,
      5.028152307715455,
      193.66754036140694,
      35.47200358334059,
      91.48872753777711,
      -62.20514125450726,
      -15.266642469653759,
      -102.32510115275254,
      -57.14373227115093,
      43.65733937108165,
      8.494331546425506,
      -56.44430359730134,
      21.524880402275755,
      -16.23942747615272,
      -150.4731203566754,
      33.27941490713756,
      -29.65182312632163,
      -26.817140287289806,
      283.29541568785396,
      14.654186644797257,
      -23.000009583066568,
      -65.89948382199698,
      -25.110659517306182,
      -2.849449904477511,
      -159.1820175415468,
      -126.88413240455166,
      -19.9839593559938,
      59.251251226416535,
      -8.59935463887642,
      -43.88100928254089,
      -85.9192967590379,
      -12.741285748690192,
      209.05858793748644,
      146.4101631868111,
      3.4728342443719122,
      -17.257803694844583
    ],
    "intercept": 1610.924855235136
  },
  "narrow-insurance-offset-l2-gaussian": {
    "coef": [
      -130.8965251594468,
      72.5568188792743,
      281.2116962775175,
      -61.273194653266586,
      50.55641755180272,
      -24.35186291615679,
      -90.52597438950232,
      78.23861125689773,
      -24.0511461672135,
      -109.31468498953711,
      -54.781638311757575,
      101.82368046296115,
      279.1509253921139,
      6.445192288994087,
      180.84338125867433,
      18.843015179533317,
      228.23714039630977,
      -62.89346470773846,
      -18.0444000150517,
      -147.12934792688122,
      -61.29741810554347,
      19.353070669138067,
      -15.015182861641366,
      -74.96689372372653,
      49.07862920528374,
      -12.24055623383913,
      -122.66421804463022,
      85.13801538270941,
      -42.95966325985016,
      -37.276881784157084,
      275.67610258573086,
      5.273111572283075,
      -27.63696200791325,
      -81.75983569519686,
      -22.071629913996237,
      -4.356355618054717,
      -156.1969423808526,
      -145.42519227408619,
      -43.57423257997055,
      77.90283661759433,
      -15.435734695051373,
      -49.622723051036616,
      -82.79064234937202,
      -19.318559305255746,
      236.5292697184019,
      164.5807650927087,
      32.81936363737819,
      -29.34212877140314
    ],
    "intercept": 1638.1366860390597
  },
  "wide-insurance-no-weights-l2-gaussian": {
    "coef": [
      -574.4903908237471,
      -8.966971873816776,
      11.833990280103281,
      -1.744528023288504,
      0.0004696392141871219,
      -0.056277268254974804,
      0.00026213929070344866,
      0.010673203713027104,
      0.8751276961460943,
      -574.4903908237469,
      -19.426164964628473,
      -9.118499710469104,
      26.699855123754773,
      -7.966840142928746,
      6.239950565928516,
      3.5716991283462565,
      -3.6109614381167794,
      18.23449468119878,
      -2.7308703817996625,
      -18.830620459392847,
      -3.872161005567948,
      14.546788424813842,
      -7.612433185710732,
      -8.518355688036857,
      1.5963840586647906,
      13.097608612245219,
      1.7400516089168812,
      -4.039925227206368,
      1.5140694068832419,
      -13.881119841538467,
      -29.992054014591453,
      21.52189830580131,
      12.364698980725633,
      -2.304038185746935,
      7.767836971060053,
      8.858206357161228,
      9.07288139541851,
      -2.2468004183734007,
      5.965493432199509,
      14.65009994809374,
      -9.956840998785914,
      -10.12976408613663,
      4.714563846382155,
      -1.5701437600974082,
      -44.60872783280354,
      8.685104550290752,
      16.98031112086448,
      1.1226220440020733,
      1.4197275755292935,
      -0.7103447888856057,
      0.2752192166830808,
      0.09748221441351744,
      -0.28293217691512834,
      0.4494722751393717,
      0.010984012564626389,
      -0.15449195226428622,
      -0.09673590934796597,
      -0.012667549514947267,
      0.029315100916224465,
      0.1902861079138319,
      -0.003562275478179941,
      -0.047316369702733695,
      0.3026251951080661,
      0.004642103025563466,
      2.9328484399343693,
      6.620377523303898,
      -3.8686271020405267,
      4.550724164766984,
      -30.85352423616613,
      6.447998084284805,
      5.508652707624404,
      -0.5522967132143753,
      2.4808654520080036,
      -6.804010851558337,
      -0.10853343652144748,
      2.621466712246059,
      5.88380980274577,
      8.013136830636755,
      -11.86976248140433,
      12.936876416261226,
      11.580952959162943,
      -3.2000981443216614,
      -28.97607961212192,
      -1.7602742148057569,
      -3.7078150521687183,
      2.564962635641087,
      9.40234763243984,
      6.497605135413636,
      19.746016384597034,
      -2.605103692818156,
      11.495622263104943,
      -2.006992497769685,
      14.59022924654287,
      13.15886248588565,
      -21.51004717825987,
      -0.3420959715143379,
      0.8651890865328002,
      6.33338900288626,
      -11.360872673430535,
      -6.694087386169619,
      -10.807219123310636,
      2.413214561752747,
      9.542334091080747,
      -2.3305645808228097,
      -6.011179569483566,
      0.2597096264842235,
      -65.5364640140245,
      3.646175757426314,
      3.3240617399301273,
      0.379768198810752,
      23.88468528205373,
      6.206684994069298,
      11.416319984363676,
      13.408182306220995,
      -0.40813034369466256,
      -7.574370831482438,
      -15.356727229007072,
      0.08180093012550159,
      2.6374152639506554,
      9.059428441299382,
      7.60529427175131,
      -1.3144973400096565,
      16.466394776359163,
      -34.50107292976961,
      12.339649462929692,
      2.577319187644077,
      1.0028981633977718,
      1.1218408568497522,
      -0.1243606251431298,
      0.512032506545976,
      0.23586421888342674,
      -3.4043928995846033,
      0.8339894400523239,
      0.1509260336686185,
      -0.08968523639468207,
      -0.3867348479160413,
      -0.056458671837664294,
      0.8417999362201735,
      -0.05764351112810831,
      -32.00675661749202,
      0.5348967142755976,
      2.829953409753238,
      2.199809239524721,
      8.549750757936664,
      -4.4593608338376605,
      1.547500655249177,
      -1.1048412942045829,
      5.477345277378161,
      1.8680023169902136,
      -49.692397280571754,
      0.3579487491665512,
      10.712243236879976,
      0.10118835399942958,
      1.9685386636355655,
      -4.479418945702181,
      -0.8622616401873935,
      -0.1914317281519172,
      0.7092059844886199,
      2.1590481272163013,
      2.222887289905942,
      0.9036694141612883,
      9.029930991049289,
      -0.2954624019952102,
      0.2698209304536432,
      8.49564430436997,
      9.355493394385894,
      -2.0562396572497543,
      1.524425635664613,
      0.408393775377228,
      1.9392868340546405,
      1.2448141620479107,
      0.5377952708950472,
      -0.014413142748591396,
      -0.6263436360966729,
      6.7419024164033665,
      -1.5161623355095348,
      -0.0543580399061923,
      -1.3459139611336288,
      0.12561566680593678,
      22.44487669847155,
      -1.2124763109337113,
      -0.07394544108976879,
      4.405674295065662,
      -0.16801946500362527,
      4.1893790021837445,
      1.2362382615604501,
      -18.78149030445821,
      0.0685644455874374,
      1.550529068916973,
      4.574012772847851,
      2.946669060948925,
      0.43285473387800827,
      -0.0945748702504488,
      -0.14386253516263278,
      0.18460372535410915,
      4.756614261115375,
      0.2211450085217332,
      0.5505613038141537,
      -0.18979574226924273,
      9.043506403187115,
      0.3087951788978876,
      0.011541028184525985,
      -0.07660214477380994,
      -0.05184700432047528,
      9.986837190622607,
      0.674077169043583,
      0.022170453410153893,
      2.4897243588357623,
      -0.21610618175989324,
      0.048703238939813556,
      -3.549623015031495,
      -0.06419970448871301,
      -0.012456235984344886,
      -0.25295982797907224,
      0.7576660622667288,
      -1.514375140010141,
      0.12449369444139273,
      -28.46979683974424,
      0.08434663657511621,
      -0.0023713910996124585,
      0.4452887121533809,
      0.20587933225839092,
      -13.79845709255027,
      21.63527203218124,
      6.6618849900250625,
      -81.43074713917898,
      0.3560774759823739,
      2.5513022635654314,
      24.60194947018011,
      -10.692929769633492,
      20.87443902437285,
      19.03959861769726,
      10.201610127345944,
      12.500685221053185,
      -12.500685221048759,
      -29.471864982617117,
      -41.80580952398126,
      3.378274134045201,
      4.845520810727927,
      12.706259821299273,
      40.05163139005975,
      10.725194418535565,
      6.376288395414475,
      2.7975652281350967,
      -0.5457860336687258,
      0.5063505033590775,
      -19.253418944050836,
      5.733004814787107,
      15.788124904857556,
      -4.604869555942558,
      3.738326991046605,
      0.4935593322853735,
      -9.856228754127853,
      2.4026652177475376,
      0.5139338952946507,
      15.974958441115161,
      -20.493680504312596
    ],
    "intercept": 1261.4167890066758
  },
  "wide-insurance-offset-l2-gaussian": {
    "coef": [
      -0.17801456210717456,
      -0.0018269943758779782,
      0.00045114740221556245,
      0.00022767111329162238,
      -0.00018127562087808105,
      -0.00036701975485613566,
      -6.658815376455999e-07,
      5.061241943518225e-07,
      0.9999973880556566,
      -0.17801456210659009,
      0.0004405265023906589,
      6.253290693208696e-05,
      -0.0015317893320187942,
      -0.0004475825501365562,
      0.0010234753262640128,
      0.0004528371562373674,
      0.000468461081535832,
      -0.0009373111092220396,
      0.0010468513936350479,
      -0.0006127035082621955,
      -0.00011836511241687236,
      0.0003487099479463886,
      -0.0012279660026937307,
      0.0006264343731701514,
      0.0006457367086453231,
      0.0005188390032702651,
      -0.0013556421219934217,
      0.0005969553526136041,
      0.0018440320700578302,
      0.0003805876951006142,
      -0.003425764689603026,
      0.0016740759428063889,
      -0.00010871534433643612,
      -0.00017271394885807673,
      0.000834927646814232,
      -0.0020365887090810857,
      0.0008587681617351972,
      -0.001731914064468443,
      0.0003833735075266512,
      0.0005988890915193308,
      0.0004621947273844074,
      0.001934244410754725,
      -0.0010857155063135758,
      -0.0001581265078494091,
      -0.0002874267143813936,
      2.056494914850151e-05,
      -0.00030464345245106983,
      0.0006000338424302757,
      4.434841885793024e-05,
      -0.0007720741923552012,
      0.0002645662884665287,
      0.00012792636546183855,
      7.736780858429092e-05,
      -0.00024495826030070377,
      6.350242035901267e-05,
      3.2329490448708076e-05,
      1.8792727666272922e-05,
      6.683406799108849e-06,
      5.3744973133078736e-05,
      8.292529123113691e-06,
      1.0750440798954955e-05,
      9.053350116396869e-06,
      1.7716674280604883e-05,
      1.8744637777675182e-06,
      -0.0004683969337224812,
      -0.00047327609472629746,
      0.0009408448564133084,
      0.0002047298098928517,
      -0.0026097401074150874,
      -4.9379327866808284e-05,
      -0.0004163816154353134,
      0.0006525257603151148,
      0.001258625291624186,
      -0.00027416195584987845,
      -0.0004312564667474082,
      -0.00034148598657912524,
      -0.0005211698406269508,
      0.0010718217876375862,
      0.0008701571234515388,
      0.00147125489114236,
      0.00023741079318970803,
      -0.0012144694345000305,
      0.0017140376174516565,
      -0.0008305323379424724,
      0.0005104232706194008,
      -0.0009233288164529756,
      4.0385718593660976e-05,
      0.0001374809252161541,
      0.0012548629468046152,
      -0.0014528714860195615,
      -0.00018477017272082146,
      -0.0021140711772005215,
      0.0007870714013342631,
      0.0005288366022629673,
      0.0010390411029280978,
      0.0005871356503905954,
      0.000172147976583671,
      -4.584421586206424e-05,
      0.0007717468602574567,
      -6.307257339620231e-05,
      7.176392975300332e-05,
      0.001335532695356952,
      -0.0019835864278825352,
      -0.0007217011896949123,
      -0.00027484734003602244,
      0.00020104377092892544,
      -0.0009816615223564534,
      0.0003528554408371711,
      1.5866947748660663e-06,
      0.0006533592719285278,
      0.0009014855700165622,
      0.0003650501110649959,
      -0.0008149593826617236,
      -0.0015104118721984098,
      -0.0005647559148341372,
      0.0009213491349781014,
      -0.0001052376021344096,
      0.0010239216068215404,
      0.001103441507391768,
      -0.0007085910106967091,
      -7.669470999047874e-05,
      -0.001354650898033497,
      -0.00027496538700194146,
      -0.0013225130048961666,
      0.0005713266430305406,
      0.0006219838546201365,
      0.00029055125839651166,
      0.00043629004801521673,
      -0.00021717962462398918,
      0.00040807759967328495,
      -0.00010358445492829689,
      -0.00014052255994176854,
      2.3250964080577905e-05,
      1.4025110428001906e-05,
      4.4794454091550886e-05,
      0.00020013328429669704,
      6.433490581500926e-05,
      -0.0003069849987573547,
      2.0358208004195482e-05,
      0.00042558069121222504,
      0.0002671999167166834,
      -0.0005390871156052667,
      -0.0013429149927297222,
      -0.0006187719361135182,
      -0.00020075502012172395,
      5.6264739384033154e-05,
      -0.00016198831032825605,
      -0.0008103794954937289,
      -0.00031807404329323776,
      0.00037842864013100695,
      0.0004670659718833412,
      -0.001865727762004426,
      6.280083720298193e-05,
      -5.252338144109364e-05,
      -0.00026181922115540643,
      0.00028110409057366376,
      0.0002983929316161789,
      0.0012609960347674115,
      -0.0007683455247873897,
      -0.00014678698859940973,
      0.0008175931853846425,
      0.002939599441486049,
      -0.0008825142007289267,
      4.42526803168305e-05,
      -3.669430928156652e-06,
      0.0004990259063108769,
      -0.0016907463580104222,
      0.00043655241565658423,
      0.00020006709412365983,
      -0.00024087008797522196,
      2.2345477708533243e-05,
      0.00012016638956990832,
      -0.00015522024102068198,
      0.0002057004426854459,
      0.002410854960448354,
      -7.425808067976532e-05,
      3.649111636720689e-05,
      8.689929323546043e-05,
      0.00011939734210624192,
      0.002489476729386392,
      -9.803584117831703e-05,
      -0.00017321749312568152,
      -0.0008249158256032271,
      7.875395469804718e-05,
      0.0003123836016283089,
      -0.0013334103182322367,
      -0.00031636496219079034,
      3.583424746580106e-05,
      8.152650946060754e-05,
      -0.003127293758581494,
      -0.000418482130301173,
      -0.0004232039326448517,
      2.3975518726349953e-05,
      5.352241930326034e-05,
      -0.0003065829078882109,
      0.00163609211555872,
      7.532024735796484e-05,
      -0.00028095625929415083,
      4.453222460207209e-05,
      0.0012976627940250265,
      -0.0002889953311731704,
      6.807408552425592e-05,
      3.383855882861275e-05,
      3.5080134389366886e-05,
      0.000713209569250607,
      4.4982897842080465e-05,
      -0.0002956239536517826,
      0.0016427427985146186,
      7.37740712465718e-05,
      4.807593289247633e-05,
      -0.0004913438986724433,
      7.177715928094357e-05,
      4.360778593136247e-05,
      0.00020363492997591787,
      -0.0007824269221027011,
      -0.00047298203196401037,
      0.00040103693401649063,
      -0.001097961540654158,
      5.713905096867611e-05,
      6.154214402451345e-05,
      7.526650447256198e-05,
      -0.0002733932191214224,
      0.002372592238340072,
      0.002075725523579449,
      0.000394905195491936,
      -0.006330396306236311,
      -0.0024594184692910115,
      -0.00019563765198152126,
      0.0007032148766754605,
      0.0014612272898437706,
      0.0017646160543695214,
      0.00024094587521838746,
      -2.777462400285126e-05,
      -0.0011396486327701447,
      0.0011396486274055531,
      -0.0011911293275331247,
      -0.0007885198309358453,
      0.0014695006859409678,
      0.000602983457594552,
      0.0021501049145702298,
      0.0003892045087929193,
      -0.00013882411963699084,
      -0.0005526573121072901,
      0.0014650907579702595,
      -0.0014500437215556603,
      0.00017484435868368554,
      -2.87608672451558e-05,
      -0.0008458654060925911,
      0.0016708014633314752,
      -0.0005966931994838584,
      0.0007990383223266911,
      -0.00010190590612627065,
      -0.0004039094365194423,
      0.0005724798132091596,
      0.0006826485851793496,
      -0.00242087163853973,
      -0.001457516103352677
    ],
    "intercept": 0.37155041707092096
  },
  "narrow-insurance-weights-l2-poisson": {
    "coef": [
      -0.011076464513709446,
      0.010142895543900292,
      0.011203743418205887,
      -0.004793215664350352,
      0.012767275193565138,
      0.058684636433745205,
      -0.0392388152809767,
      -0.003107471709556144,
      0.0017830481871445563,
      -0.013405595620532064,
      -0.01206040891585237,
      0.022578301421528606,
      -0.004026820776870975,
      0.02083564185898358,
      -0.002314870493109613,
      0.0012717895936052146,
      0.03375978054912255,
      -0.004215375063840078,
      0.0021422023765210133,
      -0.016669768887959662,
      -0.015363020993794142,
      -0.009283129144240817,
      -0.00011434188668854234,
      0.004058421332295769,
      0.002248578510107954,
      0.04733071052772238,
      0.00868546901581425,
      0.0022061798991475905,
      -0.0028105199292609863,
      -0.0024181243639035182,
      -0.0016187095312394713,
      0.004195027479096202,
      0.0011680260132631798,
      -0.006540799199282232,
      -0.0010427614537812145,
      -0.0004765392849713647,
      -0.0032160670268034652,
      0.006251617452006078,
      -0.004311977721304174,
      -0.009306884205879159,
      -0.0022738537995001607,
      0.0019153107493509898,
      0.008099820527529352,
      -0.0020010876333391332,
      -0.0029473181804195703,
      0.018658103186246073,
      9.874830592844917e-05,
      0.02379254884712504
    ],
    "intercept": -3.8535085513931113
  },
  "narrow-insurance-no-weights-l2-poisson": {
    "coef": [
      0.052472633753616195,
      0.09340133807743699,
      0.12069744631838304,
      -0.07981210212680726,
      -0.04213260254501369,
      0.4135078883763567,
      -0.16356899377197348,
      0.0019986826657583524,
      0.012415027596495602,
      -0.02861773007434696,
      0.021383661247941783,
      0.1508712556097955,
      -0.03641991219546416,
      0.010177488671356013,
      -0.021783786029422728,
      -0.00315834458792332,
      0.25524307272365165,
      -0.019228413875864266,
      0.0011190986498984352,
      -0.032704968682872634,
      -0.08604898156750945,
      -0.01740690517926952,
      -0.039582160939937355,
      0.04146953063298398,
      0.2331511013269714,
      -0.0114442461088213,
      0.014869463313740875,
      0.003108085920041501,
      -0.009262901629035182,
      -0.01792064374796845,
      -0.003359474180428085,
      0.03830570906402713,
      0.006936537422574087,
      -0.018780712351181988,
      -0.006600406857541836,
      -0.0034588276501050486,
      0.02675207787573907,
      0.09098355640320925,
      -0.02202868149471203,
      -0.04699163087776848,
      0.08671352243017975,
      -0.0002552548134107844,
      0.07271837090160724,
      -0.016268718094962522,
      -0.003683205174973647,
      -0.0025683268266449713,
      -0.012256123414920212,
      0.006403908799309202
    ],
    "intercept": -2.355074505223326
  },
  "narrow-insurance-offset-l2-poisson": {
    "coef": [
      -0.011076609687947986,
      0.010142786179816388,
      0.011203853255500383,
      -0.004793176639176985,
      0.012767432725800706,
      0.05868477146319457,
      -0.03923946420299273,
      -0.0031074818283814785,
      0.001782954409291941,
      -0.013405877535841246,
      -0.01206070270404344,
      0.02257908756458759,
      -0.004026831740706989,
      0.02083586906984584,
      -0.0023148366193106538,
      0.0012718006317074737,
      0.03376036198909883,
      -0.00421537295279821,
      0.0021422001736395944,
      -0.016670194969150197,
      -0.015363054861282616,
      -0.009283154741384938,
      -0.00011436538181172322,
      0.004058447431229808,
      0.002248750925153676,
      0.04733619294346179,
      0.00868606369843062,
      0.002206177487394712,
      -0.0028105307890182066,
      -0.0024181242109353163,
      -0.0016187321630616442,
      0.004195010236041966,
      0.0011680216265145397,
      -0.0065408018326280366,
      -0.001042762309071402,
      -0.0004765414299781006,
      -0.0032161105505006254,
      0.00625157027234662,
      -0.004312045558082823,
      -0.00930690625580825,
      -0.002273851836005673,
      0.001915301298741993,
      0.008099866082137792,
      -0.0020010889664490565,
      -0.0029473411382357553,
      0.018658271461638978,
      9.874430501472039e-05,
      0.023796474029043866
    ],
    "intercept": -3.853481894220544
  },
  "wide-insurance-weights-l2-poisson": {
    "coef": [
      0.5036957072097931,
      -0.06764490969289301,
      0.019185771679934186,
      -0.03780243123203728,
      0.005253422537986457,
      0.01779594105669427,
      2.4403676713318286e-05,
      3.755791245192587e-05,
      3.755791245192505e-05,
      0.3442922241160773,
      -0.004356400177439636,
      -0.012636293836286543,
      -0.0004673200436573032,
      0.006239438406881719,
      0.015092884673762614,
      -0.0038723090232608173,
      -0.008084579587571028,
      -0.0065546358811805795,
      0.013750511958412145,
      0.0031019596132464905,
      -0.0068345474597812685,
      0.004251461054481611,
      0.0010215736159115431,
      0.0006253207535154342,
      0.0017139974195504032,
      -0.0013534376718932163,
      -0.0009905240534333847,
      -0.000647099761258151,
      0.049056473780971846,
      -0.027483740664380328,
      -0.020161278846088027,
      -0.0031168108820185596,
      -0.0008569419031546093,
      -0.0038950624692085413,
      -0.0017309825516806589,
      0.0009448208903271214,
      0.0026573214461520158,
      -0.006609507823782944,
      0.010034321986172304,
      -0.0008833319768338475,
      0.007348270356620598,
      -0.004579141511051676,
      0.0018990209036081013,
      -0.0008860730379302627,
      -0.00030343050654016483,
      -0.0018850482460808736,
      0.0023950731688855533,
      -8.998096724530817e-05,
      -0.0014576934551140768,
      -0.0011139879609976303,
      -0.00028559664016601665,
      0.0003162337240343235,
      -0.00021892752326253218,
      -5.1915214492627e-05,
      -0.00014253432215462677,
      0.0008039744414684825,
      -7.81169994656039e-05,
      -2.7543020121384583e-05,
      0.0008020349710281177,
      -0.00010597774194785475,
      -4.9679155831661414e-05,
      -5.9295202811349116e-05,
      -5.3479819050414474e-05,
      -3.3388981868570837e-05,
      -2.1686198682958038e-05,
      -5.1192443461572084e-05,
      -1.2073334564825459e-05,
      -8.643543189452604e-06,
      -4.437464998065616e-06,
      -4.5261091453110174e-08,
      0.000551138021763654,
      -0.0004810125385996465,
      -0.01124827666395293,
      -0.0006087517270621148,
      -1.8529237298648757e-05,
      0.0018006748455478344,
      0.0059441417273231045,
      0.0008707386201970485,
      -0.0027397693482131584,
      0.0018278592821501874,
      -0.002743158920607453,
      0.004102923719195733,
      -0.0036343668661949526,
      0.0008573698431540759,
      0.0019802336547816474,
      0.0013027010497655028,
      -0.003295101128131648,
      -0.0028287729266015162,
      0.0024918889663515316,
      -0.0040001788239256006,
      -0.003346599446403057,
      -4.070765664650524e-05,
      0.00046525277236963134,
      -0.004489550274542588,
      0.006562083656163754,
      0.0028533846557700945,
      -0.0025151509064537014,
      -0.004755094232843432,
      0.004949404646644666,
      -0.00277255665108894,
      0.0028067430742277156,
      0.0012636777691958376,
      0.006014524532425206,
      0.001222037844303441,
      0.003312993322892817,
      0.00772995045295299,
      0.0022579628726215896,
      0.00521618491111854,
      0.0018686723356361916,
      -0.003003558977366363,
      0.0004889535984463372,
      -0.0001168982607636818,
      -0.0008897685627923301,
      -0.0009245645766875063,
      -0.0030272932466076496,
      0.0006407734515268832,
      0.0006229328691748881,
      0.0007501598928146594,
      -0.0005776858296614599,
      -0.0025365923183469402,
      0.0004102963031093015,
      0.00011982855276772389,
      -0.0016765134569401556,
      -0.0010653685238478702,
      -0.0020782496227482955,
      -0.0023083880802073405,
      -0.0025817930204857123,
      0.0006495965195204047,
      -0.0002370981957039377,
      -0.000934820788718936,
      0.0011610014834195848,
      -0.0010935436266197966,
      0.0005592112751894443,
      -0.0013452153263794917,
      -0.0010406658846228846,
      7.338322415253674e-05,
      -0.000422240116398172,
      0.0006990690324464287,
      -0.00027161085660495075,
      0.0021539515978707033,
      -0.00010929695058141803,
      -0.0002815534467417922,
      -5.916778743322828e-05,
      -0.00013533573127554347,
      -0.00014165014047597707,
      -8.251708739052758e-05,
      -4.918386771890459e-05,
      -7.354874530492198e-05,
      -0.01579560603933553,
      -0.003207938155403256,
      8.069818728253321e-05,
      0.000880901182843236,
      0.0005242186797665233,
      -0.001194474528604878,
      0.0030285720584458152,
      0.0006949690326253479,
      0.004069894053240819,
      0.0004364226076114013,
      0.0030218176705477566,
      0.00012599506360187686,
      0.009558966778138922,
      0.0013666147339880187,
      -0.0027257602987431767,
      0.0005624218659315544,
      -0.0009587114796474097,
      0.0005647954310278049,
      -0.003301041848493216,
      0.004138444002693011,
      -0.000993014692500364,
      -0.0006601085754083405,
      -0.0008399642418167293,
      -0.0008075532225847034,
      -8.73774424686623e-05,
      0.002619040225471334,
      0.0013269244803160306,
      -0.0003851404237473113,
      0.0015491048064690208,
      -2.4358358670127892e-05,
      0.0038864098965271285,
      -0.0002475844945091923,
      -0.0003195358338271287,
      0.0010792673309685116,
      -2.9090773519293534e-05,
      -0.0032437296266600046,
      -0.00036039119438233163,
      -0.0003428576591160062,
      -2.6447250571475755e-05,
      6.16936521119557e-06,
      -0.00015249916052286752,
      0.0004399383233761168,
      -0.00016580531546502426,
      -0.0038889301813647232,
      0.0011204386922885206,
      -0.00012465162344197546,
      -3.532003211554082e-05,
      -0.002116843843898148,
      0.0007578207367739982,
      -0.00010562201591565921,
      -0.0008159367312745507,
      -0.00012330179192570584,
      0.0018413324560686312,
      -6.579435279840197e-05,
      0.0021802601556753344,
      -0.0006042167307417777,
      -0.0006601303741493832,
      -0.0006080510280885151,
      -0.0006899382824064875,
      -2.3195467245507236e-05,
      -0.00013051474552706573,
      0.003543179092333747,
      -0.0016937842817805692,
      0.0016893767374411672,
      0.01637388166305334,
      -0.0032912944213228665,
      0.002298433148771195,
      -0.008487551097468144,
      -0.011353206860634613,
      -0.0071688556486376245,
      0.002888864438451111,
      0.0052009572297932564,
      -0.005800685630558871,
      0.005800685630558871,
      0.0013188727165791667,
      0.002133833372993169,
      -0.0021479967576761142,
      -0.0021552861688432026,
      -0.014518739027321446,
      -0.0012145878221006673,
      0.0031603717287244444,
      0.0022302827637419053,
      -0.004973995710014904,
      -0.0007510130556994893,
      -0.00037695054148495987,
      -0.0005916607337843328,
      0.006673044292735317,
      -0.0022211531566107,
      -0.007471781677274934,
      -0.0021365076473213785,
      0.001593135742736994,
      0.009981012387816828,
      -0.002141507410297519,
      -0.0015699214878096357,
      0.015092341239349617,
      8.820695156181956e-05
    ],
    "intercept": -3.5308674182226722
  },
  "wide-insurance-no-weights-l2-poisson": {
    "coef": [
      1.5165653414605276,
      -0.49771589627870255,
      -0.036593037116059046,
      -0.060247147547566576,
      0.0036859092043240336,
      0.003971245188895665,
      4.472774891970513e-06,
      1.857511043324048e-05,
      1.8575110433237297e-05,
      0.32081705606856803,
      -0.032059240780569015,
      0.05849171743841927,
      0.09292213148743379,
      -0.05187056358482726,
      -0.08074308866013398,
      0.013259044099677058,
      -0.11900867433150424,
      0.029824702708708302,
      0.08321148720621802,
      0.12060888613350876,
      -0.07194017976969316,
      3.109881188595987e-06,
      -0.018666111243206253,
      -0.02932444018555399,
      0.020314432151894997,
      -0.004972568276270108,
      -0.00314029009268902,
      -0.006910354182602169,
      0.26622041655541934,
      -0.13769398632462018,
      -0.06728168009126229,
      -0.001884603476560132,
      -0.06687910732284613,
      -0.03165197143968735,
      -0.039259134650624396,
      -0.025853309631817943,
      0.0013701324939843652,
      -0.025557120957519146,
      0.12550947812988744,
      -0.019727956718666565,
      0.028674705574389954,
      -0.015670781515613564,
      0.0020820699246175277,
      0.017911300485526582,
      0.00574375538903552,
      -0.006734284355679172,
      -0.00031432213774878733,
      -0.004849281169153549,
      -0.0027343769266614895,
      -0.002301895853391167,
      -0.0005254815364499254,
      2.1016412444362578e-05,
      -0.00042490372114325657,
      -0.00031695353598600203,
      -0.00015700074394496598,
      0.002330780473306745,
      -0.0001360215966864248,
      -8.76664148745937e-05,
      0.0008105352185481529,
      -0.0002361111268238692,
      -0.00010251109164126052,
      -4.010145118806433e-05,
      -5.179328391522653e-05,
      -6.760962931864126e-05,
      -2.1650823402872484e-05,
      -7.26298731505911e-05,
      -2.422962434558345e-05,
      -1.0714818817163254e-05,
      -4.287317365108392e-06,
      -7.11496254653601e-07,
      0.0002006852561293535,
      0.003969053891257011,
      -0.0018336452257681293,
      0.0046859656591292645,
      0.01687380799340005,
      0.0007133448366419649,
      0.003968774604312075,
      -0.011768981555321165,
      -0.006553105391775595,
      -0.012243375206110059,
      0.037321866810626804,
      -0.005012981277889449,
      -0.022828698979042397,
      -0.006857757121530571,
      0.027119556993846473,
      0.11909026517241206,
      -0.02571591582374805,
      -0.019720498223559705,
      -0.0010749027919627569,
      -0.002064710115780916,
      -0.02318141048474514,
      -0.007495535488781071,
      -0.020665756338057277,
      -0.04280147826803978,
      0.028266256533064183,
      -0.004801347552087341,
      -0.02017627993199904,
      -0.029173329355569266,
      -0.016516883398541158,
      -0.021975525130658487,
      -0.006991336062246626,
      -0.009819430634281874,
      -0.022081276686148135,
      -0.004038841371025356,
      0.06536677837774675,
      0.030692273359697517,
      0.006779033211263583,
      -0.023225285659240667,
      0.00743363119420901,
      -0.014763334419273225,
      0.0007532731830162954,
      -0.0015660463084579293,
      -0.014347890968402678,
      -0.01833364244479551,
      -0.015406301192720446,
      -0.015165843655877911,
      0.016066164245402092,
      0.008466812440554082,
      -0.018141055135503365,
      -0.012917098910723412,
      0.06857489433251604,
      0.009708796484439324,
      0.08293177430183689,
      -0.011311539260202253,
      -0.012521453174464367,
      -0.00966547154220697,
      -0.010333510256562425,
      0.0026137044844021452,
      0.00257659533208687,
      -0.004501742750696364,
      -0.0010168162953607992,
      -0.0039352856723547614,
      -0.0056431938361818194,
      -0.0036621636890171584,
      -0.0022049361012121097,
      -0.0023356562430265774,
      -0.0008972446997146315,
      -7.319005652774344e-06,
      -0.0004647272690782743,
      0.005732758895952578,
      -0.00025003485480966625,
      -0.0008579619319603773,
      -7.867673255296389e-05,
      -0.00019293924980213548,
      -0.00020374646252050942,
      -0.00013498909404495744,
      -0.00030133325138796707,
      -0.00012582511146838897,
      0.009951119254964317,
      -0.023918288138097314,
      -0.01042708530387504,
      -0.0023228025809459377,
      -0.011626285541850374,
      -0.01455170645982554,
      -0.0027200110042216352,
      -0.018912701930093555,
      -0.0012514967720190253,
      -0.006186774640452039,
      0.10819865983157165,
      -0.00047151680573116853,
      -0.004179887833534715,
      0.007755291403970424,
      -0.033628552972075614,
      -0.0024801665553453264,
      -0.0026486372738863963,
      -0.0012287495333760973,
      -0.010173680893245414,
      0.003340903048917905,
      -0.0026826979941319447,
      -0.0047603101670882116,
      0.04276498165632418,
      -0.0019983559727881233,
      -0.0010801626506775608,
      0.0007964483676766046,
      0.010105010422141741,
      -0.003009424901473336,
      -0.0008882121970603984,
      -0.00015505616000905883,
      0.025009887074376846,
      -0.0014236232524517697,
      -0.0008849805207460841,
      -0.0016036385125041816,
      -0.00043992800474493743,
      -0.010997922219491071,
      -0.0009460121454481852,
      -0.0014656478277159939,
      -0.0004951031233457636,
      -0.014383624827245332,
      -0.00044703724084366013,
      0.000335482478775179,
      -0.00033479250893394267,
      -0.006845428767769515,
      -0.008076489249280328,
      -0.0007224805331314904,
      -0.00031386672431934023,
      -0.008403971188220095,
      0.0008188739568613002,
      -7.616663755876779e-05,
      -0.003870413874782127,
      -0.00015164199149017094,
      0.00541673833836689,
      -0.00016037406530645994,
      0.009746005540117507,
      0.0007451590196439503,
      -0.00024081615795365822,
      -0.0001688176843174266,
      -0.0005993392779605895,
      -0.0004449865201153202,
      -0.00018489325622858237,
      -0.0466877850113399,
      -0.02011736360308494,
      -0.0018597961794617564,
      0.1424210273336829,
      -0.011169075810643608,
      0.0016945163679153252,
      0.008433574197132043,
      -0.06545869474431713,
      -0.005413352064246106,
      -0.036548516849883916,
      0.03470546636424711,
      -0.19332050343861923,
      0.1933205034386196,
      -0.014013934013728524,
      0.0036032269994444545,
      -0.006310979034046329,
      -0.01591859853895145,
      -0.08902547663148055,
      -0.00024911603327420616,
      0.024516584517810015,
      -0.002995809148202196,
      -0.014211531034487902,
      -0.00585655923352586,
      -0.0027611053509053476,
      0.02242230645448836,
      0.07142853466913822,
      -0.013644207065115028,
      -0.038647205731703306,
      0.08735955703253515,
      -0.006018803397012574,
      0.07537819196843869,
      -0.013046006090652276,
      -0.007327621111468577,
      -0.04481908867884656,
      -0.009862360548454272
    ],
    "intercept": -1.4816528082637823
  },
  "wide-insurance-offset-l2-poisson": {
    "coef": [
      0.5036957095891401,
      -0.0676449092822541,
      0.0191857752045961,
      -0.03780243468739706,
      0.005253423747362665,
      0.01779594307422656,
      2.4403684825793096e-05,
      3.755791317716214e-05,
      3.755791317720391e-05,
      0.3442922263633225,
      -0.004356399799897211,
      -0.01263629362949721,
      -0.0004673192553411059,
      0.006239438133510816,
      0.015092883279529661,
      -0.0038723087283049273,
      -0.008084579717627173,
      -0.006554636011638971,
      0.013750511721952878,
      0.003101959428163356,
      -0.00683454738083806,
      0.004251461067394995,
      0.0010215739401827724,
      0.000625320867992079,
      0.0017139974521776936,
      -0.0013534376705416774,
      -0.0009905240440258242,
      -0.0006470996531920813,
      0.04905647403750447,
      -0.02748374039148237,
      -0.020161278602928153,
      -0.0031168109404105565,
      -0.000856941886158223,
      -0.0038950625244233853,
      -0.0017309827059062458,
      0.0009448207683090308,
      0.0026573214120088847,
      -0.006609507919808883,
      0.010034321815548497,
      -0.0008833320640565241,
      0.007348270297871397,
      -0.004579141593387037,
      0.0018990208618165194,
      -0.0008860730704201745,
      -0.0003034304741052274,
      -0.0018850482490234172,
      0.002395073200090289,
      -8.998093643637322e-05,
      -0.0014576934319640432,
      -0.0011139879340739897,
      -0.0002855966343547955,
      0.0003162337202667058,
      -0.00021892751606258012,
      -5.1915212005683076e-05,
      -0.00014253432116531614,
      0.0008039744525243383,
      -7.811699430130719e-05,
      -2.754301871071043e-05,
      0.0008020349682926949,
      -0.00010597774030820251,
      -4.9679151378251714e-05,
      -5.929519657342663e-05,
      -5.3479811033953864e-05,
      -3.338898318039722e-05,
      -2.168619439667744e-05,
      -5.119243655412956e-05,
      -1.2073332685943919e-05,
      -8.643541463378215e-06,
      -4.437464436293423e-06,
      -4.526103711247383e-08,
      0.0005511380117785257,
      -0.00048101257133659594,
      -0.011248276764995107,
      -0.0006087517901713,
      -1.852929470870904e-05,
      0.0018006747563147998,
      0.00594414166938974,
      0.0008707385649631223,
      -0.002739769448956478,
      0.0018278592258363729,
      -0.0027431589974746696,
      0.004102923704525034,
      -0.0036343669064945214,
      0.0008573698111268498,
      0.001980233625715249,
      0.0013027011356637813,
      -0.003295101119296911,
      -0.002828772707653897,
      0.0024918889737179243,
      -0.004000178680257119,
      -0.003346599429188975,
      -4.0707314579055556e-05,
      0.00046525278568913667,
      -0.004489550189244912,
      0.006562083708582996,
      0.002853384684327067,
      -0.0025151508716616164,
      -0.0047550942297819995,
      0.00494940465684493,
      -0.0027725566339091992,
      0.0028067430643112326,
      0.0012636777937916704,
      0.006014524562594841,
      0.0012220378775508343,
      0.0033129933072427566,
      0.007729950466250972,
      0.002257962852216107,
      0.005216184915121081,
      0.0018686723066626697,
      -0.0030035589515489593,
      0.0004889536587506094,
      -0.00011689824879422678,
      -0.000889768583993333,
      -0.0009245646007564378,
      -0.0030272932569608453,
      0.0006407734376956038,
      0.0006229328508030507,
      0.0007501598391253805,
      -0.0005776858474157282,
      -0.002536592363959698,
      0.00041029628127857713,
      0.00011982851953981966,
      -0.001676513489033566,
      -0.001065368516783368,
      -0.0020782496625454104,
      -0.002308388098109248,
      -0.002581793010674107,
      0.0006495965752229246,
      -0.0002370982113578048,
      -0.0009348208084443188,
      0.0011610015105396267,
      -0.0010935436404054244,
      0.0005592112690877536,
      -0.0013452153420388346,
      -0.0010406659016691077,
      7.33832162860174e-05,
      -0.00042224012402871373,
      0.000699069029801808,
      -0.00027161086143826787,
      0.002153951593274733,
      -0.00010929695246419063,
      -0.00028155345164901905,
      -5.916778790303224e-05,
      -0.00013533573353590524,
      -0.00014165014249845688,
      -8.251708884076239e-05,
      -4.9183868173746896e-05,
      -7.354874689004086e-05,
      -0.015795605437033636,
      -0.0032079380976734856,
      8.069819345724212e-05,
      0.0008809011871225636,
      0.0005242187228575114,
      -0.0011944745053434475,
      0.0030285720686267894,
      0.0006949690534325051,
      0.00406989404991896,
      0.0004364226064680538,
      0.0030218177427967017,
      0.00012599506088149817,
      0.009558966758320905,
      0.0013666147245689458,
      -0.0027257603666644243,
      0.0005624218621118707,
      -0.0009587114900039391,
      0.0005647954139815223,
      -0.0033010419554942894,
      0.004138443999574121,
      -0.0009930147044339465,
      -0.0006601085900610036,
      -0.000839964395824251,
      -0.0008075532304037645,
      -8.737744295630418e-05,
      0.002619040218695738,
      0.0013269243393810913,
      -0.0003851404276903394,
      0.0015491047984974033,
      -2.435835891059755e-05,
      0.0038864096935178082,
      -0.0002475845020472394,
      -0.00031953583873578115,
      0.0010792673280512928,
      -2.909077420939071e-05,
      -0.00324372983361735,
      -0.0003603911973482178,
      -0.00034285766628072017,
      -2.6447250903441804e-05,
      6.169235457039741e-06,
      -0.00015249916252338253,
      0.0004399383096932331,
      -0.00016580531971559622,
      -0.003888930425709003,
      0.0011204387610544255,
      -0.00012465162400004083,
      -3.532003263808423e-05,
      -0.00211684396617189,
      0.0007578207334195092,
      -0.00010562202053822254,
      -0.0008159366879827248,
      -0.0001233017963335998,
      0.0018413325241150654,
      -6.579435314389302e-05,
      0.00218026042755807,
      -0.0006042166337861837,
      -0.0006601303218943397,
      -0.0006080509197886964,
      -0.0006899382687662745,
      -2.3195466229814386e-05,
      -0.00013051474870251703,
      0.0035431790263361846,
      -0.001693784220546325,
      0.0016893767042502916,
      0.016373882367357106,
      -0.0032912944741125814,
      0.0022984331479540755,
      -0.00848755150725857,
      -0.011353207032906583,
      -0.0071688557276349835,
      0.0028888644772499866,
      0.005200957239311399,
      -0.005800684990911126,
      0.005800684990911121,
      0.0013188726561344241,
      0.002133833368453658,
      -0.0021479967739450934,
      -0.0021552861840127766,
      -0.014518738889240683,
      -0.0012145877932691986,
      0.0031603717907216318,
      0.0022302827136263894,
      -0.0049739957363038175,
      -0.0007510130667464317,
      -0.000376950545030017,
      -0.0005916606712989106,
      0.006673044452192397,
      -0.002221153154339263,
      -0.00747178177009105,
      -0.0021365076873038186,
      0.0015931357624136004,
      0.009981012103679824,
      -0.0021415074216527795,
      -0.0015699215021943889,
      0.01509234141065037,
      8.820693755596505e-05
    ],
    "intercept": -3.5308675746090934
  },
  "narrow-insurance-weights-l2-gamma": {
    "coef": [
      -0.07660704997477276,
      0.04019915748481407,
      0.13596175170606092,
      -0.030767744329861124,
      0.032285906474783875,
      -0.0011072744089239462,
      -0.05090870759549939,
      0.042956386673598676,
      -0.018132863677128328,
      -0.05673917171108897,
      -0.02235769322853304,
      0.0438144608597683,
      0.12912673662130555,
      0.002764674476993783,
      0.0868974290888423,
      0.01889721807550185,
      0.07872096910043085,
      -0.04045535213143756,
      -0.010742020329955776,
      -0.07411238750242652,
      -0.032056500264613604,
      0.005606152878861639,
      -0.005255112216150281,
      -0.03547015929089676,
      0.01955093855597505,
      -0.006834760121463895,
      -0.06833459631378379,
      0.03495604531955628,
      -0.014347244429517837,
      -0.015966512771539657,
      0.12437847082745046,
      0.010803894002619316,
      -0.01385653461460392,
      -0.03495828794338305,
      -0.016453975061102504,
      -0.001952744479447867,
      -0.09284833735978991,
      -0.08272885285358454,
      -0.015313537738116645,
      0.04683638269867245,
      -0.0037229081066241154,
      -0.025301350320502812,
      -0.04608450537241711,
      -0.007233596972710088,
      0.10496058406719999,
      0.07696852844525916,
      0.009657854302355044,
      -0.01272780380606314
    ],
    "intercept": 7.384112096151578
  },
  "narrow-insurance-no-weights-l2-gamma": {
    "coef": [
      -0.06618339171168476,
      0.038075160910951304,
      0.1257750032743578,
      -0.027420787941435976,
      0.04549664615537172,
      -0.0010727743252938401,
      -0.05834538970915892,
      0.03854927250535907,
      -0.02186367195550234,
      -0.053615647218820464,
      -0.02296135089792563,
      0.03126650712574392,
      0.12441986860266957,
      0.0031678068334848597,
      0.0885176130166599,
      0.024787145269774376,
      0.04361423227263774,
      -0.033687126552929,
      -0.008143447658405448,
      -0.055933862241853066,
      -0.034165528678161035,
      0.014307393202213522,
      0.005295000876959872,
      -0.026742048868607062,
      0.0027176934912499446,
      -0.008936763814928361,
      -0.08113377435173015,
      0.015769351140205383,
      -0.013054045604372157,
      -0.013143875728113059,
      0.13276534184578287,
      0.014809612256430795,
      -0.01002055044765474,
      -0.03239182183311172,
      -0.013950530495534644,
      -0.0017391635005425655,
      -0.09657329703450346,
      -0.07163920702056853,
      -0.008015995394953157,
      0.040829263852638076,
      -0.0035194100443313382,
      -0.023095182803969595,
      -0.04785070424110141,
      -0.0061879903513589645,
      0.09693526907016435,
      0.08117442688600297,
      0.0015110261244952287,
      -0.005922714271041031
    ],
    "intercept": 7.346459656095154
  },
  "narrow-insurance-offset-l2-gamma": {
    "coef": [
      -0.06618353594968229,
      0.03807562930322197,
      0.12577585438955466,
      -0.0274209423931929,
      0.04549695675290577,
      -0.0010729780079352814,
      -0.05834513310680114,
      0.038549283903635635,
      -0.02186375378615967,
      -0.053615571837522864,
      -0.022961629046573943,
      0.03126682620360421,
      0.12442074428451926,
      0.0031677837147904794,
      0.08851882976690578,
      0.02478691455166729,
      0.04361474917684173,
      -0.03368729600110175,
      -0.008143451566104968,
      -0.05593433318522008,
      -0.03416555741749413,
      0.014308429779900749,
      0.0052947348021874065,
      -0.026742474296196427,
      0.0027179640688445466,
      -0.008936948591093749,
      -0.08113417509245145,
      0.0157695368891651,
      -0.013054244280903307,
      -0.01314397990703098,
      0.1327685738785091,
      0.01480917534038717,
      -0.010020698293420604,
      -0.03239211612100282,
      -0.013950567623001215,
      -0.001739169281979741,
      -0.09657349498296056,
      -0.07163958571295359,
      -0.008016039355982482,
      0.040828841787882986,
      -0.003519475064436659,
      -0.023095345781323884,
      -0.047851099124436594,
      -0.006188050405993756,
      0.09693595192360138,
      0.08117424106206152,
      0.0015110112970441595,
      -0.005922710769955558
    ],
    "intercept": 7.346462449645248
  },
  "narrow-insurance-weights-l2-tweedie-p=1.5": {
    "coef": [
      0.1520367722452065,
      0.1031378212124462,
      0.37526927987779135,
      0.37577614128920733,
      0.4944530312657225,
      0.23928689460256614,
      -0.15824058182004308,
      0.7522905364666592,
      -0.351339876488533,
      -0.9421967321053492,
      -0.08274471902485697,
      0.06099833086274411,
      -0.18614313542032615,
      0.03647361363429195,
      -0.4916248210872577,
      -0.2778607766475192,
      0.05059718944885719,
      -0.4442539362230511,
      0.22957202113390687,
      -0.05047653651554994,
      -0.4753429948815178,
      -0.4071137830479913,
      -0.3126346476903315,
      -0.19911890402000657,
      -0.2591781923335443,
      0.01449610310297348,
      -0.029583148249489107,
      0.07211957621472649,
      -0.2470427672576385,
      -0.16348378809149278,
      0.24269909008223634,
      0.11746556712251052,
      0.043631039380685,
      -0.11410338500709297,
      -0.11821507876860383,
      -0.040639738379344044,
      -0.23590633764663613,
      0.3796087456371136,
      -0.3222859812820553,
      -0.05001829440104813,
      -0.19790209750424678,
      0.004520397906015826,
      0.26040967817362054,
      -0.18817637607154494,
      -0.043893207651244825,
      0.5642578576449641,
      -0.073094896572139,
      0.15974130243160845
    ],
    "intercept": 1.998251567794859
  },
  "narrow-insurance-no-weights-l2-tweedie-p=1.5": {
    "coef": [
      0.7195806803873667,
      0.4921964657305763,
      0.8086818703560748,
      0.49476034257200796,
      0.6723473604318625,
      -0.3784496910637334,
      0.1386300955476886,
      0.808750350164003,
      -0.4836088602975267,
      -1.1929397585942358,
      -0.27321927293114745,
      0.13592979706552274,
      -0.3162609395098436,
      0.033033288020553775,
      -0.5341798900059083,
      -0.35319585257427144,
      0.011780527110518173,
      -0.5744697968359642,
      0.23434333708952673,
      0.03521853191321882,
      -0.6340242948178255,
      -0.049916495566820304,
      -0.4497512229224602,
      0.13860193443674865,
      -0.3679795440345146,
      0.06280192923412786,
      0.16098704746116524,
      -0.03840076781734748,
      0.1753700329145638,
      -0.5306587887968005,
      0.4713176731886053,
      -0.21632020463792356,
      0.18123647387362193,
      0.24645063303983078,
      -0.24445037355462942,
      -0.11412644961623038,
      0.24351211103910092,
      0.6828767005300271,
      -0.198610506913347,
      0.15484478751408737,
      0.009143728937144482,
      0.0841274523353326,
      0.7403502973657466,
      -0.5065220764890718,
      -0.503624065640896,
      0.594814669791853,
      -0.16634136141007508,
      0.09095634646817652
    ],
    "intercept": 1.841851177320763
  },
  "narrow-insurance-offset-l2-tweedie-p=1.5": {
    "coef": [
      0.38230645402597074,
      0.24101611564677947,
      0.5181059162789128,
      0.4329837303431351,
      0.5307400150092677,
      0.033737680006761805,
      -0.03885980229253299,
      0.8282717801957417,
      -0.40912988545597656,
      -1.065403992109984,
      -0.19005968806959303,
      0.051888947279583646,
      -0.27341498944793036,
      0.03493655282939115,
      -0.5162255243762086,
      -0.28912863164606806,
      0.01812578376600362,
      -0.5064389581285008,
      0.23953308810390084,
      -0.034079908950885834,
      -0.5556462763878078,
      -0.32006957158595095,
      -0.392536099895665,
      -0.09218466525524163,
      -0.32636728619405914,
      0.04541427451328907,
      0.022756005328941346,
      0.034938021354529954,
      -0.13604415864935435,
      -0.2783229121747262,
      0.34693557872398295,
      -0.0007455053994119315,
      0.10105215244902525,
      -0.012008370042878453,
      -0.16205646026233908,
      -0.06288357474633757,
      -0.0391733401796066,
      0.5160506466072905,
      -0.30628488601197607,
      0.029976363802530843,
      -0.15990757823141175,
      0.028585574657324853,
      0.4154331943175579,
      -0.3086601838082548,
      -0.23751325413288296,
      0.5483313643205681,
      -0.11105077270789691,
      0.11919134282298767
    ],
    "intercept": 2.0278022248554257
  },
  "wide-insurance-offset-l2-tweedie-p=1.5": {
    "coef": [
      2.456350902780177,
      -1.201674420373612,
      0.030095242657523856,
      0.010216209731230434,
      0.0022126776924937578,
      -0.00290210879716403,
      2.6959515447466014e-05,
      7.452167864965489e-05,
      7.45216786496555e-05,
      3.017255479697805,
      -0.14096903179975845,
      -0.10133174567738452,
      -0.07574749299115727,
      0.47692452935114726,
      -0.19827805769031928,
      0.039401798807468864,
      -0.0006143289117967494,
      0.12106445116932661,
      0.10804001624520516,
      0.01720428803041723,
      -0.30994562714102847,
      0.016976445155509126,
      -0.2856909458628603,
      0.11802402244375486,
      0.2687247431832189,
      -0.057519110867636065,
      -0.010993235992179938,
      0.014729282548069007,
      -0.1334244825193697,
      -0.16151070105669477,
      -0.3074027079084002,
      0.46616913109574526,
      -0.015431351460117659,
      -0.11369842127895778,
      0.308149592466535,
      -0.14899559367234014,
      0.22803451444673245,
      0.06413778988131219,
      0.0027849499385604803,
      -0.27704624926196036,
      0.34665095578651817,
      0.0068655108211084425,
      -0.08995689533307742,
      0.0908592683959461,
      -0.31869692542063893,
      0.020625260627545897,
      0.10417962115027542,
      -0.016088180663280254,
      -0.0434373586121097,
      -0.038338433531780514,
      -0.011300997604353808,
      0.04671329568269642,
      -0.008610888770076272,
      -0.003931227099778723,
      -0.003942207340241691,
      0.029668995378579668,
      -0.0039699135827439055,
      -0.002347616761183266,
      0.009429112942814595,
      -0.005801645540497894,
      -0.002677269210108144,
      -0.0021405727882126404,
      -0.0028258797356469074,
      -0.003058487478941731,
      -0.0010881318611606625,
      -0.004017344771397736,
      -0.0012990524743170567,
      -0.0013156718168326677,
      -0.0015260643375033533,
      -0.0003877267226471183,
      0.08505306460210413,
      0.03009946110225904,
      -0.2921972002852068,
      -0.011509921403075173,
      -0.03488286572389251,
      -0.01376228281125517,
      -0.20779682490514575,
      -0.05093587016533487,
      0.0653243390451913,
      -0.1876802375104755,
      -0.02050266643541923,
      -0.33706812857387475,
      -0.06500261976718619,
      -0.06936208801363357,
      0.26041370238498834,
      -0.2525374966656123,
      0.06370405702128924,
      0.023159074029102833,
      0.05281487530698631,
      0.13157162273530199,
      0.010608299048445265,
      0.011747151753984239,
      0.49031422826564425,
      -0.3335004290746977,
      0.2975647878762176,
      0.30780821667449537,
      -0.251503553637524,
      0.03747920124269182,
      0.21449830474739512,
      -0.024567136557252556,
      0.030432959257034105,
      0.12290480889053065,
      0.287118501877792,
      -0.30273142811003634,
      0.21881985598339931,
      0.02713395934665217,
      0.20796862256793208,
      -0.13247045879012465,
      0.009569926338311469,
      0.12270445108283909,
      0.08980073713731726,
      -0.23685589539081248,
      0.203070807744084,
      0.03743282920885185,
      0.03248783985603293,
      -0.26038144677813574,
      0.18534492467222194,
      -0.02292551033852694,
      0.08408894240174553,
      -0.09257057806916673,
      0.06570610726375821,
      0.02973068584829076,
      -0.08036140078561456,
      0.006783071883960053,
      -0.014490293680545182,
      -0.026270908752673395,
      0.14131019555460755,
      0.05784636335665523,
      0.016922559753291818,
      0.023636007893793182,
      -0.43651671719385204,
      0.012418897363820033,
      -0.2453695056593945,
      -0.022693444406859588,
      -0.017166107488855997,
      0.007265311406677812,
      -0.006423895909721542,
      -0.0070805789863385106,
      -0.005054055930987769,
      -0.02425403662877392,
      -0.002598013759868232,
      -0.005857614105508132,
      -0.0011597237130045953,
      -0.0012809973116458067,
      -0.0019545496541915584,
      -0.0011662353881327406,
      -0.000816331510873774,
      -0.0013997026524632072,
      -0.2475478399277675,
      -0.07169819049110043,
      0.1341209694708082,
      0.016489218598406904,
      -0.01586809107053003,
      -0.25721034960123046,
      -0.12299764204594073,
      0.022174807501726713,
      0.22305713665676863,
      0.026517619803233125,
      -0.18417921109578123,
      0.045457866162235426,
      0.13604607547716613,
      -0.011182742995005183,
      0.03679876446986732,
      0.08190831021637376,
      -0.017182170205140006,
      0.050993608905537544,
      -0.01647274006209579,
      0.18656805063827162,
      -0.014573544188230054,
      -0.013145268241897465,
      0.2636988638421298,
      0.03305390325949124,
      -0.0021359525818583918,
      0.10455783325935285,
      0.022573214408455118,
      0.0069412237934046005,
      0.07731204200412657,
      -0.00047308605484743996,
      0.3011975488910983,
      -0.006247962736666673,
      -0.005115854410210346,
      -0.24897406829649948,
      -0.001029246227280674,
      0.04117490401987956,
      -0.005107455567258844,
      -0.0050274202664075925,
      -0.0004276074457627264,
      -0.23806774866520442,
      -0.0017391124089100312,
      0.03618190998600864,
      -0.002988428093289728,
      0.05742459467491317,
      -0.16226323832281694,
      -0.001253857221998488,
      -0.0009063970482884353,
      -0.6827759802033416,
      0.01095808632963149,
      -0.0012205528492573847,
      0.08079953431474574,
      -0.0012811625882548341,
      0.163559998165576,
      -0.0012479558011884277,
      0.14168469264723713,
      -0.011261800330587398,
      -0.001990237265165337,
      0.056420261016758136,
      -0.002309704840808406,
      -0.00031983886952807673,
      -0.0014485804930544873,
      0.04792063919772273,
      -0.04348923459853949,
      -0.1333089942053742,
      -0.14765795687988822,
      0.03893618600839305,
      0.16742476703119477,
      0.18004779896855416,
      -0.03957001426056568,
      0.0901045129312683,
      -0.21492706543348453,
      0.05451936124071886,
      -0.050923803215978766,
      0.05092380321598118,
      -0.06557837923122568,
      0.08269128597995265,
      0.061329303881885344,
      -0.008935688534992752,
      -0.09338591980182831,
      0.28134059286875995,
      -0.23229816367182354,
      -0.34563957567351056,
      0.13867784252896587,
      -0.024906517880908825,
      -0.007527657134727627,
      -0.036807618185516526,
      -0.28636348329611816,
      0.07845560873436375,
      -0.02149724733937234,
      0.1075309706201576,
      -0.08878867919618928,
      0.5445373719718318,
      -0.026942857560710777,
      -0.06251362638683176,
      -0.05473634745391931,
      0.06135878476176043
    ],
    "intercept": 1.2290395529060274
  },
  "narrow-insurance-weights-net-gaussian": {
    "coef": [
      -121.60554197601246,
      119.09204012420476,
      338.7555267912821,
      -69.91655331490854,
      84.52032042905205,
      -29.727938569242585,
      -82.93178530330772,
      140.0401924684671,
      -43.839750093761275,
      -126.80746033324972,
      -34.06191310611245,
      110.05403493421444,
      386.1385184764087,
      4.976557473471441,
      309.6082030673728,
      34.110010720853865,
      206.5603583745887,
      -127.7709490785203,
      -33.85957626933881,
      -161.03536042113103,
      -62.9348171820285,
      44.558628981956566,
      -10.345804728872135,
      -108.959628854419,
      60.16559603064219,
      -4.076492104630651,
      -188.23403561169755,
      152.0555061856952,
      -60.924018096256816,
      -60.80085846801507,
      467.90078359896876,
      6.537426410434398,
      -52.31494489619528,
      -129.69257671454199,
      -57.788405211553155,
      -5.814409592991352,
      -218.72826483366615,
      -205.36691719975815,
      -61.010220666123566,
      104.36953162675842,
      -19.18473818784526,
      -88.2062685593947,
      -109.14185305153869,
      -30.140826543024215,
      354.5525248901536,
      170.16079693141583,
      39.786624205539724,
      -43.52422456447667
    ],
    "intercept": 1591.4231530999166
  },
  "narrow-insurance-no-weights-net-gaussian": {
    "coef": [
      -99.72286042877923,
      108.42099168489932,
      306.2733802041585,
      -56.453164064059074,
      122.76090827208941,
      -23.785494679776246,
      -107.54660708621822,
      127.46681483630047,
      -56.29278846053101,
      -120.45278012785427,
      -41.45292298579041,
      76.46343905969361,
      365.37104282328613,
      5.61727945018587,
      314.045758362039,
      53.50025715265066,
      114.4928186752717,
      -106.85877959450316,
      -25.737715976347634,
      -118.88869740235631,
      -70.89829370514272,
      68.55690101053635,
      17.277845218097507,
      -83.24442643526282,
      22.814600199972745,
      -9.131246606790182,
      -213.63304669860295,
      63.42073421786308,
      -54.72344890132849,
      -49.37496838870572,
      488.96141032485247,
      25.370230030678155,
      -39.019290245705335,
      -118.88121982007083,
      -48.07302136986674,
      -4.67348557498176,
      -232.86640311235024,
      -180.28596477610188,
      -35.38766437862664,
      87.71258831348476,
      -15.65659289317935,
      -78.24001992068881,
      -113.88418952579417,
      -24.73145898416529,
      325.3736949112921,
      183.72163116506349,
      3.694699399821815,
      -23.60452781245783
    ],
    "intercept": 1521.5343601403615
  },
  "narrow-insurance-offset-net-gaussian": {
    "coef": [
      -126.24004806800718,
      116.9735108556939,
      355.0034583187654,
      -78.00793207542222,
      77.54031090926432,
      -48.603345567129026,
      -101.5526298335557,
      135.05591667083453,
      -30.970231450686374,
      -142.81823254166164,
      -53.739917134804266,
      129.25628047708616,
      416.6929275330988,
      7.109347921417088,
      296.7034285889201,
      27.711269788784136,
      287.64027159163857,
      -106.54111761171166,
      -30.582235955892322,
      -170.11946722291134,
      -74.28792375985498,
      32.512741036518534,
      -14.030406560637468,
      -110.25652274811789,
      53.28151697251555,
      -3.319468333239285,
      -178.00857437813121,
      163.70272420844918,
      -79.14541003619964,
      -68.94269287672934,
      476.2511960234274,
      8.151792349433045,
      -45.779003024674964,
      -145.5167194434666,
      -41.69870568533418,
      -7.915959240326149,
      -226.47766234327543,
      -203.4486048250635,
      -72.50015115935936,
      116.70350153998679,
      -28.448944699306733,
      -88.77978678851888,
      -107.01969844250368,
      -37.7210916408182,
      368.0818757325856,
      208.43250652752607,
      58.22713189013349,
      -40.25518125850865
    ],
    "intercept": 1537.4613634609489
  },
  "wide-insurance-weights-net-gaussian": {
    "coef": [
      -827.2839185049905,
      -7.62281521116858,
      20.923890358603217,
      -4.945539900634125,
      0.8549789718424767,
      1.034493150898601,
      0.0033150465465956866,
      0.0164008000828779,
      0.796666029118196,
      -827.2839185059609,
      -38.15507689037864,
      -17.728558179059018,
      61.55339434296724,
      -27.203738504145456,
      16.636086628310824,
      4.897892781041526,
      -17.42776151754494,
      40.309859197166695,
      -6.924760397845911,
      -24.329581760148066,
      -8.179121470542803,
      34.58922742481894,
      -16.85980514567872,
      -23.309683244852188,
      -0.9739946564881276,
      36.0982255713854,
      9.624167270756276,
      -18.61677143494095,
      -1.7742971053778416,
      -24.558268513186007,
      -37.92926877936506,
      42.76531033193191,
      34.36246894647374,
      -6.9729593161148165,
      0.6972486526446752,
      27.61895886465709,
      15.321401220608877,
      6.069727831838661,
      11.663832035602146,
      30.921184086748188,
      -73.82953726025646,
      -32.64260662483657,
      19.289576392853878,
      -0.3565755460269271,
      -112.01161640856732,
      27.81376794006521,
      54.79562708754138,
      0.6697248608720546,
      4.571093887694948,
      1.2717500662919057,
      0.0,
      0.0,
      -0.38467044999014927,
      7.9789403669107815,
      0.0,
      0.0,
      0.0,
      0.0,
      0.0,
      0.0,
      0.0,
      0.0,
      0.0,
      0.0,
      10.75318896476257,
      23.06389302133572,
      -16.945394001111588,
      13.583054924281866,
      -67.74631435823201,
      27.29763412945523,
      15.064344841843404,
      -3.548180472228191,
      -1.1496083914197173,
      -17.872566823233,
      0.0,
      4.9632357202567565,
      20.402718004197283,
      21.63756256550498,
      -37.10075168022967,
      26.405949992660428,
      29.65050961161099,
      0.6560737331446188,
      -91.28860601828816,
      -1.7439916777783881,
      -12.596145384052612,
      8.785198942534619,
      24.810141801057398,
      16.694675939866542,
      50.98141079872544,
      2.245123030151809,
      29.669245872763497,
      15.792230941282796,
      35.72430036460423,
      36.126581272387845,
      -60.41332183661402,
      -1.9246750894896743,
      5.187543065282693,
      17.472987105121863,
      -108.31620357762085,
      -30.356734580219992,
      -24.80130220529481,
      0.0,
      48.778805128879945,
      -1.807672935121497,
      -16.01860181727962,
      -0.032807708551007106,
      -178.84506014376404,
      9.040872867012066,
      8.180197315838328,
      -1.5268236749011852,
      66.22759263658186,
      14.109466131061591,
      44.039438442506594,
      49.38892431044823,
      1.5474545053098188,
      -28.78075987438156,
      -43.18262331630834,
      -5.850858873154988,
      2.30467902900181,
      33.1813537964193,
      25.53414369783827,
      4.225459434716982,
      52.63724730266512,
      -89.59378415317308,
      35.335396087713775,
      2.2467898583201356,
      0.031283026618337234,
      0.0,
      0.0,
      -0.35225715383635864,
      0.501933922879199,
      -8.746328251231917,
      0.8376955170776806,
      0.0,
      0.0,
      -1.8686969697203726,
      0.0,
      3.701690571666091,
      0.0,
      -78.56007507773826,
      -2.694098927030364,
      9.367620741622659,
      12.273581398561443,
      29.764707196438515,
      -11.105960593126078,
      2.0040454827713448,
      -3.759111372855331,
      15.083018657878705,
      6.824820000541896,
      -139.9277415394556,
      -1.0611749427711128,
      29.088119341413496,
      -0.29737317352277043,
      2.341709967784665,
      -9.165019770949588,
      -5.4157275989453515,
      -2.9072600884559976,
      -9.29106794266932,
      10.600612821525928,
      6.2522494528954775,
      -3.0528594992353177,
      7.637554387149619,
      2.743363432825316,
      0.0,
      25.580471213592975,
      22.888311840595847,
      1.712169425295503,
      0.7673584328335017,
      0.0,
      1.3309320722191815,
      2.7691398998886445,
      0.03953674266983686,
      0.0,
      -3.084906018994781,
      8.51100029672765,
      -4.377527720374387,
      0.0,
      -4.398891337713407,
      0.0,
      55.70539668445377,
      -2.517803833403023,
      0.0,
      23.36935803011088,
      -0.37750073510412335,
      11.19134960637398,
      10.548354974353128,
      -55.447900594628756,
      0.0,
      3.670034897227359,
      29.92954701988161,
      24.58370568852845,
      3.0052129320330008,
      0.0,
      -0.08313666765017357,
      1.500227771752537,
      7.894862915065465,
      0.0,
      2.2574719562196415,
      0.0,
      16.536195273830817,
      2.132396895394251,
      0.0,
      0.0,
      0.0,
      25.721213497015825,
      0.9409063351364452,
      0.6456890027298918,
      -2.3236760117722706,
      -0.35309754867951415,
      0.0,
      -7.3682920085262555,
      0.0,
      0.0,
      -1.3212378347083011,
      5.196568541467466,
      -1.2730326686025482,
      -0.8913131487195849,
      -80.59171648115213,
      0.0,
      0.0,
      0.0,
      0.7060997661966149,
      -52.60082782218044,
      41.04066835757342,
      8.553042551889957,
      -132.24888038138675,
      8.948253083935443,
      16.13850967032335,
      38.23030150661091,
      -31.366510374872707,
      37.836600379917115,
      35.855913314657215,
      24.612929705608195,
      30.97396237602137,
      -30.973957184451347,
      -49.55380701168504,
      -130.75812482794902,
      0.009062465261933612,
      11.462744079149552,
      21.86344496349389,
      114.1134594548749,
      32.519630698153826,
      26.84139595952933,
      0.0,
      5.74937117091077,
      0.0,
      -38.7920276468792,
      16.994748602587944,
      41.27558811015507,
      -1.7794810400340026,
      7.142767959086188,
      2.6270278514411034,
      -10.340069246259269,
      3.154013939109972,
      -59.63091795674019,
      49.196711967676364,
      -49.303567529199626
    ],
    "intercept": 1796.2557124064567
  },
  "wide-insurance-no-weights-net-gaussian": {
    "coef": [
      -743.5081337767617,
      -12.510269639425527,
      12.377683475458126,
      -2.3874548083457894,
      0.2733010093403535,
      0.08832114633708157,
      0.0015102442651109378,
      0.010065641351234578,
      0.8781761286244086,
      -743.5081337765058,
      -25.168289076299274,
      -13.009059779173876,
      32.68908789391013,
      -7.619248137009715,
      7.218195536067651,
      5.889313642809861,
      -1.4229810851652487,
      22.112146630834136,
      -5.086184616047843,
      -22.48349284330416,
      -5.029156895894364,
      19.98089228644482,
      -9.835917625743201,
      -14.09193375751532,
      0.6127468208369993,
      21.92455365446782,
      3.975965484257582,
      -8.656638125881626,
      0.0,
      -16.882582082346733,
      -34.23368780103691,
      27.797433990449367,
      16.539150790438914,
      -4.225465642930235,
      8.749994588321222,
      14.09915559374622,
      10.423810417556034,
      -0.6607620160408191,
      6.972047832349872,
      19.43400167216037,
      -13.91958084472064,
      -19.030795201897504,
      8.790844808190888,
      -2.090501288717211,
      -74.82440165311462,
      14.540496658261192,
      31.163880706063527,
      0.18210240967675698,
      1.8407349453876551,
      0.0,
      0.0,
      0.0,
      0.0,
      0.8600640258666933,
      0.0,
      0.0,
      0.0,
      0.0,
      0.0,
      0.0,
      0.0,
      0.0,
      0.0,
      0.0,
      5.8141088845579025,
      11.942631154329034,
      -8.386446337118029,
      7.925558156205797,
      -49.77357342706068,
      11.560881331700024,
      9.106049009625202,
      -1.4087609706059732,
      1.071312570625531,
      -11.142832760227739,
      0.0,
      4.0799604814820425,
      10.286417499269547,
      11.357771063151626,
      -21.709080990319137,
      18.33680146306775,
      18.66944958016911,
      -1.9674627449853943,
      -50.79102795058823,
      -1.2694009222414762,
      -6.964376043467122,
      4.5492817723247665,
      15.151383365586556,
      10.46810173260227,
      30.634651300833,
      -0.5447247024365465,
      17.968424038228747,
      0.37643490352634557,
      22.031471625986068,
      19.657711011737213,
      -37.158510363013384,
      -0.12528554058009653,
      0.39560840512768525,
      9.199451328636771,
      -18.12329834539961,
      -9.849671086102356,
      -17.58683392692071,
      1.7089191322706079,
      19.435893408180117,
      -1.8765560120106346,
      -9.403960829036793,
      0.0,
      -115.72469645210663,
      4.668838071866614,
      5.351881318001202,
      0.0,
      40.968003071943414,
      9.282208830324988,
      21.856560926548866,
      26.230688830127203,
      0.0,
      -15.305627949188453,
      -27.493452483425255,
      -1.0246562141325448,
      1.467538898901966,
      17.510066980057918,
      14.175215449929455,
      0.0,
      30.649237340610153,
      -62.01457305285253,
      21.4750407830486,
      2.3643247346680614,
      0.23364180184475608,
      0.29520147466320984,
      0.0,
      0.0,
      0.0,
      -5.306475965097961,
      0.3840224074455521,
      0.0,
      0.0,
      -0.31577602738806543,
      0.0,
      1.291363650806138,
      0.0,
      -42.14604793465463,
      -0.9421533454070221,
      4.581986942458049,
      4.960038524054482,
      14.069255792134307,
      -7.965456866570999,
      0.8145865543869142,
      -3.1664320912747415,
      8.750597295308843,
      2.8706962993833858,
      -86.43278868538876,
      0.0,
      15.95667409292812,
      0.0,
      1.5647367542010069,
      -6.956387077783593,
      -1.9391844050929512,
      0.0,
      -1.9596212504663124,
      4.730577984055402,
      3.3702485786531953,
      0.0,
      8.306482572606216,
      0.18954107428353875,
      0.0,
      15.290062910996722,
      13.115344877028035,
      0.0,
      1.0065571891929774,
      0.0,
      2.3631298354023924,
      1.372463968513258,
      0.0,
      0.0,
      -0.7275200233817068,
      7.770286986072617,
      -2.036581789582912,
      0.0,
      -1.8516970574159481,
      0.0,
      33.8575365749981,
      -1.2911096881183513,
      0.0,
      10.085010387129364,
      0.0,
      6.909940099748713,
      4.071064876006086,
      -35.492983562709945,
      0.0,
      1.9347927112191028,
      14.253973844162152,
      7.009301458537716,
      0.9008924292301906,
      0.0,
      0.0,
      0.0,
      6.338577833248868,
      0.0,
      0.6575162417172304,
      0.0,
      14.258442026737372,
      0.267269898294914,
      0.0,
      0.0,
      0.0,
      17.97433123649183,
      0.2552284049331282,
      0.0,
      2.3498096374564454,
      0.0,
      0.0,
      -4.9211017335254095,
      0.0,
      0.0,
      0.0,
      2.3301478123883594,
      -0.7448032183751458,
      0.0,
      -52.91537164102951,
      0.0,
      0.0,
      0.0,
      0.0,
      -20.795520250610018,
      28.315113720132977,
      7.179945484717624,
      -94.9774090112284,
      2.7381157963678926,
      4.852519725865862,
      24.483596465885,
      -18.781166294631443,
      26.283379454274968,
      23.229489344919724,
      12.47193556391496,
      14.790046231614859,
      -14.790044027557617,
      -38.27949048779689,
      -78.49327343280522,
      2.9145580676980707,
      7.758373643232266,
      12.061343620005161,
      68.00654700971899,
      18.722334591029878,
      10.64204354299918,
      1.2042899123500383,
      0.6342011057389532,
      0.009521566739426569,
      -27.050831940319846,
      7.883752349281508,
      22.666430610495613,
      -5.513603054141529,
      5.740750818927242,
      0.6375279322776212,
      -12.640617774474169,
      2.8481162820736867,
      0.05722901003022005,
      25.049043742158343,
      -34.8582471102937
    ],
    "intercept": 1601.212107053047
  },
  "wide-insurance-offset-net-gaussian": {
    "coef": [
      0.0,
      0.0,
      0.0,
      0.0,
      0.0,
      -0.00046216698621318243,
      -1.6570865275036751e-06,
      1.1601942826338821e-06,
      0.9999941164931351,
      0.0,
      0.0,
      0.0,
      0.0,
      0.0,
      0.0,
      0.0,
      0.0,
      0.0,
      0.0,
      0.0,
      0.0,
      0.0,
      0.0,
      0.0,
      0.0,
      0.0,
      0.0,
      0.0,
      0.0,
      0.0,
      0.0,
      0.0,
      0.0,
      0.0,
      0.0,
      0.0,
      0.0,
      0.0,
      0.0,
      0.0,
      0.0,
      0.0,
      0.0,
      0.0,
      0.0,
      0.0,
      0.0,
      0.0,
      0.0,
      0.0,
      0.0,
      0.0,
      0.0,
      0.0,
      0.0,
      0.0,
      0.0,
      0.0,
      0.0,
      0.0,
      0.0,
      0.0,
      0.0,
      0.0,
      0.0,
      0.0,
      0.0,
      0.0,
      0.0,
      0.0,
      0.0,
      0.0,
      0.0,
      0.0,
      0.0,
      0.0,
      0.0,
      0.0,
      0.0,
      0.0,
      0.0,
      0.0,
      0.0,
      0.0,
      0.0,
      0.0,
      0.0,
      0.0,
      0.0,
      0.0,
      0.0,
      0.0,
      0.0,
      0.0,
      0.0,
      0.0,
      0.0,
      0.0,
      0.0,
      0.0,
      0.0,
      0.0,
      0.0,
      0.0,
      0.0,
      0.0,
      0.0,
      0.0,
      0.0,
      0.0,
      0.0,
      0.0,
      0.0,
      0.0,
      0.0,
      0.0,
      0.0,
      0.0,
      0.0,
      0.0,
      0.0,
      0.0,
      0.0,
      0.0,
      0.0,
      0.0,
      0.0,
      0.0,
      0.0,
      0.0,
      0.0,
      0.0,
      0.0,
      0.0,
      0.0,
      0.0,
      0.0,
      0.0,
      0.0,
      0.0,
      0.0,
      0.0,
      0.0,
      0.0,
      0.0,
      0.0,
      0.0,
      0.0,
      0.0,
      0.0,
      0.0,
      0.0,
      0.0,
      0.0,
      0.0,
      0.0,
      0.0,
      0.0,
      0.0,
      0.0,
      0.0,
      0.0,
      0.0,
      0.0,
      0.0,
      0.0,
      0.0,
      0.0,
      0.0,
      0.0,
      0.0,
      0.0,
      0.0,
      0.0,
      0.0,
      0.0,
      0.0,
      0.0,
      0.0,
      0.0,
      0.0,
      0.0,
      0.0,
      0.0,
      0.0,
      0.0,
      0.0,
      0.0,
      0.0,
      0.0,
      0.0,
      0.0,
      0.0,
      0.0,
      0.0,
      0.0,
      0.0,
      0.0,
      0.0,
      0.0,
      0.0,
      0.0,
      0.0,
      0.0,
      0.0,
      0.0,
      0.0,
      0.0,
      0.0,
      0.0,
      0.0,
      0.0,
      0.0,
      0.0,
      0.0,
      0.0,
      0.0,
      0.0,
      0.0,
      0.0,
      0.0,
      0.0,
      0.0,
      0.0,
      0.0,
      0.0,
      0.0,
      0.0,
      0.0,
      0.0,
      0.0,
      0.0,
      0.0,
      0.0,
      0.0,
      0.0,
      0.0,
      0.0,
      0.0,
      0.0,
      0.0,
      0.0,
      0.0,
      0.0,
      0.0,
      0.0,
      0.0,
      0.0,
      0.0,
      0.0,
      0.0,
      0.0,
      0.0,
      0.0,
      0.0,
      0.0,
      0.0
    ],
    "intercept": 0.0033359140518314234
  },
  "narrow-insurance-weights-net-poisson": {
    "coef": [
      0.0,
      0.0,
      0.0,
      0.0,
      0.0,
      0.0,
      0.0,
      0.0,
      0.0,
      0.0,
      0.0,
      0.0,
      0.0,
      0.01915539885219231,
      0.0,
      0.0,
      0.0,
      0.0,
      0.0,
      0.0,
      0.0,
      0.0,
      0.0,
      0.0,
      0.0,
      0.0,
      0.0,
      0.0,
      0.0,
      0.0,
      0.0,
      0.0,
      0.0,
      0.0,
      0.0,
      0.0,
      0.0,
      0.0,
      0.0,
      0.0,
      0.0,
      0.0,
      0.0,
      0.0,
      0.0,
      0.0,
      0.0,
      0.0
    ],
    "intercept": -3.3796829291828723
  },
  "narrow-insurance-no-weights-net-poisson": {
    "coef": [
      0.0,
      0.0,
      0.0,
      0.0,
      0.0,
      0.05568968074298796,
      0.0,
      0.0,
      0.0,
      0.0,
      0.0,
      0.0,
      0.0,
      0.007589369970224057,
      0.0,
      0.0,
      0.0,
      0.0,
      0.0,
      0.0,
      0.0,
      0.0,
      0.0,
      0.0,
      0.0,
      0.0,
      0.0,
      0.0,
      0.0,
      0.0,
      0.0,
      0.0,
      0.0,
      0.0,
      0.0,
      0.0,
      0.0,
      0.0,
      0.0,
      0.0,
      0.0,
      0.0,
      0.0,
      0.0,
      0.0,
      0.0,
      0.0,
      0.0
    ],
    "intercept": -1.952674067307461
  },
  "narrow-insurance-offset-net-poisson": {
    "coef": [
      0.0,
      0.0,
      0.0,
      0.0,
      0.0,
      0.0,
      0.0,
      0.0,
      0.0,
      0.0,
      0.0,
      0.0,
      0.0,
      0.019153217152481614,
      0.0,
      0.0,
      0.0,
      0.0,
      0.0,
      0.0,
      0.0,
      0.0,
      0.0,
      0.0,
      0.0,
      0.0,
      0.0,
      0.0,
      0.0,
      0.0,
      0.0,
      0.0,
      0.0,
      0.0,
      0.0,
      0.0,
      0.0,
      0.0,
      0.0,
      0.0,
      0.0,
      0.0,
      0.0,
      0.0,
      0.0,
      0.0,
      0.0,
      0.0
    ],
    "intercept": -3.3794466050383725
  },
  "wide-insurance-weights-net-poisson": {
    "coef": [
      0.13169337741270168,
      0.0,
      0.0,
      -0.008335026241105629,
      0.0,
      0.015031442494658593,
      3.373698952527538e-05,
      9.344136396162144e-05,
      1.4550622543813364e-10,
      0.0,
      0.0,
      0.0,
      0.0,
      0.0,
      0.0,
      0.0,
      0.0,
      0.0,
      0.0,
      0.0,
      0.0,
      0.0,
      0.0,
      0.0,
      0.0,
      0.0,
      0.0,
      0.0,
      0.0,
      0.0,
      0.0,
      0.0,
      0.0,
      0.0,
      0.0,
      0.0,
      0.0,
      0.0,
      0.0,
      0.0,
      0.0,
      0.0,
      0.0,
      0.0,
      0.0,
      0.0,
      0.0,
      0.0,
      0.0,
      0.0,
      0.0,
      0.0,
      0.0,
      0.0,
      0.0,
      0.0,
      0.0,
      0.0,
      0.0,
      0.0,
      0.0,
      0.0,
      0.0,
      0.0,
      0.0,
      0.0,
      0.0,
      0.0,
      0.0,
      0.0,
      0.0,
      0.0,
      0.0,
      0.0,
      0.0,
      0.0,
      0.0,
      0.0,
      0.0,
      0.0,
      0.0,
      0.0,
      0.0,
      0.0,
      0.0,
      0.0,
      0.0,
      0.0,
      0.0,
      0.0,
      0.0,
      0.0,
      0.0,
      0.0,
      0.0,
      0.0,
      0.0,
      0.0,
      0.0,
      0.0,
      0.0,
      0.0,
      0.0,
      0.0,
      0.0,
      0.0,
      0.0,
      0.0,
      0.0,
      0.0,
      0.0,
      0.0,
      0.0,
      0.0,
      0.0,
      0.0,
      0.0,
      0.0,
      0.0,
      0.0,
      0.0,
      0.0,
      0.0,
      0.0,
      0.0,
      0.0,
      0.0,
      0.0,
      0.0,
      0.0,
      0.0,
      0.0,
      0.0,
      0.0,
      0.0,
      0.0,
      0.0,
      0.0,
      0.0,
      0.0,
      0.0,
      0.0,
      0.0,
      0.0,
      0.0,
      0.0,
      0.0,
      0.0,
      0.0,
      0.0,
      0.0,
      0.0,
      0.0,
      0.0,
      0.0,
      0.0,
      0.0,
      0.0,
      0.0,
      0.0,
      0.0,
      0.0,
      0.0,
      0.0,
      0.0,
      0.0,
      0.0,
      0.0,
      0.0,
      0.0,
      0.0,
      0.0,
      0.0,
      0.0,
      0.0,
      0.0,
      0.0,
      0.0,
      0.0,
      0.0,
      0.0,
      0.0,
      0.0,
      0.0,
      0.0,
      0.0,
      0.0,
      0.0,
      0.0,
      0.0,
      0.0,
      0.0,
      0.0,
      0.0,
      0.0,
      0.0,
      0.0,
      0.0,
      0.0,
      0.0,
      0.0,
      0.0,
      0.0,
      0.0,
      0.0,
      0.0,
      0.0,
      0.0,
      0.0,
      0.0,
      0.0,
      0.0,
      0.0,
      0.0,
      0.0,
      0.0,
      0.0,
      0.0,
      0.0,
      0.0,
      0.0,
      0.0,
      0.0,
      0.0,
      0.0,
      0.0,
      0.0,
      0.0,
      0.0,
      0.0,
      0.0,
      0.0,
      0.0,
      0.0,
      0.0,
      0.0,
      0.0,
      0.0,
      0.0,
      0.0,
      0.0,
      0.0,
      0.0,
      0.0
    ],
    "intercept": -3.1795626463305515
  },
  "wide-insurance-no-weights-net-poisson": {
    "coef": [
      1.8428929575332302,
      -0.20610354149540566,
      0.0,
      -0.05955534583998792,
      0.0014267104253328116,
      0.002490592210223654,
      9.313469696756841e-06,
      3.3709594262635966e-05,
      3.322704843414738e-11,
      0.0,
      0.0,
      0.0,
      0.0,
      0.0,
      0.0,
      0.0,
      0.0,
      0.0,
      0.0,
      0.0,
      0.0,
      0.0,
      0.0,
      0.0,
      0.0,
      0.0,
      0.0,
      0.0,
      0.0,
      0.0,
      0.0,
      0.0,
      0.0,
      0.0,
      0.0,
      0.0,
      0.0,
      0.0,
      0.0,
      0.0,
      0.0,
      0.0,
      0.0,
      0.0,
      0.0,
      0.0,
      0.0,
      0.0,
      0.0,
      0.0,
      0.0,
      0.0,
      0.0,
      0.0,
      0.0,
      0.0,
      0.0,
      0.0,
      0.0,
      0.0,
      0.0,
      0.0,
      0.0,
      0.0,
      0.0,
      0.0,
      0.0,
      0.0,
      0.0,
      0.0,
      0.0,
      0.0,
      0.0,
      0.0,
      0.0,
      0.0,
      0.0,
      0.0,
      0.0,
      0.0,
      0.0,
      0.0,
      0.0,
      0.0,
      0.0,
      0.0,
      0.0,
      0.0,
      0.0,
      0.0,
      0.0,
      0.0,
      0.0,
      0.0,
      0.0,
      0.0,
      0.0,
      0.0,
      0.0,
      0.0,
      0.0,
      0.0,
      0.0,
      0.0,
      0.0,
      0.0,
      0.0,
      0.0,
      0.0,
      0.0,
      0.0,
      0.0,
      0.0,
      0.0,
      0.0,
      0.0,
      0.0,
      0.0,
      0.0,
      0.0,
      0.0,
      0.0,
      0.0,
      0.0,
      0.0,
      0.0,
      0.0,
      0.0,
      0.0,
      0.0,
      0.0,
      0.0,
      0.0,
      0.0,
      0.0,
      0.0,
      0.0,
      0.0,
      0.0,
      0.0,
      0.0,
      0.0,
      0.0,
      0.0,
      0.0,
      0.0,
      0.0,
      0.0,
      0.0,
      0.0,
      0.0,
      0.0,
      0.0,
      0.0,
      0.0,
      0.0,
      0.0,
      0.0,
      0.0,
      0.0,
      0.0,
      0.0,
      0.0,
      0.0,
      0.0,
      0.0,
      0.0,
      0.0,
      0.0,
      0.0,
      0.0,
      0.0,
      0.0,
      0.0,
      0.0,
      0.0,
      0.0,
      0.0,
      0.0,
      0.0,
      0.0,
      0.0,
      0.0,
      0.0,
      0.0,
      0.0,
      0.0,
      0.0,
      0.0,
      0.0,
      0.0,
      0.0,
      0.0,
      0.0,
      0.0,
      0.0,
      0.0,
      0.0,
      0.0,
      0.0,
      0.0,
      0.0,
      0.0,
      0.0,
      0.0,
      0.0,
      0.0,
      0.0,
      0.0,
      0.0,
      0.0,
      0.0,
      0.0,
      0.0,
      0.0,
      0.0,
      0.0,
      0.0,
      0.0,
      0.0,
      0.0,
      0.0,
      0.0,
      0.0,
      0.0,
      0.0,
      0.0,
      0.0,
      0.0,
      0.0,
      0.0,
      0.0,
      0.0,
      0.0,
      0.0,
      0.0,
      0.0,
      0.0,
      0.0,
      0.0,
      0.0,
      0.0,
      0.0,
      0.0
    ],
    "intercept": -1.6278820925203763
  },
  "wide-insurance-offset-net-poisson": {
    "coef": [
      0.13168985330674282,
      0.0,
      0.0,
      -0.008334833186257537,
      0.0,
      0.015031458995102984,
      3.37372933800229e-05,
      9.344151717704571e-05,
      2.679895678360652e-10,
      0.0,
      0.0,
      0.0,
      0.0,
      0.0,
      0.0,
      0.0,
      0.0,
      0.0,
      0.0,
      0.0,
      0.0,
      0.0,
      0.0,
      0.0,
      0.0,
      0.0,
      0.0,
      0.0,
      0.0,
      0.0,
      0.0,
      0.0,
      0.0,
      0.0,
      0.0,
      0.0,
      0.0,
      0.0,
      0.0,
      0.0,
      0.0,
      0.0,
      0.0,
      0.0,
      0.0,
      0.0,
      0.0,
      0.0,
      0.0,
      0.0,
      0.0,
      0.0,
      0.0,
      0.0,
      0.0,
      0.0,
      0.0,
      0.0,
      0.0,
      0.0,
      0.0,
      0.0,
      0.0,
      0.0,
      0.0,
      0.0,
      0.0,
      0.0,
      0.0,
      0.0,
      0.0,
      0.0,
      0.0,
      0.0,
      0.0,
      0.0,
      0.0,
      0.0,
      0.0,
      0.0,
      0.0,
      0.0,
      0.0,
      0.0,
      0.0,
      0.0,
      0.0,
      0.0,
      0.0,
      0.0,
      0.0,
      0.0,
      0.0,
      0.0,
      0.0,
      0.0,
      0.0,
      0.0,
      0.0,
      0.0,
      0.0,
      0.0,
      0.0,
      0.0,
      0.0,
      0.0,
      0.0,
      0.0,
      0.0,
      0.0,
      0.0,
      0.0,
      0.0,
      0.0,
      0.0,
      0.0,
      0.0,
      0.0,
      0.0,
      0.0,
      0.0,
      0.0,
      0.0,
      0.0,
      0.0,
      0.0,
      0.0,
      0.0,
      0.0,
      0.0,
      0.0,
      0.0,
      0.0,
      0.0,
      0.0,
      0.0,
      0.0,
      0.0,
      0.0,
      0.0,
      0.0,
      0.0,
      0.0,
      0.0,
      0.0,
      0.0,
      0.0,
      0.0,
      0.0,
      0.0,
      0.0,
      0.0,
      0.0,
      0.0,
      0.0,
      0.0,
      0.0,
      0.0,
      0.0,
      0.0,
      0.0,
      0.0,
      0.0,
      0.0,
      0.0,
      0.0,
      0.0,
      0.0,
      0.0,
      0.0,
      0.0,
      0.0,
      0.0,
      0.0,
      0.0,
      0.0,
      0.0,
      0.0,
      0.0,
      0.0,
      0.0,
      0.0,
      0.0,
      0.0,
      0.0,
      0.0,
      0.0,
      0.0,
      0.0,
      0.0,
      0.0,
      0.0,
      0.0,
      0.0,
      0.0,
      0.0,
      0.0,
      0.0,
      0.0,
      0.0,
      0.0,
      0.0,
      0.0,
      0.0,
      0.0,
      0.0,
      0.0,
      0.0,
      0.0,
      0.0,
      0.0,
      0.0,
      0.0,
      0.0,
      0.0,
      0.0,
      0.0,
      0.0,
      0.0,
      0.0,
      0.0,
      0.0,
      0.0,
      0.0,
      0.0,
      0.0,
      0.0,
      0.0,
      0.0,
      0.0,
      0.0,
      0.0,
      0.0,
      0.0,
      0.0,
      0.0,
      0.0,
      0.0,
      0.0,
      0.0,
      0.0,
      0.0,
      0.0,
      0.0
    ],
    "intercept": -3.1795742495100727
  },
  "narrow-insurance-weights-net-tweedie-p=1.5": {
    "coef": [
      0.001271467066709634,
      0.0,
      0.2527204913880456,
      0.21126948986866964,
      0.34807931717313323,
      0.15702370036137075,
      -0.1267509774343282,
      0.7298108111146883,
      -0.2405190711981367,
      -0.9277049937212518,
      -0.02725043977030964,
      0.05704815139486589,
      -0.005113621560222998,
      0.03593573131784416,
      -0.27183251421807536,
      0.0,
      0.060335679287732286,
      -0.1854078544519919,
      0.0,
      0.0,
      -0.36672890303998495,
      -0.225042663115488,
      -0.17336909154636312,
      -0.010115354266703644,
      -0.2406305994112483,
      0.006691351586009297,
      0.0,
      0.0,
      0.0,
      0.0,
      0.002927831567227367,
      0.0,
      0.0,
      0.0,
      0.0,
      0.0,
      -0.12532906712907632,
      0.31741478731782735,
      -0.13597368487225028,
      0.0,
      0.0,
      0.0,
      0.22296057539345232,
      0.0,
      0.0,
      0.5290783258532619,
      0.0,
      0.1641278248153129
    ],
    "intercept": 2.082945868038999
  },
  "narrow-insurance-no-weights-net-tweedie-p=1.5": {
    "coef": [
      0.6438824999791118,
      0.41813576392189555,
      0.7356535107415251,
      0.4334780777708579,
      0.5711406449446434,
      -0.3120027884124373,
      0.1184318700669429,
      0.7726936859133557,
      -0.4397706693517322,
      -1.205158106495329,
      -0.2575863519135703,
      0.1242423671637696,
      -0.24859543909524223,
      0.03298230903912349,
      -0.43581052663243414,
      -0.23450234025776295,
      0.0,
      -0.4598056669304746,
      0.0,
      0.016072902550348996,
      -0.604865479923366,
      0.0,
      -0.39873348736968167,
      0.05926929259694592,
      -0.3716056545277502,
      0.07766807089388529,
      0.048977346979043095,
      0.0,
      0.0,
      -0.36897660249866404,
      0.29706280383238104,
      -0.015672674560761657,
      0.022227006183296427,
      0.05193783087001395,
      0.0,
      0.0,
      0.1365027303143264,
      0.617811088266189,
      -0.09370798392012593,
      0.030012834964312625,
      0.0,
      0.0,
      0.6826033239759618,
      -0.2361682426772279,
      -0.5091584550984078,
      0.5149380387231172,
      0.0,
      0.0810172041590521
    ],
    "intercept": 1.9159393121074872
  },
  "narrow-insurance-offset-net-tweedie-p=1.5": {
    "coef": [
      0.24128175925773437,
      0.10243819274105208,
      0.39247259810803375,
      0.29316617990051613,
      0.3755172694946692,
      0.0,
      -0.010450107303205171,
      0.8275638689775157,
      -0.33187009207201223,
      -1.0695378599729592,
      -0.155485538556601,
      0.03739872126168534,
      -0.14301141772563392,
      0.03455164000955171,
      -0.3418410421019225,
      -0.060957366568772375,
      0.02662609990105513,
      -0.30967737083080366,
      0.0,
      0.0,
      -0.47551483285704554,
      -0.170553856911835,
      -0.2881771252834848,
      0.0,
      -0.3269584137505496,
      0.04747993301795464,
      0.0,
      0.0,
      0.0,
      0.0,
      0.1619240141407654,
      0.0,
      0.0,
      0.0,
      0.0,
      0.0,
      0.0,
      0.4786079784712408,
      -0.14747808390939926,
      0.0,
      0.0,
      0.0,
      0.38820611515797226,
      0.0,
      -0.13450713452371574,
      0.5081527563933191,
      0.0,
      0.11785988939251718
    ],
    "intercept": 2.1141264344026047
  },
  "narrow-insurance-weights-lasso-gaussian": {
    "coef": [
      -7.714244344473507,
      290.1964418583123,
      517.5179692776117,
      -18.2793600182815,
      212.953757910104,
      -87.32947885863058,
      -95.69457612305445,
      533.3252047201743,
      0.0,
      -132.15922919309114,
      37.16151851437538,
      188.51370187462246,
      775.5960831162128,
      5.469630928259914,
      858.5489157786102,
      89.19917340052207,
      279.2998142392994,
      -386.9454883981136,
      -229.6648860231966,
      -169.65737848293537,
      -56.886855753703706,
      131.79339604633446,
      26.01397894488113,
      -172.17740472423142,
      85.98101789851998,
      17.478344950686182,
      -298.6922649894828,
      2759.306503213596,
      -335.8313358025887,
      -352.0681043490919,
      1710.335743787658,
      62.19869868447146,
      -115.98865327771477,
      -510.2479484855172,
      -824.7973161614932,
      -300.11047428059493,
      -381.17077757173286,
      -329.1791769461758,
      -156.50312074229032,
      232.4854055050132,
      -62.53882345009265,
      -505.8281103170823,
      -147.27270471170692,
      -322.9732242014747,
      812.0046737613266,
      232.2860050637966,
      371.918472061047,
      -62.560203596318246
    ],
    "intercept": 1264.1502155815997
  },
  "narrow-insurance-no-weights-lasso-gaussian": {
    "coef": [
      23.791762625487262,
      286.1162376178906,
      489.10490403213856,
      2.4493752771032855,
      272.8051985433173,
      -81.51712245557002,
      -129.4867384176261,
      485.6995628638992,
      -38.34719872807707,
      -138.29095831243788,
      15.562513415980495,
      136.5835339297142,
      748.036472288122,
      6.202760878841567,
      886.8756064510745,
      164.2093823013983,
      207.0890999187573,
      -341.6082473780807,
      -141.70942677635287,
      -105.73143716877772,
      -52.13679236171969,
      204.17223032265966,
      87.87983602824814,
      -113.6141092260582,
      41.21370040878866,
      13.304484664951147,
      -358.9293312433227,
      1306.1519339100298,
      -312.1845772030847,
      -298.03996170443503,
      1852.8547455825546,
      147.1227593227837,
      -96.66692985500806,
      -494.31083885895254,
      -813.9432418923175,
      -235.7723106240272,
      -424.32819214633133,
      -306.01971456608595,
      -104.88016357864966,
      188.10822567459147,
      -61.557264901514706,
      -471.7178185379974,
      -166.21797598344907,
      -289.17559636078704,
      758.5779156803089,
      243.2884329282534,
      0.0,
      -41.10747116331578
    ],
    "intercept": 1180.5743841313933
  },
  "narrow-insurance-offset-lasso-gaussian": {
    "coef": [
      -1.4194196288839243,
      303.2888660480987,
      555.6574027185902,
      -33.35087763275785,
      210.74134351463968,
      -144.20130410180542,
      -109.78993104790331,
      533.5588234470914,
      29.27810188227562,
      -159.32600204881783,
      14.974972046647387,
      212.79103387210188,
      856.1165596775967,
      7.685933278277791,
      855.5649404056409,
      87.97130296012814,
      407.8720000533413,
      -337.6412407905968,
      -192.2964960474058,
      -167.00251960929313,
      -62.034380847954715,
      122.87817141534248,
      31.234091972894724,
      -169.09645512557694,
      74.48682224908231,
      22.118856693004723,
      -276.7632845522394,
      3414.53108809738,
      -432.104116414625,
      -394.3451458788701,
      1825.6923799911774,
      77.80328059553052,
      -88.92072048698675,
      -566.5736924235388,
      -668.8118004459518,
      -435.2979680786931,
      -387.32606001939376,
      -318.8762168482091,
      -179.7068957083193,
      278.23963995033796,
      -93.88438321669706,
      -519.5937211541507,
      -128.78708568581746,
      -410.0559584337398,
      881.1468149037875,
      307.9534804119502,
      637.3966963676961,
      -66.55085791094389
    ],
    "intercept": 1166.7983071613974
  },
  "wide-insurance-weights-lasso-gaussian": {
    "coef": [
      -0.22723141377101846,
      -38.62690110404496,
      18.997514085156556,
      -5.391576539968013,
      0.39126905855325816,
      1.7130780932866616,
      0.0038987158787191743,
      0.015608177858571442,
      0.8055051336074622,
      -1997.5088310493463,
      -72.77269582460818,
      -44.298654057786315,
      60.0203047532812,
      -47.818103295145406,
      8.332066529689637,
      45.84669844520407,
      0.0,
      68.64668406229131,
      0.0,
      -10.756691430445573,
      0.0,
      76.94977969891771,
      -16.438116098777982,
      -1.7230557800322543,
      0.0,
      336.0236634858432,
      162.33273259930337,
      -181.58367961654082,
      -8.770038145034617,
      -28.363869939390135,
      -9.218343205336886,
      94.7901827767568,
      57.31659011197889,
      -21.424491703112263,
      0.0,
      64.64439851085942,
      35.3681131285951,
      23.183856274183764,
      32.43507213100567,
      55.99031379159907,
      -149.62694896255616,
      -73.55416898882373,
      86.43721876244139,
      0.0,
      -350.38736898891045,
      121.20499297703844,
      338.50864641722654,
      0.0,
      48.963627640065674,
      0.0,
      0.0,
      0.0,
      0.0,
      354.13167964094146,
      0.0,
      0.0,
      0.0,
      0.0,
      0.0,
      0.0,
      0.0,
      0.0,
      0.0,
      0.0,
      207.3509048030421,
      141.4125902497853,
      -181.9011113649832,
      19.95063737834046,
      -231.6480845998721,
      93.96631114159214,
      0.0,
      -102.17908180026754,
      -104.25272880456961,
      -124.28366576853377,
      -17.516876301957588,
      -70.16134852416195,
      30.89912401365388,
      12.027307247610043,
      -195.87733814075108,
      18.483276847722156,
      48.239892271825454,
      0.0,
      -314.4077986256039,
      -37.06709880094852,
      -87.89848720841884,
      -16.965088688702817,
      32.794503437846664,
      29.152904258881836,
      123.63740108649469,
      39.41489556874778,
      35.54235290904683,
      28.006396565116646,
      66.53151266396858,
      58.41370397448143,
      -213.34065784879326,
      -33.54967669941828,
      0.0,
      2.2916843148489714,
      -318.06701179922675,
      -96.22233526161811,
      -119.73709668352967,
      11.699500104779233,
      132.5035923681798,
      -1.9117215224414295,
      -94.24667828356176,
      -51.785152013646126,
      -867.5028443483615,
      0.0,
