{
  "narrow_insurance_weights_l2_gaussian": {
    "coef": [
      -126.38109060344338,
      72.88674812931237,
      264.15845860644356,
      -56.053595207693334,
      53.840648256953244,
      -13.1429953865929,
      -72.08212396482594,
      77.95012599021483,
      -31.966493569546014,
      -95.77093220068976,
      -37.97347694801762,
      83.61787343753394,
      251.7188656707665,
      4.334316857400594,
      182.22713077134122,
      22.76152767972511,
      164.21734489272376,
      -72.25798622589329,
      -18.752393068887223,
      -136.22986521406426,
      -50.76701825287314,
      27.105565116128947,
      -11.804094113379328,
      -71.67011505875294,
      53.718076781951844,
      -13.999219954227357,
      -127.21577262860808,
      75.31385277434525,
      -31.392690782560237,
      -31.21356964507678,
      260.32449553735887,
      4.217030830313359,
      -30.089813910829665,
      -69.06614296976481,
      -28.625664156575496,
      -3.1723578931398038,
      -145.74757323336885,
      -142.64025970262003,
      -34.61869418567904,
      68.24194788856236,
      -9.925595206927506,
      -47.10202326531018,
      -80.94183698181668,
      -14.65908318837152,
      221.09065426398607,
      135.10440832799006,
      22.03954771521157,
      -32.09699015425963
    ],
    "intercept": 1693.278765095325
  },
  "narrow_insurance_no_weights_l2_gaussian": {
    "coef": [
      -106.95901303060705,
      66.88262280508985,
      240.40850278146644,
      -48.35400629333997,
      83.23454812824603,
      -11.402680561280022,
      -91.20253794630577,
      74.78733725279828,
      -39.53952119326044,
      -90.94777564890228,
      -40.98517527872808,
      58.8769196740551,
      245.37118380552414,
      5.028152307715473,
      193.6675403613811,
      35.472003583352574,
      91.48872753774887,
      -62.20514125451328,
      -15.266642469639201,
      -102.32510115274258,
      -57.143732271170514,
      43.65733937111645,
      8.494331546430109,
      -56.44430359731156,
      21.52488040224563,
      -16.23942747614626,
      -150.4731203566559,
      33.27941490712774,
      -29.651823126344517,
      -26.817140287290925,
      283.2954156878539,
      14.654186644815601,
      -23.000009583089856,
      -65.89948382199266,
      -25.110659517311653,
      -2.8494499045322055,
      -159.182017541535,
      -126.88413240453886,
      -19.98395935596131,
      59.251251226387794,
      -8.599354638866812,
      -43.88100928254062,
      -85.91929675903123,
      -12.741285748680186,
      209.05858793750195,
      146.41016318680715,
      3.4728342443878137,
      -17.25780369485335
    ],
    "intercept": 1610.9248552351582
  },
  "narrow_insurance_offset_l2_gaussian": {
    "coef": [
      -130.89652515945738,
      72.55681887930214,
      281.2116962775201,
      -61.273194653253825,
      50.556417551782886,
      -24.351862916194577,
      -90.52597438947518,
      78.23861125695599,
      -24.051146167248667,
      -109.31468498950534,
      -54.781638311759096,
      101.82368046297793,
      279.1509253920936,
      6.445192288994093,
      180.8433812586632,
      18.843015179556375,
      228.23714039629698,
      -62.89346470773909,
      -18.044400015030867,
      -147.12934792689046,
      -61.29741810557329,
      19.353070669170187,
      -15.01518286165809,
      -74.96689372373521,
      49.078629205282596,
      -12.240556233851464,
      -122.66421804461504,
      85.1380153826978,
      -42.95966325987168,
      -37.27688178415748,
      275.67610258572864,
      5.27311157230356,
      -27.636962007936194,
      -81.75983569519666,
      -22.07162991400399,
      -4.356355618116101,
      -156.19694238083792,
      -145.4251922740749,
      -43.57423257993286,
      77.90283661755683,
      -15.435734695038832,
      -49.62272305103541,
      -82.79064234936254,
      -19.318559305242733,
      236.52926971842317,
      164.5807650927128,
      32.819363637396975,
      -29.34212877138549
    ],
    "intercept": 1638.136686039063
  },
  "wide_insurance_no_weights_l2_gaussian": {
    "coef": [
      -574.4899490293806,
      -8.966789065267289,
      11.833994336446855,
      -1.744527678562211,
      0.0004689090593792411,
      -0.056277226973584504,
      0.0002621380612310986,
      0.010673203976011791,
      0.8751276945223481,
      -574.4905474184657,
      -19.426156561375006,
      -9.1185022412189,
      26.6998478654825,
      -7.966845714330308,
      6.2399545482684085,
      3.5716993278518623,
      -3.610955627509952,
      18.234499003494648,
      -2.730865435750296,
      -18.830618691708736,
      -3.8721594313187637,
      14.546795267664514,
      -7.612426557994866,
      -8.518369240053438,
      1.5963561484784066,
      13.097610405759932,
      1.7400567142566192,
      -4.039924790781763,
      1.5140613648940766,
      -13.881108365719612,
      -29.99207056137412,
      21.52190723324715,
      12.364702091907024,
      -2.3040371401897506,
      7.767825792774373,
      8.858205889120457,
      9.072876956549601,
      -2.2468020007838803,
      5.965486489683732,
      14.6501063362617,
      -9.956842069203832,
      -10.129757309817926,
      4.714559844326238,
      -1.5701327500473177,
      -44.60875070078468,
      8.685112743018106,
      16.98031353640083,
      1.1226313648762463,
      1.4197351212241816,
      -0.7103432113098735,
      0.27522074999638935,
      0.09748293920819723,
      -0.2829310918149217,
      0.4494742449567888,
      0.010985426884804528,
      -0.15449059894210088,
      -0.09673391775626147,
      -0.012686814392987855,
      0.029316150075832326,
      0.1902888189347084,
      -0.0035649677696472093,
      -0.047302865995964005,
      0.30262911978509116,
      0.00463282504779422,
      2.9328499975887476,
      6.620380829683941,
      -3.8686146728560074,
      4.550732663611467,
      -30.85352354703769,
      6.447985387938408,
      5.508658316822096,
      -0.5523006840024536,
      2.480857558109948,
      -6.804011493192437,
      -0.10853919382800914,
      2.621410796263368,
      5.88379403689555,
      8.013220431063319,
      -11.869776082421657,
      12.936877684632652,
      11.580952885365466,
      -3.2000808307783273,
      -28.976041193799723,
      -1.760268370554968,
      -3.707833620971819,
      2.5649605865861274,
      9.402374713342066,
      6.497597889750015,
      19.746002688268334,
      -2.6051346390677352,
      11.495612661279683,
      -2.0069971056164926,
      14.59022187162747,
      13.158865035770093,
      -21.510063928406048,
      -0.3420937268962816,
      0.8651843837258824,
      6.333376211983824,
      -11.360863360025615,
      -6.694109405497315,
      -10.807220960917647,
      2.413237000743023,
      9.542356853801166,
      -2.3305747959034138,
      -6.011179824683859,
      0.259706667904819,
      -65.536471747666,
      3.6461751919091694,
      3.3240634987757995,
      0.3797700162288632,
      23.884691596772715,
      6.206683298097045,
      11.41632267149824,
      13.40818153944755,
      -0.4081296888049952,
      -7.574365773297449,
      -15.35672612327592,
      0.08180537935070054,
      2.6374176869913875,
      9.059429007734018,
      7.6052974058783835,
      -1.3144966506297782,
      16.466395613873107,
      -34.50107380221171,
      12.339650445432905,
      2.577321422300394,
      1.002896030522042,
      1.1218404896849117,
      -0.12436164928401916,
      0.5120319288116617,
      0.23586325709692868,
      -3.404392544841044,
      0.8339896029873908,
      0.15092514462155104,
      -0.08968482714335468,
      -0.3867353076043053,
      -0.056458182014742786,
      0.8417998125300703,
      -0.05764444446783604,
      -32.00675260602432,
      0.5349256606918287,
      2.829960887980138,
      2.1998153813828716,
      8.549773831198069,
      -4.459366119873662,
      1.5475074329197316,
      -1.1048184290414156,
      5.477361975874953,
      1.8680086501844806,
      -49.69241749199767,
      0.3579466338639168,
      10.71224050671026,
      0.10119181238427943,
      1.9685234985974414,
      -4.479416772001476,
      -0.8622622953750748,
      -0.1914297545145851,
      0.7091822098186586,
      2.159047277103143,
      2.222885054618585,
      0.9036703664640968,
      9.029931471597973,
      -0.29546313450796546,
      0.26981983017525585,
      8.495644434246245,
      9.355489348876912,
      -2.056243186716599,
      1.524423456295328,
      0.4083921446468677,
      1.9392743000159864,
      1.2448114342808734,
      0.5377912153344433,
      -0.014417559067211094,
      -0.6263450101369312,
      6.741896946275267,
      -1.5161638086594627,
      -0.054359183515519216,
      -1.3459171293485697,
      0.1256157202492857,
      22.44486736326342,
      -1.2124773079254585,
      -0.07394633826485186,
      4.405672645934137,
      -0.16801943471607972,
      4.189374718660719,
      1.236236764671334,
      -18.781489540968405,
      0.06856369133801432,
      1.5505252639489735,
      4.574003978046839,
      2.9466693047018646,
      0.43285472146363735,
      -0.0945744429901906,
      -0.14385788367778135,
      0.184603353256343,
      4.75661198542555,
      0.22114095750275342,
      0.5505554612155465,
      -0.1897969220147902,
      9.043503817172068,
      0.3087912616655193,
      0.011530976145983973,
      -0.0765973575059666,
      -0.05184431747989565,
      9.986831847551775,
      0.6740824947720001,
      0.022162196105260767,
      2.489726122322569,
      -0.21610638099528104,
      0.04870766554849337,
      -3.549622989403522,
      -0.06420080891316385,
      -0.012453067603266088,
      -0.2529575641108416,
      0.7576658060714667,
      -1.5143732526172995,
      0.12449590848993708,
      -28.46979375939559,
      0.08434868538431922,
      -0.0023637833803267783,
      0.4453023007944395,
      0.20588386206923837,
      -13.798455060621883,
      21.63529103878112,
      6.661891397932372,
      -81.43073235931476,
      0.35596896324610583,
      2.551299585608394,
      24.60195306894873,
      -10.692921559106718,
      20.874464313618333,
      19.03960707731351,
      10.201631147268067,
      12.500679845489685,
      -12.500686321523261,
      -29.471849698805563,
      -41.805807748879275,
      3.378273960497886,
      4.845523089290255,
      12.706251258654667,
      40.051617599197144,
      10.72519925017865,
      6.376298762302028,
      2.7975582225789064,
      -0.545788682712668,
      0.5063503072748247,
      -19.253434078643643,
      5.73301266611769,
      15.788129984179934,
      -4.60485795307128,
      3.738314184205893,
      0.4935577989956803,
      -9.856228404406822,
      2.402664805660333,
      0.5139521220277701,
      15.974941157556161,
      -20.493679614562602
    ],
    "intercept": 1261.4163657668144
  },
  "wide_insurance_offset_l2_gaussian": {
    "coef": [
      -0.17801529346002715,
      -0.0018268813462589684,
      0.0004511558411451899,
      0.00022767068205849488,
      -0.00018127571549174696,
      -0.00036701911054635604,
      -6.658804258541373e-07,
      5.06123294552463e-07,
      0.9999973880602814,
      -0.17801428786030446,
      0.0004405222891708854,
      6.252389324511338e-05,
      -0.0015317840754062364,
      -0.0004475770405077007,
      0.0010234809216061675,
      0.0004528341603139626,
      0.0004684785122037634,
      -0.0009373053702239932,
      0.0010468512920165695,
      -0.0006127043507287103,
      -0.00011836701305160784,
      0.00034870140497202627,
      -0.001227973426512985,
      0.0006264299066860626,
      0.0006457449113018458,
      0.0005188348339383387,
      -0.001355643318317947,
      0.0005969526323051444,
      0.0018440362863454034,
      0.0003805851471847723,
      -0.003425754959477695,
      0.001674068624984603,
      -0.00010871913139696553,
      -0.00017271622929501814,
      0.000834927646892017,
      -0.002036587201539743,
      0.0008587701876231067,
      -0.0017319132283254027,
      0.00038337552406607963,
      0.0005988884065279716,
      0.0004621996615882711,
      0.0019342411222946056,
      -0.0010857103753032313,
      -0.00015812693915457764,
      -0.0002874304396127316,
      2.0567296785139848e-05,
      -0.00030464107237681073,
      0.0006000268626977937,
      4.4342202955716527e-05,
      -0.0007720751280817687,
      0.000264564558163644,
      0.0001279266227780018,
      7.736779055737559e-05,
      -0.00024495936481486354,
      6.350281574475468e-05,
      3.233003917615056e-05,
      1.8792971584444238e-05,
      6.683923240612321e-06,
      5.37453698935353e-05,
      8.293140600532393e-06,
      1.075083077461262e-05,
      9.054064290588408e-06,
      1.77171463709273e-05,
      1.8757728012801678e-06,
      -0.0004683965728616737,
      -0.00047327609570373,
      0.0009408424844481859,
      0.00020472872318996217,
      -0.0026097360683997703,
      -4.9377080734001703e-05,
      -0.0004163803740591305,
      0.0006525266713004498,
      0.0012586224151043672,
      -0.0002741637167091971,
      -0.00043125739397655623,
      -0.0003414867431691497,
      -0.0005211705368166053,
      0.0010718196645583581,
      0.0008701534931183877,
      0.0014712531712016324,
      0.0002374129084693829,
      -0.0012144641833897222,
      0.0017140336210978823,
      -0.0008305300947510897,
      0.0005104229652555728,
      -0.0009233270993806637,
      4.0385478234686214e-05,
      0.00013748114800559688,
      0.0012548647145779745,
      -0.001452866655059707,
      -0.00018477061621605226,
      -0.0021140659487281213,
      0.0007870671971481247,
      0.0005288364875502662,
      0.001039042012427751,
      0.0005871301044389637,
      0.00017214722091396495,
      -4.5844509484492535e-05,
      0.00077174751087859,
      -6.307546964836425e-05,
      7.17636042065514e-05,
      0.0013355297790113986,
      -0.001983581754621767,
      -0.0007216997671093039,
      -0.00027484638004463815,
      0.00020104398718055186,
      -0.0009816597804036182,
      0.00035285539174507085,
      1.5885658122908588e-06,
      0.0006533587224847415,
      0.0009014828872867199,
      0.00036505027974089626,
      -0.000814957396086103,
      -0.0015104091988252359,
      -0.0005647558027874133,
      0.0009213466099870279,
      -0.00010523786522683587,
      0.0010239183241288708,
      0.0011034391330857025,
      -0.0007085910684601126,
      -7.669554792606774e-05,
      -0.0013546491611807745,
      -0.0002749650665305299,
      -0.0013225110960150472,
      0.0005713252374304735,
      0.0006219826790127311,
      0.0002905504964599122,
      0.0004362896365836527,
      -0.0002171788721562821,
      0.00040807769387097334,
      -0.00010358387367698132,
      -0.00014052265442035097,
      2.325158358340172e-05,
      1.4025323636737935e-05,
      4.4794463233944454e-05,
      0.00020013306043364717,
      6.433514836372254e-05,
      -0.0003069844647275732,
      2.0358258077074512e-05,
      0.00042558137705429877,
      0.0002671996805876343,
      -0.0005390895226777893,
      -0.0013429181317996383,
      -0.0006187720349892071,
      -0.00020075431000260893,
      5.62606621256935e-05,
      -0.00016198590346695805,
      -0.0008103834123483597,
      -0.00031807785281284947,
      0.0003784280518835554,
      0.0004670653730245424,
      -0.0018657275933953868,
      6.28007171599393e-05,
      -5.2522486299391e-05,
      -0.0002618205694351432,
      0.00028110283993519234,
      0.00029839017782064617,
      0.001260999309759164,
      -0.0007683450220324839,
      -0.00014678662537393394,
      0.0008175901616255202,
      0.0029395978504548215,
      -0.0008825131664189719,
      4.4254160162128e-05,
      -3.669247114228111e-06,
      0.0004990313591803175,
      -0.0016907443479088815,
      0.00043655301772540947,
      0.000200068265682161,
      -0.0002408675044757386,
      2.2346808771292362e-05,
      0.00012016819503065155,
      -0.00015521841048285093,
      0.00020570127562116546,
      0.00241084951276429,
      -7.425691124296783e-05,
      3.6491400296225054e-05,
      8.690074556836334e-05,
      0.00011939774961251373,
      0.0024894718601507727,
      -9.803480960203493e-05,
      -0.0001732168819841073,
      -0.0008249145561084589,
      7.875406272384584e-05,
      0.0003123823953029778,
      -0.0013334083460965348,
      -0.00031636479881372894,
      3.5834017155495255e-05,
      8.15264443605009e-05,
      -0.0031272846244950313,
      -0.00041848025742166145,
      -0.0004232033057219311,
      2.397533227921986e-05,
      5.35222478494491e-05,
      -0.00030658275580875343,
      0.0016360932187456717,
      7.531993100831759e-05,
      -0.00028095589372063477,
      4.4531875571423454e-05,
      0.0012976629511178375,
      -0.0002889951309685787,
      6.807377499603317e-05,
      3.383807998808416e-05,
      3.507977138050474e-05,
      0.0007132104700526454,
      4.498257033771457e-05,
      -0.00029562370526205114,
      0.0016427435254088288,
      7.377334124011384e-05,
      4.807548942242356e-05,
      -0.000491344160018207,
      7.177628012130395e-05,
      4.3607263208417224e-05,
      0.00020363335587090302,
      -0.0007824261481965028,
      -0.0004729821599345366,
      0.00040103530719436164,
      -0.001097962157344766,
      5.7138449942780145e-05,
      6.154112419987166e-05,
      7.526524100578055e-05,
      -0.00027339376668880893,
      0.0023725889870582877,
      0.00207571921357245,
      0.00039490710710942973,
      -0.00633038385869391,
      -0.0024594134862786646,
      -0.0001956378736104871,
      0.0007032114642246566,
      0.0014612287540628332,
      0.0017646096790073468,
      0.00024094769011284993,
      -2.7777540806594265e-05,
      -0.0011396454546745566,
      0.0011396468338996726,
      -0.001191129497474219,
      -0.000788518980500898,
      0.0014694998172051976,
      0.000602983113163242,
      0.002150105885591641,
      0.00038920237576975126,
      -0.00013882485465289897,
      -0.0005526565903808357,
      0.0014650874435350983,
      -0.001450041255816925,
      0.0001748441380134597,
      -2.876314996132917e-05,
      -0.0008458683546351939,
      0.0016707965055312679,
      -0.0005966920412378964,
      0.0007990365874134516,
      -0.00010190407303919318,
      -0.0004039079179590597,
      0.0005724801782134245,
      0.0006826465964229177,
      -0.0024208624824634453,
      -0.0014575134956916732
    ],
    "intercept": 0.3715507165456984
  },
  "narrow_insurance_weights_l2_poisson": {
    "coef": [
      -0.01859283032844798,
      0.019181394309575415,
      0.020713555083220068,
      -0.009173623124637273,
      0.022414444768880507,
      0.1087385938914017,
      -0.06648165495306692,
      -0.005802479749196434,
      0.0034806242185328735,
      -0.02435550018073926,
      -0.021035585958571086,
      0.03867594485725589,
      -0.007112564720387534,
      0.020963112270642705,
      -0.004468955556883085,
      0.002317927459317219,
      0.05642306699792043,
      -0.008061192084368615,
      0.00414899167818446,
      -0.027082928439939726,
      -0.02834882026197531,
      -0.01728295369477081,
      0.00018458852850453418,
      0.007646345850272088,
      0.0034483800456997964,
      0.05617925468916331,
      0.012946777794826886,
      0.004214110454789925,
      -0.0053557495009158886,
      -0.004633598700267657,
      -0.002936128463799146,
      0.008102670707817242,
      0.002100633868098777,
      -0.012422164195723943,
      -0.0019807203124112007,
      -0.0009142053236266593,
      -0.005530120087656339,
      0.012414152396115014,
      -0.007607450577125387,
      -0.017413874744272136,
      -0.004550993119059552,
      0.003712876542612875,
      0.014550090772206346,
      -0.0038829889361607856,
      -0.005601912213504504,
      0.033186324980352004,
      0.00012853220813765354,
      0.0209942568467634
    ],
    "intercept": -3.910268576075195
  },
  "narrow_insurance_no_weights_l2_poisson": {
    "coef": [
      0.05247263375361619,
      0.09340133807743704,
      0.12069744631838311,
      -0.07981210212680735,
      -0.04213260254501365,
      0.41350788837635655,
      -0.16356899377197343,
      0.001998682665758327,
      0.012415027596495867,
      -0.028617730074347168,
      0.021383661247941655,
      0.1508712556097953,
      -0.036419912195464144,
      0.010177488671355997,
      -0.0217837860294226,
      -0.003158344587923468,
      0.2552430727236514,
      -0.019228413875864308,
      0.0011190986498984942,
      -0.03270496868287291,
      -0.08604898156750941,
      -0.0174069051792695,
      -0.039582160939937334,
      0.04146953063298365,
      0.23315110132697128,
      -0.011444246108821311,
      0.014869463313740885,
      0.0031080859200414,
      -0.009262901629035218,
      -0.017920643747968572,
      -0.003359474180428079,
      0.038305709064027055,
      0.006936537422573871,
      -0.01878071235118195,
      -0.006600406857541831,
      -0.003458827650105304,
      0.026752077875739213,
      0.09098355640320913,
      -0.022028681494712297,
      -0.046991630877768586,
      0.08671352243017984,
      -0.00025525481341089165,
      0.07271837090160707,
      -0.0162687180949626,
      -0.0036832051749738333,
      -0.0025683268266448313,
      -0.012256123414920361,
      0.00640390879930934
    ],
    "intercept": -2.3550745052233246
  },
  "narrow_insurance_offset_l2_poisson": {
    "coef": [
      -0.01107660968794799,
      0.010142786179816392,
      0.0112038532555004,
      -0.004793176639177002,
      0.012767432725800677,
      0.058684771463194584,
      -0.03923946420299271,
      -0.0031074818283814685,
      0.0017829544092919376,
      -0.013405877535841246,
      -0.01206070270404344,
      0.02257908756458755,
      -0.004026831740706992,
      0.020835869069845834,
      -0.002314836619310657,
      0.0012718006317074709,
      0.03376036198909882,
      -0.00421537295279821,
      0.0021422001736395913,
      -0.01667019496915019,
      -0.015363054861282638,
      -0.009283154741384938,
      -0.00011436538181172828,
      0.004058447431229806,
      0.0022487509251536645,
      0.0473361929434617,
      0.008686063698430623,
      0.002206177487394717,
      -0.0028105307890182022,
      -0.002418124210935318,
      -0.0016187321630616485,
      0.004195010236041975,
      0.0011680216265145397,
      -0.006540801832628038,
      -0.0010427623090714022,
      -0.00047654142997810057,
      -0.003216110550500621,
      0.006251570272346627,
      -0.004312045558082818,
      -0.009306906255808253,
      -0.002273851836005672,
      0.001915301298741995,
      0.00809986608213778,
      -0.0020010889664490565,
      -0.002947341138235766,
      0.018658271461638967,
      9.874430501472167e-05,
      0.023796474029043908
    ],
    "intercept": -3.8534818942205433
  },
  "wide_insurance_weights_l2_poisson": {
    "coef": [
      0.8262439889791064,
      -0.13423566528622102,
      0.017427700354966283,
      -0.03627590530669881,
      0.0036210615749276954,
      0.014331580137027152,
      2.1549405671332382e-05,
      3.1743160297390336e-05,
      3.174316020791405e-05,
      0.5294529708768883,
      -0.006787276282159102,
      -0.016300826619584406,
      -0.003586742444196169,
      0.01421436073210535,
      0.018608415435034293,
      -0.006147930821199956,
      -0.01578828574184289,
      -0.0075362962482735125,
      0.024612762355182442,
      0.00733477659189178,
      -0.01345934589773937,
      0.008344149315553013,
      -0.0014280835369949428,
      -0.00020115784125740425,
      0.003373429341062563,
      -0.002425032995087075,
      -0.0017613162366364198,
      -0.0010655991058582115,
      0.08743020065726198,
      -0.04665004048715294,
      -0.03973153119401935,
      -0.00377885875651339,
      -0.0049188886976537175,
      -0.007082880564763341,
      -0.0032811500260746767,
      0.0007748381149320512,
      0.005320840431447247,
      -0.010497214092863362,
      0.018312955481038524,
      -0.00284965581131647,
      0.01487726038997808,
      -0.006745272367992852,
      0.002518460034061742,
      -0.0011677001193055167,
      -0.001219460588530486,
      -0.002838737196478324,
      0.004659894155804582,
      -4.8468839163336805e-05,
      -0.0025332819124029883,
      -0.001945475555315121,
      -0.0004900404802099564,
      0.0005137663808136053,
      -0.00038583208252490625,
      -9.391342467142055e-05,
      -0.00024533852200488235,
      0.0015316438476032231,
      -0.00014067122228629474,
      -4.884795304301087e-05,
      0.0014711259526550432,
      -0.00018112991958038561,
      -8.980341288457494e-05,
      -0.00010777542529329164,
      -9.906962981630377e-05,
      -5.983153465253649e-05,
      -4.069485904697011e-05,
      -9.26124004911575e-05,
      -2.276311245663448e-05,
      -1.634727420697172e-05,
      -7.598567402415638e-06,
      -9.941547850527153e-08,
      0.0010816323279171144,
      -0.0005374312966204244,
      -0.015316794608015999,
      -0.0008609194660498759,
      0.0007800185618039286,
      0.003062311956118154,
      0.008904859982325248,
      0.001303090991341392,
      -0.003894917547132772,
      0.00318028654389867,
      -0.003949177652174898,
      0.0062992644720776805,
      -0.005786410530876612,
      0.0019583174118572616,
      0.0045888914854668545,
      -0.0006943461926088584,
      -0.005437879691031439,
      -0.007534202762716558,
      0.004479928511566036,
      -0.00691686127145034,
      -0.005496024844419056,
      -0.0025479722512626373,
      0.00045520797216306344,
      -0.010039344875292944,
      0.011972265822774325,
      0.004734648819534482,
      -0.005027254011967726,
      -0.008058079583468863,
      0.008959495606080616,
      -0.00400692465510019,
      0.005348659590725345,
      0.0030033247009487118,
      0.009994033635926818,
      0.0011688173790988324,
      0.006304785316134827,
      0.011338639031133302,
      0.004994566762764324,
      0.007619045602419631,
      0.0024715731669008967,
      -0.004969678551811939,
      0.001465556495167912,
      -0.0007240429117916402,
      -0.0014722636025460262,
      -0.0014962378544031705,
      -0.004922446546973087,
      0.0009725522221565358,
      0.0017637399549239896,
      0.002060167338242136,
      -0.0010859853717148,
      -0.00392795587428101,
      0.0013438659023976974,
      0.0007549748795854731,
      -0.002559222210865447,
      -0.0012484786478043034,
      -0.0030938414539035306,
      -0.00389724867907834,
      -0.004032760135791057,
      0.0016007697412134556,
      3.4688035282661704e-05,
      -0.0014359643013993832,
      -0.0001545202573870506,
      -0.0017429788863160245,
      -5.498160310919245e-05,
      -0.0022061230650042615,
      -0.0017150940063446185,
      0.00016275885792338876,
      -0.0006978107827582357,
      0.0013539764010551435,
      -0.0004455302650170401,
      0.003977118788490645,
      -0.00018305451705633632,
      -0.0004647648256514229,
      -9.769576609044722e-05,
      -0.00020662663701350147,
      -0.0002312276039060604,
      -0.00013336990258450756,
      -7.273069212985753e-05,
      -0.00011665807449506762,
      -0.023834177520168122,
      -0.005950065697386074,
      -4.5869944603129305e-06,
      0.0015050915250304584,
      0.0009017093301480909,
      -0.0034588483382158174,
      0.005013370745007264,
      0.0013716282908071504,
      0.00683197094421499,
      0.0006600438927955656,
      0.0027690028728669337,
      0.0003247548109306442,
      0.014412431051273171,
      0.0027517159894147386,
      -0.005489047562629491,
      0.0009991205054435274,
      -0.0016268524743240156,
      0.0010854820956099594,
      -0.004533238258326599,
      0.007513190649735057,
      -0.001623145743852469,
      -0.0010767502766830174,
      -0.00024288208459770423,
      -0.001099939091947431,
      -0.0001423652114634713,
      0.004678482020423313,
      0.00279701682360245,
      -0.0006785369117859965,
      0.002558841045215514,
      -4.02688573393886e-05,
      0.008394316133088872,
      -0.0004056475458564936,
      -0.0005049700848356118,
      0.0004277856194995752,
      -4.922561092525594e-05,
      -0.004182005462296347,
      -0.0005620720344287481,
      -0.0005668457220229519,
      -4.663262668128461e-05,
      -0.0008468129391978078,
      -0.00024544849355372843,
      0.0007816018326774771,
      -0.00026315928697129444,
      -0.0047085510196522296,
      -0.0006481076549327202,
      -0.0001842775984021126,
      -5.640847879039898e-05,
      -0.0031611727457969124,
      0.0012986969674874617,
      -0.00015729497336720857,
      -0.0012300511847066734,
      -0.0001781599939446312,
      0.0030272807716347334,
      -9.300802348033752e-05,
      0.0010149713995252707,
      -0.00033125821486498834,
      -0.0008195576332685545,
      -0.0009909291698584248,
      -0.0008893312985864522,
      -3.087367993993758e-05,
      -0.00016599881689118782,
      0.0064404319974899205,
      -0.0030440525084431914,
      0.0032641313445613456,
      0.02329541006159272,
      -0.00504311285079522,
      0.004198399036046772,
      -0.012724581104206639,
      -0.01833083385349508,
      -0.011385995538387882,
      0.005225116659246012,
      0.008105086756391223,
      -0.015670409818891944,
      0.015670409818891916,
      0.0010231030021194028,
      0.004093700652825865,
      -0.003361927530014824,
      -0.0035947299926552727,
      -0.01659148806450567,
      -0.0017303951539220357,
      0.004037287901951524,
      0.002363271477113868,
      -0.008090472762862424,
      -0.0012214223692409887,
      -0.0006372918019196893,
      -0.0003948921304468809,
      0.010265783971296223,
      -0.002686658147182945,
      -0.01265915467796818,
      -0.002805148455559553,
      0.0025828787723672854,
      0.017331494579393633,
      -0.003646569178986947,
      -0.0024940042175761114,
      0.017713798804035598,
      0.0005028353217382262
    ],
    "intercept": -3.304075934250341
  },
  "wide_insurance_no_weights_l2_poisson": {
    "coef": [
      1.5165653414605,
      -0.4977158962787028,
      -0.03659303711606327,
      -0.060247147547567936,
      0.0036859092043241217,
      0.003971245188895831,
      4.472774891970603e-06,
      1.8575110437898553e-05,
      1.8575110428580553e-05,
      0.3208170560685742,
      -0.03205924078057113,
      0.05849171743841911,
      0.09292213148743197,
      -0.05187056358482636,
      -0.08074308866013045,
      0.013259044099676865,
      -0.11900867433150623,
      0.02982470270870877,
      0.0832114872062194,
      0.12060888613350819,
      -0.07194017976969515,
      3.109881188190934e-06,
      -0.018666111243204716,
      -0.029324440185553052,
      0.020314432151894886,
      -0.004972568276269853,
      -0.003140290092688406,
      -0.00691035418260199,
      0.26622041655542134,
      -0.13769398632462307,
      -0.0672816800912637,
      -0.0018846034765611008,
      -0.06687910732284544,
      -0.03165197143968492,
      -0.03925913465062419,
      -0.02585330963181802,
      0.001370132493984664,
      -0.025557120957518872,
      0.12550947812988913,
      -0.019727956718667675,
      0.02867470557439078,
      -0.015670781515615337,
      0.002082069924616061,
      0.017911300485525104,
      0.005743755389035146,
      -0.006734284355680637,
      -0.00031432213775037287,
      -0.0048492811691528154,
      -0.0027343769266594386,
      -0.0023018958533894108,
      -0.0005254815364497759,
      2.1016412445344743e-05,
      -0.00042490372114304493,
      -0.00031695353598565665,
      -0.0001570007439450187,
      0.0023307804733077382,
      -0.00013602159668658223,
      -8.766641487456561e-05,
      0.0008105352185487855,
      -0.00023611112682385898,
      -0.00010251109164132678,
      -4.010145118825053e-05,
      -5.179328391534207e-05,
      -6.760962931865441e-05,
      -2.165082340295893e-05,
      -7.262987315074527e-05,
      -2.4229624345644464e-05,
      -1.0714818817312657e-05,
      -4.287317365297471e-06,
      -7.114962548712306e-07,
      0.00020068525612891518,
      0.00396905389125681,
      -0.0018336452257687122,
      0.004685965659128946,
      0.01687380799339996,
      0.0007133448366423255,
      0.0039687746043120175,
      -0.011768981555321032,
      -0.006553105391775639,
      -0.012243375206109524,
      0.03732186681062614,
      -0.005012981277888673,
      -0.022828698979042637,
      -0.006857757121529803,
      0.027119556993846675,
      0.11909026517241353,
      -0.025715915823748516,
      -0.019720498223559726,
      -0.0010749027919613294,
      -0.0020647101157812192,
      -0.02318141048474541,
      -0.0074955354887806976,
      -0.02066575633805738,
      -0.04280147826803997,
      0.028266256533064506,
      -0.004801347552088052,
      -0.020176279931999008,
      -0.029173329355569714,
      -0.016516883398541293,
      -0.02197552513065805,
      -0.00699133606224699,
      -0.009819430634281963,
      -0.02208127668614837,
      -0.004038841371025269,
      0.0653667783777476,
      0.03069227335969856,
      0.006779033211262972,
      -0.02322528565924131,
      0.007433631194207563,
      -0.01476333441927385,
      0.0007532731830158455,
      -0.0015660463084558325,
      -0.014347890968403134,
      -0.018333642444795736,
      -0.01540630119272041,
      -0.015165843655878095,
      0.016066164245402113,
      0.008466812440553913,
      -0.018141055135503372,
      -0.012917098910723636,
      0.06857489433251637,
      0.009708796484439465,
      0.08293177430183693,
      -0.01131153926020243,
      -0.012521453174464407,
      -0.009665471542207194,
      -0.010333510256562628,
      0.0026137044844021674,
      0.0025765953320871925,
      -0.004501742750696633,
      -0.0010168162953602404,
      -0.0039352856723548855,
      -0.0056431938361813155,
      -0.003662163689016957,
      -0.00220493610121207,
      -0.0023356562430266307,
      -0.0008972446997146498,
      -7.319005652550181e-06,
      -0.0004647272690783411,
      0.005732758895952455,
      -0.00025003485480967514,
      -0.0008579619319603707,
      -7.867673255298719e-05,
      -0.0001929392498021866,
      -0.00020374646252055247,
      -0.00013498909404496972,
      -0.00030133325138802925,
      -0.00012582511146841347,
      0.009951119254962254,
      -0.023918288138096662,
      -0.010427085303874964,
      -0.0023228025809459737,
      -0.011626285541850386,
      -0.014551706459825049,
      -0.002720011004219481,
      -0.018912701930093298,
      -0.0012514967720188479,
      -0.006186774640452463,
      0.10819865983157323,
      -0.0004715168057311839,
      -0.004179887833535064,
      0.007755291403970305,
      -0.03362855297207573,
      -0.0024801665553456313,
      -0.002648637273886356,
      -0.0012287495333769328,
      -0.010173680893246136,
      0.003340903048916711,
      -0.002682697994131921,
      -0.004760310167088527,
      0.04276498165632481,
      -0.001998355972788114,
      -0.0010801626506775506,
      0.000796448367675828,
      0.010105010422142797,
      -0.0030094249014734416,
      -0.0008882121970610228,
      -0.00015505616000907548,
      0.025009887074376982,
      -0.0014236232524518786,
      -0.0008849805207461083,
      -0.001603638512504825,
      -0.0004399280047449188,
      -0.010997922219490188,
      -0.0009460121454482233,
      -0.0014656478277160227,
      -0.0004951031233457553,
      -0.014383624827246996,
      -0.0004470372408436436,
      0.0003354824787754219,
      -0.0003347925089339813,
      -0.006845428767768909,
      -0.008076489249276462,
      -0.0007224805331316439,
      -0.00031386672431941016,
      -0.008403971188220902,
      0.0008188739568614633,
      -7.616663755878291e-05,
      -0.0038704138747827944,
      -0.00015164199149016007,
      0.00541673833836665,
      -0.00016037406530648534,
      0.009746005540116965,
      0.0007451590196444318,
      -0.00024081615795362322,
      -0.0001688176843174551,
      -0.0005993392779606905,
      -0.00044498652011545366,
      -0.0001848932562285411,
      -0.04668778501133984,
      -0.020117363603084117,
      -0.0018597961794615283,
      0.14242102733368306,
      -0.011169075810643386,
      0.0016945163679148623,
      0.008433574197132889,
      -0.06545869474431612,
      -0.005413352064246669,
      -0.03654851684988521,
      0.03470546636424625,
      -0.19332050343861953,
      0.19332050343861978,
      -0.014013934013728902,
      0.0036032269994437293,
      -0.006310979034046491,
      -0.015918598538951508,
      -0.08902547663147767,
      -0.000249116033274582,
      0.024516584517810122,
      -0.0029958091482016024,
      -0.014211531034488113,
      -0.005856559233526181,
      -0.0027611053509054126,
      0.022422306454485317,
      0.07142853466913751,
      -0.01364420706511508,
      -0.03864720573170352,
      0.08735955703253573,
      -0.006018803397011893,
      0.07537819196843855,
      -0.013046006090652876,
      -0.007327621111469882,
      -0.04481908867884239,
      -0.00986236054845481
    ],
    "intercept": -1.4816528082637637
  },
  "wide_insurance_offset_l2_poisson": {
    "coef": [
      0.5036957095917651,
      -0.067644909283749,
      0.01918577520540848,
      -0.03780243468718436,
      0.0052534237473034155,
      0.017795943074275154,
      2.4403684825986965e-05,
      3.755791282052799e-05,
      3.755791353390943e-05,
      0.34429222636153245,
      -0.004356399808554478,
      -0.012636293629026855,
      -0.0004673192387581843,
      0.006239438127786666,
      0.015092883273853023,
      -0.0038723087253001312,
      -0.008084579715053478,
      -0.006554636006103559,
      0.013750511723720745,
      0.0031019594153155706,
      -0.006834547380254058,
      0.004251461069610905,
      0.0010215739373956032,
      0.0006253208695969747,
      0.0017139974507619847,
      -0.0013534376693691377,
      -0.000990524044253893,
      -0.0006470996513677235,
      0.04905647405129343,
      -0.02748374039382674,
      -0.020161278606059138,
      -0.0031168109439573036,
      -0.0008569418881599572,
      -0.0038950625262976694,
      -0.0017309827068869687,
      0.0009448207681515715,
      0.002657321411376549,
      -0.006609507920848868,
      0.010034321819204491,
      -0.0008833320637310219,
      0.007348270298844712,
      -0.004579141593660454,
      0.001899020861845954,
      -0.0008860730714522401,
      -0.000303430474623281,
      -0.0018850482510225693,
      0.0023950731983513073,
      -8.998093605601925e-05,
      -0.0014576934324030382,
      -0.0011139879337231705,
      -0.00028559663470650225,
      0.0003162337203457966,
      -0.00021892751599256747,
      -5.191521155228643e-05,
      -0.00014253432084032484,
      0.0008039744525232605,
      -7.811699411820405e-05,
      -2.7543018524053002e-05,
      0.0008020349678447725,
      -0.00010597773991548325,
      -4.96791511125603e-05,
      -5.929519644288369e-05,
      -5.3479810931860346e-05,
      -3.3388983161573874e-05,
      -2.1686194338745487e-05,
      -5.11924364209608e-05,
      -1.2073332615287265e-05,
      -8.643541351750086e-06,
      -4.437464267286752e-06,
      -4.5260781094593904e-08,
      0.0005511380120530445,
      -0.0004810125720603909,
      -0.011248276761500677,
      -0.0006087517893292027,
      -1.852929550386689e-05,
      0.001800674755120812,
      0.0059441416662526165,
      0.0008707385628779896,
      -0.002739769449270299,
      0.0018278592267123109,
      -0.002743158996842974,
      0.004102923704023946,
      -0.003634366906291318,
      0.0008573698111311284,
      0.001980233626443702,
      0.001302701134836303,
      -0.003295101119362823,
      -0.002828772706281092,
      0.002491888974018215,
      -0.004000178679684377,
      -0.003346599428755759,
      -4.070731805711438e-05,
      0.00046525278667143647,
      -0.00448955018852775,
      0.006562083708800582,
      0.0028533846835708844,
      -0.002515150871077415,
      -0.004755094229089227,
      0.0049494046568884925,
      -0.002772556633328769,
      0.002806743064771959,
      0.001263677792948827,
      0.00601452456230383,
      0.00122203787864695,
      0.0033129933067989545,
      0.007729950466717549,
      0.002257962852724365,
      0.005216184915290725,
      0.0018686723063951098,
      -0.0030035589505789362,
      0.0004889536593632608,
      -0.0001168982478986061,
      -0.0008897685849908177,
      -0.0009245645996743212,
      -0.003027293256888091,
      0.0006407734374824266,
      0.0006229328516075614,
      0.0007501598350468998,
      -0.000577685846374252,
      -0.0025365923644254332,
      0.00041029627970394706,
      0.0001198285206645986,
      -0.0016765134894679028,
      -0.0010653685167307714,
      -0.002078249661791884,
      -0.0023083880987888913,
      -0.0025817930095863523,
      0.0006495965735697388,
      -0.00023709821268382025,
      -0.0009348208070329122,
      0.0011610015129417109,
      -0.0010935436413688309,
      0.0005592112695067729,
      -0.001345215342268293,
      -0.001040665901842614,
      7.338321658797886e-05,
      -0.0004222401240601793,
      0.0006990690300087188,
      -0.00027161086142466607,
      0.0021539515930026386,
      -0.00010929695243695543,
      -0.00028155345189011455,
      -5.9167787952185925e-05,
      -0.00013533573335221762,
      -0.00014165014246857462,
      -8.251708886539772e-05,
      -4.918386849823334e-05,
      -7.354874718174391e-05,
      -0.015795605431707885,
      -0.0032079380975163973,
      8.069819451725622e-05,
      0.0008809011891663249,
      0.000524218722500654,
      -0.001194474501964522,
      0.003028572068599657,
      0.0006949690539542638,
      0.004069894052593516,
      0.00043642260602336995,
      0.0030218177408414476,
      0.00012599505993111975,
      0.009558966756896731,
      0.001366614724270672,
      -0.0027257603683368426,
      0.0005624218615659268,
      -0.0009587114904364146,
      0.0005647954135477111,
      -0.0033010419567900628,
      0.004138443997581793,
      -0.0009930147030116996,
      -0.0006601085895736389,
      -0.0008399643967228421,
      -0.0008075532314096382,
      -8.737744280879515e-05,
      0.0026190402167562757,
      0.0013269243386376467,
      -0.00038514042601869814,
      0.001549104798529056,
      -2.4358358974225924e-05,
      0.003886409691662983,
      -0.00024758450181288077,
      -0.00031953583886207054,
      0.0010792673291733744,
      -2.9090774042948262e-05,
      -0.003243729835980731,
      -0.0003603911973855387,
      -0.0003428576675470329,
      -2.6447250917010225e-05,
      6.169233464996931e-06,
      -0.00015249916309829404,
      0.0004399383101718524,
      -0.00016580532031594853,
      -0.0038889304293367646,
      0.001120438766173486,
      -0.00012465162456603342,
      -3.532003278586337e-05,
      -0.002116843964883371,
      0.0007578207327960679,
      -0.00010562202078763535,
      -0.0008159366905496105,
      -0.00012330179676525875,
      0.0018413325245888775,
      -6.579435361776993e-05,
      0.0021802604303191257,
      -0.0006042166362264796,
      -0.0006601303205535235,
      -0.0006080509141181691,
      -0.0006899382688591884,
      -2.319546619561655e-05,
      -0.0001305147497848304,
      0.003543179038235695,
      -0.0016937842205288773,
      0.0016893767031999336,
      0.016373882362769928,
      -0.003291294474537016,
      0.0022984331475789494,
      -0.008487551514123035,
      -0.01135320703052541,
      -0.007168855729293869,
      0.0028888644769236222,
      0.005200957240300095,
      -0.005800684990881618,
      0.005800684990881625,
      0.0013188726528206016,
      0.0021338333670036214,
      -0.002147996775031976,
      -0.0021552861820660946,
      -0.014518738897174567,
      -0.0012145877927962517,
      0.003160371794031103,
      0.0022302827164108192,
      -0.004973995734615605,
      -0.0007510130668649077,
      -0.0003769505442876425,
      -0.0005916606755790906,
      0.006673044454990615,
      -0.002221153153100041,
      -0.007471781768262004,
      -0.0021365076866003813,
      0.001593135760504904,
      0.009981012110924899,
      -0.0021415074231281687,
      -0.0015699214984010107,
      0.01509234140510718,
      8.820693611403896e-05
    ],
    "intercept": -3.530867574614275
  },
  "narrow_insurance_weights_l2_gamma": {
    "coef": [
      -0.07599500385394563,
      0.0387321549349373,
      0.13318981801399815,
      -0.030030650732671613,
      0.031182038572381002,
      -0.0010114627886131248,
      -0.0499200089420888,
      0.04107510430842868,
      -0.017517279210712118,
      -0.05507570618411097,
      -0.0221825459371614,
      0.04288361943179604,
      0.12488285846412495,
      0.0027246574560039526,
      0.0837555980458152,
      0.01819974058935811,
      0.07750735389014211,
      -0.03860683819036499,
      -0.010227406998679862,
      -0.07294641231905205,
      -0.03131569174236616,
      0.005615443499594809,
      -0.005299042272849301,
      -0.03420547379053569,
      0.01955184912461599,
      -0.007034087231344697,
      -0.0661932691312084,
      0.033272614764133464,
      -0.013655726657997939,
      -0.015165995618437728,
      0.11940876220930176,
      0.010169179391286505,
      -0.013256121918822951,
      -0.03334599000347028,
      -0.015578370050935176,
      -0.0018440533228193767,
      -0.08948349069288616,
      -0.08010961256075688,
      -0.014568280533401668,
      0.04505517428150961,
      -0.0035087903087151202,
      -0.024085201394490524,
      -0.044869525127938445,
      -0.006841812386302613,
      0.10129748363685066,
      0.07524783115585584,
      0.009245708307369196,
      -0.012574359938750659
    ],
    "intercept": 7.38826501706891
  },
  "narrow_insurance_no_weights_l2_gamma": {
    "coef": [
      -0.06618339171168487,
      0.03807516091095133,
      0.12577500327435784,
      -0.02742078794143594,
      0.045496646155371676,
      -0.0010727743252938948,
      -0.058345389709158965,
      0.038549272505359104,
      -0.021863671955502255,
      -0.05361564721882039,
      -0.02296135089792558,
      0.03126650712574394,
      0.1244198686026697,
      0.003167806833484859,
      0.08851761301665999,
      0.024787145269774286,
      0.04361423227263772,
      -0.03368712655292895,
      -0.00814344765840545,
      -0.05593386224185307,
      -0.03416552867816109,
      0.01430739320221365,
      0.005295000876959913,
      -0.0267420488686071,
      0.0027176934912499394,
      -0.008936763814928403,
      -0.08113377435173016,
      0.015769351140205345,
      -0.013054045604372122,
      -0.013143875728113066,
      0.13276534184578292,
      0.014809612256430741,
      -0.0100205504476547,
      -0.03239182183311168,
      -0.013950530495534621,
      -0.001739163500542567,
      -0.09657329703450343,
      -0.07163920702056858,
      -0.008015995394953289,
      0.040829263852638076,
      -0.0035194100443313595,
      -0.023095182803969588,
      -0.04785070424110138,
      -0.006187990351358963,
      0.09693526907016448,
      0.081174426886003,
      0.00151102612449524,
      -0.005922714271040899
    ],
    "intercept": 7.346459656095153
  },
  "narrow_insurance_offset_l2_gamma": {
    "coef": [
      -0.06618353594968222,
      0.03807562930322215,
      0.12577585438955477,
      -0.027420942393192874,
      0.04549695675290575,
      -0.0010729780079352816,
      -0.058345133106801124,
      0.0385492839036356,
      -0.0218637537861598,
      -0.05361557183752297,
      -0.022961629046573957,
      0.03126682620360413,
      0.12442074428451937,
      0.0031677837147904815,
      0.08851882976690557,
      0.024786914551667306,
      0.04361474917684168,
      -0.03368729600110177,
      -0.008143451566104971,
      -0.05593433318522019,
      -0.03416555741749416,
      0.014308429779900749,
      0.005294734802187412,
      -0.02674247429619641,
      0.0027179640688445245,
      -0.008936948591093497,
      -0.08113417509245148,
      0.01576953688916517,
      -0.013054244280903309,
      -0.01314397990703096,
      0.13276857387850893,
      0.014809175340387146,
      -0.010020698293420524,
      -0.03239211612100283,
      -0.01395056762300124,
      -0.0017391692819797421,
      -0.09657349498296057,
      -0.07163958571295355,
      -0.008016039355982475,
      0.04082884178788299,
      -0.003519475064436624,
      -0.023095345781323898,
      -0.04785109912443662,
      -0.006188050405993741,
      0.09693595192360138,
      0.08117424106206154,
      0.0015110112970441701,
      -0.005922710769955904
    ],
    "intercept": 7.346462449645247
  },
  "narrow_insurance_weights_l2_tweedie_p=1.5": {
    "coef": [
      0.2232263580514274,
      0.16891966437509415,
      0.4422944356507535,
      0.47525601720051014,
      0.5983727400316968,
      0.2661381241051772,
      -0.1658877158245085,
      0.9365099511296274,
      -0.40144563794950605,
      -1.060685093025926,
      -0.0964109392919367,
      0.04638319665858043,
      -0.24173108641130683,
      0.03643324036070355,
      -0.6808130570845262,
      -0.4044664718419053,
      0.007701104101175242,
      -0.6540901473370491,
      0.33159095892805956,
      -0.07663441283948882,
      -0.5627273070253712,
      -0.5239749160665634,
      -0.37606052237889565,
      -0.2618006155072733,
      -0.27092649393012286,
      0.020176206538682753,
      -0.007381294315502504,
      0.1184920644183691,
      -0.35508051773574417,
      -0.24716184883435263,
      0.32109695415801703,
      0.17416095487086128,
      0.09018390329662275,
      -0.138406909462812,
      -0.20135407508831232,
      -0.07552654425726939,
      -0.24704735964525565,
      0.430636745712349,
      -0.4027698228644431,
      -0.04859404450721472,
      -0.25209234016990756,
      0.015214949094005443,
      0.2942600545111638,
      -0.31282672918821075,
      -0.033403407107599765,
      0.6210133547202394,
      -0.11334530583065076,
      0.1531128166535386
    ],
    "intercept": 1.9646711561787682
  },
  "narrow_insurance_no_weights_l2_tweedie_p=1.5": {
    "coef": [
      0.7195806803873667,
      0.4921964657305759,
      0.8086818703560743,
      0.49476034257201074,
      0.6723473604318627,
      -0.3784496910637336,
      0.13863009554768876,
      0.8087503501640008,
      -0.48360886029752614,
      -1.1929397585942363,
      -0.27321927293114784,
      0.13592979706552288,
      -0.3162609395098439,
      0.03303328802055377,
      -0.5341798900059076,
      -0.35319585257427105,
      0.011780527110518302,
      -0.5744697968359641,
      0.23434333708952715,
      0.035218531913219574,
      -0.6340242948178251,
      -0.04991649556682066,
      -0.4497512229224595,
      0.13860193443674862,
      -0.36797954403451444,
      0.0628019292341286,
      0.16098704746116554,
      -0.038400767817347095,
      0.17537003291456352,
      -0.5306587887968001,
      0.47131767318860596,
      -0.2163202046379237,
      0.18123647387362232,
      0.24645063303983197,
      -0.24445037355462942,
      -0.11412644961623024,
      0.24351211103910095,
      0.6828767005300274,
      -0.19861050691334733,
      0.15484478751408834,
      0.009143728937143603,
      0.0841274523353325,
      0.7403502973657469,
      -0.5065220764890718,
      -0.5036240656408969,
      0.5948146697918532,
      -0.16634136141007486,
      0.09095634646817531
    ],
    "intercept": 1.8418511773207622
  },
  "narrow_insurance_offset_l2_tweedie_p=1.5": {
    "coef": [
      0.38230645402597063,
      0.24101611564677883,
      0.5181059162789116,
      0.4329837303431337,
      0.5307400150092664,
      0.03373768000676192,
      -0.03885980229253315,
      0.8282717801957428,
      -0.4091298854559773,
      -1.0654039921099845,
      -0.19005968806959314,
      0.05188894727958397,
      -0.273414989447929,
      0.03493655282939113,
      -0.5162255243762085,
      -0.2891286316460683,
      0.018125783766003267,
      -0.5064389581285016,
      0.23953308810390056,
      -0.03407990895088633,
      -0.555646276387808,
      -0.320069571585952,
      -0.3925360998956648,
      -0.0921846652552423,
      -0.32636728619406,
      0.04541427451328676,
      0.02275600532894137,
      0.034938021354530086,
      -0.13604415864935435,
      -0.27832291217472616,
      0.34693557872398234,
      -0.000745505399412559,
      0.10105215244902577,
      -0.012008370042878533,
      -0.16205646026233914,
      -0.06288357474633764,
      -0.03917334017960669,
      0.5160506466072903,
      -0.30628488601197684,
      0.029976363802531707,
      -0.15990757823141263,
      0.028585574657324708,
      0.4154331943175576,
      -0.30866018380825505,
      -0.23751325413288235,
      0.5483313643205664,
      -0.11105077270789682,
      0.11919134282299085
    ],
    "intercept": 2.027802224855436
  },
  "wide_insurance_offset_l2_tweedie_p=1.5": {
    "coef": [
      2.4563512547053974,
      -1.2016744144243534,
      0.030095243803467907,
      0.010216208995697302,
      0.0022126778303902424,
      -0.002902108528221597,
      2.695951573782864e-05,
      7.452167938383515e-05,
      7.452167938356962e-05,
      3.017255838979414,
      -0.14096903067830668,
      -0.10133174917735653,
      -0.07574749021603956,
      0.47692452441868166,
      -0.1982780521775253,
      0.03940179783054511,
      -0.0006143292357359706,
      0.12106445063376164,
      0.10804001912986039,
      0.017204288684729417,
      -0.3099456361073059,
      0.016976448077719173,
      -0.28569094568861936,
      0.1180240272503236,
      0.26872474527635426,
      -0.057519112466833805,
      -0.010993237363359392,
      0.014729281809104327,
      -0.13342448020964423,
      -0.16151070769161346,
      -0.3074027074336492,
      0.4661691352656882,
      -0.015431348086484916,
      -0.11369842880805898,
      0.3081495988124989,
      -0.14899559642190294,
      0.2280345154652202,
      0.06413778881695757,
      0.002784949018418284,
      -0.2770462480428869,
      0.3466509580309503,
      0.006865508062876692,
      -0.0899568984465681,
      0.09085927022325604,
      -0.3186969246226984,
      0.020625261695112862,
      0.10417962350256121,
      -0.01608818058274298,
      -0.043437360451468766,
      -0.03833843516058909,
      -0.01130099807636779,
      0.04671329643503279,
      -0.008610889135137951,
      -0.003931227275218909,
      -0.003942207510963017,
      0.02966899710402095,
      -0.003969913753417362,
      -0.002347616855062845,
      0.009429114037731591,
      -0.005801645787685231,
      -0.00267726932382465,
      -0.002140572884617334,
      -0.0028258798652055373,
      -0.0030584876152140615,
      -0.001088131908991883,
      -0.004017344947937829,
      -0.0012990525363662613,
      -0.0013156718763960781,
      -0.0015260644178402604,
      -0.0003877267417715318,
      0.08505306807780147,
      0.030099461314943222,
      -0.29219720625919915,
      -0.011509921975370579,
      -0.03488286799307774,
      -0.013762287489971135,
      -0.20779682967467858,
      -0.050935865066959546,
      0.06532433964061529,
      -0.1876802332491146,
      -0.020502668578330743,
      -0.33706813168907884,
      -0.06500262213432041,
      -0.06936208816065476,
      0.2604137040571135,
      -0.2525375005511493,
      0.06370405562123485,
      0.023159075022007255,
      0.052814872602503074,
      0.13157162120997898,
      0.010608297276730811,
      0.011747153661998484,
      0.4903142278509227,
      -0.33350043543402413,
      0.2975647904754274,
      0.3078082234792097,
      -0.25150355070766345,
      0.037479200728544895,
      0.21449830595161104,
      -0.024567137612753618,
      0.030432963673059543,
      0.12290480872980107,
      0.287118510256386,
      -0.3027314290708171,
      0.21881985974909549,
      0.027133966531447316,
      0.20796862741491168,
      -0.13247045616103686,
      0.009569933717168343,
      0.12270445086404937,
      0.08980073474770957,
      -0.23685589653046352,
      0.20307081104480523,
      0.03743283010213625,
      0.032487840239786445,
      -0.2603814546120328,
      0.18534492528507918,
      -0.022925511651984688,
      0.08408894219252348,
      -0.09257058087616853,
      0.06570610533918263,
      0.02973068837967332,
      -0.0803614028860591,
      0.006783071321935951,
      -0.014490296005481337,
      -0.026270910283129674,
      0.14131019579012244,
      0.05784636443866114,
      0.016922559594010466,
      0.02363600747158937,
      -0.43651672333901737,
      0.01241889717758315,
      -0.2453695040468354,
      -0.022693445325874653,
      -0.017166108199467848,
      0.007265311699877475,
      -0.006423896183591822,
      -0.007080579189462341,
      -0.005054056138578013,
      -0.02425403689946542,
      -0.002598013860196395,
      -0.00585761433929103,
      -0.0011597237612290946,
      -0.0012809973666442498,
      -0.0019545497389672393,
      -0.0011662354357340017,
      -0.0008163315460179517,
      -0.001399702707346727,
      -0.24754784533335752,
      -0.07169819390806412,
      0.13412097182805655,
      0.01648921707072533,
      -0.015868093365728822,
      -0.2572103476004744,
      -0.12299763993908634,
      0.022174806392408757,
      0.22305713928776433,
      0.026517620153426374,
      -0.18417921322159103,
      0.045457867101711416,
      0.1360460785566542,
      -0.011182742517967654,
      0.036798763791812995,
      0.08190831025292372,
      -0.017182170917325833,
      0.05099361068175828,
      -0.016472743882361144,
      0.18656805598466714,
      -0.014573544787341176,
      -0.01314526834901243,
      0.2636988617603455,
      0.03305390317114694,
      -0.002135952668901648,
      0.10455783567830307,
      0.022573219811145746,
      0.006941223333761606,
      0.0773120425889649,
      -0.00047308607419128913,
      0.30119754951451855,
      -0.006247962997668199,
      -0.005115854619229375,
      -0.2489740643605124,
      -0.0010292462709718766,
      0.041174901517733994,
      -0.005107455767722886,
      -0.005027420486810519,
      -0.00042760746461231036,
      -0.23806774611430642,
      -0.0017391124822325017,
      0.03618191089494692,
      -0.002988428217513934,
      0.05742459212740521,
      -0.16226323991032113,
      -0.001253857273039691,
      -0.0009063970857498778,
      -0.6827759894759624,
      0.010958087106496562,
      -0.0012205529037178295,
      0.0807995338007509,
      -0.0012811626477516195,
      0.16355999946840377,
      -0.001247955853361376,
      0.141684696326341,
      -0.011261800770463426,
      -0.001990237351080886,
      0.05642026079277279,
      -0.002309704940405059,
      -0.00031983888318702836,
      -0.0014485805529240484,
      0.047920636515597685,
      -0.043489231056916995,
      -0.1333089965511552,
      -0.14765796005190848,
      0.03893618590900976,
      0.1674247708303883,
      0.18004779839474755,
      -0.039570010011259274,
      0.09010450723553873,
      -0.21492706188031477,
      0.05451936066627266,
      -0.05092380365854254,
      0.05092380365854262,
      -0.06557837615803948,
      0.08269128896674231,
      0.06132930441041433,
      -0.008935689860947187,
      -0.09338591946272176,
      0.2813405945362228,
      -0.23229816349480853,
      -0.34563958338189693,
      0.13867784052172658,
      -0.024906518068729,
      -0.007527657442004726,
      -0.03680761501399207,
      -0.2863634881073843,
      0.0784556105225258,
      -0.02149724708285949,
      0.10753097189088523,
      -0.08878867809132973,
      0.5445373725736256,
      -0.026942858928968777,
      -0.06251363417108648,
      -0.05473634044585997,
      0.06135878628848579
    ],
    "intercept": 1.2290387906783908
  },
  "narrow_insurance_weights_net_gaussian": {
    "coef": [
      -122.7673660530069,
      115.35257933710851,
      333.5148241853105,
      -69.2514231661797,
      81.95526051919461,
      -28.1947633931947,
      -82.28338479907758,
      134.41141810367006,
      -43.123533591396416,
      -124.83380629531806,
      -34.72287587198197,
      108.07556071335084,
      375.67270900096236,
      4.934437573923828,
      298.72381920607734,
      33.085629471966485,
      203.63420177690614,
      -122.85332854724669,
      -32.36417877536999,
      -159.57891257215175,
      -62.23797952597488,
      43.00629764269426,
      -10.549016981012068,
      -106.12058815460416,
      59.728802217438755,
      -4.916233462831634,
      -183.67819415787622,
      144.27916306645912,
      -58.03361263883294,
      -57.88885975820623,
      449.29746714639566,
      6.219837955868752,
      -50.36365343008935,
      -124.04432136149124,
      -54.77707345635456,
      -5.440436307656508,
      -213.14773105879658,
      -200.72309533281984,
      -58.668136434569455,
      101.49796564205666,
      -18.23323555036155,
      -84.25690998711927,
      -107.10856429094352,
      -28.50183712925292,
      343.73185587725703,
      167.97158453771388,
      37.99690447013225,
      -42.59813129711214
    ],
    "intercept": 1599.5290276945589
  },
  "narrow_insurance_no_weights_net_gaussian": {
    "coef": [
      -99.72286042878113,
      108.42099168489852,
      306.27338020415436,
      -56.453164064059294,
      122.7609082720894,
      -23.785494679776505,
      -107.5466070862168,
      127.46681483630317,
      -56.29278846052994,
      -120.45278012785418,
      -41.45292298579008,
      76.46343905969393,
      365.37104282328744,
      5.6172794501858485,
      314.04575836203816,
      53.50025715264898,
      114.49281867527147,
      -106.8587795945025,
      -25.737715976348177,
      -118.88869740235428,
      -70.89829370514231,
      68.55690101053547,
      17.277845218099937,
      -83.24442643526315,
      22.814600199971633,
      -9.131246606787483,
      -213.63304669860426,
      63.42073421786171,
      -54.72344890132859,
      -49.37496838870584,
      488.9614103248517,
      25.37023003067785,
      -39.01929024570447,
      -118.88121982007166,
      -48.07302136986692,
      -4.673485574981745,
      -232.86640311235004,
      -180.28596477610145,
      -35.38766437862669,
      87.71258831348402,
      -15.656592893180873,
      -78.24001992068874,
      -113.8841895257951,
      -24.731458984165666,
      325.3736949112911,
      183.721631165063,
      3.6946993998215816,
      -23.60452781246117
    ],
    "intercept": 1521.5343601403601
  },
  "narrow_insurance_offset_net_gaussian": {
    "coef": [
      -126.24004806801395,
      116.97351085569196,
      355.0034583187611,
      -78.0079320754219,
      77.54031090926186,
      -48.60334556712878,
      -101.55262983355618,
      135.05591667083505,
      -30.970231450687116,
      -142.81823254166162,
      -53.739917134804784,
      129.25628047708548,
      416.6929275330955,
      7.109347921417083,
      296.7034285889188,
      27.71126978878193,
      287.64027159163714,
      -106.54111761171029,
      -30.582235955891974,
      -170.11946722291023,
      -74.28792375985367,
      32.51274103651888,
      -14.030406560638077,
      -110.25652274811867,
      53.281516972516194,
      -3.319468333238714,
      -178.00857437813235,
      163.70272420844768,
      -79.14541003619992,
      -68.94269287672938,
      476.2511960234244,
      8.151792349432629,
      -45.779003024674346,
      -145.51671944346737,
      -41.69870568533416,
      -7.915959240326109,
      -226.4776623432758,
      -203.44860482506456,
      -72.500151159358,
      116.70350153998476,
      -28.4489446993068,
      -88.77978678851932,
      -107.01969844250269,
      -37.72109164081845,
      368.0818757325849,
      208.4325065275251,
      58.227131890133634,
      -40.25518125850928
    ],
    "intercept": 1537.4613634609525
  },
  "wide_insurance_weights_net_gaussian": {
    "coef": [
      -819.4578885912894,
      -7.25238823491605,
      20.906729186449766,
      -4.918016429536969,
      0.8307809286564438,
      1.0409711233060632,
      0.0032102194491912548,
      0.016459549845179885,
      0.7963730672782222,
      -819.4578885942279,
      -37.46790989668068,
      -17.187202710329522,
      60.84293641679359,
      -27.14150205696288,
      16.383360837896316,
      4.570317467317085,
      -17.4554313567831,
      39.91505037056568,
      -6.625551320055066,
      -24.018066297552437,
      -7.937177807778132,
      33.74461667847107,
      -16.40183632445802,
      -22.45325700047466,
      -0.7620197066767348,
      34.46720162928987,
      8.993413701270967,
      -17.46694261913672,
      -1.5698395684288284,
      -24.319428978302806,
      -37.85934582165491,
      41.879875166312665,
      33.58221174071677,
      -6.619902839931177,
      0.795426252320864,
      26.8068724774625,
      15.175247546349155,
      5.741745841237991,
      11.521037992986077,
      30.32514628448223,
      -71.98184989536514,
      -31.1512074145486,
      18.540329382309274,
      -0.18605963890980748,
      -107.61747919413095,
      26.692690669159155,
      52.24363782155387,
      0.6879229369139538,
      4.308517277315203,
      1.055880076580731,
      0.0,
      0.0,
      -0.2974145795962886,
      7.399030345857137,
      0.0,
      0.0,
      0.0,
      0.0,
      0.0,
      0.0,
      0.0,
      0.0,
      0.0,
      0.0,
      10.065264958010816,
      21.914356083759223,
      -15.914999458923958,
      12.818726162833796,
      -65.27275507871606,
      25.895171173341666,
      14.419105032436498,
      -3.2668506797221903,
      -0.8387538916306099,
      -17.08967013791716,
      0.0,
      4.752746610517519,
      19.498261134296506,
      20.841514941345256,
      -35.39406758035175,
      25.639902463852312,
      28.515011042105346,
      0.3357823223981863,
      -87.61985738729655,
      -1.7045942967198857,
      -11.93023811809451,
      8.417570254402115,
      23.884754701895073,
      16.039437489214098,
      49.15112307883334,
      1.8422742163839878,
      28.681656365480187,
      14.794701853540948,
      34.54077749126723,
      34.9474189223406,
      -57.94775798317782,
      -1.8516012118772756,
      4.9911368207322235,
      16.93994337663042,
      -104.61619656709296,
      -29.30832629516282,
      -23.809844040460973,
      0.0,
      46.50679941747723,
      -1.8445594623372723,
      -15.308204031554517,
      0.0,
      -171.1148076190196,
      8.736418602663907,
      7.794731555602821,
      -1.2667394033421673,
      63.353930054199374,
      13.56507006031232,
      41.8408320798327,
      46.91136708030679,
      1.3504908802099247,
      -27.194709348855525,
      -41.11401629276676,
      -5.32334810911331,
      2.379406671749701,
      31.439128393577043,
      24.128385145846433,
      3.734305202612543,
      50.02497811325239,
      -85.41757230058036,
      33.62883046793805,
      2.2483734973811114,
      0.05189794821135219,
      0.0,
      0.0,
      -0.20728723070093216,
      0.40358645885598493,
      -8.26825735295164,
      0.7744821049559237,
      0.0,
      0.0,
      -1.668520837761937,
      0.0,
      3.3982186800618575,
      0.0,
      -77.09340889411403,
      -2.186181516117456,
      8.920201201548766,
      11.579072593186371,
      28.635000318564586,
      -10.467966501994423,
      2.016203402679985,
      -3.2946419635858106,
      14.56451106019825,
      6.432203132648558,
      -134.1436462780939,
      -0.8863272364010006,
      28.415625264330288,
      -0.12273353451214987,
      2.3879796706639222,
      -8.814773850044979,
      -4.954572649784637,
      -2.6656474962521624,
      -8.480834797866766,
      9.873905990743276,
      5.900588912163654,
      -2.672213707227042,
      7.837983693449196,
      2.4000415585868753,
      0.0,
      24.269003326961098,
      22.21114861611948,
      1.3021184937618766,
      0.752507305333523,
      0.0,
      1.3270250766564244,
      2.5733335981716605,
      0.0,
      0.0,
      -2.823484265621436,
      8.286058725006882,
      -4.080373348959886,
      0.0,
      -4.113012119580687,
      0.0,
      53.726894957711906,
      -2.339395281518874,
      0.0,
      21.81788929421523,
      -0.2886012108662855,
      10.628270207634952,
      9.73304842419878,
      -52.5122557905896,
      0.0,
      3.429533676458731,
      28.210766110555227,
      22.92727879780621,
      2.6834314737535174,
      0.0,
      -0.009498475553455503,
      1.311990108841944,
      7.503814118503408,
      0.0,
      2.043294412761261,
      0.0,
      15.818054223971318,
      1.906075201432794,
      0.0,
      0.0,
      0.0,
      24.348094460869337,
      0.8433336499313326,
      0.5085562873746404,
      -2.191803509028087,
      -0.27182981619598834,
      0.0,
      -7.016465688683926,
      0.0,
      0.0,
      -1.176924185015915,
      4.714941433003843,
      -1.2759711309073871,
      -0.7732041819693755,
      -76.50742953933502,
      0.0,
      0.0,
      0.0,
      0.5833272986220678,
      -51.568867924002866,
      40.2466606325935,
      8.635832385975847,
      -131.0853311912418,
      8.39787277460462,
      15.133055303206312,
      38.40680081709053,
      -30.23676452021651,
      37.29300755561689,
      35.5343994032621,
      24.243334760617845,
      30.67691635641659,
      -30.67691477065794,
      -48.75788000390063,
      -124.17196563749987,
      0.15334291332477767,
      10.886687803737033,
      21.722795100444564,
      109.533274250556,
      31.03631893360175,
      25.767510409282693,
      0.0,
      5.190349145373329,
      0.0,
      -38.02331253965542,
      16.520486552673322,
      39.915701027589144,
      -1.7911105012349264,
      6.719455653645872,
      2.3775394105142693,
      -10.25517570438938,
      3.0070135386450905,
      -57.988967871234486,
      47.832853467255916,
      -47.10702567133484
    ],
    "intercept": 1778.9283155438643
  },
  "wide_insurance_no_weights_net_gaussian": {
    "coef": [
      -743.5081337767581,
      -12.510269639431378,
      12.377683475458037,
      -2.387454808345917,
      0.27330100934036733,
      0.08832114633711888,
      0.0015102442651106307,
      0.01006564135123877,
      0.8781761286244023,
      -743.5081337765039,
      -25.16828907630168,
      -13.009059779175947,
      32.68908789390724,
      -7.619248137013528,
      7.218195536063897,
      5.889313642812696,
      -1.422981085167767,
      22.1121466308316,
      -5.086184616048975,
      -22.483492843309683,
      -5.029156895894506,
      19.98089228644397,
      -9.835917625743352,
      -14.091933757515548,
      0.6127468208369969,
      21.92455365446936,
      3.9759654842577623,
      -8.656638125881662,
      0.0,
      -16.882582082347593,
      -34.23368780103711,
      27.797433990446955,
      16.53915079044037,
      -4.225465642928037,
      8.749994588320636,
      14.09915559374319,
      10.423810417555092,
      -0.6607620160415275,
      6.972047832349011,
      19.43400167216014,
      -13.919580844721077,
      -19.030795201897046,
      8.790844808190043,
      -2.0905012887173404,
      -74.82440165311411,
      14.540496658261551,
      31.163880706063505,
      0.18210240967669702,
      1.8407349453878936,
      0.0,
      0.0,
      0.0,
      0.0,
      0.8600640258664012,
      0.0,
      0.0,
      0.0,
      0.0,
      0.0,
      0.0,
      0.0,
      0.0,
      0.0,
      0.0,
      5.814108884557869,
      11.942631154329636,
      -8.386446337118445,
      7.925558156205417,
      -49.77357342706077,
      11.56088133170035,
      9.106049009624458,
      -1.4087609706064508,
      1.0713125706256739,
      -11.142832760227241,
      0.0,
      4.079960481482055,
      10.286417499269778,
      11.357771063147947,
      -21.709080990318867,
      18.336801463067744,
      18.669449580172294,
      -1.9674627449847184,
      -50.79102795058821,
      -1.2694009222411748,
      -6.964376043467765,
      4.549281772325633,
      15.151383365583738,
      10.468101732602273,
      30.634651300834186,
      -0.5447247024359637,
      17.96842403822905,
      0.37643490352662173,
      22.03147162598636,
      19.65771101173738,
      -37.15851036301267,
      -0.1252855405800964,
      0.3956084051281126,
      9.199451328640237,
      -18.123298345400602,
      -9.84967108610191,
      -17.586833926920473,
      1.7089191322714448,
      19.435893408179894,
      -1.8765560120109483,
      -9.403960829036045,
      0.0,
      -115.72469645210586,
      4.66883807186707,
      5.351881318000992,
      0.0,
      40.968003071945205,
      9.282208830324224,
      21.856560926549616,
      26.230688830126677,
      0.0,
      -15.305627949188974,
      -27.493452483425386,
      -1.024656214132303,
      1.4675388989018812,
      17.510066980058085,
      14.175215449930104,
      0.0,
      30.64923734061236,
      -62.01457305285283,
      21.47504078305189,
      2.3643247346678495,
      0.2336418018449127,
      0.2952014746632587,
      0.0,
      0.0,
      0.0,
      -5.306475965098025,
      0.38402240744587207,
      0.0,
      0.0,
      -0.3157760273882582,
      0.0,
      1.2913636508061646,
      0.0,
      -42.146047934654,
      -0.9421533454139358,
      4.581986942457857,
      4.9600385240558325,
      14.069255792133328,
      -7.965456866571246,
      0.8145865543868882,
      -3.1664320912751247,
      8.750597295309676,
      2.870696299382883,
      -86.4327886853884,
      0.0,
      15.9566740929283,
      0.0,
      1.564736754201327,
      -6.956387077783091,
      -1.9391844050928309,
      0.0,
      -1.9596212504669344,
      4.73057798405539,
      3.3702485786538667,
      0.0,
      8.306482572606924,
      0.18954107428337397,
      0.0,
      15.290062910997058,
      13.115344877029095,
      0.0,
      1.0065571891931953,
      0.0,
      2.3631298354025225,
      1.3724639685134223,
      0.0,
      0.0,
      -0.7275200233816007,
      7.770286986072097,
      -2.0365817895829887,
      0.0,
      -1.8516970574158065,
      0.0,
      33.857536574998655,
      -1.291109688118442,
      0.0,
      10.08501038712917,
      0.0,
      6.909940099748194,
      4.071064876006009,
      -35.49298356271024,
      0.0,
      1.9347927112191625,
      14.253973844161932,
      7.009301458537487,
      0.9008924292302469,
      0.0,
      0.0,
      0.0,
      6.338577833249024,
      0.0,
      0.6575162417172202,
      0.0,
      14.258442026735738,
      0.2672698982949345,
      0.0,
      0.0,
      0.0,
      17.974331236493047,
      0.25522840493298565,
      0.0,
      2.3498096374560395,
      0.0,
      0.0,
      -4.921101733525326,
      0.0,
      0.0,
      0.0,
      2.3301478123882493,
      -0.7448032183751548,
      0.0,
      -52.9153716410294,
      0.0,
      0.0,
      0.0,
      0.0,
      -20.795520250608643,
      28.315113720132555,
      7.1799454847130715,
      -94.9774090112289,
      2.7381157963685245,
      4.852519725865479,
      24.483596465888418,
      -18.781166294630683,
      26.283379454275426,
      23.229489344923213,
      12.471935563914943,
      14.790046231611978,
      -14.790044027559286,
      -38.27949048779702,
      -78.4932734328085,
      2.914558067697711,
      7.758373643232072,
      12.061343620004003,
      68.00654700971918,
      18.722334591029384,
      10.642043543000185,
      1.20428991234931,
      0.6342011057387731,
      0.009521566739420149,
      -27.050831940319497,
      7.88375234928184,
      22.66643061049585,
      -5.513603054141392,
      5.740750818925592,
      0.6375279322773726,
      -12.640617774475501,
      2.848116282073365,
      0.057229010030020656,
      25.049043742158243,
      -34.85824711029379
    ],
    "intercept": 1601.2121070530532
  },
  "wide_insurance_offset_net_gaussian": {
    "coef": [
      0.0,
      0.0,
      0.0,
      0.0,
      0.0,
      -0.0004621669861830105,
      -1.6570865274765502e-06,
      1.1601942841572474e-06,
      0.999994116493134,
      0.0,
      0.0,
      0.0,
      0.0,
      0.0,
      0.0,
      0.0,
      0.0,
      0.0,
      0.0,
      0.0,
      0.0,
      0.0,
      0.0,
      0.0,
      0.0,
      0.0,
      0.0,
      0.0,
      0.0,
      0.0,
      0.0,
      0.0,
      0.0,
      0.0,
      0.0,
      0.0,
      0.0,
      0.0,
      0.0,
      0.0,
      0.0,
      0.0,
      0.0,
      0.0,
      0.0,
      0.0,
      0.0,
      0.0,
      0.0,
      0.0,
      0.0,
      0.0,
      0.0,
      0.0,
      0.0,
      0.0,
      0.0,
      0.0,
      0.0,
      0.0,
      0.0,
      0.0,
      0.0,
      0.0,
      0.0,
      0.0,
      0.0,
      0.0,
      0.0,
      0.0,
      0.0,
      0.0,
      0.0,
      0.0,
      0.0,
      0.0,
      0.0,
      0.0,
      0.0,
      0.0,
      0.0,
      0.0,
      0.0,
      0.0,
      0.0,
      0.0,
      0.0,
      0.0,
      0.0,
      0.0,
      0.0,
      0.0,
      0.0,
      0.0,
      0.0,
      0.0,
      0.0,
      0.0,
      0.0,
      0.0,
      0.0,
      0.0,
      0.0,
      0.0,
      0.0,
      0.0,
      0.0,
      0.0,
      0.0,
      0.0,
      0.0,
      0.0,
      0.0,
      0.0,
      0.0,
      0.0,
      0.0,
      0.0,
      0.0,
      0.0,
      0.0,
      0.0,
      0.0,
      0.0,
      0.0,
      0.0,
      0.0,
      0.0,
      0.0,
      0.0,
      0.0,
      0.0,
      0.0,
      0.0,
      0.0,
      0.0,
      0.0,
      0.0,
      0.0,
      0.0,
      0.0,
      0.0,
      0.0,
      0.0,
      0.0,
      0.0,
      0.0,
      0.0,
      0.0,
      0.0,
      0.0,
      0.0,
      0.0,
      0.0,
      0.0,
      0.0,
      0.0,
      0.0,
      0.0,
      0.0,
      0.0,
      0.0,
      0.0,
      0.0,
      0.0,
      0.0,
      0.0,
      0.0,
      0.0,
      0.0,
      0.0,
      0.0,
      0.0,
      0.0,
      0.0,
      0.0,
      0.0,
      0.0,
      0.0,
      0.0,
      0.0,
      0.0,
      0.0,
      0.0,
      0.0,
      0.0,
      0.0,
      0.0,
      0.0,
      0.0,
      0.0,
      0.0,
      0.0,
      0.0,
      0.0,
      0.0,
      0.0,
      0.0,
      0.0,
      0.0,
      0.0,
      0.0,
      0.0,
      0.0,
      0.0,
      0.0,
      0.0,
      0.0,
      0.0,
      0.0,
      0.0,
      0.0,
      0.0,
      0.0,
      0.0,
      0.0,
      0.0,
      0.0,
      0.0,
      0.0,
      0.0,
      0.0,
      0.0,
      0.0,
      0.0,
      0.0,
      0.0,
      0.0,
      0.0,
      0.0,
      0.0,
      0.0,
      0.0,
      0.0,
      0.0,
      0.0,
      0.0,
      0.0,
      0.0,
      0.0,
      0.0,
      0.0,
      0.0,
      0.0,
      0.0,
      0.0,
      0.0,
      0.0,
      0.0,
      0.0,
      0.0,
      0.0,
      0.0,
      0.0,
      0.0,
      0.0,
      0.0
    ],
    "intercept": 0.003335914047966071
  },
  "narrow_insurance_weights_net_poisson": {
    "coef": [
      0.0,
      0.0,
      0.0,
      0.0,
      0.0,
      0.0,
      0.0,
      0.0,
      0.0,
      0.0,
      0.0,
      0.0,
      0.0,
      0.020403033824332662,
      0.0,
      0.0,
      0.0,
      0.0,
      0.0,
      0.0,
      0.0,
      0.0,
      0.0,
      0.0,
      0.0,
      0.0,
      0.0,
      0.0,
      0.0,
      0.0,
      0.0,
      0.0,
      0.0,
      0.0,
      0.0,
      0.0,
      0.0,
      0.0,
      0.0,
      0.0,
      0.0,
      0.0,
      0.0,
      0.0,
      0.0,
      0.0,
      0.0,
      0.0
    ],
    "intercept": -3.4583212041552223
  },
  "narrow_insurance_no_weights_net_poisson": {
    "coef": [
      0.0,
      0.0,
      0.0,
      0.0,
      0.0,
      0.05565464304255271,
      0.0,
      0.0,
      0.0,
      0.0,
      0.0,
      0.0,
      0.0,
      0.007587676630939092,
      0.0,
      0.0,
      0.0,
      0.0,
      0.0,
      0.0,
      0.0,
      0.0,
      0.0,
      0.0,
      0.0,
      0.0,
      0.0,
      0.0,
      0.0,
      0.0,
      0.0,
      0.0,
      0.0,
      0.0,
      0.0,
      0.0,
      0.0,
      0.0,
      0.0,
      0.0,
      0.0,
      0.0,
      0.0,
      0.0,
      0.0,
      0.0,
      0.0,
      0.0
    ],
    "intercept": -1.9525371778142766
  },
  "narrow_insurance_offset_net_poisson": {
    "coef": [
      0.0,
      0.0,
      0.0,
      0.0,
      0.0,
      0.0,
      0.0,
      0.0,
      0.0,
      0.0,
      0.0,
      0.0,
      0.0,
      0.019151045977037106,
      0.0,
      0.0,
      0.0,
      0.0,
      0.0,
      0.0,
      0.0,
      0.0,
      0.0,
      0.0,
      0.0,
      0.0,
      0.0,
      0.0,
      0.0,
      0.0,
      0.0,
      0.0,
      0.0,
      0.0,
      0.0,
      0.0,
      0.0,
      0.0,
      0.0,
      0.0,
      0.0,
      0.0,
      0.0,
      0.0,
      0.0,
      0.0,
      0.0,
      0.0
    ],
    "intercept": -3.3793405006490933
  },
  "wide_insurance_weights_net_poisson": {
    "coef": [
      0.8323088809854046,
      0.0,
      0.0,
      -0.020996562327013624,
      0.0005518472669000843,
      0.013805057034465202,
      2.7903618593194843e-05,
      7.217008043704653e-05,
      7.519446167065263e-11,
      0.23885640357376337,
      0.0,
      0.0,
      0.0,
      0.0,
      0.0,
      0.0,
      0.0,
      0.0,
      0.0,
      0.0,
      0.0,
      0.0,
      0.0,
      0.0,
      0.0,
      0.0,
      0.0,
      0.0,
      0.0,
      0.0,
      0.0,
      0.0,
      0.0,
      0.0,
      0.0,
      0.0,
      0.0,
      0.0,
      0.0,
      0.0,
      0.0,
      0.0,
      0.0,
      0.0,
      0.0,
      0.0,
      0.0,
      0.0,
      0.0,
      0.0,
      0.0,
      0.0,
      0.0,
      0.0,
      0.0,
      0.0,
      0.0,
      0.0,
      0.0,
      0.0,
      0.0,
      0.0,
      0.0,
      0.0,
      0.0,
      0.0,
      0.0,
      0.0,
      0.0,
      0.0,
      0.0,
      0.0,
      0.0,
      0.0,
      0.0,
      0.0,
      0.0,
      0.0,
      0.0,
      0.0,
      0.0,
      0.0,
      0.0,
      0.0,
      0.0,
      0.0,
      0.0,
      0.0,
      0.0,
      0.0,
      0.0,
      0.0,
      0.0,
      0.0,
      0.0,
      0.0,
      0.0,
      0.0,
      0.0,
      0.0,
      0.0,
      0.0,
      0.0,
      0.0,
      0.0,
      0.0,
      0.0,
      0.0,
      0.0,
      0.0,
      0.0,
      0.0,
      0.0,
      0.0,
      0.0,
      0.0,
      0.0,
      0.0,
      0.0,
      0.0,
      0.0,
      0.0,
      0.0,
      0.0,
      0.0,
      0.0,
      0.0,
      0.0,
      0.0,
      0.0,
      0.0,
      0.0,
      0.0,
      0.0,
      0.0,
      0.0,
      0.0,
      0.0,
      0.0,
      0.0,
      0.0,
      0.0,
      0.0,
      0.0,
      0.0,
      0.0,
      0.0,
      0.0,
      0.0,
      0.0,
      0.0,
      0.0,
      0.0,
      0.0,
      0.0,
      0.0,
      0.0,
      0.0,
      0.0,
      0.0,
      0.0,
      0.0,
      0.0,
      0.0,
      0.0,
      0.0,
      0.0,
      0.0,
      0.0,
      0.0,
      0.0,
      0.0,
      0.0,
      0.0,
      0.0,
      0.0,
      0.0,
      0.0,
      0.0,
      0.0,
      0.0,
      0.0,
      0.0,
      0.0,
      0.0,
      0.0,
      0.0,
      0.0,
      0.0,
      0.0,
      0.0,
      0.0,
      0.0,
      0.0,
      0.0,
      0.0,
      0.0,
      0.0,
      0.0,
      0.0,
      0.0,
      0.0,
      0.0,
      0.0,
      0.0,
      0.0,
      0.0,
      0.0,
      0.0,
      0.0,
      0.0,
      0.0,
      0.0,
      0.0,
      0.0,
      0.0,
      0.0,
      0.0,
      0.0,
      0.0,
      0.0,
      0.0,
      0.0,
      0.0,
      0.0,
      0.0,
      0.0,
      0.0,
      0.0,
      0.0,
      0.0,
      0.0,
      0.0,
      0.0,
      0.0,
      0.0,
      0.0,
      0.0,
      0.0,
      0.0,
      0.0,
      0.0,
      0.0,
      0.0
    ],
    "intercept": -3.1698179898009244
  },
  "wide_insurance_no_weights_net_poisson": {
    "coef": [
      1.8428917897329373,
      -0.206104854090138,
      0.0,
      -0.05955532657120292,
      0.0014269728791065609,
      0.002490698596021449,
      9.313455182263887e-06,
      3.3709713163466194e-05,
      3.5006128365621816e-11,
      0.0,
      0.0,
      0.0,
      0.0,
      0.0,
      0.0,
      0.0,
      0.0,
      0.0,
      0.0,
      0.0,
      0.0,
      0.0,
      0.0,
      0.0,
      0.0,
      0.0,
      0.0,
      0.0,
      0.0,
      0.0,
      0.0,
      0.0,
      0.0,
      0.0,
      0.0,
      0.0,
      0.0,
      0.0,
      0.0,
      0.0,
      0.0,
      0.0,
      0.0,
      0.0,
      0.0,
      0.0,
      0.0,
      0.0,
      0.0,
      0.0,
      0.0,
      0.0,
      0.0,
      0.0,
      0.0,
      0.0,
      0.0,
      0.0,
      0.0,
      0.0,
      0.0,
      0.0,
      0.0,
      0.0,
      0.0,
      0.0,
      0.0,
      0.0,
      0.0,
      0.0,
      0.0,
      0.0,
      0.0,
      0.0,
      0.0,
      0.0,
      0.0,
      0.0,
      0.0,
      0.0,
      0.0,
      0.0,
      0.0,
      0.0,
      0.0,
      0.0,
      0.0,
      0.0,
      0.0,
      0.0,
      0.0,
      0.0,
      0.0,
      0.0,
      0.0,
      0.0,
      0.0,
      0.0,
      0.0,
      0.0,
      0.0,
      0.0,
      0.0,
      0.0,
      0.0,
      0.0,
      0.0,
      0.0,
      0.0,
      0.0,
      0.0,
      0.0,
      0.0,
      0.0,
      0.0,
      0.0,
      0.0,
      0.0,
      0.0,
      0.0,
      0.0,
      0.0,
      0.0,
      0.0,
      0.0,
      0.0,
      0.0,
      0.0,
      0.0,
      0.0,
      0.0,
      0.0,
      0.0,
      0.0,
      0.0,
      0.0,
      0.0,
      0.0,
      0.0,
      0.0,
      0.0,
      0.0,
      0.0,
      0.0,
      0.0,
      0.0,
      0.0,
      0.0,
      0.0,
      0.0,
      0.0,
      0.0,
      0.0,
      0.0,
      0.0,
      0.0,
      0.0,
      0.0,
      0.0,
      0.0,
      0.0,
      0.0,
      0.0,
      0.0,
      0.0,
      0.0,
      0.0,
      0.0,
      0.0,
      0.0,
      0.0,
      0.0,
      0.0,
      0.0,
      0.0,
      0.0,
      0.0,
      0.0,
      0.0,
      0.0,
      0.0,
      0.0,
      0.0,
      0.0,
      0.0,
      0.0,
      0.0,
      0.0,
      0.0,
      0.0,
      0.0,
      0.0,
      0.0,
      0.0,
      0.0,
      0.0,
      0.0,
      0.0,
      0.0,
      0.0,
      0.0,
      0.0,
      0.0,
      0.0,
      0.0,
      0.0,
      0.0,
      0.0,
      0.0,
      0.0,
      0.0,
      0.0,
      0.0,
      0.0,
      0.0,
      0.0,
      0.0,
      0.0,
      0.0,
      0.0,
      0.0,
      0.0,
      0.0,
      0.0,
      0.0,
      0.0,
      0.0,
      0.0,
      0.0,
      0.0,
      0.0,
      0.0,
      0.0,
      0.0,
      0.0,
      0.0,
      0.0,
      0.0,
      0.0,
      0.0,
      0.0,
      0.0,
      0.0,
      0.0
    ],
    "intercept": -1.6279001438470095
  },
  "wide_insurance_offset_net_poisson": {
    "coef": [
      0.13168946319112385,
      0.0,
      0.0,
      -0.008334965760227672,
      0.0,
      0.015031526033104804,
      3.373724104367432e-05,
      9.344146753321259e-05,
      2.690472785689693e-10,
      0.0,
      0.0,
      0.0,
      0.0,
      0.0,
      0.0,
      0.0,
      0.0,
      0.0,
      0.0,
      0.0,
      0.0,
      0.0,
      0.0,
      0.0,
      0.0,
      0.0,
      0.0,
      0.0,
      0.0,
      0.0,
      0.0,
      0.0,
      0.0,
      0.0,
      0.0,
      0.0,
      0.0,
      0.0,
      0.0,
      0.0,
      0.0,
      0.0,
      0.0,
      0.0,
      0.0,
      0.0,
      0.0,
      0.0,
      0.0,
      0.0,
      0.0,
      0.0,
      0.0,
      0.0,
      0.0,
      0.0,
      0.0,
      0.0,
      0.0,
      0.0,
      0.0,
      0.0,
      0.0,
      0.0,
      0.0,
      0.0,
      0.0,
      0.0,
      0.0,
      0.0,
      0.0,
      0.0,
      0.0,
      0.0,
      0.0,
      0.0,
      0.0,
      0.0,
      0.0,
      0.0,
      0.0,
      0.0,
      0.0,
      0.0,
      0.0,
      0.0,
      0.0,
      0.0,
      0.0,
      0.0,
      0.0,
      0.0,
      0.0,
      0.0,
      0.0,
      0.0,
      0.0,
      0.0,
      0.0,
      0.0,
      0.0,
      0.0,
      0.0,
      0.0,
      0.0,
      0.0,
      0.0,
      0.0,
      0.0,
      0.0,
      0.0,
      0.0,
      0.0,
      0.0,
      0.0,
      0.0,
      0.0,
      0.0,
      0.0,
      0.0,
      0.0,
      0.0,
      0.0,
      0.0,
      0.0,
      0.0,
      0.0,
      0.0,
      0.0,
      0.0,
      0.0,
      0.0,
      0.0,
      0.0,
      0.0,
      0.0,
      0.0,
      0.0,
      0.0,
      0.0,
      0.0,
      0.0,
      0.0,
      0.0,
      0.0,
      0.0,
      0.0,
      0.0,
      0.0,
      0.0,
      0.0,
      0.0,
      0.0,
      0.0,
      0.0,
      0.0,
      0.0,
      0.0,
      0.0,
      0.0,
      0.0,
      0.0,
      0.0,
      0.0,
      0.0,
      0.0,
      0.0,
      0.0,
      0.0,
      0.0,
      0.0,
      0.0,
      0.0,
      0.0,
      0.0,
      0.0,
      0.0,
      0.0,
      0.0,
      0.0,
      0.0,
      0.0,
      0.0,
      0.0,
      0.0,
      0.0,
      0.0,
      0.0,
      0.0,
      0.0,
      0.0,
      0.0,
      0.0,
      0.0,
      0.0,
      0.0,
      0.0,
      0.0,
      0.0,
      0.0,
      0.0,
      0.0,
      0.0,
      0.0,
      0.0,
      0.0,
      0.0,
      0.0,
      0.0,
      0.0,
      0.0,
      0.0,
      0.0,
      0.0,
      0.0,
      0.0,
      0.0,
      0.0,
      0.0,
      0.0,
      0.0,
      0.0,
      0.0,
      0.0,
      0.0,
      0.0,
      0.0,
      0.0,
      0.0,
      0.0,
      0.0,
      0.0,
      0.0,
      0.0,
      0.0,
      0.0,
      0.0,
      0.0,
      0.0,
      0.0,
      0.0,
      0.0,
      0.0,
      0.0
    ],
    "intercept": -3.179577390471273
  },
  "narrow_insurance_weights_net_tweedie_p=1.5": {
    "coef": [
      0.10533068460685185,
      0.05499855828257119,
      0.34135218350984986,
      0.35932541762864184,
      0.49636382660371353,
      0.22162502773469886,
      -0.1556839604031773,
      0.960605996476695,
      -0.33454307991855176,
      -1.0549658551324557,
      -0.0631631608829763,
      0.045526082680787394,
      -0.14350891719290876,
      0.03611073895471485,
      -0.5795604872802377,
      -0.24536169124598825,
      0.001402535651930281,
      -0.5408819427648601,
      0.08898578077505682,
      -0.037966865470677465,
      -0.5072856332940723,
      -0.4339241860587101,
      -0.3016773712924716,
      -0.16500874440100533,
      -0.269350707315213,
      0.016874581805125126,
      0.0,
      0.0,
      -0.10060747611085834,
      0.0,
      0.19238100917676743,
      0.0,
      0.0,
      0.0,
      0.0,
      0.0,
      -0.1811105991953923,
      0.40790815071218517,
      -0.2847599525169685,
      0.0,
      -0.07806090094635164,
      0.0,
      0.28083561276460156,
      0.0,
      0.0,
      0.6097153325409864,
      0.0,
      0.15597522971161198
    ],
    "intercept": 2.0381297823525473
  },
  "narrow_insurance_no_weights_net_tweedie_p=1.5": {
    "coef": [
      0.6438808002620906,
      0.41813494211831437,
      0.7356540979806678,
      0.43347414254891237,
      0.5711415387898904,
      -0.3120023338401123,
      0.11843407040655382,
      0.7726905544824519,
      -0.43977012534701665,
      -1.2051575977866564,
      -0.2575861252682496,
      0.1242456502759069,
      -0.24859417412151863,
      0.03298232985240154,
      -0.43581111677656015,
      -0.23450222266807091,
      0.0,
      -0.4598046397167847,
      0.0,
      0.01607561284537584,
      -0.6048649089511995,
      0.0,
      -0.39873226735228845,
      0.05927088850923681,
      -0.37160683172602493,
      0.07766738087088727,
      0.04897650905641907,
      0.0,
      0.0,
      -0.36897665104706795,
      0.2970619219224233,
      -0.015672276929510592,
      0.022226705014738,
      0.05193748008468904,
      0.0,
      0.0,
      0.13650259675570506,
      0.617809694212483,
      -0.09370770874169768,
      0.030009155249973232,
      0.0,
      0.0,
      0.6826043945298509,
      -0.23616732564813409,
      -0.5091585082962863,
      0.5149370861145143,
      0.0,
      0.08101885767461728
    ],
    "intercept": 1.9159352107895593
  },
  "narrow_insurance_offset_net_tweedie_p=1.5": {
    "coef": [
      0.24127919755723803,
      0.10243904600534194,
      0.39247157400440735,
      0.2931790127705545,
      0.3755143389611933,
      0.0,
      -0.010454253808764533,
      0.8275859786635495,
      -0.33187276553557626,
      -1.0695351827138595,
      -0.15547620600673953,
      0.037398498772728155,
      -0.14301710230974754,
      0.03455157473230529,
      -0.34184136589132513,
      -0.060955072151584466,
      0.02662780898641505,
      -0.30967530396882714,
      0.0,
      0.0,
      -0.47551269866563844,
      -0.1705592658623718,
      -0.288180322351189,
      0.0,
      -0.32695749114631834,
      0.04749598370087304,
      0.0,
      0.0,
      0.0,
      0.0,
      0.16191337337879044,
      0.0,
      0.0,
      0.0,
      0.0,
      0.0,
      0.0,
      0.4786104603008694,
      -0.14747835558474154,
      0.0,
      0.0,
      0.0,
      0.3882064183876134,
      0.0,
      -0.13451055701914494,
      0.5081612003055672,
      0.0,
      0.11783602219311796
    ],
    "intercept": 2.114110236020287
  },
  "narrow_insurance_weights_lasso_gaussian": {
    "coef": [
      -7.720266293577587,
      290.1298398138661,
      517.4893093306857,
      -18.240864637686013,
      212.89286894399623,
      -87.21211118509123,
      -95.64010335812495,
      533.0013157273253,
      0.0,
      -132.12594710271043,
      37.073353317311145,
      188.45771417968035,
      775.4920227594026,
      5.469537561423884,
      858.3237357113629,
      89.02037460862614,
      279.2156961072085,
      -386.69365825709014,
      -228.61083017352513,
      -169.6485472732133,
      -56.8538561724086,
      131.64176362410598,
      25.91204059535658,
      -172.08113393650055,
      85.96166725319935,
      17.405287905629265,
      -298.3862246242775,
      2757.5488155550365,
      -335.1122857322752,
      -351.281144053361,
      1710.2178158875136,
      61.900113150412025,
      -115.64468215752886,
      -509.71978336774276,
      -823.0350108354257,
      -292.73016291347426,
      -380.90040602739646,
      -328.9258920494618,
      -156.13786512942588,
      232.5416938839517,
      -61.990626625433954,
      -505.0837758738593,
      -147.02792350244894,
      -321.6368054201356,
      812.043377172603,
      232.44958070450767,
      371.12800448776864,
      -62.49096143121342
    ],
    "intercept": 1264.2616423477366
  },
  "narrow_insurance_no_weights_lasso_gaussian": {
    "coef": [
      23.791762625481145,
      286.11623761788644,
      489.1049040321309,
      2.4493752771004664,
      272.80519854331476,
      -81.5171224555707,
      -129.48673841762485,
      485.6995628639108,
      -38.34719872807369,
      -138.29095831243652,
      15.562513415982098,
      136.58353392971517,
      748.0364722881253,
      6.202760878841513,
      886.8756064510723,
      164.20938230139274,
      207.08909991875717,
      -341.608247378079,
      -141.7094267763594,
      -105.73143716877539,
      -52.13679236171879,
      204.1722303226587,
      87.87983602825264,
      -113.61410922605961,
      41.21370040878683,
      13.304484664955785,
      -358.9293312433271,
      1306.151933909998,
      -312.1845772030865,
      -298.0399617044376,
      1852.8547455825515,
      147.12275932278132,
      -96.66692985500741,
      -494.3108388589571,
      -813.9432418923227,
      -235.7723106240273,
      -424.32819214633247,
      -306.01971456608567,
      -104.88016357865108,
      188.10822567458808,
      -61.5572649015227,
      -471.71781853799826,
      -166.21797598345205,
      -289.1755963607921,
      758.5779156803062,
      243.2884329282508,
      0.0,
      -41.107471163321364
    ],
    "intercept": 1180.5743841313936
  },
  "narrow_insurance_offset_lasso_gaussian": {
    "coef": [
      -1.4194196288991856,
      303.28886604809077,
      555.6574027185783,
      -33.35087763276303,
      210.74134351463087,
      -144.20130410180488,
      -109.7899310479051,
      533.5588234470925,
      29.278101882272583,
      -159.3260020488191,
      14.974972046645712,
      212.7910338721002,
      856.1165596775901,
      7.685933278277783,
      855.5649404056376,
      87.97130296012196,
      407.8720000533393,
      -337.641240790592,
      -192.29649604740538,
      -167.00251960929236,
      -62.03438084795234,
      122.8781714153426,
      31.234091972893783,
      -169.09645512558006,
      74.48682224908245,
      22.118856693005938,
      -276.7632845522434,
      3414.5310880973398,
      -432.1041164146284,
      -394.3451458788731,
      1825.6923799911667,
      77.80328059552664,
      -88.92072048698765,
      -566.5736924235435,
      -668.8118004459529,
      -435.29796807869144,
      -387.3260600193964,
      -318.87621684821187,
      -179.70689570831743,
      278.239639950331,
      -93.88438321669949,
      -519.5937211541547,
      -128.78708568581814,
      -410.05595843374493,
      881.1468149037844,
      307.95348041194706,
      637.3966963676947,
      -66.55085791094514
    ],
    "intercept": 1166.7983071614094
  },
  "wide_insurance_weights_lasso_gaussian": {
    "coef": [
      -0.23713830365462982,
      -38.374101471198436,
      18.9976713460864,
      -5.322710203720285,
      0.40121173472182686,
      1.72247733367391,
      0.0039658371508085434,
      0.015608020847051273,
      0.8054989835696744,
      -1997.0420911487051,
      -72.3105990838259,
      -43.93459316785406,
      60.29812988090875,
      -47.530166025256875,
      8.25991196827384,
      44.28491102256614,
      0.0,
      68.62041983641943,
      0.0,
      -10.71188746453589,
      0.0,
      76.78451218122895,
      -16.443327433219434,
      -1.7078239767746175,
      0.0,
      334.8912485944535,
      160.99416893821675,
      -180.1011908672774,
      -8.216305756454629,
      -27.97019064284398,
      -9.012412993926034,
      94.78962471001404,
      57.29516442633651,
      -21.05512105291758,
      0.0,
      64.49848631630132,
      35.054342517330824,
      22.906737259685972,
      31.98931651766645,
      55.65866781099081,
      -149.86007606739415,
      -73.90140625568698,
      85.68850965513255,
      0.0,
      -350.87944880180015,
      120.04375103795645,
      336.98452853852785,
      0.0,
      46.124294828989896,
      0.0,
      0.0,
      0.0,
      0.0,
      348.4100166653349,
      0.0,
      0.0,
      0.0,
      0.0,
      0.0,
      0.0,
      0.0,
      0.0,
      0.0,
      0.0,
      204.89940090076627,
      140.61566691318376,
      -181.41888730193966,
      19.327320101442325,
      -231.47126448163422,
      93.31818022086394,
      0.0,
      -101.71934578952154,
      -103.32934848073793,
      -124.00335819073302,
      -17.352676778184556,
      -69.6167485624324,
      30.59256051744554,
      11.844687006312096,
      -195.41342044417476,
      18.349740171935323,
      47.95959733541732,
      0.0,
      -314.07782530452914,
      -36.826188410115975,
      -87.74206342942013,
      -16.760838169312557,
      32.44202191789283,
      28.860542440290825,
      123.32972005316194,
      38.94994921799922,
      35.31942024152005,
      27.906346983841967,
      66.24582045255723,
      58.11135683738411,
      -213.22063630800815,
      -33.42549729221484,
      0.0,
      2.1647891675002042,
      -318.04510264619745,
      -96.24475601282793,
      -119.61247489019976,
      11.15546408804772,
      132.22857514431024,
      -1.7758491512581234,
      -94.05273070297723,
      -50.71107854379838,
      -867.1233938127402,
      0.0,
      32.697907748611016,
