{
  "narrow-insurance-weights-l2-gaussian": {
    "coef": [
      -110.21574838874996,
      -152.5528945699437,
      53.528458267471876,
      244.7693794335803,
      -69.22517610470942,
      33.69598136230165,
      -2.579978559040941,
      44.40578991551079,
      -41.8258113565269,
      74.88058762912834,
      -47.94707189914429,
      -119.32484821820508,
      -75.57821176839889,
      -111.90977417405256,
      41.462721915250185,
      238.41659651537782,
      3.8837719545634806,
      -15.46446981059592,
      188.04446917797495,
      19.732098075322188,
      165.97246056114844,
      -78.27968424445551,
      -18.853844279605315,
      -142.01516903462834,
      -57.610213402052146,
      26.809568476639065,
      -14.102473556270414,
      -74.23274196352644,
      -37.7250347120539,
      37.72503471199918,
      -13.794756937776848,
      -131.66867595924936,
      79.80991534695673,
      -32.70855086644075,
      -31.925343591959205,
      2.535372796412087,
      271.8196821187032,
      5.230477399004427,
      -30.783291318868237,
      -74.74170762704871,
      -30.19751057197038,
      -3.507236269596564,
      -149.84967982986745,
      -146.98187244890806,
      -35.9522837029151,
      71.66670178355514,
      -9.888879619475677,
      -49.2998654038156,
      -81.7380189951937,
      -14.620158304702503,
      230.63846914866642,
      139.5144107003234,
      22.648045216341902,
      -33.40584632897555
    ],
    "intercept": 1805.5671815647256
  },
  "narrow-insurance-no-weights-l2-gaussian": {
    "coef": [
      -121.35738046821653,
      -134.32148283430664,
      43.30295971268439,
      214.00675782452532,
      -61.32188600247555,
      59.69103176777635,
      1.685194868802086,
      52.79030302805271,
      -54.47549789693,
      69.45116006483087,
      -50.731161233755635,
      -107.63117916822367,
      -71.20862843891294,
      -91.45199013729265,
      23.30326840316522,
      228.26853051016718,
      4.641628421830836,
      -33.16131408855778,
      189.1165561244679,
      30.066155659420797,
      86.58788415946712,
      -66.13211920601891,
      -14.59194848711161,
      -110.61820189398192,
      -66.69958964115993,
      40.21235200236618,
      3.423573591980844,
      -58.20334822089501,
      -19.525843718047778,
      19.525843717966904,
      -15.991661506326166,
      -149.8507749679995,
      33.55979068174411,
      -28.974476223219785,
      -25.67282310903332,
      12.418872281733588,
      283.2428700981226,
      15.868659960035297,
      -21.23172306752384,
      -67.59227521893956,
      -24.969155970000056,
      -2.9801163637686297,
      -156.74631254385775,
      -125.20558388103441,
      -18.807092963273767,
      60.671376947503425,
      -7.826866102025723,
      -43.27468975609364,
      -82.74149278388381,
      -12.030780466709826,
      210.33158650338993,
      148.58947378208046,
      3.221533162731871,
      -17.709202216906096
    ],
    "intercept": 1690.909362113114
  },
  "narrow-insurance-offset-l2-gaussian": {
    "coef": [
      -110.3197261702755,
      -155.94097658438443,
      52.03720325974488,
      257.3968720071525,
      -72.35501938612981,
      29.181646873898774,
      -9.90045678982615,
      59.11073517526588,
      -49.21027838552878,
      71.54520537496434,
      -38.854766082795315,
      -131.19664655870042,
      -94.00819880658365,
      -119.8388240123557,
      55.57803763603772,
      256.77519244942505,
      5.926997017584623,
      -27.88132872368794,
      177.6344306850055,
      14.415599365627768,
      221.9919370299222,
      -66.39666680417494,
      -17.369850821250676,
      -153.61604524372848,
      -69.7927225333269,
      16.11778120370893,
      -18.66105159156337,
      -76.44208256653428,
      -35.39101223527832,
      35.391012235180604,
      -12.996021145432556,
      -124.08362032406222,
      85.15477803956254,
      -43.03324832336948,
      -36.78239763876613,
      -12.191781670903431,
      274.0281515735451,
      5.436788281567846,
      -27.971073028261046,
      -84.98217748475214,
      -22.066010046199118,
      -4.571025434158339,
      -156.81830269511687,
      -147.52843632101465,
      -44.559634124285516,
      76.98279017771723,
      -15.565418679718922,
      -49.81739942971205,
      -83.82592634952361,
      -18.74386314729495,
      235.50303963413396,
      163.38129001837092,
      32.05347697223059,
      -30.815518461277264
    ],
    "intercept": 1760.3966411541978
  },
  "wide-insurance-no-weights-l2-gaussian": {
    "coef": [
      -574.4903908235177,
      -8.966971873514103,
      11.833990280417716,
      -1.7445280232429283,
      0.0004696392564538544,
      -0.056277268213040604,
      0.0002621392907233443,
      0.010673203713009519,
      0.8751276961461607,
      -574.4903908235126,
      -19.426164964424018,
      -9.118499710262626,
      26.699855124045545,
      -7.966840142665804,
      6.239950566136566,
      3.571699128325372,
      -3.610961437407696,
      18.234494681806005,
      -2.7308703814095816,
      -18.830620459185432,
      -3.8721610055797675,
      14.546788424733846,
      -7.612433185892922,
      -8.518355688202256,
      1.5963840585554139,
      13.097608612173502,
      1.740051608844991,
      -4.039925227283707,
      1.5140694070430452,
      -13.881119841305415,
      -29.9920540144023,
      21.521898305966864,
      12.364698980826422,
      -2.3040381856308154,
      7.767836971166649,
      8.858206357258108,
      9.072881395490635,
      -2.246800418321787,
      5.9654934322633215,
      14.650099948118495,
      -9.956840998793782,
      -10.129764086159646,
      4.7145638463463335,
      -1.570143760122827,
      -44.60872783284103,
      8.685104550261505,
      16.980311120827192,
      1.1226220439875911,
      1.4197275755187833,
      -0.7103447888996117,
      0.2752192166751437,
      0.09748221440706858,
      -0.2829321769217282,
      0.44947227512646304,
      0.01098401255951301,
      -0.15449195226632992,
      -0.09673590934966826,
      -0.012667549517482635,
      0.029315100908383507,
      0.19028610790909273,
      -0.0035622754806716615,
      -0.047316369707758696,
      0.3026251951077408,
      0.004642103023162896,
      2.9328484399393417,
      6.620377523320321,
      -3.8686271020254086,
      4.550724164773624,
      -30.853524236171722,
      6.4479980842970805,
      5.5086527076546306,
      -0.5522967131555379,
      2.480865452063172,
      -6.804010851501371,
      -0.10853343644258368,
      2.6214667123458133,
      5.8838098028313075,
      8.013136830737816,
      -11.869762481298162,
      12.936876416379436,
      11.580952959264344,
      -3.200098144222152,
      -28.976079612014743,
      -1.7602742146879042,
      -3.707815052069408,
      2.5649626357401365,
      9.40234763252218,
      6.497605135506311,
      19.746016384661953,
      -2.6051036927533655,
      11.495622263181435,
      -2.006992497699694,
      14.590229246604263,
      13.158862485948417,
      -21.510047178204154,
      -0.3420959714848907,
      0.8651890865671217,
      6.333389002913159,
      -11.360872673426158,
      -6.694087386165126,
      -10.807219123327306,
      2.413214561741713,
      9.542334091055238,
      -2.330564580846644,
      -6.01117956951868,
      0.2597096264543156,
      -65.5364640140727,
      3.646175757399987,
      3.324061739897361,
      0.37976819877986256,
      23.884685282015454,
      6.206684994033082,
      11.416319984332553,
      13.408182306163095,
      -0.40813034372865203,
      -7.574370831526193,
      -15.356727229053114,
      0.0818009300942839,
      2.6374152639118953,
      9.059428441251598,
      7.605294271717834,
      -1.3144973400486064,
      16.46639477630537,
      -34.50107292982566,
      12.339649462896883,
      2.5773191875995307,
      1.002898163364597,
      1.1218408568283487,
      -0.12436062517429823,
      0.5120325065314941,
      0.23586421886982722,
      -3.4043928995991664,
      0.8339894400314035,
      0.15092603366784924,
      -0.08968523640000467,
      -0.3867348479284427,
      -0.056458671840336865,
      0.8417999362174154,
      -0.057643511130059395,
      -32.00675661690909,
      0.5348967144421283,
      2.829953409802322,
      2.1998092395599187,
      8.549750758069585,
      -4.459360833791806,
      1.547500655284818,
      -1.1048412940726131,
      5.477345277433496,
      1.8680023170296474,
      -49.6923972804443,
      0.3579487491881989,
      10.712243236925092,
      0.1011883540671712,
      1.9685386637580489,
      -4.479418945688692,
      -0.8622616401800087,
      -0.19143172813124162,
      0.7092059845706005,
      2.159048127210812,
      2.2228872899072236,
      0.903669414187245,
      9.029930991121725,
      -0.2954624020039557,
      0.2698209304503599,
      8.495644304367795,
      9.355493394447727,
      -2.0562396572720827,
      1.5244256356597272,
      0.4083937753764723,
      1.939286834103693,
      1.2448141620451199,
      0.537795270887675,
      -0.014413142756979115,
      -0.6263436361019348,
      6.741902416388795,
      -1.516162335518044,
      -0.054358039908346124,
      -1.3459139611459274,
      0.12561566680444997,
      22.444876698420202,
      -1.2124763109380374,
      -0.07394544109509121,
      4.40567429505922,
      -0.16801946500470363,
      4.1893790021149915,
      1.2362382615464713,
      -18.781490304474346,
      0.06856444558665829,
      1.5505290689160258,
      4.574012772717286,
      2.946669060939071,
      0.43285473386576134,
      -0.09457487025115145,
      -0.14386253516337272,
      0.18460372535313702,
      4.756614261050762,
      0.22114500852021507,
      0.5505613038123175,
      -0.18979574227321055,
      9.043506403103583,
      0.30879517889546365,
      0.011541028181976842,
      -0.07660214477438117,
      -0.051847004322186606,
      9.986837190514384,
      0.6740771690422359,
      0.02217045340681128,
      2.489724358695005,
      -0.21610618176272614,
      0.04870323893818801,
      -3.5496230150420423,
      -0.06419970449182041,
      -0.012456235986530353,
      -0.2529598279909287,
      0.7576660622328816,
      -1.5143751400369445,
      0.12449369441926315,
      -28.469796839774943,
      0.08434663657089864,
      -0.0023713911053705934,
      0.4452887121488861,
      0.20587933225382501,
      -13.798457092328906,
      21.635272032145235,
      6.661884990020264,
      -81.43074713899705,
      0.3560774759937557,
      2.551302263569697,
      24.601949470387815,
      -10.692929769461932,
      20.874439024515297,
      19.039598617816615,
      10.201610127472248,
      12.500685221559545,
      -12.500685220720392,
      -29.471864982547327,
      -41.805809523966296,
      3.378274134075635,
      4.845520810775976,
      12.706259821420398,
      40.05163139007019,
      10.72519441856372,
      6.376288395494358,
      2.797565228164651,
      -0.5457860336579999,
      0.506350503364517,
      -19.2534189439871,
      5.733004814877897,
      15.788124904886983,
      -4.604869555883964,
      3.7383269910936745,
      0.4935593323185523,
      -9.85622875401938,
      2.40266521776544,
      0.5139338953849023,
      15.974958441240446,
      -20.4936805043092
    ],
    "intercept": 1261.4167889970722
  },
  "wide-insurance-offset-l2-gaussian": {
    "coef": [
      -0.17801456271191565,
      -0.001826994561397166,
      0.0004511474357581897,
      0.0002276711295180165,
      -0.00018127561716304398,
      -0.0003670197606528997,
      -6.65881530140307e-07,
      5.061241899336085e-07,
      0.9999973880556586,
      -0.17801456271213661,
      0.00044052657168578975,
      6.253296733713676e-05,
      -0.0015317892263357175,
      -0.0004475824342537824,
      0.001023475418216164,
      0.0004528371559216702,
      0.00046846121090945617,
      -0.0009373109688404676,
      0.001046851503604069,
      -0.0006127034172439137,
      -0.0001183650990505185,
      0.00034870994611765113,
      -0.0012279660074023507,
      0.0006264343560148096,
      0.0006457367014412571,
      0.0005188389971536322,
      -0.001355642124025775,
      0.0005969553438473098,
      0.0018440320931780736,
      0.0003805877573149084,
      -0.003425764627977514,
      0.0016740759805790439,
      -0.0001087153091200038,
      -0.00017271392314474035,
      0.0008349276683825484,
      -0.002036588683625397,
      0.0008587681612406142,
      -0.0017319140555796067,
      0.0003833735015731772,
      0.0005988890797408772,
      0.0004621947121506164,
      0.001934244387536685,
      -0.0010857155219752427,
      -0.00015812653570067533,
      -0.00028742673126343546,
      2.0564936135057515e-05,
      -0.0003046434651806649,
      0.0006000338322053575,
      4.43484128407246e-05,
      -0.0007720741912481569,
      0.0002645662846344386,
      0.00012792636393225043,
      7.736780669830824e-05,
      -0.0002449582620828048,
      6.350241881873314e-05,
      3.232948934679807e-05,
      1.879272741240825e-05,
      6.683406441762692e-06,
      5.374497096656339e-05,
      8.292528110437027e-06,
      1.075044015579437e-05,
      9.053349117943022e-06,
      1.7716673725754728e-05,
      1.8744628634092527e-06,
      -0.00046839692963331455,
      -0.00047327608244744634,
      0.0009408448700097323,
      0.00020472982671421625,
      -0.002609740080539418,
      -4.9379303778186575e-05,
      -0.0004163815920735576,
      0.0006525257722274936,
      0.0012586253013587188,
      -0.000274161947036443,
      -0.00043125645565239936,
      -0.0003414859757030057,
      -0.0005211698302573274,
      0.0010718217913698045,
      0.0008701571219735819,
      0.0014712548891217504,
      0.0002374107924419477,
      -0.0012144694260962515,
      0.001714037615210093,
      -0.0008305323345332344,
      0.0005104232716937798,
      -0.0009233288118917304,
      4.0385722207471934e-05,
      0.00013748092642694874,
      0.0012548629437754513,
      -0.00145287148048591,
      -0.00018477016889607408,
      -0.002114071166143065,
      0.0007870714011511969,
      0.0005288366042676653,
      0.001039041096967524,
      0.0005871356518800464,
      0.00017214797312475527,
      -4.584421908562174e-05,
      0.0007717468559246667,
      -6.307257111075856e-05,
      7.176392212835566e-05,
      0.0013355326875525036,
      -0.0019835864200291996,
      -0.00072170118681375,
      -0.00027484734019206277,
      0.00020104376959824752,
      -0.0009816615186784613,
      0.00035285543895596436,
      1.5866904809477966e-06,
      0.0006533592671788506,
      0.0009014855651112095,
      0.0003650501052055591,
      -0.0008149593823236673,
      -0.0015104118734219623,
      -0.000564755916684064,
      0.00092134912840999,
      -0.00010523760395205973,
      0.0010239216004256843,
      0.001103441500258489,
      -0.0007085910098287996,
      -7.669471136712201e-05,
      -0.0013546508954984447,
      -0.00027496538902326104,
      -0.0013225129978993021,
      0.0005713266415608102,
      0.0006219838486222816,
      0.00029055125477124957,
      0.00043629004463797435,
      -0.0002171796248408427,
      0.00040807759615249436,
      -0.00010358445518053429,
      -0.00014052256018109508,
      2.3250963569236356e-05,
      1.4025110129805024e-05,
      4.479445365421975e-05,
      0.0002001332822599112,
      6.433490506169238e-05,
      -0.0003069849978263467,
      2.03582076469566e-05,
      0.0004255804723011414,
      0.0002671998943647032,
      -0.0005390871251265516,
      -0.0013429149957838427,
      -0.0006187719554749482,
      -0.0002007550341695341,
      5.626472802338117e-05,
      -0.00016198833317796564,
      -0.0008103795137403995,
      -0.00031807404751368364,
      0.0003784286212050496,
      0.00046706596751544614,
      -0.0018657277852518548,
      6.280083294208802e-05,
      -5.252339390509593e-05,
      -0.0002618192200101723,
      0.000281104087659523,
      0.0002983929280168594,
      0.0012609960188271834,
      -0.0007683455234835229,
      -0.00014678698905133252,
      0.0008175931801550059,
      0.0029395994254918616,
      -0.0008825141979625203,
      4.425267929302511e-05,
      -3.6694309612883964e-06,
      0.0004990259016881719,
      -0.0016907463525378398,
      0.00043655241438032713,
      0.00020006709337877718,
      -0.00024087008334194133,
      2.2345478283548217e-05,
      0.00012016638991000366,
      -0.0001552202392227103,
      0.0002057004421555762,
      0.002410854964296061,
      -7.425807989380444e-05,
      3.64911163720199e-05,
      8.689929398280419e-05,
      0.00011939734168438671,
      0.002489476743430981,
      -9.803583999077405e-05,
      -0.00017321749159307598,
      -0.000824915819508311,
      7.875395492876112e-05,
      0.0003123836297282823,
      -0.0013334103114278266,
      -0.00031636496036065615,
      3.58342475775162e-05,
      8.152650978929085e-05,
      -0.0031272937038949343,
      -0.0004184821244877293,
      -0.00042320392975980087,
      2.3975518875689532e-05,
      5.35224195393648e-05,
      -0.0003065829065682933,
      0.0016360921263703229,
      7.532024773895643e-05,
      -0.0002809562580055068,
      4.4532224991502866e-05,
      0.0012976628144714503,
      -0.0002889953298445743,
      6.807408559946018e-05,
      3.383855904122109e-05,
      3.508013447723065e-05,
      0.0007132095943402465,
      4.4982897983173576e-05,
      -0.0002956239522475492,
      0.001642742826098703,
      7.377407187070076e-05,
      4.807593301280289e-05,
      -0.0004913438953737586,
      7.177715991513219e-05,
      4.3607786360075415e-05,
      0.00020363493133471238,
      -0.0007824269132618882,
      -0.00047298202418436224,
      0.0004010369372131338,
      -0.001097961531070674,
      5.713905137352451e-05,
      6.154214434110646e-05,
      7.526650494530317e-05,
      -0.00027339321715906073,
      0.002372592302533487,
      0.0020757255196541063,
      0.00039490519781976955,
      -0.006330396201919409,
      -0.002459418447105291,
      -0.00019563764679107157,
      0.0007032149559164915,
      0.0014612273321790992,
      0.001764616071266108,
      0.00024094589452132645,
      -2.7774599469934046e-05,
      -0.0011396489729945689,
      0.0011396482765563924,
      -0.0011911292940903447,
      -0.0007885198276700474,
      0.001469500686452394,
      0.0006029834576219529,
      0.002150104975981438,
      0.00038920452591336834,
      -0.0001388241097916251,
      -0.0005526572980520835,
      0.0014650907562014522,
      -0.0014500437124552576,
      0.00017484435812710865,
      -2.8760850119177266e-05,
      -0.0008458653750819674,
      0.0016708014725470355,
      -0.0005966931799869529,
      0.0007990383249852343,
      -0.00010190590269178712,
      -0.00040390938919085645,
      0.0005724798141469951,
      0.0006826485969676959,
      -0.0024208715972695886,
      -0.0014575160950611565
    ],
    "intercept": 0.3715504184656311
  },
  "narrow-insurance-weights-l2-poisson": {
    "coef": [
      -0.01707613939436408,
      -0.011263670931487738,
      0.00990377529522711,
      0.010851876386365871,
      -0.004912453884471538,
      0.012496612528730373,
      0.05832959975891606,
      -0.017510712329390984,
      -0.040818887429525115,
      -0.003108324001381755,
      0.0018832465126164051,
      -0.013307489346170386,
      -0.011885425951706623,
      0.007483082979060456,
      0.02287820414031337,
      -0.0039432943327315185,
      0.020853845152530158,
      0.006097709261993879,
      -0.0023399240987143238,
      0.0012654340101332959,
      0.03400587227106376,
      -0.004209433220613479,
      0.00213360357675337,
      -0.01642895012400271,
      -0.015341410820949475,
      -0.0091978078364687,
      -0.00011337734246257426,
      0.0041282843232669595,
      -0.0021578399087159054,
      0.0021578399087158573,
      0.04695873394113,
      0.008718694697974944,
      0.0022058638068742542,
      -0.0028096225568846923,
      -0.0024262886262856266,
      -0.011470452030037466,
      -0.0016583984856032763,
      0.004172331178602783,
      0.0011511287090530066,
      -0.006580857725672888,
      -0.0010481130127426568,
      -0.000479495288304862,
      -0.0033518711213370083,
      0.006130940155382686,
      -0.00440175393613749,
      -0.009331459022985879,
      -0.002264897448561194,
      0.0019018694728274793,
      0.007882833037794622,
      -0.002006817828770715,
      -0.0030022047060543856,
      0.01855349776956737,
      0.0001150729613009725,
      0.023538296246869015
    ],
    "intercept": -3.8361053513103958
  },
  "narrow-insurance-no-weights-l2-poisson": {
    "coef": [
      -0.12114291768120354,
      0.04542375336122065,
      0.09673341536016937,
      0.1147414351909774,
      -0.08233926394933845,
      -0.05341642228182518,
      0.3801240295376261,
      -0.1771030740538306,
      -0.20302095548379545,
      0.001559634735889059,
      0.01197523352561692,
      -0.03150104730940759,
      0.013635166580395134,
      -0.09204126027608359,
      0.13724123983056746,
      -0.04086896708697704,
      0.009616289108779581,
      -0.0571505562315751,
      -0.021347726877370358,
      -0.004189720423468244,
      0.242932405089882,
      -0.019719971902210837,
      0.000717204026238444,
      -0.03448026925788229,
      -0.08807273315270667,
      -0.017521038436546763,
      -0.042321941093164596,
      0.04115434825880495,
      -0.17474082816565334,
      0.1747408281656534,
      -0.018417093347158568,
      0.012882049164812778,
      0.002916558010523123,
      -0.009539448222052601,
      -0.018632023507906433,
      -0.13744976559653668,
      -0.0044271328062692825,
      0.036865418704128156,
      0.0055243502327708294,
      -0.0206243284125832,
      -0.007021738830528159,
      -0.003643509567058991,
      0.02424309861454582,
      0.0868463147560493,
      -0.02522067515252303,
      -0.048964482222210205,
      0.0855602068173911,
      -0.0006601522937961129,
      0.06670069073355918,
      -0.016714290363497756,
      -0.0065632951701899015,
      -0.009600995877102754,
      -0.012476849011524958,
      0.0010206136346610972
    ],
    "intercept": -1.9311032810088826
  },
  "narrow-insurance-offset-l2-poisson": {
    "coef": [
      -0.01707613939436406,
      -0.01126367093148776,
      0.009903775295227112,
      0.010851876386365858,
      -0.004912453884471531,
      0.012496612528730366,
      0.05832959975891602,
      -0.017510712329390977,
      -0.040818887429525066,
      -0.0031083240013817528,
      0.0018832465126164134,
      -0.01330748934617039,
      -0.01188542595170662,
      0.007483082979060438,
      0.022878204140313396,
      -0.00394329433273152,
      0.02085384515253014,
      0.006097709261993882,
      -0.0023399240987143238,
      0.001265434010133294,
      0.0340058722710638,
      -0.00420943322061348,
      0.00213360357675337,
      -0.01642895012400274,
      -0.015341410820949464,
      -0.009197807836468707,
      -0.00011337734246256282,
      0.004128284323266954,
      -0.0021578399087159024,
      0.002157839908715867,
      0.046958733941129926,
      0.008718694697974948,
      0.0022058638068742542,
      -0.002809622556884691,
      -0.0024262886262856258,
      -0.01147045203003746,
      -0.001658398485603276,
      0.004172331178602784,
      0.0011511287090530068,
      -0.006580857725672884,
      -0.0010481130127426574,
      -0.0004794952883048621,
      -0.003351871121337011,
      0.006130940155382691,
      -0.00440175393613749,
      -0.009331459022985872,
      -0.002264897448561193,
      0.001901869472827478,
      0.00788283303779463,
      -0.002006817828770715,
      -0.0030022047060543904,
      0.018553497769567363,
      0.00011507296130097266,
      0.023538296246869074
    ],
    "intercept": -3.836105351310395
  },
  "wide-insurance-weights-l2-poisson": {
    "coef": [
      0.5036957072097934,
      -0.06764490969289287,
      0.019185771679934426,
      -0.037802431232037345,
      0.005253422537986417,
      0.01779594105669424,
      2.4403676713318286e-05,
      3.755791245192554e-05,
      3.7557912451925316e-05,
      0.3442922241160774,
      -0.0043564001774396505,
      -0.012636293836286542,
      -0.0004673200436573338,
      0.006239438406881714,
      0.01509288467376263,
      -0.0038723090232608334,
      -0.008084579587570986,
      -0.006554635881180519,
      0.013750511958412143,
      0.003101959613246475,
      -0.006834547459781286,
      0.004251461054481594,
      0.0010215736159115386,
      0.0006253207535154167,
      0.0017139974195503936,
      -0.0013534376718932204,
      -0.0009905240534333877,
      -0.000647099761258156,
      0.049056473780971825,
      -0.02748374066438029,
      -0.020161278846088045,
      -0.003116810882018572,
      -0.0008569419031546127,
      -0.0038950624692085187,
      -0.0017309825516806604,
      0.0009448208903271176,
      0.0026573214461520158,
      -0.006609507823782937,
      0.010034321986172311,
      -0.0008833319768338454,
      0.007348270356620601,
      -0.0045791415110516855,
      0.0018990209036081039,
      -0.000886073037930264,
      -0.00030343050654016305,
      -0.0018850482460808684,
      0.002395073168885556,
      -8.998096724530825e-05,
      -0.0014576934551140753,
      -0.00111398796099763,
      -0.00028559664016601644,
      0.00031623372403432454,
      -0.00021892752326253177,
      -5.1915214492626894e-05,
      -0.0001425343221546266,
      0.0008039744414684822,
      -7.811699946560382e-05,
      -2.7543020121384536e-05,
      0.0008020349710281148,
      -0.00010597774194785463,
      -4.9679155831661434e-05,
      -5.929520281134905e-05,
      -5.3479819050414555e-05,
      -3.33889818685708e-05,
      -2.1686198682957973e-05,
      -5.1192443461572016e-05,
      -1.2073334564825403e-05,
      -8.643543189452589e-06,
      -4.4374649980656185e-06,
      -4.5261091453109995e-08,
      0.0005511380217636557,
      -0.0004810125385996471,
      -0.011248276663952918,
      -0.0006087517270621164,
      -1.852923729864903e-05,
      0.0018006748455478374,
      0.005944141727323101,
      0.0008707386201970478,
      -0.002739769348213159,
      0.001827859282150187,
      -0.002743158920607448,
      0.004102923719195734,
      -0.0036343668661949547,
      0.0008573698431540653,
      0.0019802336547816543,
      0.0013027010497654937,
      -0.0032951011281316515,
      -0.0028287729266015037,
      0.002491888966351519,
      -0.004000178823925601,
      -0.0033465994464030725,
      -4.0707656646508464e-05,
      0.00046525277236962256,
      -0.0044895502745425945,
      0.00656208365616374,
      0.0028533846557700793,
      -0.0025151509064537158,
      -0.004755094232843441,
      0.004949404646644656,
      -0.002772556651088938,
      0.002806743074227706,
      0.0012636777691958387,
      0.006014524532425207,
      0.0012220378443034456,
      0.0033129933228928064,
      0.007729950452953,
      0.002257962872621593,
      0.005216184911118535,
      0.0018686723356361955,
      -0.0030035589773663544,
      0.0004889535984463388,
      -0.0001168982607636893,
      -0.0008897685627923296,
      -0.0009245645766875061,
      -0.003027293246607652,
      0.0006407734515268862,
      0.0006229328691748917,
      0.0007501598928146654,
      -0.0005776858296614588,
      -0.002536592318346942,
      0.00041029630310930186,
      0.00011982855276772868,
      -0.0016765134569401486,
      -0.0010653685238478639,
      -0.002078249622748292,
      -0.0023083880802073375,
      -0.002581793020485707,
      0.0006495965195204102,
      -0.0002370981957039304,
      -0.0009348207887189343,
      0.0011610014834195959,
      -0.0010935436266197981,
      0.0005592112751894437,
      -0.0013452153263794895,
      -0.001040665884622882,
      7.338322415253845e-05,
      -0.0004222401163981718,
      0.0006990690324464269,
      -0.0002716108566049501,
      0.0021539515978707055,
      -0.00010929695058141812,
      -0.00028155344674179105,
      -5.916778743322819e-05,
      -0.00013533573127554315,
      -0.00014165014047597683,
      -8.251708739052746e-05,
      -4.9183867718904365e-05,
      -7.354874530492186e-05,
      -0.01579560603933557,
      -0.0032079381554032584,
      8.06981872825318e-05,
      0.0008809011828432338,
      0.0005242186797665153,
      -0.0011944745286048743,
      0.003028572058445821,
      0.0006949690326253452,
      0.004069894053240831,
      0.0004364226076114013,
      0.003021817670547759,
      0.0001259950636018766,
      0.009558966778138927,
      0.0013666147339880155,
      -0.0027257602987431824,
      0.0005624218659315567,
      -0.0009587114796474115,
      0.0005647954310278071,
      -0.0033010418484932216,
      0.004138444002693014,
      -0.0009930146925003643,
      -0.000660108575408339,
      -0.0008399642418167267,
      -0.0008075532225847018,
      -8.737744246866212e-05,
      0.0026190402254713347,
      0.0013269244803160334,
      -0.0003851404237473105,
      0.001549104806469021,
      -2.4358358670127825e-05,
      0.0038864098965271368,
      -0.0002475844945091917,
      -0.0003195358338271285,
      0.001079267330968512,
      -2.909077351929368e-05,
      -0.0032437296266599976,
      -0.000360391194382332,
      -0.00034285765911600604,
      -2.644725057147566e-05,
      6.16936521119124e-06,
      -0.00015249916052286736,
      0.00043993832337611664,
      -0.00016580531546502448,
      -0.00388893018136472,
      0.001120438692288522,
      -0.00012465162344197522,
      -3.532003211554074e-05,
      -0.0021168438438981204,
      0.0007578207367740037,
      -0.00010562201591565902,
      -0.0008159367312745497,
      -0.00012330179192570536,
      0.001841332456068631,
      -6.579435279840178e-05,
      0.002180260155675342,
      -0.0006042167307417763,
      -0.0006601303741493827,
      -0.0006080510280885099,
      -0.0006899382824064841,
      -2.3195467245507172e-05,
      -0.00013051474552706516,
      0.0035431790923337787,
      -0.0016937842817805737,
      0.001689376737441151,
      0.016373881663053296,
      -0.0032912944213228704,
      0.002298433148771195,
      -0.008487551097468172,
      -0.011353206860634615,
      -0.0071688556486376245,
      0.0028888644384511206,
      0.005200957229793262,
      -0.00580068563055891,
      0.0058006856305589105,
      0.0013188727165791639,
      0.002133833372993172,
      -0.0021479967576761194,
      -0.0021552861688432026,
      -0.014518739027321436,
      -0.0012145878221006688,
      0.0031603717287244483,
      0.0022302827637419045,
      -0.004973995710014903,
      -0.0007510130556994877,
      -0.0003769505414849604,
      -0.0005916607337843263,
      0.00667304429273532,
      -0.0022211531566107127,
      -0.007471781677274927,
      -0.0021365076473213772,
      0.0015931357427369955,
      0.009981012387816813,
      -0.0021415074102975173,
      -0.0015699214878096355,
      0.015092341239349608,
      8.820695156181996e-05
    ],
    "intercept": -3.5308674182226696
  },
  "wide-insurance-no-weights-l2-poisson": {
    "coef": [
      1.5165653414605267,
      -0.4977158962787024,
      -0.036593037116059324,
      -0.06024714754756661,
      0.003685909204323964,
      0.003971245188895647,
      4.4727748919704595e-06,
      1.8575110433242782e-05,
      1.857511043323509e-05,
      0.3208170560685684,
      -0.03205924078056896,
      0.05849171743841914,
      0.0929221314874336,
      -0.051870563584827174,
      -0.08074308866013381,
      0.013259044099677165,
      -0.1190086743315043,
      0.02982470270870827,
      0.08321148720621786,
      0.12060888613350919,
      -0.07194017976969308,
      3.1098811886199913e-06,
      -0.018666111243206156,
      -0.02932444018555394,
      0.020314432151895084,
      -0.0049725682762700885,
      -0.003140290092689012,
      -0.00691035418260214,
      0.2662204165554195,
      -0.13769398632462043,
      -0.06728168009126234,
      -0.0018846034765601888,
      -0.06687910732284606,
      -0.03165197143968736,
      -0.039259134650624354,
      -0.025853309631817884,
      0.0013701324939843632,
      -0.025557120957519136,
      0.12550947812988775,
      -0.01972795671866651,
      0.028674705574390037,
      -0.015670781515613543,
      0.0020820699246175685,
      0.01791130048552661,
      0.005743755389035558,
      -0.006734284355679179,
      -0.000314322137748782,
      -0.0048492811691535544,
      -0.002734376926661487,
      -0.002301895853391167,
      -0.0005254815364499256,
      2.1016412444362914e-05,
      -0.0004249037211432564,
      -0.0003169535359860015,
      -0.00015700074394496558,
      0.0023307804733067473,
      -0.00013602159668642464,
      -8.766641487459378e-05,
      0.0008105352185481505,
      -0.000236111126823869,
      -0.00010251109164126041,
      -4.010145118806441e-05,
      -5.1793283915226646e-05,
      -6.760962931864107e-05,
      -2.1650823402872494e-05,
      -7.262987315059093e-05,
      -2.422962434558337e-05,
      -1.071481881716321e-05,
      -4.287317365108357e-06,
      -7.114962546535773e-07,
      0.00020068525612934504,
      0.003969053891257012,
      -0.0018336452257681738,
      0.0046859656591292835,
      0.01687380799340006,
      0.0007133448366419312,
      0.003968774604312052,
      -0.011768981555321203,
      -0.0065531053917755894,
      -0.012243375206110105,
      0.03732186681062675,
      -0.0050129812778894525,
      -0.022828698979042408,
      -0.006857757121530596,
      0.027119556993846466,
      0.11909026517241199,
      -0.0257159158237481,
      -0.019720498223559733,
      -0.0010749027919627592,
      -0.002064710115780912,
      -0.02318141048474515,
      -0.00749553548878107,
      -0.020665756338057333,
      -0.042801478268039796,
      0.02826625653306413,
      -0.004801347552087358,
      -0.020176279931999042,
      -0.02917332935556927,
      -0.01651688339854117,
      -0.021975525130658476,
      -0.006991336062246619,
      -0.009819430634281891,
      -0.022081276686148118,
      -0.004038841371025303,
      0.06536677837774664,
      0.03069227335969757,
      0.006779033211263574,
      -0.023225285659240636,
      0.007433631194209067,
      -0.014763334419273202,
      0.0007532731830163619,
      -0.0015660463084578653,
      -0.014347890968402643,
      -0.0183336424447955,
      -0.015406301192720448,
      -0.015165843655877894,
      0.016066164245402137,
      0.008466812440554089,
      -0.018141055135503334,
      -0.012917098910723384,
      0.06857489433251614,
      0.009708796484439373,
      0.08293177430183704,
      -0.011311539260202235,
      -0.012521453174464346,
      -0.00966547154220696,
      -0.010333510256562395,
      0.002613704484402158,
      0.0025765953320868664,
      -0.00450174275069636,
      -0.001016816295360769,
      -0.003935285672354745,
      -0.0056431938361817995,
      -0.003662163689017149,
      -0.002204936101212108,
      -0.0023356562430265687,
      -0.0008972446997146305,
      -7.319005652772935e-06,
      -0.00046472726907827356,
      0.005732758895952583,
      -0.0002500348548096656,
      -0.000857961931960376,
      -7.867673255296374e-05,
      -0.00019293924980213494,
      -0.00020374646252050907,
      -0.000134989094044957,
      -0.0003013332513879653,
      -0.00012582511146838835,
      0.009951119254964872,
      -0.023918288138097342,
      -0.010427085303875011,
      -0.0023228025809459286,
      -0.0116262855418504,
      -0.014551706459825526,
      -0.0027200110042216274,
      -0.01891270193009358,
      -0.001251496772019053,
      -0.006186774640452039,
      0.10819865983157154,
      -0.00047151680573116517,
      -0.004179887833534727,
      0.0077552914039704145,
      -0.03362855297207561,
      -0.0024801665553453177,
      -0.0026486372738863968,
      -0.0012287495333760954,
      -0.010173680893245423,
      0.0033409030489179067,
      -0.0026826979941319455,
      -0.004760310167088211,
      0.0427649816563242,
      -0.001998355972788119,
      -0.0010801626506775587,
      0.0007964483676766051,
      0.010105010422141774,
      -0.0030094249014733327,
      -0.0008882121970603966,
      -0.0001550561600090592,
      0.025009887074376815,
      -0.0014236232524517695,
      -0.0008849805207460824,
      -0.0016036385125041755,
      -0.0004399280047449377,
      -0.01099792221949106,
      -0.0009460121454481843,
      -0.0014656478277159945,
      -0.0004951031233457645,
      -0.014383624827245334,
      -0.00044703724084366024,
      0.00033548247877517896,
      -0.0003347925089339425,
      -0.006845428767769488,
      -0.008076489249280321,
      -0.00072248053313149,
      -0.0003138667243193411,
      -0.008403971188220116,
      0.0008188739568612994,
      -7.616663755876768e-05,
      -0.003870413874782129,
      -0.0001516419914901706,
      0.005416738338366889,
      -0.0001603740653064595,
      0.009746005540117512,
      0.0007451590196439555,
      -0.00024081615795365792,
      -0.00016881768431742448,
      -0.0005993392779605881,
      -0.00044498652011532025,
      -0.00018489325622858175,
      -0.04668778501133992,
      -0.020117363603084897,
      -0.001859796179461707,
      0.1424210273336829,
      -0.011169075810643601,
      0.0016945163679153244,
      0.008433574197131989,
      -0.06545869474431718,
      -0.005413352064246131,
      -0.03654851684988394,
      0.034705466364247074,
      -0.19332050343861912,
      0.19332050343861973,
      -0.01401393401372844,
      0.003603226999444456,
      -0.006310979034046334,
      -0.01591859853895145,
      -0.0890254766314807,
      -0.0002491160332741972,
      0.024516584517810063,
      -0.0029958091482021804,
      -0.014211531034487931,
      -0.005856559233525871,
      -0.0027611053509053515,
      0.022422306454488363,
      0.07142853466913841,
      -0.01364420706511504,
      -0.03864720573170333,
      0.08735955703253498,
      -0.0060188033970125735,
      0.07537819196843878,
      -0.013046006090652283,
      -0.0073276211114685725,
      -0.04481908867884648,
      -0.009862360548454267
    ],
    "intercept": -1.4816528082637765
  },
  "wide-insurance-offset-l2-poisson": {
    "coef": [
      0.5036957072097935,
      -0.06764490969289312,
      0.019185771679933985,
      -0.037802431232037324,
      0.005253422537986461,
      0.01779594105669428,
      2.4403676713318282e-05,
      3.755791245192561e-05,
      3.755791245192522e-05,
      0.34429222411607757,
      -0.0043564001774396436,
      -0.012636293836286526,
      -0.00046732004365732934,
      0.006239438406881716,
      0.015092884673762602,
      -0.0038723090232608303,
      -0.008084579587571056,
      -0.006554635881180591,
      0.013750511958412126,
      0.003101959613246487,
      -0.006834547459781261,
      0.004251461054481622,
      0.0010215736159115759,
      0.0006253207535154518,
      0.001713997419550407,
      -0.0013534376718932137,
      -0.0009905240534333806,
      -0.000647099761258146,
      0.049056473780971825,
      -0.027483740664380342,
      -0.02016127884608802,
      -0.003116810882018563,
      -0.0008569419031546131,
      -0.0038950624692085213,
      -0.0017309825516806602,
      0.0009448208903271192,
      0.0026573214461520127,
      -0.006609507823782937,
      0.01003432198617231,
      -0.000883331976833834,
      0.007348270356620603,
      -0.004579141511051683,
      0.0018990209036081024,
      -0.0008860730379302598,
      -0.0003034305065401641,
      -0.0018850482460808697,
      0.002395073168885554,
      -8.998096724530886e-05,
      -0.0014576934551140755,
      -0.00111398796099763,
      -0.0002855966401660166,
      0.0003162337240343237,
      -0.0002189275232625316,
      -5.1915214492626934e-05,
      -0.00014253432215462658,
      0.0008039744414684822,
      -7.811699946560381e-05,
      -2.754302012138454e-05,
      0.0008020349710281148,
      -0.00010597774194785463,
      -4.967915583166135e-05,
      -5.929520281134891e-05,
      -5.347981905041444e-05,
      -3.338898186857079e-05,
      -2.1686198682957963e-05,
      -5.119244346157205e-05,
      -1.2073334564825401e-05,
      -8.643543189452578e-06,
      -4.437464998065631e-06,
      -4.526109145311002e-08,
      0.0005511380217636554,
      -0.0004810125385996479,
      -0.011248276663952925,
      -0.0006087517270621173,
      -1.852923729864986e-05,
      0.0018006748455478352,
      0.005944141727323095,
      0.0008707386201970463,
      -0.0027397693482131566,
      0.0018278592821501874,
      -0.0027431589206074443,
      0.004102923719195735,
      -0.003634366866194952,
      0.0008573698431540662,
      0.0019802336547816582,
      0.0013027010497655056,
      -0.0032951011281316454,
      -0.002828772926601507,
      0.002491888966351525,
      -0.004000178823925598,
      -0.0033465994464030634,
      -4.070765664650417e-05,
      0.0004652527723696334,
      -0.004489550274542591,
      0.006562083656163747,
      0.0028533846557700893,
      -0.0025151509064537093,
      -0.004755094232843439,
      0.004949404646644664,
      -0.002772556651088938,
      0.0028067430742277103,
      0.0012636777691958376,
      0.006014524532425207,
      0.0012220378443034456,
      0.0033129933228928025,
      0.007729950452953,
      0.002257962872621592,
      0.005216184911118542,
      0.0018686723356361918,
      -0.003003558977366356,
      0.0004889535984463353,
      -0.00011689826076369017,
      -0.000889768562792331,
      -0.0009245645766875069,
      -0.003027293246607654,
      0.0006407734515268838,
      0.0006229328691748876,
      0.0007501598928146641,
      -0.0005776858296614607,
      -0.0025365923183469454,
      0.0004102963031093009,
      0.00011982855276772354,
      -0.0016765134569401527,
      -0.0010653685238478673,
      -0.002078249622748296,
      -0.00230838808020734,
      -0.0025817930204857136,
      0.0006495965195204075,
      -0.00023709819570393284,
      -0.000934820788718937,
      0.0011610014834195909,
      -0.0010935436266197994,
      0.0005592112751894414,
      -0.0013452153263794914,
      -0.0010406658846228833,
      7.338322415253751e-05,
      -0.0004222401163981722,
      0.0006990690324464265,
      -0.00027161085660495064,
      0.0021539515978707038,
      -0.00010929695058141822,
      -0.00028155344674179154,
      -5.916778743322829e-05,
      -0.00013533573127554353,
      -0.00014165014047597715,
      -8.251708739052767e-05,
      -4.918386771890452e-05,
      -7.354874530492194e-05,
      -0.015795606039335493,
      -0.0032079381554032485,
      8.069818728253288e-05,
      0.0008809011828432349,
      0.0005242186797665256,
      -0.001194474528604871,
      0.003028572058445821,
      0.000694969032625352,
      0.004069894053240834,
      0.00043642260761140266,
      0.003021817670547772,
      0.00012599506360187662,
      0.009558966778138927,
      0.0013666147339880168,
      -0.0027257602987431784,
      0.0005624218659315568,
      -0.0009587114796474116,
      0.0005647954310278073,
      -0.003301041848493221,
      0.004138444002693013,
      -0.0009930146925003643,
      -0.000660108575408339,
      -0.0008399642418167253,
      -0.0008075532225847024,
      -8.73774424686621e-05,
      0.0026190402254713343,
      0.0013269244803160334,
      -0.0003851404237473119,
      0.0015491048064690215,
      -2.4358358670127808e-05,
      0.0038864098965271346,
      -0.0002475844945091919,
      -0.0003195358338271289,
      0.00107926733096851,
      -2.9090773519293683e-05,
      -0.0032437296266600046,
      -0.0003603911943823322,
      -0.00034285765911600636,
      -2.6447250571475664e-05,
      6.169365211178991e-06,
      -0.00015249916052286755,
      0.000439938323376116,
      -0.0001658053154650246,
      -0.003888930181364736,
      0.0011204386922885196,
      -0.00012465162344197563,
      -3.532003211554081e-05,
      -0.0021168438438981555,
      0.0007578207367740034,
      -0.00010562201591565928,
      -0.0008159367312745528,
      -0.00012330179192570576,
      0.0018413324560686277,
      -6.579435279840205e-05,
      0.002180260155675328,
      -0.0006042167307417798,
      -0.000660130374149384,
      -0.000608051028088516,
      -0.0006899382824064862,
      -2.319546724550726e-05,
      -0.00013051474552706603,
      0.003543179092333765,
      -0.0016937842817805603,
      0.0016893767374411637,
      0.016373881663053324,
      -0.003291294421322863,
      0.0022984331487711975,
      -0.008487551097468196,
      -0.011353206860634601,
      -0.007168855648637628,
      0.002888864438451114,
      0.005200957229793257,
      -0.005800685630558855,
      0.005800685630558893,
      0.0013188727165791543,
      0.002133833372993172,
      -0.0021479967576761173,
      -0.0021552861688432035,
      -0.01451873902732144,
      -0.0012145878221006686,
      0.0031603717287244475,
      0.002230282763741903,
      -0.004973995710014902,
      -0.000751013055699488,
      -0.0003769505414849604,
      -0.0005916607337843244,
      0.006673044292735319,
      -0.0022211531566107114,
      -0.007471781677274927,
      -0.0021365076473213785,
      0.0015931357427369953,
      0.009981012387816842,
      -0.0021415074102975186,
      -0.001569921487809636,
      0.015092341239349613,
      8.820695156182047e-05
    ],
    "intercept": -3.5308674182226714
  },
  "narrow-insurance-weights-l2-gamma": {
    "coef": [
      -0.051437212796499605,
      -0.0884048920415792,
      0.029535196353226652,
      0.12200769857277793,
      -0.03492169067552716,
      0.023220900587601293,
      0.006471780592358309,
      0.027313508497203185,
      -0.03378528908956146,
      0.03920875396340054,
      -0.024135280031677555,
      -0.06612318205142785,
      -0.03821546892731658,
      -0.05135007403079077,
      0.023645737019865144,
      0.11696951405794712,
      0.002521424355928576,
      0.0037139088473246594,
      0.08670946397871819,
      0.019027978385934563,
      0.08080400040879045,
      -0.04090301327793708,
      -0.010371445310413093,
      -0.07298679651377826,
      -0.03256310343642221,
      0.004921254484803996,
      -0.004662729716785856,
      -0.0336895178502359,
      -0.015096687940893727,
      0.015096687940893343,
      -0.007136678147546579,
      -0.0669281145406964,
      0.03476882642892881,
      -0.013965769819103942,
      -0.015140692714102299,
      0.011174859776196174,
      0.1240941245209513,
      0.012386325532380683,
      -0.012081249044648149,
      -0.034650821026250646,
      -0.016450151552901863,
      -0.001994367362296955,
      -0.09098196643097838,
      -0.08048547941148941,
      -0.014505353233648568,
      0.047944723562599274,
      -0.002996361526183059,
      -0.02474256331805457,
      -0.04462235454070742,
      -0.006191821502939476,
      0.1055750083584116,
      0.07962715675751796,
      0.010166041087015305,
      -0.011311884114280453
    ],
    "intercept": 7.418203655192182
  },
  "narrow-insurance-no-weights-l2-gamma": {
    "coef": [
      -0.06020641910199312,
      -0.07925066872181998,
      0.02660173490065421,
      0.11070151948831537,
      -0.032663695377231065,
      0.03481752881207456,
      0.007047183404588243,
      0.031362033237630135,
      -0.03840921664221812,
      0.035518205656770406,
      -0.02629593496154557,
      -0.06128802644970764,
      -0.035802040149481414,
      -0.04172226053172807,
      0.014516873868000322,
      0.11507318256769175,
      0.0029718624082175306,
      -0.0068910579558444695,
      0.08677293750192619,
      0.023824094408143006,
      0.04375393337250537,
      -0.03487709886328689,
      -0.007824678638608414,
      -0.05781614558522538,
      -0.03724994351322678,
      0.012341329691326633,
      0.003985114542689885,
      -0.02601848496039924,
      -0.005813841759705977,
      0.005813841759706298,
      -0.008915962443079852,
      -0.07962839537501903,
      0.015723122340965897,
      -0.012563471178959493,
      -0.012265077923487971,
      0.015370135464770727,
      0.1324940077661367,
      0.01675781992401315,
      -0.007992923913074504,
      -0.03219888537043132,
      -0.013916223983135962,
      -0.0017813599364780892,
      -0.09427384569075165,
      -0.06904309617943974,
      -0.006586705606369477,
      0.041760069741150235,
      -0.002629296471663862,
      -0.022368518312961137,
      -0.04553322281810468,
      -0.005283778326777752,
      0.0975375994065743,
      0.0845772793659073,
      0.0018447670771365222,
      -0.004372762065621214
    ],
    "intercept": 7.363699278773426
  },
  "narrow-insurance-offset-l2-gamma": {
    "coef": [
      -0.06020641910199313,
      -0.07925066872182003,
      0.026601734900654216,
      0.11070151948831537,
      -0.03266369537723109,
      0.03481752881207455,
      0.007047183404588284,
      0.03136203323763015,
      -0.038409216642218094,
      0.035518205656770385,
      -0.02629593496154556,
      -0.06128802644970763,
      -0.035802040149481316,
      -0.04172226053172803,
      0.0145168738680004,
      0.11507318256769182,
      0.002971862408217531,
      -0.006891057955844523,
      0.0867729375019262,
      0.023824094408143,
      0.04375393337250535,
      -0.034877098863286896,
      -0.00782467863860841,
      -0.057816145585225395,
      -0.03724994351322671,
      0.012341329691326602,
      0.003985114542689884,
      -0.026018484960399234,
      -0.005813841759706027,
      0.005813841759706256,
      -0.008915962443080317,
      -0.079628395375019,
      0.01572312234096585,
      -0.012563471178959486,
      -0.012265077923487975,
      0.015370135464770708,
      0.13249400776613668,
      0.01675781992401313,
      -0.007992923913074507,
      -0.032198885370431314,
      -0.013916223983135962,
      -0.0017813599364780903,
      -0.09427384569075173,
      -0.06904309617943971,
      -0.006586705606369448,
      0.04176006974115024,
      -0.002629296471663886,
      -0.022368518312961137,
      -0.045533222818104686,
      -0.005283778326777748,
      0.09753759940657421,
      0.08457727936590724,
      0.0018447670771365263,
      -0.004372762065620602
    ],
    "intercept": 7.363699278773427
  },
  "narrow-insurance-weights-l2-tweedie-p=1.5": {
    "coef": [
      -0.4003006468940406,
      -0.08258890939634711,
      -0.15024000503325044,
      0.13528371365871594,
      0.20287426859891244,
      0.29497157906600857,
      0.22461310565579481,
      -0.029494558576967454,
      -0.1951185470788251,
      0.774730744638397,
      -0.24409231880015378,
      -0.829715872628777,
      0.046529011622839754,
      0.15943605860377077,
      0.196262101607677,
      -0.10314972504375461,
      0.03679871275761913,
      0.4400659177886672,
      -0.35087169753625796,
      -0.1483951872996458,
      0.32087022432907214,
      -0.3272096195041022,
      0.3333877938948781,
      0.24944207536750734,
      -0.24396621655046116,
      -0.2119734282724541,
      -0.08164203399655107,
      0.0202921717793517,
      0.12591240578230248,
      -0.12591240578230392,
      0.011390482452727854,
      -0.007286156823772201,
      0.06708287532208738,
      -0.23396064318826723,
      -0.1703485913934992,
      0.00641805283241353,
      0.21688526020445106,
      0.11454932548445612,
      0.07403320568897914,
      -0.09839030645567656,
      -0.1147450719302844,
      -0.04046246641545471,
      -0.2288467366322311,
      0.361150000413742,
      -0.2928671590346211,
      -0.049205778427812895,
      -0.18377510825150226,
      0.011535325300060567,
      0.2633464560258376,
      -0.1834948518425075,
      -0.032826061378136887,
      0.585452315396418,
      -0.06424388489467844,
      0.1663753303517693
    ],
    "intercept": 1.678822760716335
  },
  "narrow-insurance-no-weights-l2-tweedie-p=1.5": {
    "coef": [
      -0.7154211823738944,
      0.20660482085228393,
      -0.019867368994770984,
      0.30026334863584625,
      0.035242891416036135,
      0.1931774904644911,
      -0.3049260350004385,
      0.08619926638498936,
      0.21872676861546095,
      0.948271511051147,
      -0.3025753467590747,
      -0.9976354226848364,
      -0.07758577021826944,
      0.2363737518449175,
      0.3485070770235995,
      -0.15535580025750434,
      0.0334950213344316,
      0.3145488864879087,
      -0.38657365140378674,
      -0.20534654788173137,
      0.22489765397764447,
      -0.4453749520567845,
      0.3717011229743269,
      0.292342429348921,
      -0.4277161147693755,
      0.15004332789247393,
      -0.2498791155067276,
      0.3613569609371136,
      0.1734948729071905,
      -0.17349487290720633,
      0.05450944670326438,
      0.10434500977950405,
      -0.06843707276399269,
      0.141108283487033,
      -0.5662980250969603,
      -0.15297941648351365,
      0.3985005816664447,
      -0.26581507072852606,
      0.1324297191485728,
      0.19586867914846343,
      -0.25897918654303215,
      -0.11749042720631077,
      0.157406053387117,
      0.563684573244088,
      -0.2627915541031821,
      0.06578324117951496,
      -0.023735376266124715,
      0.047058585518285005,
      0.65108535691055,
      -0.5253709729719565,
      -0.5590853817244327,
      0.5285419880790169,
      -0.18482958766056026,
      0.09591733290674027
    ],
    "intercept": 1.7428288431651042
  },
  "narrow-insurance-offset-l2-tweedie-p=1.5": {
    "coef": [
      -0.5194682727935377,
      0.04710045433438384,
      -0.10281506308946994,
      0.18390139946779838,
      0.15779431799481258,
      0.23348716408601222,
      0.03883256127955159,
      0.0032598125191398344,
      -0.042092373798699824,
      0.9002331422751015,
      -0.2618608221592313,
      -0.9078725859506214,
      -0.021593472312026685,
      0.20874233943121795,
      0.23233069522677607,
      -0.1499792965112215,
      0.035355950983487185,
      0.40627806996702914,
      -0.36219617612654914,
      -0.1393362092958971,
      0.28135122826504855,
      -0.3748492393061174,
      0.3627199705808974,
      0.26417644835993365,
      -0.3193305407201077,
      -0.10721880505537264,
      -0.15911532094017292,
      0.1475205742713017,
      0.1566937255079841,
      -0.1566937255079848,
      0.040086615758636965,
      0.025312724252414487,
      0.023384311888944298,
      -0.12921774677503428,
      -0.29038671454233006,
      -0.045790926530746866,
      0.30981701980110443,
      -0.015578446977004529,
      0.11146427119098339,
      -0.014960567506714673,
      -0.16340691968091314,
      -0.06317526737107726,
      -0.05932842307939104,
      0.461721528984668,
      -0.3039050093532959,
      0.003185289498324976,
      -0.15262757688007847,
      0.025858777375205713,
      0.39218609009954647,
      -0.309272281985537,
      -0.24335639939870707,
      0.5449015472728559,
      -0.10682528028321721,
      0.12475135009688264
    ],
    "intercept": 1.7480493313206202
  },
  "wide-insurance-offset-l2-tweedie-p=1.5": {
    "coef": [
      2.4563510057145854,
      -1.2016744179722674,
      0.030095242999641718,
      0.010216209542664282,
      0.002212677733752876,
      -0.002902108706713633,
      2.6959515546878114e-05,
      7.452167885669731e-05,
      7.452167885669384e-05,
      3.017255584558165,
      -0.14096903134432512,
      -0.1013317471496571,
      -0.07574749169567248,
      0.47692452759186543,
      -0.19827805573911372,
      0.039401798336903625,
      -0.0006143287759096115,
      0.12106445069079437,
      0.10804001743985553,
      0.017204288261348493,
      -0.3099456303093393,
      0.016976445956715255,
      -0.2856909454923024,
      0.11802402359962062,
      0.2687247440605439,
      -0.05751911135071742,
      -0.010993236414162215,
      0.014729282333553126,
      -0.13342448145398475,
      -0.1615107028384996,
      -0.30740270820195825,
      0.46616913179191544,
      -0.015431350519018365,
      -0.1136984233887935,
      0.3081495945085583,
      -0.14899559457233633,
      0.22803451480307846,
      0.06413778955534946,
      0.002784949735692093,
      -0.277046248960337,
      0.3466509563249657,
      0.006865510088629709,
      -0.08995689594801783,
      0.09085926915056082,
      -0.3186969254447105,
      0.020625260934153122,
      0.10417962199726363,
      -0.016088180663775875,
      -0.04343735917958201,
      -0.038338434034388455,
      -0.011300997745529376,
      0.04671329591194682,
      -0.008610888883642734,
      -0.0039312271586734926,
      -0.003942207395925783,
      0.02966899588667918,
      -0.003969913636050158,
      -0.00234761678598891,
      0.009429113250344807,
      -0.005801645617150279,
      -0.0026772692446239235,
      -0.0021405728213566228,
      -0.002825879779972476,
      -0.00305848752583148,
      -0.001088131875909854,
      -0.004017344827430842,
      -0.001299052497313719,
      -0.0013156718372061673,
      -0.001526064371788241,
      -0.0003877267293410428,
      0.0850530658290481,
      0.030099461098355935,
      -0.2921972018750115,
      -0.011509921645030324,
      -0.03488286643416347,
      -0.013762284319942147,
      -0.20779682651813777,
      -0.05093586874502249,
      0.06532433931254485,
      -0.18768023585593918,
      -0.020502667103888365,
      -0.33706812956414717,
      -0.06500262056383654,
      -0.06936208810531411,
      0.26041370280021925,
      -0.2525374972558642,
      0.06370405670977503,
      0.023159074049070954,
      0.05281487470216756,
      0.13157162234305725,
      0.010608298697902325,
      0.011747151950674368,
      0.49031422817178305,
      -0.3335004310982363,
      0.29756478871245423,
      0.3078082176243396,
      -0.2515035528616392,
      0.0374792009728169,
      0.21449830524731242,
      -0.024567136877110214,
      0.030432960623346612,
      0.12290480870473841,
      0.2871185039648256,
      -0.30273142833776445,
      0.21881985724175093,
      0.027133961571208114,
      0.20796862406230063,
      -0.1324704577967254,
      0.009569928779780709,
      0.12270445104269329,
      0.0898007364344245,
      -0.2368558954847695,
      0.20307080939370759,
      0.037432829513125015,
      0.03248783996129734,
      -0.2603814490532785,
      0.18534492458637636,
      -0.02292551064355318,
      0.08408894242108485,
      -0.09257057888068401,
      0.06570610655991231,
      0.029730686649395908,
      -0.08036140136277514,
      0.006783071721290161,
      -0.014490294295305425,
      -0.026270909188853823,
      0.14131019510859083,
      0.05784636363218077,
      0.01692255968952634,
      0.02363600778719852,
      -0.43651671898276967,
      0.012418897279688715,
      -0.2453695051662969,
      -0.022693444674616974,
      -0.01716610770587923,
      0.0072653114965926,
      -0.0064238959991408644,
      -0.00708057904379535,
      -0.005054055993273793,
      -0.024254036723933715,
      -0.002598013785618515,
      -0.005857614171724415,
      -0.001159723727601856,
      -0.0012809973301316799,
      -0.0019545496821412912,
      -0.0011662354020364977,
      -0.0008163315230303228,
      -0.001399702667575084,
      -0.24754784178720288,
      -0.07169819152534235,
      0.1341209701300529,
      0.016489218200940747,
      -0.015868091778880208,
      -0.257210349108817,
      -0.12299764149085261,
      0.022174807082997863,
      0.22305713743421426,
      0.02651761991081267,
      -0.18417921141765933,
      0.04545786639418187,
      0.13604607666912616,
      -0.011182742842101781,
      0.03679876463990076,
      0.08190831025224524,
      -0.017182170424965185,
      0.050993609540090856,
      -0.016472741120668596,
      0.18656805229363074,
      -0.014573544369090379,
      -0.013145268277184265,
      0.26369886290726924,
      0.033053903259999254,
      -0.002135952608697823,
      0.10455783398612123,
      0.022573215947653043,
      0.00694122365812474,
      0.07731204218885435,
      -0.00047308606061465214,
      0.30119754876235794,
      -0.006247962818397221,
      -0.00511585447343663,
      -0.24897406722033724,
      -0.0010292462412884406,
      0.04117490312640289,
      -0.005107455622526632,
      -0.005027420342136491,
      -0.0004276074522241842,
      -0.23806774785188964,
      -0.001739112433140277,
      0.03618191027454037,
      -0.002988428133262822,
      0.05742459396886255,
      -0.1622632390645644,
      -0.0012538572373131792,
      -0.0009063970598499601,
      -0.6827759824903766,
      0.010958086559306418,
      -0.001220552868629264,
      0.08079953422683941,
      -0.0012811626108270953,
      0.16355999860980341,
      -0.0012479558187083318,
      0.14168469360420868,
      -0.011261800475529164,
      -0.0019902372952759822,
      0.056420260955136456,
      -0.0023097048758182605,
      -0.0003198388739475512,
      -0.0014485805121186757,
      0.047920637947693724,
      -0.04348923341084266,
      -0.13330899499882778,
      -0.14765795811152752,
      0.038936185852423796,
      0.1674247683083588,
      0.18004779864642942,
      -0.03957001286578876,
      0.09010451112440847,
      -0.21492706422598573,
      0.05451936173365954,
      -0.05092380360666262,
      0.05092380360666418,
      -0.06557837833023678,
      0.08269128677767003,
      0.06132930396512571,
      -0.008935688909397752,
      -0.09338591959290522,
      0.2813405928347373,
      -0.23229816337119244,
      -0.3456395773253949,
      0.13867784170624342,
      -0.02490651794743029,
      -0.007527657225636958,
      -0.03680761734050045,
      -0.2863634847058917,
      0.07845560943002537,
      -0.021497247824588946,
      0.10753097086504039,
      -0.08878867893290951,
      0.5445373720210849,
      -0.026942857919609542,
      -0.06251362872059256,
      -0.05473634466001336,
      0.0613587852063727
    ],
    "intercept": 1.2290393285810455
  },
  "narrow-insurance-weights-net-gaussian": {
    "coef": [
      -133.79072080011073,
      -170.48766968609056,
      74.25288709365799,
      290.8522908064906,
      -100.46106998044948,
      39.63428197093038,
      -9.154678164681268,
      50.04115117510108,
      -39.88647434392905,
      120.36531839518142,
      -79.37303082513263,
      -172.0324710116423,
      -101.3631404616317,
      -139.9193889965559,
      35.067507543442886,
      338.2552084245311,
      4.379897079277933,
      -25.023403230254612,
      303.03173134482563,
      25.55973867638131,
      200.30246594043578,
      -133.78238968833233,
      -32.826185116653654,
      -170.5322718855306,
      -74.92894880466046,
      39.82634717981881,
      -16.85737112433634,
      -111.76971615591657,
      -39.29463564153133,
      39.29463896273904,
      -4.454364481961754,
      -188.6570337368812,
      152.6738022796507,
      -60.53090803423295,
      -59.24584088057933,
      -2.018017740442384,
      465.9443294395712,
      7.769950508256778,
      -51.66738622782441,
      -133.63557812077764,
      -57.79325434913785,
      -6.126940831823577,
      -218.01040153517422,
      -205.77770677245897,
      -61.258946678340315,
      105.13001605253552,
      -18.47019010294163,
      -88.44785302955034,
      -108.29676542821589,
      -28.679973007738447,
      354.93193811817787,
      171.204564280624,
      38.962193651743824,
      -44.321115970104145
    ],
    "intercept": 1770.9016835330106
  },
  "narrow-insurance-no-weights-net-gaussian": {
    "coef": [
      -148.63474283636305,
      -152.22034455351903,
      61.16959213511941,
      255.21443923892213,
      -89.66851635922033,
      74.1395716551572,
      -0.44909286039612667,
      58.87072045364517,
      -57.421628761255576,
      111.86195359826392,
      -83.81060597545965,
      -156.93295345318495,
      -96.6000679921651,
      -116.12888543736699,
      14.862695584900635,
      327.7478661316049,
      5.135131111620073,
      -47.705703018064675,
      302.4488066696807,
      40.98147013233067,
      101.63621228805657,
      -116.3587756686603,
      -25.336345926792845,
      -137.14774198016806,
      -90.50876753167742,
      59.00386306607586,
      4.57502798236768,
      -90.58804853500774,
      -20.058086394584087,
      20.058089293057826,
      -8.85489559807255,
      -212.5197158471843,
      63.94985090526687,
      -53.49431214389928,
      -47.21946935594947,
      9.355097581554986,
      488.89175570098416,
      27.494252133541355,
      -36.1348337526842,
      -121.88013506099902,
      -47.76052378116777,
      -4.933825311598754,
      -229.5426840313525,
      -177.91736473446474,
      -33.785864720814615,
      89.85502402245592,
      -14.354807046144808,
      -77.53283129332291,
      -109.94018206494891,
      -23.48402381038169,
      327.19618868747074,
      186.47832192232448,
      3.280080138049996,
      -24.409492035849834
    ],
    "intercept": 1659.7183661178592
  },
  "narrow-insurance-offset-net-gaussian": {
    "coef": [
      -135.41888912431213,
      -174.3047844356618,
      74.61968502084041,
      308.8400095224265,
      -107.34920904734368,
      33.61318732468895,
      -22.109310852392,
      67.28061935384089,
      -44.17130970113046,
      115.40492111851579,
      -66.9129873139685,
      -190.28197704009284,
      -124.81577088585688,
      -150.49879334148554,
      49.94576005054099,
      368.15884993559615,
      6.477347730607021,
      -39.58592619837635,
      287.7198545629879,
      17.351803775297352,
      274.3304377476943,
      -114.74870797622114,
      -29.982526399647696,
      -184.83428687630735,
      -91.40684783015324,
      24.176050209587135,
      -23.720365219985574,
      -116.29948838504457,
      -36.32965102109741,
      36.329653998143975,
      -3.9058394809500685,
      -181.2108132653437,
      163.60822602444907,
      -79.81778010508458,
      -68.42684665851277,
      -18.624253494255264,
      472.67499279667356,
      7.880729001577425,
      -47.45995664458428,
      -151.8299459533423,
      -41.80083290489467,
      -8.375716188308305,
      -229.1576538206633,
      -208.11341528982234,
      -75.52799428919101,
      113.98957337808406,
      -29.31573224104577,
      -89.98435162731245,
      -110.42982391251869,
      -36.989500260237406,
      365.1905862503154,
      205.06558255353144,
      56.65492473674899,
      -42.162115978888
    ],
    "intercept": 1722.9069655716166
  },
  "wide-insurance-weights-net-gaussian": {
    "coef": [
      -827.2839185047154,
      -7.622815210710949,
      20.923890359022124,
      -4.945539900578374,
      0.8549789718833795,
      1.0344931509453654,
      0.0033150465466209294,
      0.016400800082855205,
      0.7966660291182562,
      -827.2839185056994,
      -38.15507688997706,
      -17.72855817865309,
      61.553394343469,
      -27.203738503683482,
      16.636086628692432,
      4.897892781022101,
      -17.427761516218837,
      40.30985919825727,
      -6.924760397103997,
      -24.329581759686892,
      -8.179121470466807,
      34.58922742473448,
      -16.85980514600197,
      -23.309683245184534,
      -0.9739946567426425,
      36.098225571219096,
      9.624167270564227,
      -18.616771435125212,
      -1.7742971050418974,
      -24.558268512766645,
      -37.92926877902702,
      42.76531033224461,
      34.36246894667316,
      -6.972959315904222,
      0.6972486528369348,
      27.618958864852008,
      15.321401220760706,
      6.069727831949938,
      11.663832035728195,
      30.92118408681092,
      -73.82953726025235,
      -32.6426066248597,
      19.289576392799244,
      -0.3565755460478327,
      -112.01161640862999,
      27.813767940018796,
      54.79562708747006,
      0.6697248608495422,
      4.5710938876696146,
      1.2717500662560879,
      0.0,
      0.0,
      -0.3846704500043683,
      7.9789403668780805,
      0.0,
      0.0,
      0.0,
      0.0,
      0.0,
      0.0,
      0.0,
      0.0,
      0.0,
      0.0,
      10.753188964780628,
      23.063893021378973,
      -16.945394001063978,
      13.583054924304964,
      -67.74631435825184,
      27.297634129477533,
      15.064344841909547,
      -3.548180472108665,
      -1.1496083913024553,
      -17.872566823119467,
      0.0,
      4.963235720450964,
      20.402718004355492,
      21.637562565713477,
      -37.1007516800166,
      26.40594999289402,
      29.650509611811685,
      0.6560737333133149,
      -91.28860601807436,
      -1.743991677555837,
      -12.596145383860545,
      8.785198942701978,
      24.810141801218844,
      16.694675940031924,
      50.981410798857944,
      2.245123030276707,
      29.669245872907535,
      15.79223094140035,
      35.724300364717195,
      36.126581272505746,
      -60.41332183651163,
      -1.9246750894328994,
      5.187543065350609,
      17.47298710517201,
      -108.31620357760752,
      -30.356734580214873,
      -24.801302205322365,
      0.0,
      48.7788051288186,
      -1.8076729351636667,
      -16.018601817349726,
      -0.032807708609592985,
      -178.845060143861,
      9.04087286696825,
      8.180197315785371,
      -1.5268236749518018,
      66.22759263652438,
      14.109466131000426,
      44.039438442450795,
      49.388924310337394,
      1.5474545052441244,
      -28.780759874459783,
      -43.1826233164035,
      -5.850858873208536,
      2.304679028937531,
      33.18135379632285,
      25.534143697768673,
      4.225459434628696,
      52.6372473025565,
      -89.59378415331108,
      35.33539608765629,
      2.2467898582376917,
      0.0312830265543771,
      0.0,
      0.0,
      -0.35225715386215833,
      0.5019339228510223,
      -8.746328251269029,
      0.837695517033654,
      0.0,
      0.0,
      -1.8686969697428144,
      0.0,
      3.701690571657055,
      0.0,
      -78.56007507684255,
      -2.6940989266652133,
      9.367620741747443,
      12.273581398652423,
      29.764707196731415,
      -11.10596059299463,
      2.0040454828697474,
      -3.759111372562331,
      15.08301865803223,
      6.824820000637118,
      -139.92774153918273,
      -1.0611749427182755,
      29.08811934156399,
      -0.29737317336587693,
      2.3417099680458575,
      -9.165019770907056,
      -5.415727598919756,
      -2.9072600884005353,
      -9.291067942474923,
      10.600612821522166,
      6.252249452906736,
      -3.0528594991687554,
      7.637554387322878,
      2.7433634328160856,
      0.0,
      25.580471213599886,
      22.888311840736794,
      1.712169425254029,
      0.7673584328276793,
      0.0,
      1.3309320723294042,
      2.7691398998849834,
      0.0395367426592354,
      0.0,
      -3.084906019001795,
      8.511000296726257,
      -4.3775277203908445,
      0.0,
      -4.398891337738135,
      0.0,
      55.705396684384525,
      -2.5178038334142685,
      0.0,
      23.369358030086833,
      -0.3775007351061521,
      11.191349606268224,
      10.548354974313085,
      -55.44790059466798,
      0.0,
      3.670034897225497,
      29.929547019658933,
      24.58370568848844,
      3.005212931998728,
      0.0,
      -0.08313666765169508,
      1.5002277717480288,
      7.894862914931833,
      0.0,
      2.257471956212441,
      0.0,
      16.536195273657146,
      2.1323968953839607,
      0.0,
      0.0,
      0.0,
      25.721213496778553,
      0.9409063351341743,
      0.6456890027163782,
      -2.323676012064306,
      -0.3530975486857528,
      0.0,
      -7.368292008562474,
      0.0,
      0.0,
      -1.3212378347337104,
      5.196568541370524,
      -1.2730326686796125,
      -0.8913131487676749,
      -80.59171648125128,
      0.0,
      0.0,
      0.0,
      0.7060997661758207,
      -52.600827821825504,
      41.0406683575693,
      8.553042551923816,
      -132.24888038108327,
      8.948253083976676,
      16.13850967034167,
      38.23030150694268,
      -31.36651037456581,
      37.83660038019291,
      35.85591331489729,
      24.612929705868865,
      30.973962377206465,
      -30.973957183466162,
      -49.55380701154885,
      -130.75812482790406,
      0.009062465337371456,
      11.462744079254474,
      21.863444963684664,
      114.11345945491149,
      32.51963069822248,
      26.841395959683958,
      0.0,
      5.749371170922544,
      0.0,
      -38.792027646765625,
      16.994748602741105,
      41.275588110228504,
      -1.779481039913134,
      7.142767959186189,
      2.6270278515138563,
      -10.340069246092563,
      3.1540139391539324,
      -59.63091795656019,
      49.1967119678881,
      -49.30356752919474
    ],
    "intercept": 1796.2557123940005
  },
  "wide-insurance-no-weights-net-gaussian": {
    "coef": [
      -743.5081337761525,
      -12.510269638863758,
      12.377683476005597,
      -2.3874548082816287,
      0.27330100939589413,
      0.08832114640116139,
      0.0015102442651445038,
      0.010065641351218065,
      0.8781761286244703,
      -743.5081337759063,
      -25.168289075782504,
      -13.009059778649327,
      32.689087894551896,
      -7.619248136415416,
      7.218195536564864,
      5.889313642777341,
      -1.4229810834699237,
      22.112146632231727,
      -5.086184615102036,
      -22.483492842735508,
      -5.029156895801009,
      19.980892286320532,
      -9.835917626151826,
      -14.091933757939263,
      0.6127468205152442,
      21.924553654254908,
      3.9759654840265637,
      -8.656638126124964,
      0.0,
      -16.882582081884596,
      -34.233687800659915,
      27.79743399079791,
      16.53915079066279,
      -4.225465642680303,
      8.74999458855158,
      14.099155593954583,
      10.423810417728337,
      -0.6607620159241661,
      6.972047832493113,
      19.434001672233908,
      -13.919580844713082,
      -19.03079520192111,
      8.79084480812973,
      -2.0905012887480146,
      -74.82440165317885,
      14.540496658204527,
      31.163880705975938,
      0.1821024096491831,
      1.8407349453601043,
      0.0,
      0.0,
      0.0,
      0.0,
      0.8600640258314063,
      0.0,
      0.0,
      0.0,
      0.0,
      0.0,
      0.0,
      0.0,
      0.0,
      0.0,
      0.0,
      5.814108884574192,
      11.942631154378516,
      -8.386446337065108,
      7.925558156229865,
      -49.773573427078816,
      11.560881331725536,
      9.106049009694381,
      -1.4087609704597406,
      1.0713125707667561,
      -11.142832760088726,
      0.0,
      4.079960481725218,
      10.286417499478947,
      11.357771063412386,
      -21.70908099005244,
      18.336801463365653,
      18.66944958042353,
      -1.9674627447447997,
      -50.7910279503219,
      -1.2694009219649056,
      -6.964376043219066,
      4.549281772556891,
      15.151383365784433,
      10.468101732816388,
      30.634651300997934,
      -0.5447247022873726,
      17.968424038407385,
      0.3764349036810099,
      22.031471626129907,
      19.657711011881652,
      -37.15851036287258,
      -0.1252855405131141,
      0.39560840521275087,
      9.199451328700983,
      -18.123298345375204,
      -9.849671086086309,
      -17.58683392694924,
      1.7089191322461716,
      19.435893408118655,
      -1.876556012065151,
      -9.403960829119447,
      0.0,
      -115.7246964522157,
      4.668838071807498,
      5.351881317929329,
      0.0,
      40.96800307186101,
      9.282208830247153,
      21.856560926474437,
      26.230688829990097,
      0.0,
      -15.305627949291548,
      -27.493452483541247,
      -1.0246562142085391,
      1.4675388988147993,
      17.510066979934084,
      14.175215449845718,
      0.0,
      30.649237340477498,
      -62.014573052998884,
      21.475040782967223,
      2.364324734555009,
      0.23364180176177662,
      0.29520147461068236,
      0.0,
      0.0,
      0.0,
      -5.306475965135696,
      0.3840224073911738,
      0.0,
      0.0,
      -0.31577602741886734,
      0.0,
      1.2913636507973902,
      0.0,
      -42.1460479334843,
      -0.9421533449445519,
      4.581986942617869,
      4.960038524168245,
      14.069255792501055,
      -7.9654568664128265,
      0.8145865545073119,
      -3.1664320909079526,
      8.75059729550177,
      2.8706962995020198,
      -86.43278868503832,
      0.0,
      15.956674093109935,
      0.0,
      1.564736754528796,
      -6.956387077736164,
      -1.9391844050636804,
      0.0,
      -1.959621250229715,
      4.730577984044724,
      3.37024857866375,
      0.0,
      8.30648257281593,
      0.18954107426682268,
      0.0,
      15.290062911000275,
      13.11534487719875,
      0.0,
      1.0065571891827305,
      0.0,
      2.363129835522205,
      1.3724639685066458,
      0.0,
      0.0,
      -0.7275200233929919,
      7.770286986045572,
      -2.036581789604741,
      0.0,
      -1.8516970574498257,
      0.0,
      33.85753657488121,
      -1.2911096881303215,
      0.0,
      10.08501038710734,
      0.0,
      6.909940099578331,
      4.071064875964319,
      -35.4929835627528,
      0.0,
      1.9347927112164363,
      14.253973843853228,
      7.009301458504086,
      0.9008924291943929,
      0.0,
      0.0,
      0.0,
      6.338577833065981,
      0.0,
      0.6575162417110766,
      0.0,
      14.258442026498031,
      0.26726989828678865,
      0.0,
      0.0,
      0.0,
      17.97433123618336,
      0.2552284049295657,
      0.0,
      2.349809637061774,
      0.0,
      0.0,
      -4.921101733557,
      0.0,
      0.0,
      0.0,
      2.3301478122854755,
      -0.7448032184604596,
      0.0,
      -52.91537164112243,
      0.0,
      0.0,
      0.0,
      0.0,
      -20.7955202501501,
      28.31511372012085,
      7.179945484741015,
      -94.97740901082676,
      2.7381157964230507,
      4.852519725885663,
      24.483596466312584,
      -18.781166294237753,
      26.283379454633582,
      23.229489345228995,
      12.47193556423372,
      14.790046233005995,
      -14.790044026426967,
      -38.27949048761964,
      -78.49327343276363,
      2.9145580677915626,
      7.758373643363137,
      12.061343620243576,
      68.0065470097673,
      18.72233459110981,
      10.642043543193301,
      1.2042899124354363,
      0.6342011057607315,
      0.009521566756046797,
      -27.050831940166947,
      7.883752349476672,
      22.666430610590098,
      -5.5136030539954595,
      5.740750819056402,
      0.6375279323672732,
      -12.640617774257258,
      2.8481162821280064,
      0.05722901026443844,
      25.049043742426996,
      -34.85824711028644
    ],
    "intercept": 1601.21210703635
  },
  "wide-insurance-offset-net-gaussian": {
    "coef": [
      0.0,
      0.0,
      0.0,
      0.0,
      0.0,
      -0.0004621669891937896,
      -1.6570865250150902e-06,
      1.160194279496313e-06,
      0.9999941164931284,
      0.0,
      0.0,
      0.0,
      0.0,
      0.0,
      0.0,
      0.0,
      0.0,
      0.0,
      0.0,
      0.0,
      0.0,
      0.0,
      0.0,
      0.0,
      0.0,
      0.0,
      0.0,
      0.0,
      0.0,
      0.0,
      0.0,
      0.0,
      0.0,
      0.0,
      0.0,
      0.0,
      0.0,
      0.0,
      0.0,
      0.0,
      0.0,
      0.0,
      0.0,
      0.0,
      0.0,
      0.0,
      0.0,
      0.0,
      0.0,
      0.0,
      0.0,
      0.0,
      0.0,
      0.0,
      0.0,
      0.0,
      0.0,
      0.0,
      0.0,
      0.0,
      0.0,
      0.0,
      0.0,
      0.0,
      0.0,
      0.0,
      0.0,
      0.0,
      0.0,
      0.0,
      0.0,
      0.0,
      0.0,
      0.0,
      0.0,
      0.0,
      0.0,
      0.0,
      0.0,
      0.0,
      0.0,
      0.0,
      0.0,
      0.0,
      0.0,
      0.0,
      0.0,
      0.0,
      0.0,
      0.0,
      0.0,
      0.0,
      0.0,
      0.0,
      0.0,
      0.0,
      0.0,
      0.0,
      0.0,
      0.0,
      0.0,
      0.0,
      0.0,
      0.0,
      0.0,
      0.0,
      0.0,
      0.0,
      0.0,
      0.0,
      0.0,
      0.0,
      0.0,
      0.0,
      0.0,
      0.0,
      0.0,
      0.0,
      0.0,
      0.0,
      0.0,
      0.0,
      0.0,
      0.0,
      0.0,
      0.0,
      0.0,
      0.0,
      0.0,
      0.0,
      0.0,
      0.0,
      0.0,
      0.0,
      0.0,
      0.0,
      0.0,
      0.0,
      0.0,
      0.0,
      0.0,
      0.0,
      0.0,
      0.0,
      0.0,
      0.0,
      0.0,
      0.0,
      0.0,
      0.0,
      0.0,
      0.0,
      0.0,
      0.0,
      0.0,
      0.0,
      0.0,
      0.0,
      0.0,
      0.0,
      0.0,
      0.0,
      0.0,
      0.0,
      0.0,
      0.0,
      0.0,
      0.0,
      0.0,
      0.0,
      0.0,
      0.0,
      0.0,
      0.0,
      0.0,
      0.0,
      0.0,
      0.0,
      0.0,
      0.0,
      0.0,
      0.0,
      0.0,
      0.0,
      0.0,
      0.0,
      0.0,
      0.0,
      0.0,
      0.0,
      0.0,
      0.0,
      0.0,
      0.0,
      0.0,
      0.0,
      0.0,
      0.0,
      0.0,
      0.0,
      0.0,
      0.0,
      0.0,
      0.0,
      0.0,
      0.0,
      0.0,
      0.0,
      0.0,
      0.0,
      0.0,
      0.0,
      0.0,
      0.0,
      0.0,
      0.0,
      0.0,
      0.0,
      0.0,
      0.0,
      0.0,
      0.0,
      0.0,
      0.0,
      0.0,
      0.0,
      0.0,
      0.0,
      0.0,
      0.0,
      0.0,
      0.0,
      0.0,
      0.0,
      0.0,
      0.0,
      0.0,
      0.0,
      0.0,
      0.0,
      0.0,
      0.0,
      0.0,
      0.0,
      0.0,
      0.0,
      0.0,
      0.0,
      0.0,
      0.0,
      0.0,
      0.0,
      0.0,
      0.0,
      0.0,
      0.0,
      0.0
    ],
    "intercept": 0.003335914242825311
  },
  "narrow-insurance-weights-net-poisson": {
    "coef": [
      0.0,
      0.0,
      0.0,
      0.0,
      0.0,
      0.0,
      0.0,
      0.0,
      0.0,
      0.0,
      0.0,
      0.0,
      0.0,
      0.0,
      0.0,
      0.0,
      0.019155398852191974,
      0.0,
      0.0,
      0.0,
      0.0,
      0.0,
      0.0,
      0.0,
      0.0,
      0.0,
      0.0,
      0.0,
      0.0,
      0.0,
      0.0,
      0.0,
      0.0,
      0.0,
      0.0,
      0.0,
      0.0,
      0.0,
      0.0,
      0.0,
      0.0,
      0.0,
      0.0,
      0.0,
      0.0,
      0.0,
      0.0,
      0.0,
      0.0,
      0.0,
      0.0,
      0.0,
      0.0,
      0.0
    ],
    "intercept": -3.3796829291828514
  },
  "narrow-insurance-no-weights-net-poisson": {
    "coef": [
      0.0,
      0.0,
      0.0,
      0.0,
      0.0,
      0.0,
      0.055689680743001714,
      0.0,
      0.0,
      0.0,
      0.0,
      0.0,
      0.0,
      0.0,
      0.0,
      0.0,
      0.007589369970224308,
      0.0,
      0.0,
      0.0,
      0.0,
      0.0,
      0.0,
      0.0,
      0.0,
      0.0,
      0.0,
      0.0,
      0.0,
      0.0,
      0.0,
      0.0,
      0.0,
      0.0,
      0.0,
      0.0,
      0.0,
      0.0,
      0.0,
      0.0,
      0.0,
      0.0,
      0.0,
      0.0,
      0.0,
      0.0,
      0.0,
      0.0,
      0.0,
      0.0,
      0.0,
      0.0,
      0.0,
      0.0
    ],
    "intercept": -1.9526740673074745
  },
  "narrow-insurance-offset-net-poisson": {
    "coef": [
      0.0,
      0.0,
      0.0,
      0.0,
      0.0,
      0.0,
      0.0,
      0.0,
      0.0,
      0.0,
      0.0,
      0.0,
      0.0,
      0.0,
      0.0,
      0.0,
      0.019155959973447906,
      0.0,
      0.0,
      0.0,
      0.0,
      0.0,
      0.0,
      0.0,
      0.0,
      0.0,
      0.0,
      0.0,
      0.0,
      0.0,
      0.0,
      0.0,
      0.0,
      0.0,
      0.0,
      0.0,
      0.0,
      0.0,
      0.0,
      0.0,
      0.0,
      0.0,
      0.0,
      0.0,
      0.0,
      0.0,
      0.0,
      0.0,
      0.0,
      0.0,
      0.0,
      0.0,
      0.0,
      0.0
    ],
    "intercept": -3.379755812785936
  },
  "wide-insurance-weights-net-poisson": {
    "coef": [
      0.13169337741270132,
      0.0,
      0.0,
      -0.008335026241105636,
      0.0,
      0.015031442494658601,
      3.3736989525275375e-05,
      9.344136396162144e-05,
      1.4550622544362659e-10,
      0.0,
      0.0,
      0.0,
      0.0,
      0.0,
      0.0,
      0.0,
      0.0,
      0.0,
      0.0,
      0.0,
      0.0,
      0.0,
      0.0,
      0.0,
      0.0,
      0.0,
      0.0,
      0.0,
      0.0,
      0.0,
      0.0,
      0.0,
      0.0,
      0.0,
      0.0,
      0.0,
      0.0,
      0.0,
      0.0,
      0.0,
      0.0,
      0.0,
      0.0,
      0.0,
      0.0,
      0.0,
      0.0,
      0.0,
      0.0,
      0.0,
      0.0,
      0.0,
      0.0,
      0.0,
      0.0,
      0.0,
      0.0,
      0.0,
      0.0,
      0.0,
      0.0,
      0.0,
      0.0,
      0.0,
      0.0,
      0.0,
      0.0,
      0.0,
      0.0,
      0.0,
      0.0,
      0.0,
      0.0,
      0.0,
      0.0,
      0.0,
      0.0,
      0.0,
      0.0,
      0.0,
      0.0,
      0.0,
      0.0,
      0.0,
      0.0,
      0.0,
      0.0,
      0.0,
      0.0,
      0.0,
      0.0,
      0.0,
      0.0,
      0.0,
      0.0,
      0.0,
      0.0,
      0.0,
      0.0,
      0.0,
      0.0,
      0.0,
      0.0,
      0.0,
      0.0,
      0.0,
      0.0,
      0.0,
      0.0,
      0.0,
      0.0,
      0.0,
      0.0,
      0.0,
      0.0,
      0.0,
      0.0,
      0.0,
      0.0,
      0.0,
      0.0,
      0.0,
      0.0,
      0.0,
      0.0,
      0.0,
      0.0,
      0.0,
      0.0,
      0.0,
      0.0,
      0.0,
      0.0,
      0.0,
      0.0,
      0.0,
      0.0,
      0.0,
      0.0,
      0.0,
      0.0,
      0.0,
      0.0,
      0.0,
      0.0,
      0.0,
      0.0,
      0.0,
      0.0,
      0.0,
      0.0,
      0.0,
      0.0,
      0.0,
      0.0,
      0.0,
      0.0,
      0.0,
      0.0,
      0.0,
      0.0,
      0.0,
      0.0,
      0.0,
      0.0,
      0.0,
      0.0,
      0.0,
      0.0,
      0.0,
      0.0,
      0.0,
      0.0,
      0.0,
      0.0,
      0.0,
      0.0,
      0.0,
      0.0,
      0.0,
      0.0,
      0.0,
      0.0,
      0.0,
      0.0,
      0.0,
      0.0,
      0.0,
      0.0,
      0.0,
      0.0,
      0.0,
      0.0,
      0.0,
      0.0,
      0.0,
      0.0,
      0.0,
      0.0,
      0.0,
      0.0,
      0.0,
      0.0,
      0.0,
      0.0,
      0.0,
      0.0,
      0.0,
      0.0,
      0.0,
      0.0,
      0.0,
      0.0,
      0.0,
      0.0,
      0.0,
      0.0,
      0.0,
      0.0,
      0.0,
      0.0,
      0.0,
      0.0,
      0.0,
      0.0,
      0.0,
      0.0,
      0.0,
      0.0,
      0.0,
      0.0,
      0.0,
      0.0,
      0.0,
      0.0,
      0.0,
      0.0,
      0.0,
      0.0,
      0.0,
      0.0,
      0.0,
      0.0,
      0.0
    ],
    "intercept": -3.179562646330552
  },
  "wide-insurance-no-weights-net-poisson": {
    "coef": [
      1.8428929575332298,
      -0.20610354149540686,
      0.0,
      -0.05955534583998789,
      0.001426710425332827,
      0.0024905922102236603,
      9.31346969675685e-06,
      3.3709594262636e-05,
      3.3227048423975074e-11,
      0.0,
      0.0,
      0.0,
      0.0,
      0.0,
      0.0,
      0.0,
      0.0,
      0.0,
      0.0,
      0.0,
      0.0,
      0.0,
      0.0,
      0.0,
      0.0,
      0.0,
      0.0,
      0.0,
      0.0,
      0.0,
      0.0,
      0.0,
      0.0,
      0.0,
      0.0,
      0.0,
      0.0,
      0.0,
      0.0,
      0.0,
      0.0,
      0.0,
      0.0,
      0.0,
      0.0,
      0.0,
      0.0,
      0.0,
      0.0,
      0.0,
      0.0,
      0.0,
      0.0,
      0.0,
      0.0,
      0.0,
      0.0,
      0.0,
      0.0,
      0.0,
      0.0,
      0.0,
      0.0,
      0.0,
      0.0,
      0.0,
      0.0,
      0.0,
      0.0,
      0.0,
      0.0,
      0.0,
      0.0,
      0.0,
      0.0,
      0.0,
      0.0,
      0.0,
      0.0,
      0.0,
      0.0,
      0.0,
      0.0,
      0.0,
      0.0,
      0.0,
      0.0,
      0.0,
      0.0,
      0.0,
      0.0,
      0.0,
      0.0,
      0.0,
      0.0,
      0.0,
      0.0,
      0.0,
      0.0,
      0.0,
      0.0,
      0.0,
      0.0,
      0.0,
      0.0,
      0.0,
      0.0,
      0.0,
      0.0,
      0.0,
      0.0,
      0.0,
      0.0,
      0.0,
      0.0,
      0.0,
      0.0,
      0.0,
      0.0,
      0.0,
      0.0,
      0.0,
      0.0,
      0.0,
      0.0,
      0.0,
      0.0,
      0.0,
      0.0,
      0.0,
      0.0,
      0.0,
      0.0,
      0.0,
      0.0,
      0.0,
      0.0,
      0.0,
      0.0,
      0.0,
      0.0,
      0.0,
      0.0,
      0.0,
      0.0,
      0.0,
      0.0,
      0.0,
      0.0,
      0.0,
      0.0,
      0.0,
      0.0,
      0.0,
      0.0,
      0.0,
      0.0,
      0.0,
      0.0,
      0.0,
      0.0,
      0.0,
      0.0,
      0.0,
      0.0,
      0.0,
      0.0,
      0.0,
      0.0,
      0.0,
      0.0,
      0.0,
      0.0,
      0.0,
      0.0,
      0.0,
      0.0,
      0.0,
      0.0,
      0.0,
      0.0,
      0.0,
      0.0,
      0.0,
      0.0,
      0.0,
      0.0,
      0.0,
      0.0,
      0.0,
      0.0,
      0.0,
      0.0,
      0.0,
      0.0,
      0.0,
      0.0,
      0.0,
      0.0,
      0.0,
      0.0,
      0.0,
      0.0,
      0.0,
      0.0,
      0.0,
      0.0,
      0.0,
      0.0,
      0.0,
      0.0,
      0.0,
      0.0,
      0.0,
      0.0,
      0.0,
      0.0,
      0.0,
      0.0,
      0.0,
      0.0,
      0.0,
      0.0,
      0.0,
      0.0,
      0.0,
      0.0,
      0.0,
      0.0,
      0.0,
      0.0,
      0.0,
      0.0,
      0.0,
      0.0,
      0.0,
      0.0,
      0.0,
      0.0,
      0.0,
      0.0,
      0.0,
      0.0,
      0.0
    ],
    "intercept": -1.6278820925203767
  },
  "wide-insurance-offset-net-poisson": {
    "coef": [
      0.13168994532210193,
      0.0,
      0.0,
      -0.008334805339241158,
      0.0,
      0.015031445109842462,
      3.3737304246072786e-05,
      9.344164828270427e-05,
      1.467867208583658e-10,
      0.0,
      0.0,
      0.0,
      0.0,
      0.0,
      0.0,
      0.0,
      0.0,
      0.0,
      0.0,
      0.0,
      0.0,
      0.0,
      0.0,
      0.0,
      0.0,
      0.0,
      0.0,
      0.0,
      0.0,
      0.0,
      0.0,
      0.0,
      0.0,
      0.0,
      0.0,
      0.0,
      0.0,
      0.0,
      0.0,
      0.0,
      0.0,
      0.0,
      0.0,
      0.0,
      0.0,
      0.0,
      0.0,
      0.0,
      0.0,
      0.0,
      0.0,
      0.0,
      0.0,
      0.0,
      0.0,
      0.0,
      0.0,
      0.0,
      0.0,
      0.0,
      0.0,
      0.0,
      0.0,
      0.0,
      0.0,
      0.0,
      0.0,
      0.0,
      0.0,
      0.0,
      0.0,
      0.0,
      0.0,
      0.0,
      0.0,
      0.0,
      0.0,
      0.0,
      0.0,
      0.0,
      0.0,
      0.0,
      0.0,
      0.0,
      0.0,
      0.0,
      0.0,
      0.0,
      0.0,
      0.0,
      0.0,
      0.0,
      0.0,
      0.0,
      0.0,
      0.0,
      0.0,
      0.0,
      0.0,
      0.0,
      0.0,
      0.0,
      0.0,
      0.0,
      0.0,
      0.0,
      0.0,
      0.0,
      0.0,
      0.0,
      0.0,
      0.0,
      0.0,
      0.0,
      0.0,
      0.0,
      0.0,
      0.0,
      0.0,
      0.0,
      0.0,
      0.0,
      0.0,
      0.0,
      0.0,
      0.0,
      0.0,
      0.0,
      0.0,
      0.0,
      0.0,
      0.0,
      0.0,
      0.0,
      0.0,
      0.0,
      0.0,
      0.0,
      0.0,
      0.0,
      0.0,
      0.0,
      0.0,
      0.0,
      0.0,
      0.0,
      0.0,
      0.0,
      0.0,
      0.0,
      0.0,
      0.0,
      0.0,
      0.0,
      0.0,
      0.0,
      0.0,
      0.0,
      0.0,
      0.0,
      0.0,
      0.0,
      0.0,
      0.0,
      0.0,
      0.0,
      0.0,
      0.0,
      0.0,
      0.0,
      0.0,
      0.0,
      0.0,
      0.0,
      0.0,
      0.0,
      0.0,
      0.0,
      0.0,
      0.0,
      0.0,
      0.0,
      0.0,
      0.0,
      0.0,
      0.0,
      0.0,
      0.0,
      0.0,
      0.0,
      0.0,
      0.0,
      0.0,
      0.0,
      0.0,
      0.0,
      0.0,
      0.0,
      0.0,
      0.0,
      0.0,
      0.0,
      0.0,
      0.0,
      0.0,
      0.0,
      0.0,
      0.0,
      0.0,
      0.0,
      0.0,
      0.0,
      0.0,
      0.0,
      0.0,
      0.0,
      0.0,
      0.0,
      0.0,
      0.0,
      0.0,
      0.0,
      0.0,
      0.0,
      0.0,
      0.0,
      0.0,
      0.0,
      0.0,
      0.0,
      0.0,
      0.0,
      0.0,
      0.0,
      0.0,
      0.0,
      0.0,
      0.0,
      0.0,
      0.0,
      0.0,
      0.0,
      0.0,
      0.0
    ],
    "intercept": -3.179573555783735
  },
  "narrow-insurance-weights-net-tweedie-p=1.5": {
    "coef": [
      -0.3527950862857681,
      -0.03386090560443155,
      -0.11215208643490907,
      0.11913410784432431,
      0.13304381628479794,
      0.2466277528175162,
      0.15498032447554128,
      0.0,
      -0.11588916511820475,
      0.7084977379255525,
      -0.16426017835381101,
      -0.8468248613152498,
      0.0,
      0.08725089458384475,
      0.140763633011878,
      -0.003294970745247649,
      0.03598013956060895,
      0.45226732630133903,
      -0.08452088600902476,
      0.0,
      0.3439356874913436,
      -0.020881368541044863,
      0.0014346504474167028,
      0.23927196102922685,
      -0.14131244751992605,
      -0.0057641452866230404,
      0.0,
      0.0,
      0.10938088030750043,
      -0.10927831215511635,
      0.0,
      0.0,
      0.0,
      0.0,
      0.0,
      0.0,
      0.0,
      0.0,
      0.0,
      0.0,
      0.0,
      0.0,
      -0.12790424600036218,
      0.28302355476013924,
      -0.07880225980298741,
      0.0,
      0.0,
      0.0,
      0.2182897232743629,
      0.0,
      0.0,
      0.5517788175576089,
      0.0,
      0.17619229602373582
    ],
    "intercept": 1.7361712486760519
  },
  "narrow-insurance-no-weights-net-tweedie-p=1.5": {
    "coef": [
      -0.7850537209404522,
      0.1026679863598276,
      -0.08621069803508122,
      0.19849504190954603,
      0.0,
      0.0453150319844363,
      -0.3047265262440499,
      0.0,
      0.11797316650207115,
      1.0048842737021058,
      -0.18674719894595093,
      -0.9353082469215189,
      0.0,
      0.2993784144143867,
      0.41216289342592555,
      -0.003759941179992831,
      0.03333972731036345,
      0.20488564065214043,
      -0.3384102686033895,
      -0.1291671909343037,
      0.0985078141121971,
      -0.37236133730175336,
      0.05806998258211599,
      0.19031708943703318,
      -0.481098775182652,
      0.0,
      -0.26710433649509985,
      0.20299384091578823,
      0.16346486866073137,
      -0.1632456713352373,
      0.0685997151320423,
      0.0,
      0.0,
      0.0,
      -0.4246860412884132,
      -0.18213619803359393,
      0.21090088371677565,
      -0.08280359395266743,
      0.0,
      0.0,
      0.0,
      0.0,
      0.03498090423660496,
      0.479587500214953,
      -0.1849645598731653,
      0.0,
      0.0,
      0.0,
      0.5834111070421225,
      -0.26645181374298965,
      -0.565061989432129,
      0.44278550777336634,
      0.0,
      0.08749108202190978
    ],
    "intercept": 1.9643596240825412
  },
  "narrow-insurance-offset-net-tweedie-p=1.5": {
    "coef": [
      -0.5510475660094367,
      0.0,
      -0.1380668450766447,
      0.09688462118278314,
      0.0494116918933062,
      0.10269949959842109,
      0.0,
      0.0,
      -4.6553701435600175e-05,
      0.9122277851975711,
      -0.15875058566998973,
      -0.887060981467385,
      0.0,
      0.20491795965843784,
      0.23702331655963987,
      -0.023698954289985596,
      0.034807676918187924,
      0.38271366051152483,
      -0.16089209811181016,
      0.0,
      0.2808005569483365,
      -0.15570824728201907,
      0.05862796061400514,
      0.2254173529721329,
      -0.2714713895032774,
      0.0,
      -0.07405773579585,
      0.023739652180501693,
      0.14724492741781867,
      -0.14721420033289973,
      0.03781674526084646,
      0.0,
      0.0,
      0.0,
      0.0,
      0.0,
      0.11360567775462761,
      0.0,
      0.0,
      0.0,
      0.0,
      0.0,
      0.0,
      0.42964330081450064,
      -0.11787626855293476,
      0.0,
      0.0,
      0.0,
      0.38281316604133947,
      0.0,
      -0.11705371347750108,
      0.5288109042632269,
      0.0,
      0.13280887808195158
    ],
    "intercept": 1.8033036893486964
  },
  "narrow-insurance-weights-lasso-gaussian": {
    "coef": [
      -212.82551945467353,
      -220.71619433683244,
      77.13160106799522,
      304.4388985513959,
      -231.11065927446745,
      0.034924579359116574,
      0.0,
      89.66251617104771,
      -6.299088784747979,
      496.3965300328082,
      -34.27334179347364,
      -169.45330268996275,
      0.0,
      -38.99757435951543,
      150.47555116055287,
      737.3327285804605,
      5.440201776888175,
      0.0,
      858.6432391516477,
      88.72760302864748,
      280.37809343249734,
      -386.65069983356636,
      -229.41689245651366,
      -169.7833923646795,
      -56.71841512864675,
      132.04558131269582,
      25.868749523897492,
      -172.20075065443683,
      -85.82800352147619,
      0.0,
      17.690942634368316,
      -150.9819399560596,
      2907.3967115393248,
      -187.39865853129413,
      -203.79321474335063,
      151.40243389939482,
      1859.056998453194,
      211.26520166694266,
      26.579016817948023,
      -361.8399896096988,
      -676.4640390982073,
      -152.49229959087555,
      -232.5308879928629,
      -180.4658580191972,
      -7.711361383438524,
      381.0336213962373,
      73.41261974070217,
      -356.67581860931375,
      0.005123015578066352,
      -174.3073216746219,
      960.525630628753,
      380.55283365443904,
      519.5739430427391,
      -62.39482803480984
    ],
    "intercept": 1362.6281725165118
  },
  "narrow-insurance-no-weights-lasso-gaussian": {
    "coef": [
      -275.6551393362545,
      -248.0262208514238,
      13.214837035874352,
      216.19144344567883,
      -266.79204341802927,
      0.11168899144685815,
      0.0,
      84.22099055763839,
      -45.58207481432532,
      469.50568958204815,
      -54.31029119041197,
      -154.32085682769778,
      0.0,
      -16.53367776991305,
      120.21754832012485,
      731.6498477338425,
      6.1979031500258825,
      0.0,
      886.2058910878279,
      163.46021383041452,
      208.25589422947598,
      -341.94945041135566,
      -140.49848453064635,
      -105.72824803059433,
      -52.2418883556294,
      204.43297850270397,
      87.51771064730592,
      -113.42923949566429,
      -41.65507604848489,
      0.0,
      13.345571603812656,
      -248.55491806951545,
      1417.4253462304437,
      -200.81509436343282,
      -186.7086621782507,
      114.13255679616421,
      1964.1913223874376,
      258.87562957273326,
      8.477996450897109,
      -383.34667164897144,
      -703.2473935730561,
      -125.45217351066555,
      -313.10262597603196,
      -194.706859997338,
      0.0,
      299.40188688416214,
      36.39922594474553,
      -360.5117519209008,
      -55.16343558428625,
      -177.95841408940746,
      869.842532046396,
      354.24548874765975,
      106.1644388912634,
      -40.83583028621757
    ],
    "intercept": 1314.8060829518163
  },
  "narrow-insurance-offset-lasso-gaussian": {
    "coef": [
      -210.60466104793656,
      -212.29983189115842,
      92.41391028457421,
      344.75509540241853,
      -243.98851758063563,
      0.0,
      -33.65341662803953,
      110.562537385931,
      0.0,
      502.7017746147894,
      0.0,
      -190.40871861200492,
      -15.418551446294723,
      -32.70977619870031,
      181.09009334306361,
      824.1518966286487,
      7.665091701558416,
      0.0,
      855.5395002489114,
      87.49845635670182,
      408.68309448338897,
      -337.48424552652654,
      -192.14963135780724,
      -167.1230878289735,
      -61.93226810653639,
      123.02660937079015,
      31.06578276999778,
      -169.1765929906096,
