{
  "narrow-insurance-weights-l2-gaussian": {
    "coef": [
      -110.21574838873822,
      -152.55289456993347,
      53.52845826748388,
      244.76937943359417,
      -69.22517610470105,
      33.69598136231456,
      -2.5799785590258124,
      44.405789915551864,
      -41.82581135649811,
      74.88058762912425,
      -47.94707189915353,
      -119.32484821820661,
      -75.57821176838459,
      -111.90977417402769,
      41.462721915277406,
      238.4165965153915,
      3.883771954564996,
      -15.464469810583742,
      188.04446917797918,
      19.732098075324306,
      165.9724605611619,
      -78.2796842444527,
      -18.853844279604733,
      -142.01516903461675,
      -57.61021340204586,
      26.809568476643975,
      -14.102473556264481,
      -74.23274196352087,
      -37.725034712009325,
      37.72503471203633,
      -13.794756937758502,
      -131.66867595925964,
      79.8099153469575,
      -32.70855086643946,
      -31.925343591957756,
      2.535372796432346,
      271.8196821187061,
      5.2304773990077695,
      -30.783291318866908,
      -74.74170762704554,
      -30.197510571970522,
      -3.507236269596372,
      -149.84967982986242,
      -146.98187244889954,
      -35.95228370291055,
      71.66670178356026,
      -9.888879619472643,
      -49.2998654038113,
      -81.7380189951924,
      -14.620158304701505,
      230.6384691486729,
      139.51441070032732,
      22.64804521634283,
      -33.405846328982285
    ],
    "intercept": 1805.5671815644064
  },
  "narrow-insurance-no-weights-l2-gaussian": {
    "coef": [
      -121.35738046820939,
      -134.32148283430095,
      43.302959712691276,
      214.006757824532,
      -61.32188600246804,
      59.69103176778462,
      1.6851948688225102,
      52.79030302811447,
      -54.475497896888925,
      69.45116006482571,
      -50.73116123376791,
      -107.63117916822792,
      -71.2086284389011,
      -91.4519901372692,
      23.30326840319295,
      228.26853051018142,
      4.641628421832569,
      -33.16131408854636,
      189.11655612447177,
      30.066155659422634,
      86.58788415947573,
      -66.13211920601661,
      -14.59194848711139,
      -110.61820189397234,
      -66.69958964115605,
      40.21235200236953,
      3.423573591985398,
      -58.203348220890554,
      -19.525843717977843,
      19.525843718029076,
      -15.991661506360847,
      -149.85077496800935,
      33.55979068174505,
      -28.974476223219465,
      -25.67282310903205,
      12.418872281754354,
      283.2428700981255,
      15.86865996003858,
      -21.23172306752447,
      -67.59227521893655,
      -24.969155970000386,
      -2.980116363768484,
      -156.74631254385343,
      -125.20558388102839,
      -18.807092963268655,
      60.67137694750736,
      -7.826866102023103,
      -43.27468975608986,
      -82.74149278388361,
      -12.03078046670908,
      210.3315865033946,
      148.58947378207884,
      3.2215331627320536,
      -17.709202216837028
    ],
    "intercept": 1690.909362112816
  },
  "narrow-insurance-offset-l2-gaussian": {
    "coef": [
      -110.3197261702714,
      -155.94097658438326,
      52.037203259747706,
      257.39687200715457,
      -72.35501938612288,
      29.18164687390432,
      -9.900456789802055,
      59.11073517534007,
      -49.21027838548146,
      71.5452053749574,
      -38.8547660828118,
      -131.19664655870758,
      -94.00819880657487,
      -119.83882401233329,
      55.57803763606551,
      256.7751924494402,
      5.92699701758663,
      -27.881328723679072,
      177.63443068500905,
      14.415599365629209,
      221.99193702992517,
      -66.3966668041732,
      -17.369850821250743,
      -153.6160452437228,
      -69.79272253332523,
      16.117781203711107,
      -18.66105159156001,
      -76.44208256653069,
      -35.39101223519616,
      35.39101223525463,
      -12.996021145504942,
      -124.08362032407074,
      85.15477803956368,
      -43.03324832336983,
      -36.782397638765,
      -12.191781670883872,
      274.0281515735476,
      5.43678828157096,
      -27.97107302826313,
      -84.9821774847491,
      -22.06601004619967,
      -4.571025434158224,
      -156.8183026951127,
      -147.52843632101008,
      -44.55963412428004,
      76.9827901777206,
      -15.565418679716604,
      -49.81739942970859,
      -83.82592634952441,
      -18.743863147294423,
      235.50303963413728,
      163.3812900183656,
      32.053476972230364,
      -30.815518461155552
    ],
    "intercept": 1760.396641153922
  },
  "wide-insurance-no-weights-l2-gaussian": {
    "coef": [
      -574.4903908237221,
      -8.966971873754607,
      11.833990280143015,
      -1.744528023284925,
      0.0004696392204882906,
      -0.05627726824691582,
      0.00026213929070621707,
      0.010673203713030419,
      0.8751276961460893,
      -574.4903908237221,
      -19.4261649646006,
      -9.118499710439538,
      26.69985512379734,
      -7.966840142893334,
      6.23995056595819,
      3.5716991283448425,
      -3.6109614380312727,
      18.23449468127076,
      -2.730870381750006,
      -18.83062045936736,
      -3.8721610055683753,
      14.546788424806623,
      -7.612433185731944,
      -8.518355688056454,
      1.596384058651513,
      13.097608612237947,
      1.7400516089086377,
      -4.039925227216587,
      1.514069406902224,
      -13.881119841512268,
      -29.992054014568815,
      21.521898305818496,
      12.364698980739735,
      -2.3040381857312537,
      7.767836971072953,
      8.858206357171422,
      9.072881395428487,
      -2.246800418365767,
      5.965493432211342,
      14.650099948100236,
      -9.956840998784783,
      -10.129764086136221,
      4.714563846379116,
      -1.570143760096854,
      -44.608727832803034,
      8.685104550289463,
      16.980311120862083,
      1.122622044001134,
      1.41972757552895,
      -0.7103447888873651,
      0.2752192166823592,
      0.09748221441270814,
      -0.28293217691575095,
      0.44947227513796795,
      0.010984012564121265,
      -0.15449195226441248,
      -0.09673590934819358,
      -0.012667549515251507,
      0.0293151009154372,
      0.1902861079132652,
      -0.0035622754784441187,
      -0.04731636970330064,
      0.30262519510814767,
      0.004642103025397259,
      2.9328484399346824,
      6.620377523305234,
      -3.8686271020405676,
      4.550724164765759,
      -30.853524236169065,
      6.447998084282917,
      5.508652707625245,
      -0.5522967132087429,
      2.480865452013102,
      -6.804010851550257,
      -0.1085334365105843,
      2.621466712259308,
      5.883809802758294,
      8.013136830649596,
      -11.869762481387916,
      12.936876416279441,
      11.580952959179788,
      -3.20009814430588,
      -28.97607961210495,
      -1.7602742147874264,
      -3.707815052153761,
      2.5649626356563213,
      9.402347632450763,
      6.497605135427753,
      19.746016384608513,
      -2.605103692808611,
      11.49562226311689,
      -2.006992497758856,
      14.590229246552429,
      13.158862485895126,
      -21.51004717824986,
      -0.34209597151111504,
      0.8651890865387146,
      6.333389002891879,
      -11.360872673429283,
      -6.694087386169114,
      -10.807219123311246,
      2.4132145617509417,
      9.542334091076864,
      -2.3305645808272573,
      -6.0111795694887045,
      0.25970962647981677,
      -65.53646401402958,
      3.64617575742252,
      3.3240617399251278,
      0.37976819880613727,
      23.884685282051212,
      6.206684994064342,
      11.416319984359204,
      13.408182306212154,
      -0.408130343699495,
      -7.574370831489607,
      -15.356727229013796,
      0.08180093012078636,
      2.6374152639454906,
      9.059428441292281,
      7.605294271746821,
      -1.3144973400153752,
      16.466394776354157,
      -34.501072929777955,
      12.339649462927683,
      2.5773191876373356,
      1.0028981633927994,
      1.1218408568466036,
      -0.12436062514798382,
      0.512032506543799,
      0.23586421888124923,
      -3.404392899586668,
      0.8339894400492395,
      0.1509260336685468,
      -0.08968523639548867,
      -0.38673484791794427,
      -0.05645867183804934,
      0.8417999362197999,
      -0.057643511128362655,
      -32.006756617358846,
      0.5348967143030116,
      2.8299534097633376,
      2.199809239533132,
      8.549750757961016,
      -4.4593608338274775,
      1.5475006552563202,
      -1.1048412941795935,
      5.477345277391412,
      1.8680023169970394,
      -49.69239728054807,
      0.3579487491703148,
      10.71224323689305,
      0.10118835400889963,
      1.968538663657555,
      -4.479418945699295,
      -0.8622616401858133,
      -0.19143172814772377,
      0.7092059845026935,
      2.1590481272155966,
      2.2228872899069256,
      0.9036694141658602,
      9.029930991064905,
      -0.295462401996376,
      0.26982093045326505,
      8.495644304370341,
      9.355493394396998,
      -2.056239657253527,
      1.5244256356638912,
      0.40839377537703947,
      1.9392868340611265,
      1.2448141620475233,
      0.5377952708936699,
      -0.014413142750070617,
      -0.6263436360975866,
      6.741902416398069,
      -1.51616233551101,
      -0.054358039906572723,
      -1.3459139611358324,
      0.12561566680560574,
      22.444876698460384,
      -1.2124763109346324,
      -0.07394544109080334,
      4.405674295064378,
      -0.1680194650039332,
      4.189379002166988,
      1.2362382615580243,
      -18.78149030446058,
      0.0685644455872601,
      1.5505290689168467,
      4.574012772819457,
      2.946669060946863,
      0.43285473387586415,
      -0.09457487025060984,
      -0.14386253516288067,
      0.18460372535395553,
      4.756614261101624,
      0.22114500852130997,
      0.5505613038138314,
      -0.18979574226998933,
      9.043506403169484,
      0.30879517889748825,
      0.011541028184032796,
      -0.07660214477398102,
      -0.0518470043208009,
      9.986837190600937,
      0.6740771690431746,
      0.022170453409606796,
      2.489724358806194,
      -0.21610618176059013,
      0.04870323893947132,
      -3.549623015033228,
      -0.06419970448934877,
      -0.01245623598477863,
      -0.25295982798143885,
      0.7576660622602696,
      -1.514375140015309,
      0.12449369443692682,
      -28.46979683974896,
      0.08434663657431746,
      -0.0023713911006297407,
      0.44528871215256316,
      0.20587933225752283,
      -13.798457092513898,
      21.635272032182073,
      6.661884990023427,
      -81.43074713915202,
      0.3560774759845636,
      2.5513022635656744,
      24.601949470212876,
      -10.692929769609874,
      20.874439024393155,
      19.039598617717942,
      10.201610127364232,
      12.50068522118957,
      -12.500685220937633,
      -29.47186498261059,
      -41.80580952398017,
      3.3782741340486133,
      4.845520810734821,
      12.706259821314376,
      40.051631390063335,
      10.725194418539461,
      6.37628839542605,
      2.7975652281383905,
      -0.5457860336675766,
      0.506350503359861,
      -19.253418944042057,
      5.733004814797982,
      15.788124904860728,
      -4.604869555933646,
      3.7383269910528485,
      0.49355933229028426,
      -9.856228754116716,
      2.4026652177499437,
      0.5139338953091183,
      15.97495844113344,
      -20.493680504311968
    ],
    "intercept": 1261.4167890051529
  },
  "wide-insurance-offset-l2-gaussian": {
    "coef": [
      -0.17801456226584528,
      -0.001826994318543227,
      0.00045114736895403057,
      0.00022767110316339252,
      -0.00018127562148466763,
      -0.00036701975084154953,
      -6.658815358552512e-07,
      5.061241937528759e-07,
      0.9999973880556614,
      -0.17801456226582013,
      0.0004405265009412196,
      6.253290443205741e-05,
      -0.001531789321221803,
      -0.000447582544290955,
      0.0010234753257595264,
      0.0004528371557802492,
      0.0004684610139709695,
      -0.0009373111703046659,
      0.001046851368445737,
      -0.0006127035167906821,
      -0.00011836509925463183,
      0.00034870996715718116,
      -0.0012279659723030357,
      0.0006264344013699876,
      0.0006457367224479545,
      0.0005188390120928177,
      -0.0013556421113307426,
      0.0005969553605710351,
      0.001844032052708803,
      0.00038058766358044173,
      -0.003425764713491506,
      0.0016740759181724887,
      -0.00010871535992975381,
      -0.000172713963676312,
      0.000834927634513308,
      -0.002036588716326196,
      0.0008587681603200063,
      -0.0017319140614316096,
      0.00038337350966297215,
      0.0005988890977807734,
      0.0004621947375456237,
      0.0019342444167472948,
      -0.0010857154944052519,
      -0.0001581264930845819,
      -0.0002874267006552245,
      2.0564957657860308e-05,
      -0.00030464344837693275,
      0.000600033846811965,
      4.434842236054867e-05,
      -0.0007720741901102724,
      0.000264566289856544,
      0.00012792636592558825,
      7.736781002259916e-05,
      -0.0002449582577135618,
      6.350242119005498e-05,
      3.232949104415146e-05,
      1.8792727862881114e-05,
      6.683407187112107e-06,
      5.3744974475264214e-05,
      8.292529833966378e-06,
      1.0750441189741845e-05,
      9.053350936277813e-06,
      1.7716674556091406e-05,
      1.8744644052542094e-06,
      -0.00046839693427025485,
      -0.0004732761009430352,
      0.0009408448483966143,
      0.00020472980352469753,
      -0.002609740109671606,
      -4.93793377868775e-05,
      -0.00041638162483430594,
      0.0006525257527608818,
      0.001258625282977631,
      -0.0002741619581986122,
      -0.00043125647199588447,
      -0.00034148598995557394,
      -0.0005211698425729609,
      0.0010718217834989024,
      0.0008701571238646271,
      0.0014712548892714984,
      0.00023741079247291386,
      -0.0012144694333666663,
      0.0017140376159620468,
      -0.0008305323343697995,
      0.0005104232708641034,
      -0.0009233288147614687,
      4.038572131099626e-05,
      0.00013748092553409773,
      0.0012548629489693428,
      -0.0014528714848100416,
      -0.0001847701716787111,
      -0.0021140711740358156,
      0.0007870713989578622,
      0.0005288366023752643,
      0.0010390411029541958,
      0.0005871356498596635,
      0.00017214797775508357,
      -4.58442132336765e-05,
      0.0007717468607984076,
      -6.307257252907452e-05,
      7.17639343269005e-05,
      0.001335532695240846,
      -0.0019835864237360786,
      -0.0007217011869236942,
      -0.0002748473376683563,
      0.00020104377106242222,
      -0.0009816615211281794,
      0.0003528554393249278,
      1.5866958334041076e-06,
      0.0006533592731329895,
      0.0009014855694241919,
      0.00036505011281382676,
      -0.000814959381998375,
      -0.001510411873989155,
      -0.0005647559133857342,
      0.0009213491340629604,
      -0.00010523760161987799,
      0.0010239216072620786,
      0.0011034415052942118,
      -0.0007085910090903906,
      -7.669470910460013e-05,
      -0.0013546508959137859,
      -0.00027496538595070814,
      -0.0013225130014053695,
      0.0005713266461481664,
      0.0006219838549444431,
      0.0002905512586345304,
      0.00043629004815677857,
      -0.0002171796244971563,
      0.00040807759919869724,
      -0.0001035844548802589,
      -0.00014052255908608924,
      2.325096420394029e-05,
      1.4025110449486524e-05,
      4.4794454279336206e-05,
      0.00020013328447385521,
      6.433490597778132e-05,
      -0.00030698499841414563,
      2.0358208117778657e-05,
      0.0004255807958145575,
      0.0002671999308711611,
      -0.0005390871094252717,
      -0.0013429149870842869,
      -0.0006187719227446835,
      -0.00020075501089252996,
      5.626474457907381e-05,
      -0.00016198829859507736,
      -0.0008103794827910307,
      -0.00031807403939131427,
      0.00037842864808458105,
      0.00046706597305880005,
      -0.0018657277467963088,
      6.280084031118177e-05,
      -5.252337380861186e-05,
      -0.0002618192192132891,
      0.0002811040913641278,
      0.00029839293349596805,
      0.0012609960387079521,
      -0.000768345523560244,
      -0.0001467869869236265,
      0.000817593186463493,
      0.0029395994426225074,
      -0.0008825141996193809,
      4.4252680844395255e-05,
      -3.6694306989020314e-06,
      0.0004990259062572097,
      -0.0016907463571181806,
      0.0004365524151259157,
      0.00020006709363535731,
      -0.00024087008858354592,
      2.2345477277431383e-05,
      0.00012016638913686385,
      -0.00015522024166946536,
      0.0002057004425249231,
      0.002410854953121217,
      -7.425808107140818e-05,
      3.6491116308139586e-05,
      8.689929260078069e-05,
      0.00011939734188359287,
      0.0024894767192281766,
      -9.803584173432977e-05,
      -0.000173217493435009,
      -0.0008249158241067082,
      7.875395436852801e-05,
      0.0003123835862831277,
      -0.0013334103179588595,
      -0.0003163649624442716,
      3.583424734896282e-05,
      8.152650918136659e-05,
      -0.0031272937782500882,
      -0.00041848213065160176,
      -0.0004232039329306112,
      2.397551858461494e-05,
      5.352241902856275e-05,
      -0.00030658290772171194,
      0.0016360921058519466,
      7.532024696441129e-05,
      -0.0002809562592006982,
      4.4532224506998875e-05,
      0.0012976627809974228,
      -0.00028899533104711415,
      6.80740852237791e-05,
      3.3838558613184427e-05,
      3.5080134232224155e-05,
      0.0007132095554208792,
      4.4982897630976375e-05,
      -0.00029562395349842893,
      0.0016427427802338031,
      7.377407078995685e-05,
      4.807593265528237e-05,
      -0.0004913438986779316,
      7.177715880214135e-05,
      4.3607785633661206e-05,
      0.000203634928621816,
      -0.0007824269241642577,
      -0.00047298203466020536,
      0.00040103693113380896,
      -0.001097961542486695,
      5.7139050548357536e-05,
      6.154214367407202e-05,
      7.526650388737863e-05,
      -0.0002733932193727338,
      0.0023725922412328074,
      0.0020757255347201233,
      0.00039490520360512384,
      -0.006330396309912477,
      -0.0024594184636304206,
      -0.00019563765074777289,
      0.0007032148774084781,
      0.0014612272827255876,
      0.0017646160507047677,
      0.00024094587382746823,
      -2.777462715696565e-05,
      -0.0011396484849269803,
      0.0011396487758088083,
      -0.0011911293351727491,
      -0.0007885198307165016,
      0.001469500683557312,
      0.0006029834569926132,
      0.002150104913330043,
      0.0003892045089481366,
      -0.00013882412167084095,
      -0.0005526573132109042,
      0.0014650907558252091,
      -0.0014500437211089905,
      0.00017484435845722807,
      -2.8760867733703423e-05,
      -0.0008458654089273611,
      0.0016708014639138953,
      -0.0005966932031457787,
      0.0007990383225629267,
      -0.00010190590482130411,
      -0.00040390944265059786,
      0.0005724798124617875,
      0.0006826485852814598,
      -0.002420871638320277,
      -0.00145751610183005
    ],
    "intercept": 0.3715504172510009
  },
  "narrow-insurance-weights-l2-poisson": {
    "coef": [
      -0.01707613939436408,
      -0.011263670931487738,
      0.00990377529522711,
      0.010851876386365871,
      -0.004912453884471538,
      0.012496612528730373,
      0.05832959975891606,
      -0.017510712329390984,
      -0.040818887429525115,
      -0.003108324001381755,
      0.0018832465126164051,
      -0.013307489346170386,
      -0.011885425951706623,
      0.007483082979060456,
      0.02287820414031337,
      -0.0039432943327315185,
      0.020853845152530158,
      0.006097709261993879,
      -0.0023399240987143238,
      0.0012654340101332959,
      0.03400587227106376,
      -0.004209433220613479,
      0.00213360357675337,
      -0.01642895012400271,
      -0.015341410820949475,
      -0.0091978078364687,
      -0.00011337734246257426,
      0.0041282843232669595,
      -0.0021578399087159054,
      0.0021578399087158573,
      0.04695873394113,
      0.008718694697974944,
      0.0022058638068742542,
      -0.0028096225568846923,
      -0.0024262886262856266,
      -0.011470452030037466,
      -0.0016583984856032763,
      0.004172331178602783,
      0.0011511287090530066,
      -0.006580857725672888,
      -0.0010481130127426568,
      -0.000479495288304862,
      -0.0033518711213370083,
      0.006130940155382686,
      -0.00440175393613749,
      -0.009331459022985879,
      -0.002264897448561194,
      0.0019018694728274793,
      0.007882833037794622,
      -0.002006817828770715,
      -0.0030022047060543856,
      0.01855349776956737,
      0.0001150729613009725,
      0.023538296246869015
    ],
    "intercept": -3.8361053513103958
  },
  "narrow-insurance-no-weights-l2-poisson": {
    "coef": [
      -0.12114291768120357,
      0.045423753361220634,
      0.09673341536016931,
      0.11474143519097732,
      -0.08233926394933853,
      -0.05341642228182521,
      0.38012402953762614,
      -0.1771030740538308,
      -0.2030209554837954,
      0.0015596347358890286,
      0.011975233525616804,
      -0.03150104730940775,
      0.01363516658039486,
      -0.09204126027608363,
      0.1372412398305674,
      -0.04086896708697705,
      0.009616289108779617,
      -0.0571505562315751,
      -0.02134772687737036,
      -0.004189720423468235,
      0.242932405089882,
      -0.019719971902210837,
      0.0007172040262384419,
      -0.034480269257882674,
      -0.08807273315270672,
      -0.017521038436546794,
      -0.04232194109316464,
      0.04115434825880492,
      -0.17474082816565345,
      0.17474082816565314,
      -0.018417093347160057,
      0.01288204916481293,
      0.0029165580105231168,
      -0.00953944822205261,
      -0.018632023507906423,
      -0.13744976559653685,
      -0.004427132806269282,
      0.03686541870412813,
      0.005524350232770842,
      -0.020624328412583198,
      -0.007021738830528159,
      -0.0036435095670589966,
      0.02424309861454581,
      0.08684631475604919,
      -0.025220675152523058,
      -0.04896448222221021,
      0.08556020681739107,
      -0.0006601522937961179,
      0.06670069073355926,
      -0.01671429036349776,
      -0.006563295170189897,
      -0.009600995877102784,
      -0.01247684901152497,
      0.001020613634662625
    ],
    "intercept": -1.9311032810088806
  },
  "narrow-insurance-offset-l2-poisson": {
    "coef": [
      -0.01707613939436406,
      -0.011263670931487741,
      0.009903775295227103,
      0.01085187638636587,
      -0.004912453884471532,
      0.01249661252873037,
      0.05832959975891604,
      -0.017510712329390984,
      -0.04081888742952508,
      -0.0031083240013817523,
      0.0018832465126164244,
      -0.013307489346170383,
      -0.011885425951706588,
      0.007483082979060435,
      0.022878204140313385,
      -0.0039432943327315255,
      0.02085384515253013,
      0.006097709261993897,
      -0.0023399240987143233,
      0.0012654340101332943,
      0.03400587227106379,
      -0.00420943322061348,
      0.0021336035767533694,
      -0.01642895012400273,
      -0.01534141082094947,
      -0.009197807836468707,
      -0.00011337734246257384,
      0.0041282843232669595,
      -0.0021578399087158764,
      0.0021578399087158456,
      0.04695873394113019,
      0.008718694697974948,
      0.002205863806874255,
      -0.002809622556884692,
      -0.002426288626285626,
      -0.01147045203003745,
      -0.0016583984856032759,
      0.004172331178602783,
      0.0011511287090530077,
      -0.006580857725672886,
      -0.0010481130127426574,
      -0.00047949528830486184,
      -0.00335187112133701,
      0.006130940155382686,
      -0.004401753936137497,
      -0.009331459022985877,
      -0.002264897448561195,
      0.0019018694728274777,
      0.007882833037794629,
      -0.002006817828770716,
      -0.003002204706054384,
      0.018553497769567374,
      0.00011507296130097402,
      0.023538296246868776
    ],
    "intercept": -3.8361053513103944
  },
  "wide-insurance-no-weights-l2-poisson": {
    "coef": [
      1.516564817139223,
      -0.49771597911098686,
      -0.03659302025095514,
      -0.06024718051826509,
      0.00368590036646845,
      0.00397125870961557,
      4.472770850008652e-06,
      1.857595134663139e-05,
      1.8575951343863405e-05,
      0.32081632347458156,
      -0.03205930571128734,
      0.0584918644097635,
      0.09292219419332845,
      -0.05187068644432917,
      -0.08074311654949547,
      0.013259050102020227,
      -0.11900864768284294,
      0.029824671962994903,
      0.08321145701230034,
      0.12060899084928796,
      -0.07194029518433324,
      3.1375948457610837e-06,
      -0.018666097017255932,
      -0.029324442291654287,
      0.020314434861063584,
      -0.00497256710875444,
      -0.0031402901642560562,
      -0.00691035283139558,
      0.26622047007942456,
      -0.13769384021650372,
      -0.06728180012337548,
      -0.0018846348267004555,
      -0.06687915899818668,
      -0.03165201166333593,
      -0.03925914431176306,
      -0.025853287950310083,
      0.0013701340885342343,
      -0.02555711959996284,
      0.1255095074610349,
      -0.01972794472860164,
      0.028674667505132246,
      -0.01567078198967803,
      0.002082071667575909,
      0.017911294635897735,
      0.005743768831746086,
      -0.006734280087950895,
      -0.00031431861742658567,
      -0.0048492779150624684,
      -0.0027343754939060595,
      -0.00230189455333794,
      -0.0005254811780992677,
      2.1016794553979106e-05,
      -0.0004249034538863821,
      -0.00031695331293631344,
      -0.00015700058407301613,
      0.0023307808384468924,
      -0.00013602150220996538,
      -8.766632726860516e-05,
      0.0008105354598208048,
      -0.00023611095074426878,
      -0.00010251099817833677,
      -4.010141267739419e-05,
      -5.179322421956037e-05,
      -6.760956406108576e-05,
      -2.1650796173830356e-05,
      -7.262977868406894e-05,
      -2.4229596299444556e-05,
      -1.071480492566674e-05,
      -4.287307520934682e-06,
      -7.11494107274625e-07,
      0.00020068347031050474,
      0.003969052816038585,
      -0.001833474861275518,
      0.004685961840270874,
      0.01687380613391382,
      0.0007133381515161336,
      0.00396870547482713,
      -0.01176897906436318,
      -0.006553109206829601,
      -0.012243380527124578,
      0.03732186818948466,
      -0.005012967949816938,
      -0.022828697792589756,
      -0.00685774838479392,
      0.027119552588783364,
      0.11909011964553946,
      -0.02571591404140383,
      -0.019720496026040635,
      -0.0010748999720802848,
      -0.002064705635725236,
      -0.023181400962548775,
      -0.007495526724780803,
      -0.02066581957378744,
      -0.042801466708067934,
      0.028266253437805557,
      -0.004801354378159664,
      -0.020176270698234775,
      -0.029173324667526646,
      -0.016516930525648166,
      -0.021975510007031285,
      -0.006991320736071473,
      -0.00981941749160169,
      -0.022081283630425233,
      -0.004038845860297637,
      0.06536678164007134,
      0.030692284193912404,
      0.006779045310617432,
      -0.02322529486029413,
      0.007433643481337415,
      -0.014763328603206824,
      0.000753285646083806,
      -0.0015660356052053174,
      -0.014347884099908417,
      -0.018333634424607146,
      -0.015406294423165288,
      -0.015165847572658204,
      0.016066156026545115,
      0.00846680416846828,
      -0.018141046678206315,
      -0.012917089450921905,
      0.06857490020778825,
      0.009708806832447937,
      0.08293178334791147,
      -0.011311535039309987,
      -0.01252144654106852,
      -0.009665467153402269,
      -0.01033351744473839,
      0.0026137095848005856,
      0.002576601920775802,
      -0.004501741688248017,
      -0.0010168772018510942,
      -0.003935282930378012,
      -0.0056431930002462955,
      -0.0036621617120717407,
      -0.00220493470187238,
      -0.0023356545694241232,
      -0.0008972440954238559,
      -7.318290775746543e-06,
      -0.0004647268931206217,
      0.005732763765102576,
      -0.000250034648434813,
      -0.0008579613736960185,
      -7.867666177586209e-05,
      -0.00019293918520228674,
      -0.00020374631850567562,
      -0.00013498904325152497,
      -0.00030133316561229757,
      -0.00012582507154444803,
      0.009951262517723455,
      -0.023918278598878302,
      -0.010427097242357367,
      -0.0023227996599452594,
      -0.011626272164219614,
      -0.014551702054224685,
      -0.0027200040135010157,
      -0.01891268827200164,
      -0.0012515046513855443,
      -0.006186774079934959,
      0.10819853324680824,
      -0.00047151657245076404,
      -0.004179964207851817,
      0.007755295370349611,
      -0.03362857277897039,
      -0.0024801657070303773,
      -0.0026486368674940894,
      -0.001228748259872051,
      -0.010173672210561964,
      0.0033409034348799104,
      -0.0026826973578661915,
      -0.00476030992460641,
      0.04276496729042822,
      -0.0019983559039920317,
      -0.001080162459339952,
      0.0007964487441920618,
      0.010105017921335047,
      -0.0030094246041273164,
      -0.0008882130783556709,
      -0.00015505624391657795,
      0.0250098763981799,
      -0.0014236234651324106,
      -0.0008849804249962843,
      -0.0016036357875877114,
      -0.0004399280823233516,
      -0.010997926807216061,
      -0.000946012025574183,
      -0.0014656481087600348,
      -0.0004951033972675256,
      -0.014383618856260416,
      -0.0004470373153504185,
      0.0003354823528526334,
      -0.0003347925429828363,
      -0.006845478112318017,
      -0.008076491036018945,
      -0.0007224806960049625,
      -0.00031386670654257027,
      -0.008403865491062762,
      0.0008188742061828853,
      -7.616662667634561e-05,
      -0.0038704164881002987,
      -0.00015164195702011408,
      0.005416735259518846,
      -0.00016037399815647555,
      0.009746005501376139,
      0.0007451573087676928,
      -0.00024081621307193106,
      -0.000168818973208969,
      -0.0005993394439305719,
      -0.00044498682129654957,
      -0.00018489326285099986,
      -0.04668772967182643,
      -0.020117346661121867,
      -0.0018597895122246559,
      0.1424209121805652,
      -0.011169072009314104,
      0.001694515655854226,
      0.008433553820848216,
      -0.06545867630683223,
      -0.005413352902271563,
      -0.03654849050052603,
      0.034705475906849324,
      -0.19332063965269852,
      0.1933206396526988,
      -0.014013939422686333,
      0.003603229850701971,
      -0.006310974424341181,
      -0.015918595311441602,
      -0.08902529274822729,
      -0.00024912422990556023,
      0.024516567993939444,
      -0.0029958588939521173,
      -0.01421153954841421,
      -0.0058565580758096316,
      -0.0027611057819817973,
      0.022422323897514123,
      0.07142851352362112,
      -0.013644193219822203,
      -0.03864720172147805,
      0.08735957022088589,
      -0.006018794870630195,
      0.07537818013341202,
      -0.013046003258161399,
      -0.007327616842549616,
      -0.044819228093571216,
      -0.009862359177102153
    ],
    "intercept": -1.4816533769148
  },
  "wide-insurance-offset-l2-poisson": {
    "coef": [
      0.5036957007997876,
      -0.06764488693000104,
      0.019185783804746545,
      -0.03780244722397725,
      0.0052534632494814736,
      0.017796067076872972,
      2.440412522467537e-05,
      3.755787568511542e-05,
      3.755787568528752e-05,
      0.3442922177382842,
      -0.004356361404730281,
      -0.012636272046609111,
      -0.0004672714793883809,
      0.006239437062481977,
      0.015092753309168665,
      -0.0038722854409228877,
      -0.008084588943630875,
      -0.006554623944275952,
      0.013750507860747302,
      0.0031019574213002666,
      -0.00683454089003262,
      0.004251459450866854,
      0.001021573665207844,
      0.0006253200658695821,
      0.0017139960108873982,
      -0.0013534391325332811,
      -0.0009905249312614703,
      -0.0006470966331450413,
      0.04905646616594011,
      -0.027483741013316788,
      -0.020161278049380064,
      -0.0031168062457638747,
      -0.0008569399836706416,
      -0.0038950560375168087,
      -0.0017309849958949128,
      0.0009448230255210016,
      0.0026573275814332233,
      -0.006609506223133402,
      0.010034317613427202,
      -0.0008833364095078231,
      0.0073482689848655995,
      -0.00457914364992343,
      0.0018990197168603168,
      -0.0008860742406276792,
      -0.0003034318677416143,
      -0.001885048785180872,
      0.002395075328854075,
      -8.998083031615114e-05,
      -0.0014576934912812227,
      -0.001113987555922228,
      -0.000285596462104102,
      0.0003162340084653053,
      -0.0002189274764660215,
      -5.191518498658609e-05,
      -0.0001425344305718424,
      0.0008039745940601037,
      -7.811692369035915e-05,
      -2.7543047262725275e-05,
      0.0008020347421837885,
      -0.00010597778431941438,
      -4.967908493769889e-05,
      -5.929510588416551e-05,
      -5.347973768292311e-05,
      -3.338901011194099e-05,
      -2.1686146871546407e-05,
      -5.119240816152714e-05,
      -1.2073321086365142e-05,
      -8.643530911176906e-06,
      -4.437466463665693e-06,
      -4.526092117113602e-08,
      0.0005511374498214439,
      -0.0004810146359593847,
      -0.011248279510462521,
      -0.0006087560997032826,
      -1.853470600969169e-05,
      0.001800669183956553,
      0.005944133230699919,
      0.0008707293331766073,
      -0.002739776264081241,
      0.0018278525515396022,
      -0.0027431641469161266,
      0.004102923386945062,
      -0.0036343713774214157,
      0.0008573670466104432,
      0.0019802340768030877,
      0.0013027099028740938,
      -0.0032951002993231223,
      -0.002828760707605823,
      0.0024918907945526095,
      -0.004000166801357495,
      -0.0033465958307188717,
      -4.069364228313212e-05,
      0.0004652563071866176,
      -0.004489547311885747,
      0.0065620855834652055,
      0.00285338882821728,
      -0.0025151466898763707,
      -0.004755090564576477,
      0.004949407555590186,
      -0.0027725548329541644,
      0.0028067454334419627,
      0.0012636809906581292,
      0.00601452635249977,
      0.0012220461350841475,
      0.0033129957028808503,
      0.007729950918343784,
      0.002257966086764763,
      0.00521618119836405,
      0.0018686689679753767,
      -0.0030035592682253216,
      0.0004889581459825978,
      -0.00011689817396828394,
      -0.00088977016474349,
      -0.0009245674833585605,
      -0.003027294554195935,
      0.0006407725804512453,
      0.0006229330697580179,
      0.000750159517054082,
      -0.0005776885247771815,
      -0.002536594941483607,
      0.0004102931525717876,
      0.00011982579172200192,
      -0.0016765150188513074,
      -0.0010653673158836118,
      -0.0020782521596533574,
      -0.0023083898024235864,
      -0.0025817893833051035,
      0.0006495988136529929,
      -0.00023709910394870484,
      -0.0009348238667310792,
      0.0011609976577565924,
      -0.0010935451051284617,
      0.0005592099856554842,
      -0.001345216441306482,
      -0.001040666770562427,
      7.338279588341115e-05,
      -0.00042224048284583856,
      0.000699068895095132,
      -0.0002716111436666323,
      0.002153950373986929,
      -0.00010929704892905613,
      -0.00028155378917020475,
      -5.916781088582504e-05,
      -0.000135335939349399,
      -0.00014165021457444304,
      -8.251713676535303e-05,
      -4.918388255223212e-05,
      -7.354884860148316e-05,
      -0.01579550327178943,
      -0.003207932727397904,
      8.06995488263225e-05,
      0.0008809010827084907,
      0.0005242225290051283,
      -0.0011944746667547144,
      0.0030285720547787495,
      0.0006949675594285621,
      0.004069893186551298,
      0.0004364225374199963,
      0.0030218188749264667,
      0.0001259947702076359,
      0.009558961929055816,
      0.001366612924102288,
      -0.0027257698210483208,
      0.0005624201117384552,
      -0.0009587124593217689,
      0.0005647930872491811,
      -0.0033010554832229133,
      0.0041384416138454585,
      -0.0009930161558867263,
      -0.000660110509344596,
      -0.0008399849556407696,
      -0.0008075547261875596,
      -8.737755961047334e-05,
      0.002619038576194139,
      0.0013269047576934488,
      -0.0003851426822831676,
      0.0015491021511596685,
      -2.4358390009787645e-05,
      0.003886389754484651,
      -0.0002475849141799913,
      -0.00031953633177000143,
      0.0010792659193959641,
      -2.9090831113904208e-05,
      -0.0032437504581805366,
      -0.00036039175368666375,
      -0.0003428582365239745,
      -2.6447302691970094e-05,
      6.155466368256209e-06,
      -0.0001524994178920121,
      0.0004399374658925458,
      -0.00016580551004576193,
      -0.003888946504519342,
      0.0011204362882799987,
      -0.00012465169933943603,
      -3.532005833279602e-05,
      -0.0021168530608527496,
      0.0007578204360469623,
      -0.00010562204510327412,
      -0.0008159330756747734,
      -0.00012330168351681376,
      0.0018413332678892302,
      -6.579422096330206e-05,
      0.002180273643699157,
      -0.0006042006058275784,
      -0.0006601198382002586,
      -0.0006080379694420662,
      -0.000689932982442277,
      -2.3195252563385723e-05,
      -0.0001305123755868614,
      0.0035431807649792257,
      -0.0016937781700667792,
      0.001689375261451078,
      0.016373894551883997,
      -0.0032912964297258742,
      0.002298432988544478,
      -0.00848756641362253,
      -0.011353213634607201,
      -0.007168859116327191,
      0.002888872896014724,
      0.005200957301476052,
      -0.005800651032392777,
      0.00580065103239278,
      0.0013188658794550494,
      0.0021338334982698454,
      -0.0021479974354651835,
      -0.0021552860764887222,
      -0.01451871070938254,
      -0.00121458567475936,
      0.003160371959853016,
      0.0022302761886930237,
      -0.004973994998362862,
      -0.0007510130130679188,
      -0.00037695073163930375,
      -0.0005916507296375761,
      0.006673055728156262,
      -0.002221150817119192,
      -0.007471784587693538,
      -0.002136508573910468,
      0.001593136646518634,
      0.009980986583633212,
      -0.002141508103129353,
      -0.001569919480794993,
      0.015092328034994417,
      8.820641187753193e-05
    ],
    "intercept": -3.5308768710650753
  },
  "narrow-insurance-no-weights-l2-gamma": {
    "coef": [
      -0.06020641910199319,
      -0.07925066872181993,
      0.026601734900654213,
      0.11070151948831541,
      -0.032663695377231065,
      0.034817528812074554,
      0.007047183404588268,
      0.03136203323763004,
      -0.03840921664221821,
      0.03551820565677039,
      -0.026295934961545434,
      -0.061288026449707544,
      -0.035802040149481455,
      -0.041722260531728034,
      0.014516873868000272,
      0.11507318256769168,
      0.0029718624082175223,
      -0.00689105795584446,
      0.08677293750192612,
      0.023824094408143016,
      0.043753933372505376,
      -0.034877098863286875,
      -0.007824678638608416,
      -0.057816145585225444,
      -0.03724994351322671,
      0.01234132969132665,
      0.003985114542689855,
      -0.02601848496039921,
      -0.0058138417597061055,
      0.005813841759706231,
      -0.008915962443080355,
      -0.079628395375019,
      0.015723122340965852,
      -0.012563471178959488,
      -0.012265077923487957,
      0.015370135464770915,
      0.13249400776613665,
      0.01675781992401316,
      -0.007992923913074513,
      -0.032198885370431314,
      -0.013916223983135963,
      -0.0017813599364780899,
      -0.09427384569075167,
      -0.0690430961794397,
      -0.0065867056063694685,
      0.04176006974115026,
      -0.0026292964716638683,
      -0.022368518312961144,
      -0.045533222818104686,
      -0.0052837783267777475,
      0.0975375994065742,
      0.08457727936590727,
      0.0018447670771365404,
      -0.004372762065620524
    ],
    "intercept": 7.363699278773427
  },
  "narrow-insurance-offset-l2-gamma": {
    "coef": [
      -0.06020641910199314,
      -0.07925066872181984,
      0.026601734900654202,
      0.11070151948831553,
      -0.032663695377231045,
      0.03481752881207457,
      0.007047183404588224,
      0.03136203323763001,
      -0.03840921664221819,
      0.03551820565677042,
      -0.026295934961545454,
      -0.06128802644970754,
      -0.035802040149481434,
      -0.04172226053172813,
      0.014516873868000312,
      0.11507318256769168,
      0.0029718624082175206,
      -0.006891057955844401,
      0.0867729375019261,
      0.02382409440814296,
      0.04375393337250542,
      -0.034877098863286854,
      -0.007824678638608423,
      -0.05781614558522545,
      -0.037249943513226684,
      0.012341329691326676,
      0.003985114542689804,
      -0.026018484960399227,
      -0.005813841759706149,
      0.0058138417597062095,
      -0.00891596244308038,
      -0.07962839537501896,
      0.015723122340965894,
      -0.01256347117895949,
      -0.01226507792348796,
      0.015370135464770899,
      0.1324940077661366,
      0.016757819924013193,
      -0.0079929239130745,
      -0.032198885370431314,
      -0.013916223983135956,
      -0.0017813599364780934,
      -0.09427384569075165,
      -0.06904309617943974,
      -0.00658670560636948,
      0.041760069741150256,
      -0.002629296471663861,
      -0.02236851831296115,
      -0.04553322281810471,
      -0.005283778326777738,
      0.0975375994065742,
      0.08457727936590732,
      0.0018447670771365552,
      -0.004372762065620536
    ],
    "intercept": 7.363699278773427
  },
  "narrow-insurance-no-weights-l2-tweedie-p=1.5": {
    "coef": [
      -0.7154214725616399,
      0.20660517232677258,
      -0.019867336102614905,
      0.3002630099436598,
      0.035243524036304014,
      0.19317710235753163,
      -0.3049259086605808,
      0.08619948679277915,
      0.2187264218678125,
      0.9482722790836466,
      -0.30257540842344804,
      -0.9976355461582671,
      -0.077585750055938,
      0.23637394323903485,
      0.34850637123280165,
      -0.1553558889178374,
      0.033495019718774756,
      0.3145492779971394,
      -0.3865732667564249,
      -0.2053463935162082,
      0.2248979041838609,
      -0.4453750010717219,
      0.37170090538256423,
      0.292341973404339,
      -0.42771599828944956,
      0.15004302852828344,
      -0.24987922339069124,
      0.3613567935283131,
      0.1734946913600311,
      -0.17349469136003273,
      0.054509451116748896,
      0.1043450224603041,
      -0.06843723094306517,
      0.14110865476583773,
      -0.566298042823676,
      -0.15297955638559788,
      0.3985008037428274,
      -0.2658152698181557,
      0.13242975212093,
      0.19586872083774962,
      -0.25897916627237005,
      -0.11749049136111134,
      0.1574060108897084,
      0.563684936061747,
      -0.2627917255057445,
      0.0657839100110808,
      -0.023735497371900543,
      0.047058549014288145,
      0.651084976719086,
      -0.525371173421566,
      -0.5590854711145133,
      0.5285420203338138,
      -0.18482973193966634,
      0.09591715012837727
    ],
    "intercept": 1.7428297485880009
  },
  "narrow-insurance-offset-l2-tweedie-p=1.5": {
    "coef": [
      -0.519467238959662,
      0.04710010630520812,
      -0.10281548454887221,
      0.18390202066532838,
      0.1577911629262914,
      0.23348943361170257,
      0.03883200219202113,
      0.0032592776727413063,
      -0.0420912798647537,
      0.9002302337547777,
      -0.2618604010692436,
      -0.9078724111390637,
      -0.021594467704622734,
      0.20874234684822748,
      0.2323328161203913,
      -0.14997811681046347,
      0.0353559692946094,
      0.4062779858849035,
      -0.36219732024687823,
      -0.13933666504689127,
      0.281350134534379,
      -0.3748492250568249,
      0.36272014088815363,
      0.2641781117910787,
      -0.31933103024463927,
      -0.10721755815672526,
      -0.1591149870822427,
      0.14752041273569527,
      0.1566943492816685,
      -0.15669434928167647,
      0.040088738224616685,
      0.025310653924120168,
      0.02338491132289362,
      -0.1292183296180126,
      -0.29038622256657765,
      -0.04579013201125185,
      0.30981769111368085,
      -0.015577880731638186,
      0.11146500866209912,
      -0.014960869240476406,
      -0.16340697411959312,
      -0.0631751020316614,
      -0.05932815501628194,
      0.4617213963252869,
      -0.3039051329283944,
      0.0031828119013069195,
      -0.15262709686201814,
      0.025859286400040336,
      0.39218617834624275,
      -0.3092715574111283,
      -0.24335569715972874,
      0.5449000408140463,
      -0.10682482911294744,
      0.12474966884060701
    ],
    "intercept": 1.7480402773547943
  },
  "wide-insurance-offset-l2-tweedie-p=1.5": {
    "coef": [
      2.4563501156694847,
      -1.201674430443227,
      0.030095240130462816,
      0.010216211501363046,
      0.0022126773868238027,
      -0.002902109344401756,
      2.695951486924634e-05,
      7.452167698458722e-05,
      7.452167698458128e-05,
      3.0172546750623193,
      -0.14096903356078494,
      -0.1013317400048451,
      -0.07574749686008692,
      0.4769245388061678,
      -0.198278068498677,
      0.03940180011822511,
      -0.0006143270891133502,
      0.1210644508035324,
      0.10804001146298076,
      0.017204286724181846,
      -0.3099456095257746,
      0.016976438353753398,
      -0.2856909448057141,
      0.11802401048621552,
      0.2687247397448959,
      -0.05751910736326259,
      -0.010993233012387835,
      0.01472928422069171,
      -0.13342448591369865,
      -0.16151068548726122,
      -0.3074027107945701,
      0.4661691192092296,
      -0.015431359187898196,
      -0.11369840399194399,
      0.3081495790708647,
      -0.14899558800415508,
      0.2280345124846757,
      0.06413779220217813,
      0.0027849523096744504,
      -0.2770462523158273,
      0.34665095023976045,
      0.006865517356070312,
      -0.08995688694479378,
      0.09085926524378134,
      -0.31869692843562053,
      0.02062525825410587,
      0.10417961666462235,
      -0.0160881809468356,
      -0.043437354637383324,
      -0.03833843001329067,
      -0.011300996563740862,
      0.04671329406568583,
      -0.008610887985721237,
      -0.003931226743612658,
      -0.003942206985533963,
      0.029668991534146528,
      -0.003969913217023462,
      -0.0023476165388137534,
      0.009429110428862953,
      -0.005801645008467294,
      -0.002677268961698762,
      -0.0021405725957427944,
      -0.002825879476079232,
      -0.003058487207840719,
      -0.0010881317576723873,
      -0.00401734439754569,
      -0.001299052358656732,
      -0.0013156716976544692,
      -0.0015260642094497192,
      -0.0003877266851269822,
      0.08505305785415451,
      0.03009946033088557,
      -0.29219718617403073,
      -0.01150992047478573,
      -0.03488286085906401,
      -0.013762273034679758,
      -0.2077968152699987,
      -0.05093588197399815,
      0.06532433817612258,
      -0.18768024514294976,
      -0.020502661831691523,
      -0.33706812199084435,
      -0.06500261495142085,
      -0.06936208794156028,
      0.26041369834939154,
      -0.2525374851947844,
      0.06370406057086456,
      0.02315907054428387,
      0.05281488225533966,
      0.13157162635461794,
      0.010608303805387414,
      0.011747145849547787,
      0.4903142292436456,
      -0.33350041561937066,
      0.29756478242171475,
      0.3078081964343888,
      -0.25150356054147566,
      0.03747920179133212,
      0.21449830269888306,
      -0.024567134285154165,
      0.030432949712254593,
      0.12290480858467273,
      0.28711848132629403,
      -0.3027314257051413,
      0.21881984830326084,
      0.027133943797880696,
      0.2079686121247981,
      -0.13247046356609268,
      0.009569911216615675,
      0.12270445173690236,
      0.08980074247697215,
      -0.23685589169160579,
      0.20307080359627078,
      0.037432827406411774,
      0.0324878389649241,
      -0.2603814291380116,
      0.1853449220422974,
      -0.022925507051212192,
      0.08408894324748004,
      -0.09257057174335882,
      0.06570611091717062,
      0.029730680494272847,
      -0.08036139590567734,
      0.006783073173117383,
      -0.014490288158248385,
      -0.026270905283646593,
      0.14131019255875296,
      0.05784636072134753,
      0.01692256000596691,
      0.02363600890482731,
      -0.43651670331088743,
      0.012418897629147992,
      -0.24536950919313466,
      -0.022693442346783724,
      -0.01716610594301771,
      0.0072653107663344825,
      -0.006423895341403268,
      -0.007080578523133835,
      -0.005054055474632275,
      -0.02425403609991001,
      -0.0025980135185275175,
      -0.005857613573027665,
      -0.0011597236074154822,
      -0.0012809972000339225,
      -0.0019545494795755393,
      -0.0011662352815753918,
      -0.0008163314413626288,
      -0.0013997025253086833,
      -0.24754782918562318,
      -0.07169818303633815,
      0.13412096402798984,
      0.016489222257546527,
      -0.01586808611552738,
      -0.2572103544700223,
      -0.12299764702530709,
      0.022174809541514746,
      0.22305713080457612,
      0.02651761904204708,
      -0.18417920469271115,
      0.04545786384845583,
      0.13604606991864568,
      -0.011182743987336896,
      0.03679876757847022,
      0.0819083102390843,
      -0.01718216866631884,
      0.05099360548567002,
      -0.01647273120402759,
      0.18656803910546607,
      -0.014573542875029672,
      -0.01314526801287084,
      0.26369886696107725,
      0.033053903577568,
      -0.002135952393791785,
      0.10455782794486172,
      0.022573202110518366,
      0.006941224823476013,
      0.0773120407717283,
      -0.00047308601208303716,
      0.3011975460522985,
      -0.006247962178784681,
      -0.005115853952555901,
      -0.2489740774807578,
      -0.0010292461355054254,
      0.041174908834425115,
      -0.00510745510268516,
      -0.0050274198270288,
      -0.00042760740812313423,
      -0.23806775411754164,
      -0.0017391122580884652,
      0.03618190807354082,
      -0.0029884278329481667,
      0.05742460051023981,
      -0.16226323608671966,
      -0.0012538571096221071,
      -0.0009063969673910742,
      -0.6827759574414454,
      0.010958084608099682,
      -0.0012205527438319086,
      0.0807995357545111,
      -0.0012811624799103694,
      0.16355999555107117,
      -0.0012479556954642739,
      0.1416846839062415,
      -0.011261799424973781,
      -0.001990237096779205,
      0.05642026154170839,
      -0.002309704645951255,
      -0.0003198388410383057,
      -0.001448580366698143,
      0.047920642953205264,
      -0.043489241897938256,
      -0.1333089894494397,
      -0.14765795115031546,
      0.03893618563362526,
      0.1674247593336189,
      0.18004779950113503,
      -0.03957002307872826,
      0.09010452500355673,
      -0.21492707259489993,
      0.054519365746180416,
      -0.05092380344627964,
      0.050923803446278414,
      -0.06557838615526725,
      0.08269127894546316,
      0.061329302345939966,
      -0.00893568548041614,
      -0.09338592004067171,
      0.2813405866182762,
      -0.2322981628714488,
      -0.34563955558994996,
      0.1386778459147096,
      -0.024906517515108237,
      -0.0075276564520412375,
      -0.03680762560118144,
      -0.2863634725604085,
      0.07845560555562155,
      -0.02149725068187017,
      0.10753096710318233,
      -0.0887886819836125,
      0.544537370027051,
      -0.02694285429496958,
      -0.06251360924540818,
      -0.05473635936691415,
      0.061358781329023525
    ],
    "intercept": 1.2290412512020055
  },
  "narrow-insurance-weights-net-gaussian": {
    "coef": [
      -133.79072061647986,
      -170.48766983912526,
      74.25288719059564,
      290.8522908462844,
      -100.46107040569967,
      39.63428228506028,
      -9.154678472686193,
      50.04115134455956,
      -39.886474079620996,
      120.36531877530706,
      -79.3730302133434,
      -172.0324710639315,
      -101.36314068518347,
      -139.91938921487628,
      35.06750711374506,
      338.255208067682,
      4.379897045955134,
      -25.023403038179886,
      303.0317310081347,
      25.55973810776088,
      200.30246562713356,
      -133.78238972106647,
      -32.826185111611395,
      -170.53227091815617,
      -74.9289486741416,
      39.82634732884061,
      -16.857370848650408,
      -111.76971635445221,
      -39.29463538478749,
      39.29463839344012,
      -4.454343892183495,
      -188.6570348342885,
      152.67380202746168,
      -60.53090767771227,
      -59.24584082207079,
      -2.018019020005176,
      465.9443290870501,
      7.769950359609906,
      -51.66738538850764,
      -133.63557845128628,
      -57.79325412796529,
      -6.1269408022800285,
      -218.01040170886745,
      -205.77770652058422,
      -61.25894749883531,
      105.13001614511018,
      -18.470189947310168,
      -88.4478528421181,
      -108.29676624366724,
      -28.679972897425706,
      354.9319389651348,
      171.20456621761213,
      38.962194037550596,
      -44.321142436065166
    ],
    "intercept": 1770.9016493289598
  },
  "narrow-insurance-no-weights-net-gaussian": {
    "coef": [
      -148.6347428363498,
      -152.2203445535083,
      61.169592135130415,
      255.21443923893352,
      -89.6685163592051,
      74.13957165517122,
      -0.44909286033564466,
      58.87072045377041,
      -57.42162876115717,
      111.86195359825605,
      -83.81060597547712,
      -156.93295345318643,
      -96.60006799214221,
      -116.12888543732852,
      14.86269558494489,
      327.7478661316339,
      5.135131111622131,
      -47.705703018045966,
      302.4488066696895,
      40.98147013233602,
      101.63621228807199,
      -116.35877566865484,
      -25.33634592679214,
      -137.14774198015292,
      -90.50876753166835,
      59.00386306608322,
      4.575027982377219,
      -90.58804853499782,
      -20.058086394427576,
      20.05808929320482,
      -8.854895598151424,
      -212.51971584719408,
      63.94985090526939,
      -53.49431214389898,
      -47.21946935594665,
      9.355097581584506,
      488.8917557009901,
      27.494252133548382,
      -36.13483375268577,
      -121.88013506099227,
      -47.76052378116866,
      -4.933825311598474,
      -229.54268403134452,
      -177.9173647344555,
      -33.785864720803374,
      89.85502402246341,
      -14.354807046139689,
      -77.53283129331544,
      -109.94018206494573,
      -23.48402381038019,
      327.19618868747847,
      186.47832192232008,
      3.280080138049664,
      -24.409492035717463
    ],
    "intercept": 1659.7183661174233
  },
  "narrow-insurance-offset-net-gaussian": {
    "coef": [
      -135.41888912430818,
      -174.30478443566219,
      74.61968502084069,
      308.84000952242667,
      -107.34920904733283,
      33.613187324693286,
      -22.10931085232547,
      67.28061935398051,
      -44.1713097010235,
      115.40492111850382,
      -66.9129873139937,
      -190.28197704010142,
      -124.815770885843,
      -150.4987933414545,
      49.94576005057943,
      368.1588499356224,
      6.477347730609235,
      -39.585926198365826,
      287.7198545629938,
      17.351803775300517,
      274.3304377476972,
      -114.74870797621845,
      -29.982526399648176,
      -184.83428687630308,
      -91.40684783015121,
      24.176050209589725,
      -23.72036521998102,
      -116.29948838503867,
      -36.32965102092197,
      36.32965399831068,
      -3.9058394810907644,
      -181.2108132653492,
      163.6082260244519,
      -79.81778010508646,
      -68.42684665851074,
      -18.624253494231056,
      472.6749927966785,
      7.880729001583161,
      -47.459956644589774,
      -151.8299459533367,
      -41.800832904896104,
      -8.375716188308166,
      -229.15765382065706,
      -208.11341528981836,
      -75.52799428918023,
      113.98957337808892,
      -29.31573224104235,
      -89.98435162730716,
      -110.42982391251749,
      -36.98950026023687,
      365.1905862503186,
      205.06558255351894,
      56.65492473674716,
      -42.162115978672055
    ],
    "intercept": 1722.906965571265
  },
  "wide-insurance-weights-net-gaussian": {
    "coef": [
      -827.2839153575472,
      -7.622815857692405,
      20.923889679516112,
      -4.9455392465292665,
      0.8549792795924123,
      1.0344933068597408,
      0.0033150472385643174,
      0.016400801039282396,
      0.7966660276122963,
      -827.2839208688372,
      -38.155076484304885,
      -17.72855810644493,
      61.55339784171451,
      -27.2037336798444,
      16.636090019577875,
      4.897893258207967,
      -17.427757504861486,
      40.30985305222204,
      -6.9247722640267595,
      -24.329582394385284,
      -8.179127573564712,
      34.58923395900499,
      -16.859805526386126,
      -23.30968298846496,
      -0.9739970156817792,
      36.0982275525437,
      9.624169329640853,
      -18.61677061191447,
      -1.7742974849847128,
      -24.55826936622364,
      -37.9292692360384,
      42.76531128825137,
      34.362470536748184,
      -6.9729588279900625,
      0.6972478589475871,
      27.618957679368286,
      15.321400387036828,
      6.069727218918335,
      11.663831414722864,
      30.921183388099067,
      -73.8295393109822,
      -32.642606154860545,
      19.28957783264196,
      -0.3565743505953126,
      -112.01161504350948,
      27.813769055806194,
      54.79562686459959,
      0.6697254282889721,
      4.571093856707251,
      1.2717503183696477,
      0.0,
      0.0,
      -0.3846704002670788,
      7.978940285991522,
      0.0,
      0.0,
      0.0,
      0.0,
      0.0,
      0.0,
      0.0,
      0.0,
      0.0,
      0.0,
      10.75318916786165,
      23.06389319961957,
      -16.94539213020555,
      13.58305619025179,
      -67.74631272034331,
      27.297633809414823,
      15.064346852137897,
      -3.5481803827224514,
      -1.1496070537323042,
      -17.872565391710623,
      0.0,
      4.963235729718679,
      20.402717735936744,
      21.6375617116936,
      -37.1007508911279,
      26.405950596687543,
      29.650510233684606,
      0.6560736757234775,
      -91.28860708298521,
      -1.7439922831782557,
      -12.59614499963213,
      8.785198787530451,
      24.810140713443328,
      16.694676959712925,
      50.98141068255131,
      2.245123224999389,
      29.669246989576912,
      15.792230819443876,
      35.724300000045886,
      36.12658057083433,
      -60.41332048165377,
      -1.9246755471255972,
      5.187542784252483,
      17.47298558185214,
      -108.31620388665608,
      -30.356735563298315,
      -24.80130350474311,
      0.0,
      48.778805023913876,
      -1.8076742994369162,
      -16.018602801909744,
      -0.032809878215049076,
      -178.84506068046278,
      9.040871690001847,
      8.18019691368242,
      -1.5268236329017204,
      66.22759222572309,
      14.109465568125104,
      44.03943852182492,
      49.38892341153579,
      1.5474545744794543,
      -28.780759911145903,
      -43.18262309956417,
      -5.850859749738929,
      2.3046785978013387,
      33.181354478729986,
      25.534144385787826,
      4.225459989300499,
      52.63724805821729,
      -89.59378389289154,
      35.33539629717225,
      2.2467898882592676,
      0.03128324859338291,
      0.0,
      0.0,
      -0.3522568264290298,
      0.5019340767655666,
      -8.746328065931325,
      0.8376956092590655,
      0.0,
      0.0,
      -1.8686968905556571,
      0.0,
      3.7016906734833284,
      0.0,
      -78.5600741516728,
      -2.6940997997427876,
      9.367621154350752,
      12.27358153474329,
      29.764707634707648,
      -11.105960260939908,
      2.004045310067592,
      -3.7591117372390097,
      15.083019491242915,
      6.824819452454421,
      -139.92774120487272,
      -1.0611742165042182,
      29.088120230524854,
      -0.297374626203371,
      2.3417103006658646,
      -9.165019184990458,
      -5.415727582789024,
      -2.9072612351211586,
      -9.291068065686533,
      10.600612541796238,
      6.252249997138134,
      -3.052859125847945,
      7.637554335754041,
      2.743363796356016,
      0.0,
      25.580471487413963,
      22.888311816762737,
      1.7121689986982043,
      0.7673583495112342,
      0.0,
      1.3309320702535261,
      2.7691396625735383,
      0.039536736741352135,
      0.0,
      -3.084905920201237,
      8.511000612256124,
      -4.377527891698791,
      0.0,
      -4.398891799152057,
      0.0,
      55.70539804245659,
      -2.5178037216470934,
      0.0,
      23.369358227429945,
      -0.3775008844537623,
      11.19134898317844,
      10.54835491362666,
      -55.447900257184976,
      0.0,
      3.6700348048865012,
      29.929547437928807,
      24.58370542727952,
      3.0052128627991173,
      0.0,
      -0.08313673530195735,
      1.5002277005117715,
      7.894862836312456,
      0.0,
      2.257471806698696,
      0.0,
      16.536195121987888,
      2.1323967436666424,
      0.0,
      0.0,
      0.0,
      25.721213669989226,
      0.9409063141548172,
      0.6456888659055291,
      -2.3236762052428603,
      -0.3530975595929987,
      0.0,
      -7.368291969385219,
      0.0,
      0.0,
      -1.3212380066725324,
      5.196568559496723,
      -1.2730331980539333,
      -0.8913131574837777,
      -80.59171606496153,
      0.0,
      0.0,
      0.0,
      0.7060998225417102,
      -52.600826207085056,
      41.040663646696665,
      8.553041548813498,
      -132.2488775951709,
      8.948253874467651,
      16.13851007329368,
      38.23030029922561,
      -31.366510414647767,
      37.83660208340068,
      35.855912586936945,
      24.612930660884885,
      30.974155908815703,
      -30.973799929754932,
      -49.55380779117271,
      -130.75812584704784,
      0.009062199607569696,
      11.462743865575282,
      21.86344541416645,
      114.1134600703653,
      32.519631416527524,
      26.841395119620998,
      0.0,
      5.74937152371296,
      0.0,
      -38.79202765742094,
      16.99474859029177,
      41.27558769957228,
      -1.7794814591852635,
      7.142768116323154,
      2.6270278353260097,
      -10.340070111562515,
      3.1540134800530617,
      -59.63091682888254,
      49.1967131416504,
      -49.3035675706846
    ],
    "intercept": 1796.2555112092566
  },
  "wide-insurance-no-weights-net-gaussian": {
    "coef": [
      -743.5081316239746,
      -12.510271198884912,
      12.377683338619079,
      -2.387454103637342,
      0.27330143459972733,
      0.08832137118174395,
      0.0015102449204390206,
      0.010065643544851377,
      0.878176124982508,
      -743.5081341491519,
      -25.168288757364618,
      -13.00906002330203,
      32.68909216315311,
      -7.619242778911522,
      7.218199727021526,
      5.889314977253482,
      -1.4229747126420442,
      22.112140458525523,
      -5.086198439448417,
      -22.483493433794088,
      -5.029164189761869,
      19.980899654265688,
      -9.835919251265155,
      -14.09193423123591,
      0.6127437642737066,
      21.924555939394043,
      3.9759674919477197,
      -8.656637505116132,
      0.0,
      -16.882583143843465,
      -34.23368827161603,
      27.797434972971534,
      16.53915252165432,
      -4.225465164937678,
      8.749993769531883,
      14.099153314040397,
      10.423809690303038,
      -0.6607626018715658,
      6.972047399079599,
      19.43400126417238,
      -13.919582918402982,
      -19.03079432185986,
      8.790846451370506,
      -2.090500003732085,
      -74.82439962259848,
      14.54049805695939,
      31.163880243863737,
      0.1821031377572838,
      1.8407349206723427,
      0.0,
      0.0,
      0.0,
      0.0,
      0.8600638990906562,
      0.0,
      0.0,
      0.0,
      0.0,
      0.0,
      0.0,
      0.0,
      0.0,
      0.0,
      0.0,
      5.814109119891311,
      11.942631542600385,
      -8.386443962820062,
      7.925559673709026,
      -49.77357185691943,
      11.560881228614889,
      9.106051181011452,
      -1.408760613226112,
      1.0713143628498933,
      -11.142831139650086,
      0.0,
      4.0799604499551885,
      10.286417316941929,
      11.357770115570471,
      -21.709079768041146,
      18.336802342935744,
      18.669450367983522,
      -1.9674627802843865,
      -50.79102886525725,
      -1.2694014220751166,
      -6.964375436375279,
      4.549281755230698,
      15.151381299306907,
      10.468102861066104,
      30.634651463396775,
      -0.544724474051241,
      17.968425494451807,
      0.37643509343618564,
      22.031471024237582,
      19.657710071154607,
      -37.15850884614454,
      -0.12528635687472509,
      0.3956081901570258,
      9.19944993537088,
      -18.123298632494993,
      -9.849672718893547,
      -17.586835348522488,
      1.7089177423977806,
      19.435893486152658,
      -1.8765577489831042,
      -9.403961882105913,
      0.0,
      -115.72469742655392,
      4.668836457997684,
      5.35188072685037,
      0.0,
      40.96800283682951,
      9.28220804750055,
      21.85656112895762,
      26.230687970406162,
      0.0,
      -15.305628125792039,
      -27.493452429974457,
      -1.0246574053759785,
      1.467538226063356,
      17.5100677467462,
      14.175216100746518,
      0.0,
      30.649238070095237,
      -62.014572564606624,
      21.47504070203045,
      2.3643246526528734,
      0.23364192470229034,
      0.2952013027681176,
      0.0,
      0.0,
      0.0,
      -5.306475789986956,
      0.38402244898993976,
      0.0,
      0.0,
      -0.3157759737410152,
      0.0,
      1.2913637113111254,
      0.0,
      -42.146046400096196,
      -0.9421544046063195,
      4.581987608608351,
      4.960038952497435,
      14.069256208068802,
      -7.9654564753290416,
      0.8145864890465424,
      -3.1664322748005294,
      8.750598425342924,
      2.870695694505127,
      -86.43278804140678,
      0.0,
      15.95667464857395,
      0.0,
      1.5647373028420763,
      -6.956386573620782,
      -1.93918433121678,
      0.0,
      -1.959621160910167,
      4.730577792378778,
      3.370249102215954,
      0.0,
      8.30648281703399,
      0.189541274086589,
      0.0,
      15.290063281757252,
      13.115345029329097,
      0.0,
      1.006557003045829,
      0.0,
      2.363129784966685,
      1.372463756047916,
      0.0,
      0.0,
      -0.7275199044127774,
      7.770287284289758,
      -2.0365819314050526,
      0.0,
      -1.8516977021190595,
      0.0,
      33.85753873766576,
      -1.2911095230889476,
      0.0,
      10.085010659075019,
      0.0,
      6.909939336888191,
      4.071064730603992,
      -35.492983216529886,
      0.0,
      1.934792621653414,
      14.253974492176866,
      7.009301454979943,
      0.9008922607768161,
      0.0,
      0.0,
      0.0,
      6.3385777003925625,
      0.0,
      0.6575161539569383,
      0.0,
      14.258441736517632,
      0.26726980130231776,
      0.0,
      0.0,
      0.0,
      17.9743314345868,
      0.2552283898240091,
      0.0,
      2.3498090547358093,
      0.0,
      0.0,
      -4.921101755747953,
      0.0,
      0.0,
      0.0,
      2.330147647220738,
      -0.7448036420284404,
      0.0,
      -52.91537135222104,
      0.0,
      0.0,
      0.0,
      0.0,
      -20.79551773007251,
      28.315108092865845,
      7.179943415021303,
      -94.9774057061498,
      2.738116441765748,
      4.852520252250122,
      24.483595724867744,
      -18.781165759768353,
      26.28338194476483,
      23.22948899896631,
      12.471937296753179,
      14.79026537765014,
      -14.789867800595012,
      -38.27949085895393,
      -78.49327443019948,
      2.914557726747563,
      7.758373325267974,
      12.061343924438242,
      68.00654810846697,
      18.72233525688678,
      10.642042445921076,
      1.2042907797212785,
      0.6342016009240175,
      0.009521479600173317,
      -27.050832183458027,
      7.8837522555666,
      22.66643022183146,
      -5.51360368927195,
      5.740751068783306,
      0.6375277747489795,
      -12.640619035314407,
      2.848115768824854,
      0.05723035239898103,
      25.04904533627389,
      -34.85824730637909
    ],
    "intercept": 1601.21186991015
  },
  "wide-insurance-offset-net-gaussian": {
    "coef": [
      0.0,
      0.0,
      0.0,
      0.0,
      0.0,
      -0.0004619384664266378,
      -1.657933315779859e-06,
      1.178086922861331e-06,
      0.9999940868175101,
      0.0,
      0.0,
      0.0,
      0.0,
      0.0,
      0.0,
      0.0,
      0.0,
      0.0,
      0.0,
      0.0,
      0.0,
      0.0,
      0.0,
      0.0,
      0.0,
      0.0,
      0.0,
      0.0,
      0.0,
      0.0,
      0.0,
      0.0,
      0.0,
      0.0,
      0.0,
      0.0,
      0.0,
      0.0,
      0.0,
      0.0,
      0.0,
      0.0,
      0.0,
      0.0,
      0.0,
      0.0,
      0.0,
      0.0,
      0.0,
      0.0,
      0.0,
      0.0,
      0.0,
      0.0,
      0.0,
      0.0,
      0.0,
      0.0,
      0.0,
      0.0,
      0.0,
      0.0,
      0.0,
      0.0,
      0.0,
      0.0,
      0.0,
      0.0,
      0.0,
      0.0,
      0.0,
      0.0,
      0.0,
      0.0,
      0.0,
      0.0,
      0.0,
      0.0,
      0.0,
      0.0,
      0.0,
      0.0,
      0.0,
      0.0,
      0.0,
      0.0,
      0.0,
      0.0,
      0.0,
      0.0,
      0.0,
      0.0,
      0.0,
      0.0,
      0.0,
      0.0,
      0.0,
      0.0,
      0.0,
      0.0,
      0.0,
      0.0,
      0.0,
      0.0,
      0.0,
      0.0,
      0.0,
      0.0,
      0.0,
      0.0,
      0.0,
      0.0,
      0.0,
      0.0,
      0.0,
      0.0,
      0.0,
      0.0,
      0.0,
      0.0,
      0.0,
      0.0,
      0.0,
      0.0,
      0.0,
      0.0,
      0.0,
      0.0,
      0.0,
      0.0,
      0.0,
      0.0,
      0.0,
      0.0,
      0.0,
      0.0,
      0.0,
      0.0,
      0.0,
      0.0,
      0.0,
      0.0,
      0.0,
      0.0,
      0.0,
      0.0,
      0.0,
      0.0,
      0.0,
      0.0,
      0.0,
      0.0,
      0.0,
      0.0,
      0.0,
      0.0,
      0.0,
      0.0,
      0.0,
      0.0,
      0.0,
      0.0,
      0.0,
      0.0,
      0.0,
      0.0,
      0.0,
      0.0,
      0.0,
      0.0,
      0.0,
      0.0,
      0.0,
      0.0,
      0.0,
      0.0,
      0.0,
      0.0,
      0.0,
      0.0,
      0.0,
      0.0,
      0.0,
      0.0,
      0.0,
      0.0,
      0.0,
      0.0,
      0.0,
      0.0,
      0.0,
      0.0,
      0.0,
      0.0,
      0.0,
      0.0,
      0.0,
      0.0,
      0.0,
      0.0,
      0.0,
      0.0,
      0.0,
      0.0,
      0.0,
      0.0,
      0.0,
      0.0,
      0.0,
      0.0,
      0.0,
      0.0,
      0.0,
      0.0,
      0.0,
      0.0,
      0.0,
      0.0,
      0.0,
      0.0,
      0.0,
      0.0,
      0.0,
      0.0,
      0.0,
      0.0,
      0.0,
      0.0,
      0.0,
      0.0,
      0.0,
      0.0,
      0.0,
      0.0,
      0.0,
      0.0,
      0.0,
      0.0,
      0.0,
      0.0,
      0.0,
      0.0,
      0.0,
      0.0,
      0.0,
      0.0,
      0.0,
      0.0,
      0.0,
      0.0,
      0.0,
      0.0,
      0.0,
      0.0,
      0.0,
      0.0,
      0.0
    ],
    "intercept": 0.0033420866450342146
  },
  "narrow-insurance-no-weights-net-poisson": {
    "coef": [
      0.0,
      0.0,
      0.0,
      0.0,
      0.0,
      0.0,
      0.0556822845433535,
      0.0,
      0.0,
      0.0,
      0.0,
      0.0,
      0.0,
      0.0,
      0.0,
      0.0,
      0.007603547842125576,
      0.0,
      0.0,
      0.0,
      0.0,
      0.0,
      0.0,
      0.0,
      0.0,
      0.0,
      0.0,
      0.0,
      0.0,
      0.0,
      0.0,
      0.0,
      0.0,
      0.0,
      0.0,
      0.0,
      0.0,
      0.0,
      0.0,
      0.0,
      0.0,
      0.0,
      0.0,
      0.0,
      0.0,
      0.0,
      0.0,
      0.0,
      0.0,
      0.0,
      0.0,
      0.0,
      0.0,
      0.0
    ],
    "intercept": -1.9533929092605256
  },
  "narrow-insurance-offset-net-poisson": {
    "coef": [
      0.0,
      0.0,
      0.0,
      0.0,
      0.0,
      0.0,
      0.0,
      0.0,
      0.0,
      0.0,
      0.0,
      0.0,
      0.0,
      0.0,
      0.0,
      0.0,
      0.019176571190325616,
      0.0,
      0.0,
      0.0,
      0.0,
      0.0,
      0.0,
      0.0,
      0.0,
      0.0,
      0.0,
      0.0,
      0.0,
      0.0,
      0.0,
      0.0,
      0.0,
      0.0,
      0.0,
      0.0,
      0.0,
      0.0,
      0.0,
      0.0,
      0.0,
      0.0,
      0.0,
      0.0,
      0.0,
      0.0,
      0.0,
      0.0,
      0.0,
      0.0,
      0.0,
      0.0,
      0.0,
      0.0
    ],
    "intercept": -3.380836599315996
  },
  "wide-insurance-no-weights-net-poisson": {
    "coef": [
      1.8428988778167539,
      -0.20610378383800082,
      0.0,
      -0.05955581555089393,
      0.0014266900280749807,
      0.002490647452889714,
      9.313456530241965e-06,
      3.3709386552332995e-05,
      6.439179115561551e-11,
      0.0,
      0.0,
      0.0,
      0.0,
      0.0,
      0.0,
      0.0,
      0.0,
      0.0,
      0.0,
      0.0,
      0.0,
      0.0,
      0.0,
      0.0,
      0.0,
      0.0,
      0.0,
      0.0,
      0.0,
      0.0,
      0.0,
      0.0,
      0.0,
      0.0,
      0.0,
      0.0,
      0.0,
      0.0,
      0.0,
      0.0,
      0.0,
      0.0,
      0.0,
      0.0,
      0.0,
      0.0,
      0.0,
      0.0,
      0.0,
      0.0,
      0.0,
      0.0,
      0.0,
      0.0,
      0.0,
      0.0,
      0.0,
      0.0,
      0.0,
      0.0,
      0.0,
      0.0,
      0.0,
      0.0,
      0.0,
      0.0,
      0.0,
      0.0,
      0.0,
      0.0,
      0.0,
      0.0,
      0.0,
      0.0,
      0.0,
      0.0,
      0.0,
      0.0,
      0.0,
      0.0,
      0.0,
      0.0,
      0.0,
      0.0,
      0.0,
      0.0,
      0.0,
      0.0,
      0.0,
      0.0,
      0.0,
      0.0,
      0.0,
      0.0,
      0.0,
      0.0,
      0.0,
      0.0,
      0.0,
      0.0,
      0.0,
      0.0,
      0.0,
      0.0,
      0.0,
      0.0,
      0.0,
      0.0,
      0.0,
      0.0,
      0.0,
      0.0,
      0.0,
      0.0,
      0.0,
      0.0,
      0.0,
      0.0,
      0.0,
      0.0,
      0.0,
      0.0,
      0.0,
      0.0,
      0.0,
      0.0,
      0.0,
      0.0,
      0.0,
      0.0,
      0.0,
      0.0,
      0.0,
      0.0,
      0.0,
      0.0,
      0.0,
      0.0,
      0.0,
      0.0,
      0.0,
      0.0,
      0.0,
      0.0,
      0.0,
      0.0,
      0.0,
      0.0,
      0.0,
      0.0,
      0.0,
      0.0,
      0.0,
      0.0,
      0.0,
      0.0,
      0.0,
      0.0,
      0.0,
      0.0,
      0.0,
      0.0,
      0.0,
      0.0,
      0.0,
      0.0,
      0.0,
      0.0,
      0.0,
      0.0,
      0.0,
      0.0,
      0.0,
      0.0,
      0.0,
      0.0,
      0.0,
      0.0,
      0.0,
      0.0,
      0.0,
      0.0,
      0.0,
      0.0,
      0.0,
      0.0,
      0.0,
      0.0,
      0.0,
      0.0,
      0.0,
      0.0,
      0.0,
      0.0,
      0.0,
      0.0,
      0.0,
      0.0,
      0.0,
      0.0,
      0.0,
      0.0,
      0.0,
      0.0,
      0.0,
      0.0,
      0.0,
      0.0,
      0.0,
      0.0,
      0.0,
      0.0,
      0.0,
      0.0,
      0.0,
      0.0,
      0.0,
      0.0,
      0.0,
      0.0,
      0.0,
      0.0,
      0.0,
      0.0,
      0.0,
      0.0,
      0.0,
      0.0,
      0.0,
      0.0,
      0.0,
      0.0,
      0.0,
      0.0,
      0.0,
      0.0,
      0.0,
      0.0,
      0.0,
      0.0,
      0.0,
      0.0,
      0.0,
      0.0
    ],
    "intercept": -1.6278886681238387
  },
  "wide-insurance-offset-net-poisson": {
    "coef": [
      0.13169783750311415,
      0.0,
      0.0,
      -0.00832533957278035,
      0.0,
      0.015028012215627237,
      3.3817174172193966e-05,
      9.344635934853507e-05,
      4.258647544144689e-10,
      0.0,
      0.0,
      0.0,
      0.0,
      0.0,
      0.0,
      0.0,
      0.0,
      0.0,
      0.0,
      0.0,
      0.0,
      0.0,
      0.0,
      0.0,
      0.0,
      0.0,
      0.0,
      0.0,
      0.0,
      0.0,
      0.0,
      0.0,
      0.0,
      0.0,
      0.0,
      0.0,
      0.0,
      0.0,
      0.0,
      0.0,
      0.0,
      0.0,
      0.0,
      0.0,
      0.0,
      0.0,
      0.0,
      0.0,
      0.0,
      0.0,
      0.0,
      0.0,
      0.0,
      0.0,
      0.0,
      0.0,
      0.0,
      0.0,
      0.0,
      0.0,
      0.0,
      0.0,
      0.0,
      0.0,
      0.0,
      0.0,
      0.0,
      0.0,
      0.0,
      0.0,
      0.0,
      0.0,
      0.0,
      0.0,
      0.0,
      0.0,
      0.0,
      0.0,
      0.0,
      0.0,
      0.0,
      0.0,
      0.0,
      0.0,
      0.0,
      0.0,
      0.0,
      0.0,
      0.0,
      0.0,
      0.0,
      0.0,
      0.0,
      0.0,
      0.0,
      0.0,
      0.0,
      0.0,
      0.0,
      0.0,
      0.0,
      0.0,
      0.0,
      0.0,
      0.0,
      0.0,
      0.0,
      0.0,
      0.0,
      0.0,
      0.0,
      0.0,
      0.0,
      0.0,
      0.0,
      0.0,
      0.0,
      0.0,
      0.0,
      0.0,
      0.0,
      0.0,
      0.0,
      0.0,
      0.0,
      0.0,
      0.0,
      0.0,
      0.0,
      0.0,
      0.0,
      0.0,
      0.0,
      0.0,
      0.0,
      0.0,
      0.0,
      0.0,
      0.0,
      0.0,
      0.0,
      0.0,
      0.0,
      0.0,
      0.0,
      0.0,
      0.0,
      0.0,
      0.0,
      0.0,
      0.0,
      0.0,
      0.0,
      0.0,
      0.0,
      0.0,
      0.0,
      0.0,
      0.0,
      0.0,
      0.0,
      0.0,
      0.0,
      0.0,
      0.0,
      0.0,
      0.0,
      0.0,
      0.0,
      0.0,
      0.0,
      0.0,
      0.0,
      0.0,
      0.0,
      0.0,
      0.0,
      0.0,
      0.0,
      0.0,
      0.0,
      0.0,
      0.0,
      0.0,
      0.0,
      0.0,
      0.0,
      0.0,
      0.0,
      0.0,
      0.0,
      0.0,
      0.0,
      0.0,
      0.0,
      0.0,
      0.0,
      0.0,
      0.0,
      0.0,
      0.0,
      0.0,
      0.0,
      0.0,
      0.0,
      0.0,
      0.0,
      0.0,
      0.0,
      0.0,
      0.0,
      0.0,
      0.0,
      0.0,
      0.0,
      0.0,
      0.0,
      0.0,
      0.0,
      0.0,
      0.0,
      0.0,
      0.0,
      0.0,
      0.0,
      0.0,
      0.0,
      0.0,
      0.0,
      0.0,
      0.0,
      0.0,
      0.0,
      0.0,
      0.0,
      0.0,
      0.0,
      0.0,
      0.0,
      0.0,
      0.0,
      0.0,
      0.0,
      0.0
    ],
    "intercept": -3.1795004447389132
  },
  "narrow-insurance-no-weights-net-tweedie-p=1.5": {
    "coef": [
      -0.7850530013361271,
      0.10266723063348149,
      -0.08621044767753172,
      0.19849604398996953,
      0.0,
      0.04531614601931839,
      -0.30472639671606794,
      0.0,
      0.11797466482855012,
      1.0048812146818176,
      -0.18674695992738227,
      -0.9353078327045301,
      0.0,
      0.29937825721583194,
      0.41216489215466867,
      -0.003759683761753955,
      0.03333973149594878,
      0.20488405068308213,
      -0.33841169118418,
      -0.12916808380227218,
      0.09850693415716627,
      -0.37236149028071835,
      0.058071267553910615,
      0.19031812429720882,
      -0.48109939943977054,
      0.0,
      -0.2671044428630009,
      0.20299389061661488,
      0.16341259271815398,
      -0.16329795245691758,
      0.06859981400737673,
      0.0,
      0.0,
      0.0,
      -0.42468584758622224,
      -0.18213575777353228,
      0.21090031965257314,
      -0.08280294570620578,
      0.0,
      0.0,
      0.0,
      0.0,
      0.0349813474342225,
      0.47958672494685534,
      -0.18496409562278293,
      0.0,
      0.0,
      0.0,
      0.5834124139492001,
      -0.266451054678199,
      -0.5650615359635506,
      0.442785577574177,
      0.0,
      0.08749131524811889
    ],
    "intercept": 1.9644089086393728
  },
  "narrow-insurance-offset-net-tweedie-p=1.5": {
    "coef": [
      -0.5510462046302552,
      0.0,
      -0.1380666409512333,
      0.09688487195827399,
      0.04941082406364084,
      0.10270136217681679,
      0.0,
      0.0,
      -4.456809692209348e-05,
      0.9122222999098643,
      -0.15875041749077332,
      -0.8870606965497317,
      0.0,
      0.20491761180219145,
      0.23702522331710407,
      -0.02369816518352611,
      0.034807674291813404,
      0.38271257163675826,
      -0.1608938716326632,
      0.0,
      0.28079967612777157,
      -0.15570794183640183,
      0.058630094180377595,
      0.2254184680051614,
      -0.2714717397280745,
      0.0,
      -0.07405820309115585,
      0.02373963832948029,
      0.14725107509641164,
      -0.14720984881534324,
      0.03781960784316101,
      0.0,
      0.0,
      0.0,
      0.0,
      0.0,
      0.11360559666190537,
      0.0,
      0.0,
      0.0,
      0.0,
      0.0,
      0.0,
      0.42964342854408044,
      -0.11787622935209464,
      0.0,
      0.0,
      0.0,
      0.38281377297210845,
      0.0,
      -0.11705320962261041,
      0.5288109041223084,
      0.0,
      0.13280566585302847
    ],
    "intercept": 1.8032904605147806
  },
  "narrow-insurance-weights-lasso-gaussian": {
    "coef": [
      -212.82552212513988,
      -220.7161979006927,
      77.13160693842558,
      304.4389010694301,
      -231.11067198251692,
      0.03492391328258238,
      0.0,
      89.6621168822506,
      -6.299473417848961,
      496.3965369347025,
      -34.273327698894846,
      -169.4532902185507,
      0.0,
      -38.99756656293495,
      150.47555500129945,
      737.3327285117012,
      5.440201807347461,
      0.0,
      858.6432275006987,
      88.72760157990052,
      280.3780608918878,
      -386.6506990507303,
      -229.4169279585498,
      -169.78339329375652,
      -56.718422630279925,
      132.045580513047,
      25.868745067465714,
      -172.2007502716822,
      -85.82800794284609,
      1.9408754321994496e-08,
      17.690948990181457,
      -150.98194688677046,
      2907.396735008846,
      -187.3986690867795,
      -203.79321877613057,
      151.4024358807501,
      1859.057006320735,
      211.26519275689336,
      26.57902309278095,
      -361.8399796885175,
      -676.4640328430718,
      -152.49230872026672,
      -232.5308830768493,
      -180.4658501642611,
      -7.7113569814818,
      381.0336229775407,
      73.41260948833619,
      -356.67581984279263,
      0.0051222278805450995,
      -174.3073473954618,
      960.5256193912747,
      380.5528305366382,
      519.5739786250696,
      -62.39483560374554
    ],
    "intercept": 1362.6285394610904
  },
  "narrow-insurance-no-weights-lasso-gaussian": {
    "coef": [
      -275.6551493148446,
      -248.0262401423759,
      13.214827481150946,
      216.19145099516857,
      -266.79206692626883,
      0.11170163604068042,
      0.0,
      84.22052780554183,
      -45.58250915692387,
      469.50570439521044,
      -54.31027439829373,
      -154.3208540324438,
      0.0,
      -16.533666305039983,
      120.21755668536377,
      731.6498499927934,
      6.197903405313181,
      0.0,
      886.2058797432421,
      163.46022274497506,
      208.2558318605743,
      -341.9494589959018,
      -140.4985883793897,
      -105.7282462533543,
      -52.24190667432581,
      204.43298956606426,
      87.51770051481552,
      -113.42920881126051,
      -41.6550760920253,
      2.4432361078595892e-08,
      13.34556153804302,
      -248.55340404501246,
      1417.4268730608733,
      -200.81361850814469,
      -186.70717407632742,
      114.13400733664916,
      1964.192783753242,
      258.8770662778196,
      8.479467585090214,
      -383.3452018877242,
      -703.2459313907591,
      -125.45071544146491,
      -313.1011749790856,
      -194.70541675935434,
      0.0,
      299.40332178213737,
      36.400650152135164,
      -360.5103432190136,
      -55.16201546366054,
      -177.95702259992,
      869.8439304083913,
      354.2468942452224,
      106.16588574507722,
      -40.83583013471695
    ],
    "intercept": 1314.80517228593
  },
  "narrow-insurance-offset-lasso-gaussian": {
    "coef": [
      -210.60465715773356,
      -212.29982802922504,
      92.41391285967252,
      344.7550976530686,
      -243.98851306630627,
      0.0,
      -33.65341423051608,
      110.56253844473775,
      0.0,
      502.7018275573193,
      0.0,
      -190.40865667671665,
      -15.418485398576374,
      -32.70970988151974,
      181.09015844092508,
      824.1519604924848,
      7.665092094582615,
      0.0,
      855.5395026759064,
      87.49846117256281,
      408.6830950366111,
      -337.4842470993564,
      -192.14963555299173,
      -167.12308896903204,
      -61.93226721279655,
      123.0266081458104,
      31.065782771876037,
      -169.1765923254062,
      -74.44010503500697,
      4.333336800278673e-08,
      22.289334008717148,
      -147.57731753871272,
      3544.239031874374,
      -302.11436436949117,
      -264.58755563705586,
      133.1804708824798,
      1956.087777757941,
      208.49872301630117,
      34.87907643441866,
      -436.5513540543242,
      -539.0269610793157,
      -306.24072602027655,
      -257.04970251557694,
      -188.49708523371456,
      -49.24335116963431,
      408.3609899700456,
      23.01126490458503,
      -388.7649340554441,
      4.415858174922167e-05,
      -279.9097041593906,
      1011.2291397914613,
      437.7413733706486,
      766.5736123419142,
      -66.31406632156768
    ],
    "intercept": 1242.410246706177
  },
  "wide-insurance-weights-lasso-gaussian": {
    "coef": [
      -0.2272803575361895,
      -38.62690555905908,
      18.997510916520866,
      -5.391572463340138,
      0.3912649753120417,
      1.7130689954231635,
      0.003898716467916892,
      0.015608177707916643,
      0.805505133850183,
      -1997.5087818892725,
      -72.77268960606595,
      -44.298647772364234,
      60.02030710725178,
      -47.81809903194969,
      8.3320640835032,
      45.84668715997961,
      0.0,
      68.64668070979863,
      0.0,
      -10.756688682152975,
      0.0,
      76.94979162503415,
      -16.4381075413666,
      -1.723034311975597,
      0.0,
      336.0236848223317,
      162.33274479717414,
      -181.58364353482392,
      -8.769997092547996,
      -28.36383076512216,
      -9.218310813112398,
      94.79021496268113,
      57.31661483568527,
      -21.424474343007194,
      0.0,
      64.64440985814296,
      35.36812060442424,
      23.18385822106929,
      32.435066641317945,
      55.99030187684053,
      -149.62695851540215,
      -73.55418503423311,
      86.43719392030913,
      0.0,
      -350.3874045529622,
      121.20496157306869,
      338.5086184760782,
      0.0,
      48.96358078319839,
      0.0,
      0.0,
      0.0,
      0.0,
      354.1315780108893,
      0.0,
      0.0,
      0.0,
      0.0,
      0.0,
      0.0,
      0.0,
      0.0,
      0.0,
      0.0,
      207.3507552010373,
      141.41245206936162,
      -181.90123430534177,
      19.95053177321669,
      -231.64820781781597,
      93.96621242668219,
      0.0,
      -102.1791988443901,
      -104.25283887602532,
      -124.28378278956966,
      -17.516979822837865,
      -70.16145585063275,
      30.89902886157922,
      12.02720994613398,
      -195.87743339452592,
      18.483188976636992,
      48.23981165378859,
      0.0,
      -314.407869521968,
      -37.06716396281138,
      -87.89854126263447,
      -16.965139087935544,
      32.79444965446825,
      29.152859035652348,
      123.63735963739911,
      39.414866224024344,
      35.542321947859044,
      28.00637756419982,
      66.53149128551465,
      58.413689993073056,
      -213.34066664019198,
      -33.54967920691996,
      0.0,
      2.2916849362968823,
      -318.06700915781255,
      -96.22232284785375,
      -119.73708739415343,
      11.69951773491697,
      132.50361676016507,
      -1.911692333343341,
      -94.24664638118611,
      -51.78511642413574,
      -867.5028067511237,
      0.0,
      33.54831512953936,
      -56.080658634729346,
      366.42447549105714,
      56.0467564862788,
      267.6814867765119,
      312.998254133682,
      19.70273573271779,
      -226.6075837058175,
      -181.23335131853383,
      -109.26291035824602,
      -6.882126831729033,
      288.78496003107773,
      330.11675256885195,
      217.46869802825393,
      480.5592108987866,
      -830.1307141139894,
      474.23735984807485,
      0.0,
      0.0,
      0.0,
      0.0,
      -24.68496821990385,
      12.671211679121537,
      -316.53033881557883,
      0.0,
      0.0,
      0.0,
      -66.96221918075301,
      0.0,
      685.112458576656,
      0.0,
      -103.417798719758,
      -14.687484335627026,
      87.75364570412644,
      92.65804485225226,
      97.798342153333,
      -66.965228222605,
      0.0,
      -22.221447832171105,
      53.41344349505434,
      96.65684651969157,
      -450.7081844589954,
      -5.944679271060818,
      37.03993587749341,
      0.0,
      0.0,
      -52.982353656182994,
      -121.79748205340451,
      1.1705492113965235,
      -73.16578828092818,
      250.58446568016916,
      68.13779555245257,
      -37.47282728371461,
      -1.8631778163717756,
      246.47211331530028,
      0.0,
      342.74128087413493,
      44.43261954168792,
      69.67631240508376,
      0.0,
      -5.608760801521348,
      -20.466289786706206,
      71.55445811936474,
      63.926705221379066,
      37.60479719501795,
      -176.6646659837715,
      -0.27322379091904486,
      -190.53870288695387,
      0.0,
      -78.27513346755931,
      -9.468781802750186,
      122.71924618169481,
      -109.45471115534637,
      0.0,
      1306.4297568599534,
      -0.5672753340363024,
      0.0,
      477.2971260070884,
      -3005.602056921019,
      0.0,
      620.9441920645417,
      50.40725758187852,
      996.6115466753013,
      558.9196567635679,
      0.0,
      0.0,
      475.71673948036147,
      10.656380298636291,
      0.0,
      505.74198055169495,
      0.0,
      34.07539879791951,
      584.6127189622254,
      0.0,
      0.0,
      0.0,
      139.31751360473748,
      0.0,
      191.60826091874043,
      -74.36246588358375,
      0.0,
      0.0,
      -308.99634263272475,
      0.0,
      0.0,
      -123.78211214416643,
      118.38075935123739,
      0.0,
      -76.31937025402291,
      -2915.906744215765,
      0.0,
      0.0,
      0.0,
      0.0,
      -98.95152907430514,
      35.9577250222041,
      -50.003737417245276,
      -138.53149019217167,
      14.879786181011628,
      312.9693533070721,
      0.7505132234783874,
      -76.86137667577714,
      51.94696145256473,
      0.0,
      -1.2643716836999268,
      80.28276015106168,
      0.0,
      -114.69649892731985,
      -2425.2887098473107,
      -46.27388456305449,
      41.61417809366302,
      -5.438815007730196,
      385.885317556963,
      154.40885957120426,
      35.37908586471053,
      -24.771727446220453,
      106.20679184795024,
      7.559722305832315,
      -38.98816021840935,
      0.0,
      56.836610621241384,
      -36.67309860397152,
      4.2638680020027655,
      1.1500766438038144,
      -39.673750974160825,
      0.0,
      -158.04504777611263,
      54.67407995392465,
      -298.5671436287847
    ],
    "intercept": 2218.4744874272433
  },
  "wide-insurance-no-weights-lasso-gaussian": {
    "coef": [
      -0.17826580790480406,
      -30.31366324796939,
      10.13298735590739,
      -2.640001114134125,
      0.24692614638221577,
      1.2601897852091264,
      0.002445585316469062,
      0.009136368228777574,
      0.8845201451941167,
      -2099.2693904215407,
      -44.81652879986979,
      -30.18302734940752,
      34.04482632818032,
      -16.338399499940333,
      2.388918154808991,
      47.07462507054635,
      0.0,
      33.34200661239472,
      -9.012489807109349,
      -23.543254430682353,
      -4.7230982922875535,
      39.447235290289285,
      -9.086418889714832,
      0.0,
      0.0,
      194.33248978911092,
      99.03838327808296,
      -44.98185826212579,
      -15.418672229465091,
      -28.8862250249438,
      -34.650628495737,
      44.32651749259796,
      16.388317281633455,
      -21.221756448322836,
      0.0,
      31.031658654801337,
      13.362239208949603,
      0.0,
      6.8842614896870495,
      21.605335949448786,
      -45.10844101250065,
      -64.7508905816352,
      32.42886751448148,
      -18.700667186808808,
      -254.47618369045642,
      52.59986974925959,
      196.0222220061124,
      -23.8864984583776,
      0.0,
      0.0,
      0.0,
      0.0,
      0.0,
      45.20187143922891,
      0.0,
      0.0,
      0.0,
      0.0,
      0.0,
      0.0,
      0.0,
      0.0,
      0.0,
      0.0,
      136.7421107790811,
      66.72727266638472,
      -112.27007753426584,
      0.0,
      -202.86426972620455,
      38.80643433966012,
      0.0,
      -66.40204057535767,
      -55.09283183228068,
      -76.54149364535962,
      -3.2347163450458556,
      -27.077308165593646,
      20.070467568736934,
      0.0,
      -118.44779680712438,
      19.950043132831915,
      35.419323290490546,
      0.0,
      -183.99383619996755,
      -16.67777178221462,
      -51.8199871404769,
      -0.9076205895739486,
      25.277081825126388,
      19.268914043675558,
      74.57135808139266,
      11.68379208663904,
      27.186684113146157,
      0.8224263550275012,
      43.02233213260839,
      31.81647854139546,
      -130.35849944359467,
      -19.449996231909168,
      -2.4631499554777903,
      3.2691974621041657,
      -65.71308350034418,
      -29.718564735927618,
      -72.32454639684339,
      16.420971177266058,
      69.70679839180735,
      0.0,
      -55.69167316919782,
      -22.312781169580536,
      -584.3445359421524,
      0.0,
      26.642551115642128,
      -26.038598780674892,
      223.65712063115458,
      36.05242119070295,
      149.09565437023787,
      193.0235133017509,
      4.149668342780921,
      -130.69753475819113,
      -149.756239604811,
      -41.135142681505215,
      -5.545321464907212,
      171.5359132379989,
      187.32097554886153,
      166.93119396806807,
      303.2795589987346,
      -630.0982577928845,
      284.6060291687242,
      0.0,
      0.0,
      0.0,
      0.0,
      0.0,
      0.0,
      -183.29597924448447,
      0.0,
      0.0,
      0.0,
      0.0,
      0.0,
      371.44380180405176,
      0.0,
      -53.34955601094237,
      0.0,
      59.170914832853434,
      64.38153927429983,
      52.08371921504294,
      -50.49678878464712,
      0.0,
      -18.02605766929393,
      39.9098802878223,
      53.5584901706256,
      -294.684161077466,
      0.0,
      25.080042522826584,
      0.0,
      0.0,
      -70.90703634652672,
      -59.17801646589779,
      11.977481623177988,
      -41.71541849282053,
      137.111844354044,
      25.30987923623718,
      -14.932531786959396,
      -4.983153271429412,
      155.0795833224428,
      -2.2864769118945167,
      213.90370136782735,
      17.24883509664845,
      37.92917669829892,
      0.0,
      0.0,
      -11.95596037102702,
      6.130539071590047,
      19.47784914496442,
      0.382560889578261,
      -43.98099933363784,
      -8.021684078243155,
      -67.14372594428045,
      0.0,
      -41.600332899735704,
      0.0,
      56.68008348410409,
      -49.59524067440537,
      0.0,
      924.5210891915362,
      0.0,
      -3.3354654185440618,
      374.2507018182898,
      -2422.4755712066244,
      0.0,
      164.06784532048977,
      20.94278662944496,
      414.59689490481276,
      264.6493909207455,
      0.0,
      0.0,
      66.41482393449986,
      0.0,
      0.0,
      276.83483970851114,
      0.0,
      24.5126591537459,
      169.64124589681845,
      0.0,
      0.0,
      0.0,
      80.38911529181807,
      0.0,
      0.0,
      -50.76402007452361,
      0.0,
      0.0,
      -206.69285797662482,
      0.0,
      0.0,
      -3.8985217638663188,
      87.51592065487387,
      0.0,
      -30.01837072611905,
      -2817.0188986975927,
      0.0,
      0.0,
      0.0,
      0.0,
      -50.5152658476923,
      24.923770096759053,
      -26.112194263960298,
      -99.64498763648129,
      13.417636908488424,
      159.38359958922706,
      0.0,
      -51.46907051628372,
      36.83078560719906,
      0.1787506838587168,
      -7.895359068390475,
      40.40146032281503,
      0.0,
      -83.49663126477304,
      -1626.8175217644637,
      -14.76497249465386,
      32.28550384985117,
      -5.778010503690189,
      236.41324074825718,
      109.8727278092744,
      9.820272440832062,
      -12.49600246671786,
      60.11929038739671,
      0.0,
      -36.22271384936182,
      0.40326615521426185,
      24.802448188357157,
      -24.830002770302084,
      3.46450915150258,
      0.0,
      -31.446532766753915,
      0.0,
      -19.113669864238588,
      31.949928067855346,
      -273.2705579224747
    ],
    "intercept": 2238.7336618412564
  },
  "wide-insurance-offset-lasso-gaussian": {
    "coef": [
      0.0,
      0.0,
      0.0,
      0.0,
      0.0,
      -0.0003356882121455118,
      -1.6802276709837756e-06,
      1.1464539309612927e-06,
      0.9999941329347719,
      0.0,
      0.0,
      0.0,
      0.0,
      0.0,
      0.0,
      0.0,
      0.0,
      0.0,
      0.0,
      0.0,
      0.0,
      0.0,
      0.0,
      0.0,
      0.0,
      0.0,
      0.0,
      0.0,
      0.0,
      0.0,
      0.0,
      0.0,
      0.0,
      0.0,
      0.0,
      0.0,
      0.0,
      0.0,
      0.0,
      0.0,
      0.0,
      0.0,
      0.0,
      0.0,
      0.0,
      0.0,
      0.0,
      0.0,
      0.0,
      0.0,
      0.0,
      0.0,
      0.0,
      0.0,
      0.0,
      0.0,
      0.0,
      0.0,
      0.0,
      0.0,
      0.0,
      0.0,
      0.0,
      0.0,
      0.0,
      0.0,
      0.0,
      0.0,
      0.0,
      0.0,
      0.0,
      0.0,
      0.0,
      0.0,
      0.0,
      0.0,
      0.0,
      0.0,
      0.0,
      0.0,
      0.0,
      0.0,
      0.0,
      0.0,
      0.0,
      0.0,
      0.0,
      0.0,
      0.0,
      0.0,
      0.0,
      0.0,
      0.0,
      0.0,
      0.0,
      0.0,
      0.0,
      0.0,
      0.0,
      0.0,
      0.0,
      0.0,
      0.0,
      0.0,
      0.0,
      0.0,
      0.0,
      0.0,
      0.0,
      0.0,
      0.0,
      0.0,
      0.0,
      0.0,
      0.0,
      0.0,
      0.0,
      0.0,
      0.0,
      0.0,
      0.0,
      0.0,
      0.0,
      0.0,
      0.0,
      0.0,
      0.0,
      0.0,
      0.0,
      0.0,
      0.0,
      0.0,
      0.0,
      0.0,
      0.0,
      0.0,
      0.0,
      0.0,
      0.0,
      0.0,
      0.0,
      0.0,
      0.0,
      0.0,
      0.0,
      0.0,
      0.0,
      0.0,
      0.0,
      0.0,
      0.0,
      0.0,
      0.0,
      0.0,
      0.0,
      0.0,
      0.0,
      0.0,
      0.0,
      0.0,
      0.0,
      0.0,
      0.0,
      0.0,
      0.0,
      0.0,
      0.0,
      0.0,
      0.0,
      0.0,
      0.0,
      0.0,
      0.0,
      0.0,
      0.0,
      0.0,
      0.0,
      0.0,
      0.0,
      0.0,
      0.0,
      0.0,
      0.0,
      0.0,
      0.0,
      0.0,
      0.0,
      0.0,
      0.0,
      0.0,
      0.0,
      0.0,
      0.0,
      0.0,
      0.0,
      0.0,
      0.0,
      0.0,
      0.0,
      0.0,
      0.0,
      0.0,
      0.0,
      0.0,
      0.0,
      0.0,
      0.0,
      0.0,
      0.0,
      0.0,
      0.0,
      0.0,
      0.0,
      0.0,
      0.0,
      0.0,
      0.0,
      0.0,
      0.0,
      0.0,
      0.0,
      0.0,
      0.0,
      0.0,
      0.0,
      0.0,
      0.0,
      0.0,
      0.0,
      0.0,
      0.0,
      0.0,
      0.0,
      0.0,
      0.0,
      0.0,
      0.0,
      0.0,
      0.0,
      0.0,
      0.0,
      0.0,
      0.0,
      0.0,
      0.0,
      0.0,
      0.0,
      0.0,
      0.0,
      0.0,
      0.0,
      0.0,
      0.0,
      0.0,
      0.0,
      0.0,
      0.0
    ],
    "intercept": -0.0048158680356209516
  },
  "narrow-insurance-no-weights-lasso-poisson": {
    "coef": [
      0.0,
