{
  "poisson": {
    "default_weights": {
      "coef_": [
        0.8852740290156277,
        0.45039573867745625,
        0.08576287981443588,
        -0.07462183840347204,
        -0.45164294645841824,
        -0.8795504378716015,
        0.004447632189606099,
        0.009476853684592878,
        -0.026811074900934456,
        0.006924243533460672,
        -0.08182726188046675,
        0.014126308254642702,
        0.014360325744097567,
        0.15152634746600163,
        -0.09010042813707295,
        -0.031805740669000306,
        0.03895514612656262,
        -0.09663771768072775,
        0.3033751698173102,
        -0.056241552965054474,
        0.07665959266618662,
        -0.04936919562630803,
        -0.09256731790716824,
        -0.007692060798939002,
        0.2512982032392364,
        0.06517492107851716,
        0.09891347943684972,
        -0.05688016319246853
      ],
      "intercept_": 1.1464463211828142,
      "n_iter_": 5
    },
    "default": {
      "coef_": [
        0.8917598559360338,
        0.46383247166150887,
        0.08879791786133982,
        -0.08080653124289548,
        -0.44900333121287556,
        -0.8817109398056522,
        0.008921931356573869,
        0.0014899471193882078,
        -0.00840605129482883,
        0.007732593797191712,
        -0.08170674139715284,
        0.014365314337923695,
        0.012116736322119915,
        0.16835043196331373,
        -0.06964356157536132,
        -0.029737649047577613,
        0.03896942727815665,
        -0.10035258818902965,
        0.27458885729937327,
        -0.06862843560652584,
        0.07403409652610864,
        -0.031210646659595092,
        -0.10212006577626048,
        -0.013119923833090344,
        0.2401535441897835,
        0.06000183688520625,
        0.12051652926553984,
        -0.05619656107506597
      ],
      "intercept_": 1.1440665434430863,
      "n_iter_": 5
    },
    "no-regularization_weights": {
      "coef_": [
        1.0015203919026556,
        0.5083047084202063,
        0.09653771644395016,
        -0.10693166060932556,
        -0.5028004832492979,
        -1.0039815548798514,
        -0.005917507121561632,
        -0.005389540375023551,
        -0.0009806839996330918,
        0.0003339617909829063,
        0.10433109498962004,
        0.3921853019106402,
        0.38032901093412785,
        0.6678881741410287,
        0.06982997685495379,
        0.30066200098616513,
        0.44703157605172855,
        0.07788548174119855,
        0.7406302303822,
        0.2653671068621213,
        0.6343196621411342,
        0.28106167958980505,
        0.12239041658741755,
        0.3069622354887984,
        0.7210217327350714,
        0.5274066800441257,
        0.5952149217934884,
        0.2132607899717165
      ],
      "intercept_": 0.1995419593022274,
      "n_iter_": 6
    },
    "no-regularization": {
      "coef_": [
        1.0012633407226281,
        0.5058153423418699,
        0.09883227198442153,
        -0.1024807899036082,
        -0.5038940918744327,
        -0.9968561872902726,
        -0.004386204304570965,
        -0.0048769946354618446,
        0.0029001310958426917,
        0.002229939541078281,
        0.11173296541150446,
        0.3675316207942131,
        0.37768844983812616,
        0.6535939968515205,
        0.0739298642161517,
        0.2966741610140782,
        0.44211837977291785,
        0.08339092924491201,
        0.7373990391019617,
        0.25097706182861385,
        0.623336008494802,
        0.2944581727732708,
        0.13379550121561193,
        0.31651460083509614,
        0.7279699944606872,
        0.5300175545771668,
        0.6086668992145325,
        0.21998011378118998
      ],
      "intercept_": 0.20675910394402242,
      "n_iter_": 6
    },
    "half-regularization_weights": {
      "coef_": [
        0.9391352011009089,
        0.47714999234938177,
        0.08673758048499677,
        -0.08646527427528536,
        -0.4759459031119392,
        -0.9332920326112626,
        0.0005792888226233305,
        0.0036100131636477503,
        -0.016945385913854676,
        0.00545527592400289,
        -0.10272628139072568,
        0.038760216538636316,
        0.037619293163584894,
        0.23350530808257608,
        -0.11983825888138411,
        -0.02858344584642558,
        0.07613938250132954,
        -0.12127186676456159,
        0.37200668460828623,
        -0.055990197146952185,
        0.144705728811007,
        -0.046031881067953244,
        -0.11850205673211978,
        -0.00491554519324822,
        0.31667409872084623,
        0.10920337749168933,
        0.15330092729763933,
        -0.06924323590387564
      ],
      "intercept_": 0.9860933145579805,
      "n_iter_": 6
    },
    "half-regularization": {
      "coef_": [
        0.9397505480145741,
        0.4859563441715088,
        0.09227515617484522,
        -0.08929973346391265,
        -0.4726565471169939,
        -0.9313546861096487,
        0.001455993610929365,
        -0.00025543646326848314,
        -0.0028605121474135375,
        0.006403600574962171,
        -0.10038433082994039,
        0.02995691260176259,
        0.03891583262269472,
        0.24529587553206947,
        -0.10046124291668669,
        -0.026234909064047275,
        0.07692139884713314,
        -0.12320101038447026,
        0.3542552460918221,
        -0.06993064167943214,
        0.1405208280112795,
        -0.028046164201774068,
        -0.12501158585933686,
        -0.005028000589382108,
        0.30784716841301796,
        0.1045870969704613,
        0.17659839301777142,
        -0.06645525336851074
      ],
      "intercept_": 0.9876917337177936,
      "n_iter_": 6
    },
    "elastic-net_weights": {
      "coef_": [
        0.883532376803536,
        0.4211611706339568,
        0.032029570144705255,
        -0.011139627400158727,
        -0.4316410474970132,
        -0.8883606392355,
        0.0,
        0.0,
        0.0,
        0.0,
        0.0,
        0.0,
        0.0,
        0.0,
        0.0,
        0.0,
        0.0,
        0.0,
        0.11695757644326019,
        0.0,
        0.0,
        0.0,
        0.0,
        0.0,
        0.026670121164439425,
        0.0,
        0.0,
        0.0
      ],
      "intercept_": 1.2187097097261275,
      "n_iter_": 7
    },
    "elastic-net": {
      "coef_": [
        0.8891081840368468,
        0.43694536391089855,
        0.042317659665716434,
        -0.024755960190895265,
        -0.42606005837489275,
        -0.8786039592306656,
        0.0,
        0.0,
        0.0,
        0.0,
        0.0,
        0.0,
        0.0,
        0.0,
        0.0,
        0.0,
        0.0,
        0.0,
        0.047787526680189554,
        0.0,
        0.0,
        0.0,
        0.0,
        0.0,
        0.009384669520902045,
        0.0,
        0.0,
        0.0
      ],
      "intercept_": 1.2296509756993415,
      "n_iter_": 7
    },
    "lasso_weights": {
      "coef_": [
        0.8767678228277083,
        0.3879161837138782,
        0.0,
        0.0,
        -0.39901576240477865,
        -0.8918796819173705,
        0.0,
        0.0,
        0.0,
        0.0,
        0.0,
        0.0,
        0.0,
        0.0,
        0.0,
        0.0,
        0.0,
        0.0,
        0.0,
        0.0,
        0.0,
        0.0,
        0.0,
        0.0,
        0.0,
        0.0,
        0.0,
        0.0
      ],
      "intercept_": 1.2682261916383233,
      "n_iter_": 7
    },
    "lasso": {
      "coef_": [
        0.8828658612168783,
        0.40483653329869324,
        0.0,
        0.0,
        -0.39092188021562546,
        -0.876027619779124,
        0.0,
        0.0,
        0.0,
        0.0,
        0.0,
        0.0,
        0.0,
        0.0,
        0.0,
        0.0,
        0.0,
        0.0,
        0.0,
        0.0,
        0.0,
        0.0,
        0.0,
        0.0,
        0.0,
        0.0,
        0.0,
        0.0
      ],
      "intercept_": 1.2733623631498512,
      "n_iter_": 7
    },
    "variable_p1_weights": {
      "coef_": [
        1.0078055203773821,
        0.4999178438792821,
        0.05875592072968529,
        -0.032728197652817315,
        -0.4894133906642788,
        -0.9462103085759992,
        0.0,
        0.0,
        0.0,
        0.0,
        0.0,
        0.0,
        0.0,
        0.0,
        0.0,
        0.0,
        0.0,
        0.0,
        0.0,
        0.0,
        0.0,
        0.0,
        0.0,
        0.0,
        0.0,
        0.0,
        0.0,
        0.0
      ],
      "intercept_": 1.0192609991774362,
      "n_iter_": 7
    },
    "variable_p1": {
      "coef_": [
        0.9919340327317996,
        0.5021829545740657,
        0.0802879882648626,
        -0.049627945956584416,
        -0.47321438179694464,
        -0.9225168839305912,
        0.0,
        0.0,
        0.0,
        0.0,
        0.0,
        0.0,
        0.0,
        0.0,
        0.0,
        0.0,
        0.0,
        0.0,
        0.0,
        0.0,
        0.0,
        0.0,
        0.0,
        0.0,
        0.0,
        0.0,
        0.0,
        0.0
      ],
      "intercept_": 1.0446729055973498,
      "n_iter_": 7
    },
    "variable_p2_weights": {
      "coef_": [
        0.8053057953589655,
        0.4702235024446716,
        0.07783384452244096,
        -0.07663158307239314,
        -0.42162151524990743,
        -0.8432579286219933,
        0.021616425106604935,
        0.029894360606584177,
        -0.012155988562819582,
        0.06571145868359088,
        0.09256792240035176,
        0.06404578863661231,
        -0.006055951837414181,
        0.23736658411294384,
        0.09794309436894927,
        -0.023311309420087106,
        0.05511477946474064,
        0.12473704208776762,
        0.3574157109546838,
        0.21028978582268998,
        -0.0791706363673421,
        0.10215501935131006,
        -0.5351788623725428,
        0.08959649271607048,
        -0.02454400793014107,
        0.21119183718150875,
        0.028200139637559005,
        0.34432510713683584
      ],
      "intercept_": 1.1339362257842167,
      "n_iter_": 5
    },
    "variable_p2": {
      "coef_": [
        0.8196033726749251,
        0.47848344737623627,
        0.07551164948023598,
        -0.0902281219626079,
        -0.41176592431223924,
        -0.8404912364859711,
        0.03320360328149381,
        0.01675630945220958,
        0.016412733929658547,
        0.06300332930249392,
        0.08570626677164879,
        0.05602965908328976,
        -0.01642249438058244,
        0.2631502067909166,
        0.13479381500073676,
        -0.014578190232619635,
        0.04796990199715553,
        0.0964216992927854,
        0.33125516355824225,
        0.20594178311857048,
        -0.06373753691318892,
        0.11944793053659628,
        -0.5245650657452109,
        0.06618757644497462,
        -0.0543717620361412,
        0.21640658485244657,
        0.03295803983430052,
        0.3243379785234493
      ],
      "intercept_": 1.13771281732531,
      "n_iter_": 5
    },
    "variable_p1_p2_weights": {
      "coef_": [
        0.8835896174106312,
        0.46813423057910253,
        0.04197103722568001,
        -0.047639458191994444,
        -0.4149038393168991,
        -0.8349506878218651,
        0.0,
        0.0066388771333575295,
        0.0,
        0.0,
        0.0,
        0.0,
        0.0,
        0.0,
        0.0,
        0.0,
        0.0,
        0.0,
        0.0,
        0.0,
        0.0,
        0.0,
        0.0,
        0.0,
        0.0,
        0.0,
        0.0,
        0.0
      ],
      "intercept_": 1.2666354306362175,
      "n_iter_": 7
    },
    "variable_p1_p2": {
      "coef_": [
        0.8889674910076596,
        0.47790627083894327,
        0.04929313097390073,
        -0.06256040636645484,
        -0.4066802477519535,
        -0.8265470966070733,
        0.0,
        0.0,
        0.0,
        0.0,
        0.0,
        0.0,
        0.0,
        0.0,
        0.0,
        0.0,
        0.0,
        0.0,
        0.0,
        0.0,
        0.0,
        0.0,
        0.0,
        0.0,
        0.0,
        0.0,
        0.0,
        0.0
      ],
      "intercept_": 1.2669062213810978,
      "n_iter_": 7
    },
    "fit_intercept_weights": {
      "coef_": [
        1.1104589059139651,
        0.571192480571592,
        0.09445042813848904,
        -0.10769665316592374,
        -0.5761269691435342,
        -1.1233567686977042,
        -0.009670223396950721,
        -0.0017090316557833508,
        0.004747016422552763,
        0.0009535435460449022,
        0.07367723214688685,
        0.1780119627408068,
        0.20734112699361917,
        0.37219761824470754,
        0.07651815107238875,
        0.15768788970141326,
        0.23080204326495,
        0.07813584516719395,
        0.4720865668607473,
        0.13567481494012634,
        0.27767947209707755,
        0.13845317867847065,
        0.07153957401043512,
        0.1649098171243518,
        0.4201751292596642,
        0.27196540267888947,
        0.2913738764429002,
        0.1209856148122765
      ],
      "intercept_": 0.0,
      "n_iter_": 22
    },
    "fit_intercept": {
      "coef_": [
        1.10706434345774,
        0.5720381038984617,
        0.11365452794806427,
        -0.10728852968650712,
        -0.5686397967326309,
        -1.1168981394977957,
        -0.017224607230513604,
        0.00244019465711275,
        0.023777623475377,
        0.00023749723549790574,
        0.0813770459556111,
        0.16814429096736364,
        0.2113550882415343,
        0.38720351953472215,
        0.07594516435112159,
        0.16181046576932112,
        0.23949620166058003,
        0.07668948679596184,
        0.45617786832025453,
        0.13095859102859864,
        0.2862125269006449,
        0.14861472340171425,
        0.0834228262154668,
        0.17421622656918398,
        0.41208104593898415,
        0.2706909790896728,
        0.3121049114803842,
        0.11633921213582474
      ],
      "intercept_": 0.0,
      "n_iter_": 24
    }
  },
  "normal": {
    "default_weights": {
      "coef_": [
        0.5132407538295043,
        0.2579816851983713,
        0.047238079600769645,
        -0.059519877801004276,
        -0.23039796117793473,
        -0.492404925456959,
        0.0023653894564727163,
        0.02593956989047412,
        0.009902203329938738,
        0.003039908691889778,
        -0.02049531673578793,
        -0.0024524217548167024,
        0.005332203250406273,
        0.02539808222445553,
        -0.00788224874455871,
        -0.002663798182520975,
        0.01797099623679876,
        -0.016635557023347652,
        0.034189601502232006,
        -0.011435798335798934,
        0.023622711721097377,
        -0.002218786981829578,
        -0.018742773085510266,
        -0.004472612650702357,
        0.04091730860766536,
        0.017885874330139113,
        0.014902047760760671,
        -0.015200892650396274
      ],
      "intercept_": 0.8891998236992569,
      "n_iter_": 1
    },
    "default": {
      "coef_": [
        0.5034172109341091,
        0.2560659583918375,
        0.04308247218950919,
        -0.061409740633443996,
        -0.2370876442597634,
        -0.4936267346388906,
        0.0004893630520933644,
        0.012406401495636042,
        0.013076163084054019,
        -0.000930594108042923,
        -0.019459100016043767,
        -0.004450231855999365,
        0.0014736248786266523,
        0.02427983276196438,
        -0.010120286828722829,
        0.004650598623136619,
        0.018355698182968644,
        -0.014173613773295297,
        0.035926094244379224,
        -0.010221843117259684,
        0.021270126993831604,
        -0.0026714694737261,
        -0.016521665732522485,
        -0.004310704622357879,
        0.03602186475514441,
        0.012693562954282466,
        0.019443503017853508,
        -0.015247456632227334
      ],
      "intercept_": 0.8696164087525893,
      "n_iter_": 1
    },
    "no-regularization_weights": {
      "coef_": [
        1.0249316818992256,
        0.5018171772680287,
        0.08408584409346755,
        -0.13200717762762523,
        -0.4926654018992159,
        -0.9973719838531012,
        -0.011702368207946736,
        0.024194620041780843,
        0.011915165676044436,
        0.016517506960273518,
        0.07707534003159743,
        0.288603844636389,
        0.3283791246021658,
        0.634580964776396,
        0.16466118181846445,
        0.2478675460893091,
        0.522147451269407,
        0.012333677232125329,
        0.6986130855298837,
        0.26908645505546597,
        0.781674839129693,
        0.342842055551359,
        0.18275945806312494,
        0.3712562193196164,
        0.800675607919643,
        0.554718494741912,
        0.5957778128926123,
        0.21261422216299877
      ],
      "intercept_": 0.16059244270911477,
      "n_iter_": 1
    },
    "no-regularization": {
      "coef_": [
        1.0131328769250338,
        0.4987690105100161,
        0.08747094366215091,
        -0.13535850094673693,
        -0.500200120058077,
        -0.9961404912884154,
        -0.008205945625714103,
        0.009494452837802298,
        0.016187015356253668,
        0.004678474838031197,
        0.09366650353016856,
        0.28123234776684497,
        0.31476664879143246,
        0.6150920080603457,
        0.1571142192635347,
        0.30250886633894175,
        0.5256275892861574,
        0.05892053959265627,
        0.707965403949311,
        0.25982451168269033,
        0.7032077859467295,
        0.327489564402763,
        0.18917688964654633,
        0.3611715601390537,
        0.7736599165238442,
        0.5249548152136368,
        0.6440068289148275,
        0.17864538461608337
      ],
      "intercept_": 0.1620381117208889,
      "n_iter_": 1
    },
    "half-regularization_weights": {
      "coef_": [
        0.6837845402763004,
        0.34115316826181935,
        0.06025544479564849,
        -0.08262579907509135,
        -0.3130106605250516,
        -0.6575311395905213,
        -0.0005008285998690026,
        0.02919268292144492,
        0.012651571976038374,
        0.006825722883142897,
        -0.037433631359338436,
        -0.0034199642834598204,
        0.008149186097293204,
        0.05154111256542262,
        -0.015522116775257538,
        -0.005349747032825795,
        0.03558907656243638,
        -0.03423520025644504,
        0.0642960118830425,
        -0.021460049311202125,
        0.04952219306775162,
        -0.005731156995661395,
        -0.033881709743628606,
        -0.00630769636603576,
        0.07359933941834379,
        0.029782480006264274,
        0.029249014133780397,
        -0.029003198867150404
      ],
      "intercept_": 0.8740880347103928,
      "n_iter_": 1
    },
    "half-regularization": {
      "coef_": [
        0.6722139507836771,
        0.33899604507458736,
        0.0576504388221734,
        -0.08389415687260826,
        -0.3214603670090859,
        -0.6585448296912239,
        -0.0020616833476175293,
        0.014051929876326327,
        0.016309072597778727,
        0.000659238537438198,
        -0.035184327700789685,
        -0.006390742078625293,
        0.0022846628142086725,
        0.048570142471634964,
        -0.019062134346048008,
        0.006154546561287048,
        0.03551114736431267,
        -0.02962466604719962,
        0.06688170375506586,
        -0.019756242512803633,
        0.043390749658945224,
        -0.006675858319885094,
        -0.030372842288304513,
        -0.006031579401926539,
        0.06657157968990049,
        0.022867659320642143,
        0.0379796590493059,
        -0.030439083710908053
      ],
      "intercept_": 0.8594177973653595,
      "n_iter_": 1
    },
    "elastic-net_weights": {
      "coef_": [
        0.35378680557251496,
        0.011286592337734557,
        0.0,
        0.0,
        0.0,
        -0.32301726425768107,
        0.0,
        0.0,
        0.0,
        0.0,
        0.0,
        0.0,
        0.0,
        0.0,
        0.0,
        0.0,
        0.0,
        0.0,
        0.0,
        0.0,
        0.0,
        0.0,
        0.0,
        0.0,
        0.0,
        0.0,
        0.0,
        0.0
      ],
      "intercept_": 0.9115220307044417,
      "n_iter_": 2
    },
    "elastic-net": {
      "coef_": [
        0.3373237061172439,
        0.0092860756122072,
        0.0,
        0.0,
        0.0,
        -0.3244205763205454,
        0.0,
        0.0,
        0.0,
        0.0,
        0.0,
        0.0,
        0.0,
        0.0,
        0.0,
        0.0,
        0.0,
        0.0,
        0.0,
        0.0,
        0.0,
        0.0,
        0.0,
        0.0,
        0.0,
        0.0,
        0.0,
        0.0
      ],
      "intercept_": 0.8856269310034365,
      "n_iter_": 2
    },
    "lasso_weights": {
      "coef_": [
        0.03102535511396615,
        0.0,
        0.0,
        0.0,
        0.0,
        0.0,
        0.0,
        0.0,
        0.0,
        0.0,
        0.0,
        0.0,
        0.0,
        0.0,
        0.0,
        0.0,
        0.0,
        0.0,
        0.0,
        0.0,
        0.0,
        0.0,
        0.0,
        0.0,
        0.0,
        0.0,
        0.0,
        0.0
      ],
      "intercept_": 0.9201699327589609,
      "n_iter_": 1
    },
    "lasso": {
      "coef_": [
        0.00393878608154794,
        0.0,
        0.0,
        0.0,
        0.0,
        0.0,
        0.0,
        0.0,
        0.0,
        0.0,
        0.0,
        0.0,
        0.0,
        0.0,
        0.0,
        0.0,
        0.0,
        0.0,
        0.0,
        0.0,
        0.0,
        0.0,
        0.0,
        0.0,
        0.0,
        0.0,
        0.0,
        0.0
      ],
      "intercept_": 0.886460970940599,
      "n_iter_": 1
    },
    "variable_p1_weights": {
      "coef_": [
        1.040014283631372,
        0.41176329244320314,
        0.0,
        0.0,
        -0.045255972235042546,
        -0.46254501981125806,
        0.0,
        0.0,
        0.0,
        0.0,
        0.0,
        0.0,
        0.0,
        0.0,
        0.0,
        0.0,
        0.0,
        0.0,
        0.0,
        0.0,
        0.0,
        0.0,
        0.0,
        0.0,
        0.0,
        0.0,
        0.0,
        0.0
      ],
      "intercept_": 0.9190655777832899,
      "n_iter_": 2
    },
    "variable_p1": {
      "coef_": [
        1.0167602581721442,
        0.40865854916777017,
        0.0,
        0.0,
        -0.06922605779022731,
        -0.4703309599884045,
        0.0,
        0.0,
        0.0,
        0.0,
        0.0,
        0.0,
        0.0,
        0.0,
        0.0,
        0.0,
        0.0,
        0.0,
        0.0,
        0.0,
        0.0,
        0.0,
        0.0,
        0.0,
        0.0,
        0.0,
        0.0,
        0.0
      ],
      "intercept_": 0.9013657304544332,
      "n_iter_": 3
    },
    "variable_p2_weights": {
      "coef_": [
        0.46859540361056157,
        0.30409208143442934,
        0.04814787502820095,
        -0.038482489459944653,
        -0.1518238324452899,
        -0.5168357483638528,
        0.04807892916053037,
        -0.04283532954312428,
        0.1686227005029076,
        0.09633944167258016,
        0.05228135671065316,
        -0.04354661615529107,
        -0.21374153760459644,
        0.152130494596213,
        0.10629436369174143,
        -0.0929181991372515,
        -0.04060478011527466,
        0.09205305519957806,
        0.1284193401528868,
        0.13004502273345145,
        0.019001139163587914,
        0.22657189394344154,
        -0.35967163190708895,
        -0.09812917354867724,
        -0.23280339064587544,
        0.2607560431649322,
        -0.10266317105794102,
        0.25151194720154213
      ],
      "intercept_": 0.8625557145828368,
      "n_iter_": 1
    },
    "variable_p2": {
      "coef_": [
        0.4558617101547652,
        0.3004705552423242,
        0.041258928963234874,
        -0.03802011807653022,
        -0.1687310772993217,
        -0.5160498653126754,
        0.046389006827435166,
        -0.0625216937182435,
        0.17240731003589754,
        0.09304132445958606,
        0.05997920837250703,
        -0.05217828294349122,
        -0.22648305140791056,
        0.15260870473593163,
        0.10275064999954961,
        -0.09159546373838416,
        -0.03111374042507029,
        0.07646296677384364,
        0.14202165995760066,
        0.1224086883549787,
        0.014739350119095258,
        0.2262564520216712,
        -0.36422573987504114,
        -0.09254158875433288,
        -0.2521157133121425,
        0.2511407858704515,
        -0.09937967476646163,
        0.24862020757400735
      ],
      "intercept_": 0.8471327982224186,
      "n_iter_": 1
    },
    "variable_p1_p2_weights": {
      "coef_": [
        0.5071797446090718,
        0.2911635992381059,
        0.0,
        -0.0033393227258561777,
        -0.06541683340026448,
        -0.3194186860481105,
        0.0,
        0.0,
        0.0,
        0.0,
        0.0,
        0.0,
        0.0,
        0.0,
        0.0,
        0.0,
        0.0,
        0.0,
        0.0,
        0.0,
        0.0,
        0.0,
        0.0,
        0.0,
        0.0,
        0.0,
        0.0,
        0.0
      ],
      "intercept_": 0.9114520686841481,
      "n_iter_": 4
    },
    "variable_p1_p2": {
      "coef_": [
        0.4963047528434538,
        0.2865085575819987,
        0.0,
        -0.00489652916707359,
        -0.07371175246694521,
        -0.320595416943994,
        0.0,
        0.0,
        0.0,
        0.0,
        0.0,
        0.0,
        0.0,
        0.0,
        0.0,
        0.0,
        0.0,
        0.0,
        0.0,
        0.0,
        0.0,
        0.0,
        0.0,
        0.0,
        0.0,
        0.0,
        0.0,
        0.0
      ],
      "intercept_": 0.8877838868499115,
      "n_iter_": 3
    },
    "fit_intercept_weights": {
      "coef_": [
        0.5006035127708253,
        0.2622973310303177,
        0.0400756407290003,
        -0.06855884310007038,
        -0.24043679593626682,
        -0.5147179795375053,
        0.009626933219335236,
        0.020360064920919477,
        0.029054606818881803,
        0.007102952269987759,
        0.05441040968254069,
        0.06906547948097667,
        0.08233883884277951,
        0.10685072689317665,
        0.06218845746194519,
        0.0683331507985253,
        0.09443576058848853,
        0.05306500664277034,
        0.1091584295787847,
        0.06357937599906983,
        0.09686325698928028,
        0.0773345389668158,
        0.05580028264929194,
        0.07060432481061836,
        0.11623739854017794,
        0.08829758455040103,
        0.08819037035593999,
        0.059009676205884605
      ],
      "intercept_": 0.0,
      "n_iter_": 1
    },
    "fit_intercept": {
      "coef_": [
        0.48744829790508326,
        0.2601590947879036,
        0.03829671518599043,
        -0.06619213205773233,
        -0.24364035281893295,
        -0.5103053927212742,
        0.0012003805423228065,
        0.0052552805944873745,
        0.026801224436218702,
        0.0037044314470752277,
        0.05230439683712145,
        0.0648039793000467,
        0.0730573437734219,
        0.10190275279780588,
        0.06034164348317196,
        0.07754059409532015,
        0.09255629598913828,
        0.057931860741506705,
        0.10881109570671875,
        0.06354008286090831,
        0.09573914167146576,
        0.07514947474988856,
        0.05817161959216681,
        0.06792172608717666,
        0.1106094258300942,
        0.08337683661495263,
        0.08903003458480092,
        0.0573822558160763
      ],
      "intercept_": 0.0,
      "n_iter_": 1
    }
  },
  "gamma": {
    "default_weights": {
      "coef_": [
        0.5073632485150354,
        0.2673875562414454,
        0.04758587641475681,
        -0.04566461405435933,
        -0.24157098465893637,
        -0.5055840061778177,
        0.0188997986351228,
        -0.0022881518957198633,
        0.005198137187785438,
        -0.00037148603927204354,
        -0.0247725341532435,
        0.002214961380067378,
        0.001135436281711546,
        0.027690961950538422,
        -0.007148874591049167,
        -0.0014474166183977995,
        0.0066636873347853745,
        -0.015201309086288613,
        0.045224049240150214,
        -0.012528193179663796,
        0.006361133363875904,
        -0.0033337988896496975,
        -0.014985451314065056,
        -0.011203358142719647,
        0.044162003840913185,
        0.00879467173200067,
        0.02165382187978626,
        -0.009395953040649623
      ],
      "intercept_": 1.2263067736666338,
      "n_iter_": 30
    },
    "default": {
      "coef_": [
        0.5030308801389769,
        0.264874813467488,
        0.051558428995965994,
        -0.04495969270514329,
        -0.23585816634398638,
        -0.4969816956282228,
        0.0027814595673314934,
        0.00810226139206475,
        -0.0020021417231559637,
        -0.0023210422180969807,
        -0.019138655311502457,
        0.0008434495883470868,
        -0.00015203964659199755,
        0.028191824678763924,
        -0.011085147135335862,
        -0.00016842250057273503,
        0.005280909866360347,
        -0.011265625766802982,
        0.04206560663654469,
        -0.013162127439952459,
        0.006473263530573893,
        -0.002882477172540554,
        -0.016055007296566802,
        -0.008381064427772849,
        0.04300967527833945,
        0.009437532091973162,
        0.02050883699338954,
        -0.007280713686773336
      ],
      "intercept_": 1.2388240980002523,
      "n_iter_": 27
    },
    "no-regularization_weights": {
      "coef_": [
        1.0199784403889922,
        0.5232945036501359,
        0.11724964522889372,
        -0.10379079565819496,
        -0.4941137871379814,
        -1.0335594025224948,
        0.005349094464727899,
        -0.013494552193096768,
        0.012866080358345655,
        0.02238523358717594,
        0.07413362313830527,
        0.4076152436026127,
        0.3432283665909513,
        0.6122506361886498,
        0.21332449069812237,
        0.27614045750037797,
        0.32080037147399787,
        0.11335323904149437,
        0.7063493632167134,
        0.21986568648087426,
        0.59078825310874,
        0.2624439499234585,
        0.06901726240058559,
        0.29721554859811605,
        0.6878326665039024,
        0.4318358332753822,
        0.6751430191936199,
        0.16694491916639548
      ],
      "intercept_": 0.21933175682565254,
      "n_iter_": 7
    },
    "no-regularization": {
      "coef_": [
        1.0216992798570181,
        0.5291994630434493,
        0.1091042197056921,
        -0.10179949292679658,
        -0.49382813276576565,
        -1.0204056856417336,
        0.00033554081736522385,
        -0.0018328708498771967,
        0.0065036224167547155,
        0.0006149802812686602,
        0.13281177551877008,
        0.442743238937245,
        0.39915942613542676,
        0.6887329001078822,
        0.20293086672730862,
        0.3346289442005215,
        0.4026431063148721,
        0.19374482863735337,
        0.7340341118715025,
        0.23120963287365326,
        0.5997034632196673,
        0.3068309255916631,
        0.1269569363728455,
        0.336783064885783,
        0.7320901516230696,
        0.45501993218193204,
        0.6840045347548379,
        0.2148265002930863
      ],
      "intercept_": 0.14556218608714466,
      "n_iter_": 6
    },
    "half-regularization_weights": {
      "coef_": [
        0.6738957201414046,
        0.3506427891909682,
        0.06580716735706381,
        -0.0638478103272498,
        -0.323627466710544,
        -0.6746405951158211,
        0.01517054542267392,
        -0.002082960281669219,
        0.00982253472757706,
        0.002361687443069775,
        -0.041477414359350345,
        0.006954645313095425,
        0.004064562203915171,
        0.05220462047893399,
        -0.016032500599939714,
        -0.001262581907578873,
        0.010561400456533268,
        -0.02702031922097636,
        0.07499927413522982,
        -0.019839104817524694,
        0.02355797570899587,
        -0.007594100819424588,
        -0.030393934028442787,
        -0.014804245314424485,
        0.07100013756419069,
        0.01765767442728496,
        0.039342708100985876,
        -0.020337016429130727
      ],
      "intercept_": 1.0368052507791634,
      "n_iter_": 12
    },
    "half-regularization": {
      "coef_": [
        0.6708740860474702,
        0.35032572027331776,
        0.06833967123444286,
        -0.06299002624856104,
        -0.3189357913258184,
        -0.6659139986290692,
        0.00026316870516424024,
        0.009362134266393542,
        0.0026959088817301406,
        -0.003938726548395562,
        -0.03563258283655592,
        0.004655586055647362,
        0.002813249501055055,
        0.055630549805895664,
        -0.022545702495218423,
        -8.65342851986307e-05,
        0.010735988841509071,
        -0.02132993222353235,
        0.07138938076013328,
        -0.02193401291157423,
        0.02297174007423385,
        -0.006371958819639722,
        -0.031027669985957802,
        -0.011776515712587438,
        0.07207478179334594,
        0.017716774700571324,
        0.03870400438866067,
        -0.017498783348048157
      ],
      "intercept_": 1.0474061711269456,
      "n_iter_": 11
    },
    "elastic-net_weights": {
      "coef_": [
        0.34902297340694305,
        0.03439935061885451,
        0.0,
        0.0,
        0.0,
        -0.356137581526885,
        0.0,
        0.0,
        0.0,
        0.0,
        0.0,
        0.0,
        0.0,
        0.0,
        0.0,
        0.0,
        0.0,
        0.0,
        0.0,
        0.0,
        0.0,
        0.0,
        0.0,
        0.0,
        0.0,
        0.0,
        0.0,
        0.0
      ],
      "intercept_": 1.6108880019283476,
      "n_iter_": 23
    },
    "elastic-net": {
      "coef_": [
        0.33528009183827256,
        0.021350011376022833,
        0.0,
        0.0,
        0.0,
        -0.335231667185213,
        0.0,
        0.0,
        0.0,
        0.0,
        0.0,
        0.0,
        0.0,
        0.0,
        0.0,
        0.0,
        0.0,
        0.0,
        0.0,
        0.0,
        0.0,
        0.0,
        0.0,
        0.0,
        0.0,
        0.0,
        0.0,
        0.0
      ],
      "intercept_": 1.6338019598678122,
      "n_iter_": 21
    },
    "lasso_weights": {
      "coef_": [
        0.03118987689372402,
        0.0,
        0.0,
        0.0,
        0.0,
        -0.017537221061739848,
        0.0,
        0.0,
        0.0,
        0.0,
        0.0,
        0.0,
        0.0,
        0.0,
        0.0,
        0.0,
        0.0,
        0.0,
        0.0,
        0.0,
        0.0,
        0.0,
        0.0,
        0.0,
        0.0,
        0.0,
        0.0,
        0.0
      ],
      "intercept_": 2.181714526079538,
      "n_iter_": 44
    },
    "lasso": {
      "coef_": [
        0.0014593307163485935,
        0.0,
        0.0,
        0.0,
        0.0,
        0.0,
        0.0,
        0.0,
        0.0,
        0.0,
        0.0,
        0.0,
        0.0,
        0.0,
        0.0,
        0.0,
        0.0,
        0.0,
        0.0,
        0.0,
        0.0,
        0.0,
        0.0,
        0.0,
        0.0,
        0.0,
        0.0,
        0.0
      ],
      "intercept_": 2.202063156710952,
      "n_iter_": 9
    },
    "variable_p1_weights": {
      "coef_": [
        1.0350080452369081,
        0.42975468365556785,
        0.0,
        0.0,
        -0.0750908255372348,
        -0.47637247698701685,
        0.0,
        0.0,
        0.0,
        0.0,
        0.0,
        0.0,
        0.0,
        0.0,
        0.0,
        0.0,
        0.0,
        0.0,
        0.0,
        0.0,
        0.0,
        0.0,
        0.0,
        0.0,
        0.0,
        0.0,
        0.0,
        0.0
      ],
      "intercept_": 1.178338517238445,
      "n_iter_": 69
    },
    "variable_p1": {
      "coef_": [
        1.0229475953104699,
        0.4283800159471163,
        0.0,
        0.0,
        -0.06784603095170255,
        -0.4684453391733443,
        0.0,
        0.0,
        0.0,
        0.0,
        0.0,
        0.0,
        0.0,
        0.0,
        0.0,
        0.0,
        0.0,
        0.0,
        0.0,
        0.0,
        0.0,
        0.0,
        0.0,
        0.0,
        0.0,
        0.0,
        0.0,
        0.0
      ],
      "intercept_": 1.1905320600592233,
      "n_iter_": 63
    },
    "variable_p2_weights": {
      "coef_": [
        0.4544003798669454,
        0.3115430523841125,
        0.05659187726079215,
        -0.016531109126173546,
        -0.16061109305797863,
        -0.5446473366449777,
        0.0785963608800275,
        -0.07158388081573264,
        0.15057967589452176,
        0.10137310619084457,
        0.05164428354386938,
        -0.03867873196730319,
        -0.2159577791536699,
        0.15439142747339266,
        0.09453479022834038,
        -0.09170406097286667,
        -0.056812046819811605,
        0.07588123452935142,
        0.15091050067901524,
        0.13864183887258855,
        -0.028151060061662483,
        0.2470248812354257,
        -0.3787011183966076,
        -0.09102815008204614,
        -0.22927342161582046,
        0.24462759933495654,
        -0.09543615093621889,
        0.2650228516238482
      ],
      "intercept_": 1.2778641318805883,
      "n_iter_": 22
    },
    "variable_p2": {
      "coef_": [
        0.45124972841060484,
        0.3092176485783603,
        0.06588625487324477,
        -0.021523202728378214,
        -0.1548897779751626,
        -0.5282721965433183,
        0.048696590247660695,
        -0.05446989782653031,
        0.14277180129133535,
        0.09854108280981227,
        0.045725378434837274,
        -0.023828532062307742,
        -0.21669965429501536,
        0.1421574505621693,
        0.08622951126819002,
        -0.09066295486408832,
        -0.0594593763606388,
        0.10421272732709926,
        0.1412306494935263,
        0.129576425594225,
        -0.0300158244014577,
        0.2377127453650324,
        -0.3679587814750472,
        -0.07979774055780332,
        -0.20665309592446968,
        0.2475864094634237,
        -0.1009141007243232,
        0.26062263312018
      ],
      "intercept_": 1.2903616592525284,
      "n_iter_": 21
    },
    "variable_p1_p2_weights": {
      "coef_": [
        0.5056812943937834,
        0.29873852874287044,
        0.0,
        0.0,
        -0.08281824203733633,
        -0.32899918425456465,
        0.0,
        0.0,
        0.0,
        0.0,
        0.0,
        0.0,
        0.0,
        0.0,
        0.0,
        0.0,
        0.0,
        0.0,
        0.0,
        0.0,
        0.0,
        0.0,
        0.0,
        0.0,
        0.0,
        0.0,
        0.0,
        0.0
      ],
      "intercept_": 1.4037892418581872,
      "n_iter_": 95
    },
    "variable_p1_p2": {
      "coef_": [
        0.49889354372928213,
        0.29486185993528685,
        0.0,
        0.0,
        -0.07576218804598152,
        -0.31925168692099737,
        0.0,
        0.0,
        0.0,
        0.0,
        0.0,
        0.0,
        0.0,
        0.0,
        0.0,
        0.0,
        0.0,
        0.0,
        0.0,
        0.0,
        0.0,
        0.0,
        0.0,
        0.0,
        0.0,
        0.0,
        0.0,
        0.0
      ],
      "intercept_": 1.4166030818970783,
      "n_iter_": 68
    }
  },
  "tweedie_p=1.5": {
    "default_weights": {
      "coef_": [
        0.701903100293696,
        0.3493752445604074,
        0.07119829480744164,
        -0.07246783753599981,
        -0.32638368347423513,
        -0.6935575496356831,
        -0.0026021464301033735,
        0.014574505722360903,
        -0.023567960648934953,
        0.0036327537657899335,
        -0.030916901061829382,
        0.0071349357242794925,
        0.005451484129924512,
        0.05893455426528704,
        -0.028403817719801994,
        0.001357143326395654,
        0.009590643361337081,
        -0.039705862611347606,
        0.09471318919057921,
        -0.020135631706678928,
        0.018014438108242093,
        -0.013490168758111872,
        -0.03665964599561635,
        -0.014597268708599577,
        0.0866638854770023,
        0.022331650012830915,
        0.03669087648005087,
        -0.024145247102444447
      ],
      "intercept_": 1.3117181559619446,
      "n_iter_": 8
    },
    "default": {
      "coef_": [
        0.7034989881401872,
        0.35151272503961195,
        0.06878559059128808,
        -0.06400261739814886,
        -0.3338097082829541,
        -0.6900413141806884,
        0.015015906247126329,
        0.007260431288063847,
        -0.02241402209634787,
        0.003640917963558952,
        -0.031683415666731767,
        0.00558610131183198,
        0.0028669879788255333,
        0.06048369068307219,
        -0.026151833323711005,
        0.002126671876906901,
        0.007674289610403987,
        -0.035304233012634176,
        0.092229944802172,
        -0.02700438752968997,
        0.012997466153826458,
        -0.010195005655801764,
        -0.03812267306990468,
        -0.01556204730838408,
        0.0932549908488202,
        0.01815669533610154,
        0.04213066958408108,
        -0.023081464287597563
      ],
      "intercept_": 1.3055544789490807,
      "n_iter_": 8
    },
    "no-regularization_weights": {
      "coef_": [
        1.0081255224726684,
        0.4963402294377804,
        0.10409057182488225,
        -0.10236452013542421,
        -0.49405793757556804,
        -1.007661142751286,
        -0.0027013673956293102,
        0.0002569604878209896,
        -0.008034816352978778,
        0.003595984064721691,
        0.1470387922388301,
        0.4441686435891254,
        0.4482986914363747,
        0.6867478515492887,
        0.18097309900021985,
        0.3969568113507676,
        0.4942520547214309,
        0.15709768984715947,
        0.7568492346438208,
        0.25180032095495625,
        0.549953762138071,
        0.2590492456245929,
        0.10740670384365752,
        0.272712936850353,
        0.7138338810788,
        0.47695257538505614,
        0.5374727129441903,
        0.14428507489929282
      ],
      "intercept_": 0.18705821107699383,
      "n_iter_": 6
    },
    "no-regularization": {
      "coef_": [
        1.01153639049239,
        0.48698447350923096,
        0.10073968668706955,
        -0.09901485179784988,
        -0.49908323599849824,
        -1.0040849169883859,
        0.009013453195236871,
        -0.004947592886187403,
        -0.012726448250947844,
        0.001416206175043448,
        0.1706291695501618,
        0.4334228800107185,
        0.44550648460588843,
        0.6982651450300938,
        0.15215896047974947,
        0.38756331686917117,
        0.4722351006221953,
        0.1463378331038101,
        0.7628223791423682,
        0.20047610859013731,
        0.5333331340587469,
        0.23951565645501532,
        0.07846174078984532,
        0.255111124891528,
        0.6985367050461889,
        0.46286008941545814,
        0.5488556696366739,
        0.14492942396011435
      ],
      "intercept_": 0.19832747913716053,
      "n_iter_": 6
    },
    "half-regularization_weights": {
      "coef_": [
        0.8246238769413827,
        0.4100042343101936,
        0.08129284695987059,
        -0.08472770678838101,
        -0.39123700329622896,
        -0.8170858532787854,
        -0.0036994723122005047,
        0.012131791120276075,
        -0.018045983345328354,
        0.004022386529822634,
        -0.055348702726408454,
        0.01475270017305771,
        0.015410955704594161,
        0.10268611224878312,
        -0.047728980332625445,
        0.0028962508224318886,
        0.024224508718256387,
        -0.06347735117444717,
        0.14816761468951647,
        -0.03011477509859694,
        0.04458444799731005,
        -0.023455326837843224,
        -0.06147407085082299,
        -0.020552013953326613,
        0.14082067992430122,
        0.040531568299235786,
        0.06243081236041605,
        -0.04700837000135821
      ],
      "intercept_": 1.1408849672698138,
      "n_iter_": 7
    },
    "half-regularization": {
      "coef_": [
        0.8265322419645887,
        0.40854139696481456,
        0.0798155416610118,
        -0.0775155684817006,
        -0.3984081158196468,
        -0.8121151583168726,
        0.012164058427997521,
        0.005768555014181911,
        -0.01866761105600998,
        0.0036913480362006186,
        -0.05267033507424647,
        0.012358666100715818,
        0.0125159917446919,
        0.106216949930883,
        -0.04752377510274755,
        0.004055235696526906,
        0.02053918925856302,
        -0.06001890697177753,
        0.14692423507789004,
        -0.041026801112186616,
        0.03875096496662327,
        -0.02012565879842824,
        -0.06380888835094853,
        -0.02116016315696529,
        0.14681201647512465,
        0.03622292769813793,
        0.0714157971634707,
        -0.04359997338375095
      ],
      "intercept_": 1.1331625777029928,
      "n_iter_": 7
    },
    "elastic-net_weights": {
      "coef_": [
        0.6547369139572854,
        0.23512448601095343,
        0.0,
        0.0,
        -0.19939290617678668,
        -0.6512989929692177,
        0.0,
        0.0,
        0.0,
        0.0,
        0.0,
        0.0,
        0.0,
        0.0,
        0.0,
        0.0,
        0.0,
        0.0,
        0.0,
        0.0,
        0.0,
        0.0,
        0.0,
        0.0,
        0.0,
        0.0,
        0.0,
        0.0
      ],
      "intercept_": 1.4429514505245302,
      "n_iter_": 12
    },
    "elastic-net": {
      "coef_": [
        0.6572182056858518,
        0.2410361908868393,
        0.0,
        0.0,
        -0.2100071136405523,
        -0.6473962844299521,
        0.0,
        0.0,
        0.0,
        0.0,
        0.0,
        0.0,
        0.0,
        0.0,
        0.0,
        0.0,
        0.0,
        0.0,
        0.0,
        0.0,
        0.0,
        0.0,
        0.0,
        0.0,
        0.0,
        0.0,
        0.0,
        0.0
      ],
      "intercept_": 1.437473655256767,
      "n_iter_": 13
    },
    "lasso_weights": {
      "coef_": [
        0.5948256075348626,
        0.07879542309248871,
        0.0,
        0.0,
        -0.022993560650513653,
        -0.5957087194324276,
        0.0,
        0.0,
        0.0,
        0.0,
        0.0,
        0.0,
        0.0,
        0.0,
        0.0,
        0.0,
        0.0,
        0.0,
        0.0,
        0.0,
        0.0,
        0.0,
        0.0,
        0.0,
        0.0,
        0.0,
        0.0,
        0.0
      ],
      "intercept_": 1.5802821317186302,
      "n_iter_": 22
    },
    "lasso": {
      "coef_": [
        0.5979052900896757,
        0.09266275810239437,
        0.0,
        0.0,
        -0.038768311420795884,
        -0.595391987740586,
        0.0,
        0.0,
        0.0,
        0.0,
        0.0,
        0.0,
        0.0,
        0.0,
        0.0,
        0.0,
        0.0,
        0.0,
        0.0,
        0.0,
        0.0,
        0.0,
        0.0,
        0.0,
        0.0,
        0.0,
        0.0,
        0.0
      ],
      "intercept_": 1.57527505378395,
      "n_iter_": 24
    },
    "variable_p1_weights": {
      "coef_": [
        1.0139801519906892,
        0.46113982072441845,
        0.005959929692733966,
        0.0,
        -0.2975729235770305,
        -0.7675044689550045,
        0.0,
        0.0,
        0.0,
        0.0,
        0.0,
        0.0,
        0.0,
        0.0,
        0.0,
        0.0,
        0.0,
        0.0,
        0.0,
        0.0,
        0.0,
        0.0,
        0.0,
        0.0,
        0.0,
        0.0,
        0.0,
        0.0
      ],
      "intercept_": 1.1357757720693922,
      "n_iter_": 8
    },
    "variable_p1": {
      "coef_": [
        1.0152076062489999,
        0.45670763422639915,
        0.0046682854886979505,
        0.0,
        -0.31013187820620763,
        -0.7585492619672815,
        0.0,
        0.0,
        0.0,
        0.0,
        0.0,
        0.0,
        0.0,
        0.0,
        0.0,
        0.0,
        0.0,
        0.0,
        0.0,
        0.0,
        0.0,
        0.0,
        0.0,
        0.0,
        0.0,
        0.0,
        0.0,
        0.0
      ],
      "intercept_": 1.125980655245809,
      "n_iter_": 8
    },
    "variable_p2_weights": {
      "coef_": [
        0.6345987199507668,
        0.378446612026619,
        0.05730418152357365,
        -0.08064753252547259,
        -0.2535857406571893,
        -0.6725704688406833,
        0.03569214315782789,
        -0.007115593285445794,
        0.06451541898577773,
        0.09363210685828763,
        0.045909466966889426,
        0.021588400027567692,
        -0.1381112863420909,
        0.16733299942014856,
        0.08890790228385251,
        -0.07958622351430206,
        -0.05372219124157969,
        0.12592527131916628,
        0.18616590929562657,
        0.16797403946886566,
        -0.0416595739262691,
        0.21604688898334945,
        -0.4955074240210648,
        -0.03116336223151372,
        -0.20417809447449847,
        0.269309356697212,
        -0.053216293351552806,
        0.3268991991744201
      ],
      "intercept_": 1.3256104661685373,
      "n_iter_": 8
    },
    "variable_p2": {
      "coef_": [
        0.6330145172903257,
        0.3762543247120202,
        0.06108353681421336,
        -0.06610250090746851,
        -0.26006745875160103,
        -0.6749406846888859,
        0.058693679975410515,
        -0.02093210585519545,
        0.06872607827494297,
        0.09635783308332077,
        0.065928822868693,
        0.0024597050476900567,
        -0.13358754372545895,
        0.1704222917556637,
        0.09581948720378212,
        -0.07985846435669344,
        -0.04907030456955109,
        0.12405454712341242,
        0.19295781355536862,
        0.17233020443705774,
        -0.05125965799700861,
        0.22461312658442617,
        -0.5010260477540939,
        -0.026360687400558386,
        -0.1975267435638325,
        0.2609852186586659,
        -0.051377267992815355,
        0.3298664039223837
      ],
      "intercept_": 1.3166375892050175,
      "n_iter_": 8
    },
    "variable_p1_p2_weights": {
      "coef_": [
        0.70083804470752,
        0.3815739510167309,
        0.0,
        -0.04497660540930702,
        -0.19929038884508998,
        -0.5691098100782044,
        0.0,
        0.0,
        0.0,
        0.0,
        0.0,
        0.0,
        0.0,
        0.0,
        0.0,
        0.0,
        0.0,
        0.0,
        0.0,
        0.0,
        0.0,
        0.0,
        0.0,
        0.0,
        0.0,
        0.0,
        0.0,
        0.0
      ],
      "intercept_": 1.4251964578814862,
      "n_iter_": 10
    },
    "variable_p1_p2": {
      "coef_": [
        0.7017733681606644,
        0.38560807895582394,
        0.0,
        -0.03217266669309002,
        -0.2094324903507012,
        -0.5635573524976412,
        0.0,
        0.0,
        0.0,
        0.0,
        0.0,
        0.0,
        0.0,
        0.0,
        0.0,
        0.0,
        0.0,
        0.0,
        0.0,
        0.0,
        0.0,
        0.0,
        0.0,
        0.0,
        0.0,
        0.0,
        0.0,
        0.0
      ],
      "intercept_": 1.4206733567538876,
      "n_iter_": 10
    },
    "fit_intercept_weights": {
      "coef_": [
        0.9161443342072311,
        0.47755662314835884,
        0.08724170913325983,
        -0.0979481603773195,
        -0.44719589974503593,
        -0.9605878118495265,
        0.0009920777246292718,
        0.011877799232191998,
        0.006297428321562676,
        0.005570009682981367,
        0.10217442693240568,
        0.15598985537209817,
        0.17121314931547482,
        0.2444547212074427,
        0.11592755223745062,
        0.16341811522511837,
        0.17210742797218817,
        0.09835710067010998,
        0.2759826003109288,
        0.1308248603255144,
        0.193999461914073,
        0.14233483916796102,
        0.10561757992278456,
        0.13483602112930454,
        0.2785183872118093,
        0.18708896998223684,
        0.19858280250155713,
        0.11826304590719312
      ],
      "intercept_": 0.0,
      "n_iter_": 26
    },
    "fit_intercept": {
      "coef_": [
        0.9252300119181485,
        0.47426982337471124,
        0.08617127252029477,
        -0.09246283296885138,
        -0.4620133835916886,
        -0.9518861069824969,
        0.015083105061022953,
        -0.0004509387619657572,
        0.002482057337102261,
        0.007104326140840318,
        0.10587410352804481,
        0.15331956950772638,
        0.16380851284326298,
        0.24580580020066986,
        0.10955130869470255,
        0.16015070015382146,
        0.17154442545111315,
        0.10577254140050074,
        0.2713072918435261,
        0.1222665363972244,
        0.1855690957837866,
        0.14569214068382283,
        0.1056142624665097,
        0.13364674667523924,
        0.2770061502593216,
        0.18167401324708546,
        0.20460914426896784,
        0.11975117401537032
      ],
      "intercept_": 0.0,
      "n_iter_": 27
    }
  }
}