{
  "poisson": {
    "default_weights": {
      "coef_": [
        0.8852740151410693,
        0.45039546677418935,
        0.08576229140271319,
        -0.07462232999778581,
        -0.4516425841514398,
        -0.8795501160098728,
        0.00444770852673835,
        0.009476549895813641,
        -0.02680996052389192,
        0.006923991079685229,
        -0.08182719409524059,
        0.014126453960243573,
        0.01436043687998046,
        0.1515265574734165,
        -0.09010039486294012,
        -0.03180554475090712,
        0.03895528582924572,
        -0.09663759832719782,
        0.30337404227323156,
        -0.05624140816309146,
        0.07665965656408963,
        -0.04936912269819636,
        -0.09256717860060706,
        -0.007692025373746479,
        0.2512973554124155,
        0.06517500302747734,
        0.09891351713750696,
        -0.05688006253981008
      ],
      "intercept_": 1.146444954580391,
      "n_iter_": 6
    },
    "default": {
      "coef_": [
        0.8917588618807627,
        0.46383135435811246,
        0.08879747320150065,
        -0.08080712132436933,
        -0.449003038953005,
        -0.8817103089870295,
        0.00892070756732041,
        0.001490274678134831,
        -0.008404020979532072,
        0.007731873681516147,
        -0.08170679792111585,
        0.01436494284294309,
        0.01211694505224282,
        0.16835070417301323,
        -0.06964391515315684,
        -0.02973740829726857,
        0.03896973632426405,
        -0.10035239546989527,
        0.27458826671112607,
        -0.06862815167044622,
        0.07403433726948257,
        -0.031210715002067003,
        -0.10211983108825312,
        -0.01311968213854937,
        0.24015236797437892,
        0.06000215365051181,
        0.12051635196764926,
        -0.056196489942119066
      ],
      "intercept_": 1.144063992959294,
      "n_iter_": 6
    },
    "no-regularization_weights": {
      "coef_": [
        1.0015203145490847,
        0.5083046158780751,
        0.09653726117765164,
        -0.10693256766751269,
        -0.5027997730307867,
        -1.0039808809085489,
        -0.005917733273518209,
        -0.005389727288057616,
        -0.0009804743927122094,
        0.00033405181122753125,
        0.10433164813305133,
        0.39218555298126173,
        0.3803290916570091,
        0.667888136374564,
        0.06983035297223306,
        0.3006619340414532,
        0.4470316595637431,
        0.07788531525935306,
        0.740625646638519,
        0.26536686156347805,
        0.6343190246361027,
        0.281061376065774,
        0.12239026777370508,
        0.306962195893767,
        0.7210174790693357,
        0.5274064583521937,
        0.5952146479334659,
        0.21326024527140822
      ],
      "intercept_": 0.19954331222535593,
      "n_iter_": 6
    },
    "no-regularization": {
      "coef_": [
        1.001263330951126,
        0.5058153269521659,
        0.09883222704913183,
        -0.10248088888683589,
        -0.5038940174064411,
        -0.9968561212955878,
        -0.004386235549350099,
        -0.004877011658042901,
        0.002900184950508587,
        0.0022299469076892254,
        0.11173300010668115,
        0.367531612107679,
        0.37768843665230956,
        0.6535940045501599,
        0.0739297632095733,
        0.29667413966237915,
        0.4421183840305351,
        0.08339089518967517,
        0.7373985194794733,
        0.25097709137738816,
        0.6233360105284699,
        0.29445823000115134,
        0.13379554408486288,
        0.3165146678984848,
        0.7279692175218183,
        0.5300176022601878,
        0.6086669026414917,
        0.2199801299476973
      ],
      "intercept_": 0.20675920471608777,
      "n_iter_": 6
    },
    "half-regularization_weights": {
      "coef_": [
        0.9391352011291987,
        0.4771499923014897,
        0.08673758022024786,
        -0.08646527466120947,
        -0.4759459028585935,
        -0.9332920323787026,
        0.0005792887976997693,
        0.003610013077503222,
        -0.016945385655659048,
        0.005455275902900199,
        -0.1027262812489735,
        0.038760216669354,
        0.037619293221759324,
        0.23350530817609746,
        -0.11983825875850226,
        -0.028583445745828193,
        0.07613938261241913,
        -0.12127186672663358,
        0.3720066836721388,
        -0.055990197062604524,
        0.14470572881530436,
        -0.046031881013759886,
        -0.11850205660942466,
        -0.004915545106333944,
        0.3166740979102591,
        0.10920337756031094,
        0.15330092737482665,
        -0.06924323586434052
      ],
      "intercept_": 0.986093314606089,
      "n_iter_": 6
    },
    "half-regularization": {
      "coef_": [
        0.9397505971408965,
        0.4859563142890934,
        0.09227516613386047,
        -0.08929973848114064,
        -0.47265665140037944,
        -0.9313547643598742,
        0.0014558780387114354,
        -0.00025543874630639307,
        -0.002860389178141738,
        0.006403562934672507,
        -0.10038437998151885,
        0.02995687757689807,
        0.038915798816458985,
        0.2452959397594586,
        -0.1004612826064683,
        -0.02623495554796966,
        0.07692138031025225,
        -0.12320105726731173,
        0.35425549853176186,
        -0.06993069181569903,
        0.14052083675332136,
        -0.028046185105651676,
        -0.1250116261813164,
        -0.0050279953081167,
        0.30784727557347696,
        0.1045871150832071,
        0.1765984171884186,
        -0.06645526540614448
      ],
      "intercept_": 0.9876918492170546,
      "n_iter_": 5
    },
    "elastic-net_weights": {
      "coef_": [
        0.8835313868227271,
        0.42116119881074127,
        0.03203011534197606,
        -0.011139547011569948,
        -0.4316408237766308,
        -0.8883570544754891,
        0.0,
        0.0,
        0.0,
        0.0,
        0.0,
        0.0,
        0.0,
        0.0,
        0.0,
        0.0,
        0.0,
        0.0,
        0.1169574201237987,
        0.0,
        0.0,
        0.0,
        0.0,
        0.0,
        0.02667021392408945,
        0.0,
        0.0,
        0.0
      ],
      "intercept_": 1.2187136764522537,
      "n_iter_": 7
    },
    "elastic-net": {
      "coef_": [
        0.889108144543084,
        0.4369456467673436,
        0.042317712135936984,
        -0.02475591377643983,
        -0.4260601086064715,
        -0.8786026114266312,
        0.0,
        0.0,
        0.0,
        0.0,
        0.0,
        0.0,
        0.0,
        0.0,
        0.0,
        0.0,
        0.0,
        0.0,
        0.04778747268373621,
        0.0,
        0.0,
        0.0,
        0.0,
        0.0,
        0.009384615047206377,
        0.0,
        0.0,
        0.0
      ],
      "intercept_": 1.229652096914394,
      "n_iter_": 7
    },
    "lasso_weights": {
      "coef_": [
        0.8767676363075421,
        0.38791619008259987,
        0.0,
        0.0,
        -0.3990157171195788,
        -0.8918790217164492,
        0.0,
        0.0,
        0.0,
        0.0,
        0.0,
        0.0,
        0.0,
        0.0,
        0.0,
        0.0,
        0.0,
        0.0,
        0.0,
        0.0,
        0.0,
        0.0,
        0.0,
        0.0,
        0.0,
        0.0,
        0.0,
        0.0
      ],
      "intercept_": 1.2682269244813562,
      "n_iter_": 6
    },
    "lasso": {
      "coef_": [
        0.882865803710796,
        0.40483676393863083,
        0.0,
        0.0,
        -0.3909219111000274,
        -0.8760264103857452,
        0.0,
        0.0,
        0.0,
        0.0,
        0.0,
        0.0,
        0.0,
        0.0,
        0.0,
        0.0,
        0.0,
        0.0,
        0.0,
        0.0,
        0.0,
        0.0,
        0.0,
        0.0,
        0.0,
        0.0,
        0.0,
        0.0
      ],
      "intercept_": 1.2733633963920434,
      "n_iter_": 6
    },
    "variable_p1_weights": {
      "coef_": [
        1.0078061213006626,
        0.49991790603183905,
        0.058755650418092,
        -0.03272823558398212,
        -0.48941357805060354,
        -0.9462119848542027,
        0.0,
        0.0,
        0.0,
        0.0,
        0.0,
        0.0,
        0.0,
        0.0,
        0.0,
        0.0,
        0.0,
        0.0,
        0.0,
        0.0,
        0.0,
        0.0,
        0.0,
        0.0,
        0.0,
        0.0,
        0.0,
        0.0
      ],
      "intercept_": 1.0192588232715305,
      "n_iter_": 6
    },
    "variable_p1": {
      "coef_": [
        0.9919342303009846,
        0.5021824692649184,
        0.08028788613451247,
        -0.04962804039963661,
        -0.4732143240198852,
        -0.9225194642946577,
        0.0,
        0.0,
        0.0,
        0.0,
        0.0,
        0.0,
        0.0,
        0.0,
        0.0,
        0.0,
        0.0,
        0.0,
        0.0,
        0.0,
        0.0,
        0.0,
        0.0,
        0.0,
        0.0,
        0.0,
        0.0,
        0.0
      ],
      "intercept_": 1.044670526717954,
      "n_iter_": 7
    },
    "variable_p2_weights": {
      "coef_": [
        0.8053058192148772,
        0.47022351929889916,
        0.07783377956178375,
        -0.07663160800054782,
        -0.42162156745731616,
        -0.8432579981054343,
        0.021616491750854956,
        0.029894335501941215,
        -0.012155818624475338,
        0.06571134592002179,
        0.0925679018669831,
        0.06404566803410668,
        -0.006055923160005961,
        0.23736666046998242,
        0.09794318098249194,
        -0.02331132169771322,
        0.05511474796666709,
        0.12473691326388536,
        0.35741571913177916,
        0.21028981759508927,
        -0.07917048011156608,
        0.10215504237838965,
        -0.5351789613188964,
        0.08959636472500739,
        -0.024544240172343926,
        0.21119185351295777,
        0.028200121951807502,
        0.34432513881321186
      ],
      "intercept_": 1.133935825315936,
      "n_iter_": 6
    },
    "variable_p2": {
      "coef_": [
        0.8196030890407994,
        0.47848322208855704,
        0.07551168333296164,
        -0.09022830071761515,
        -0.41176616261255844,
        -0.8404910722556965,
        0.03320322644597204,
        0.01675660137559329,
        0.016413378546564633,
        0.06300280569859562,
        0.08570629252682,
        0.05602914828637661,
        -0.016422367023383056,
        0.26315031409861833,
        0.13479413440370663,
        -0.014578161175806984,
        0.047970048602374915,
        0.09642167468928453,
        0.33125523549821884,
        0.2059417725465434,
        -0.0637367943244603,
        0.1194476858647905,
        -0.5245651558800679,
        0.06618740774978614,
        -0.05437214999277273,
        0.21640655715565366,
        0.03295798514126433,
        0.3243378678148968
      ],
      "intercept_": 1.1377117860800858,
      "n_iter_": 7
    },
    "variable_p1_p2_weights": {
      "coef_": [
        0.8835890009409056,
        0.46813413043646634,
        0.041971354380052825,
        -0.04763945355335902,
        -0.41490378353472407,
        -0.8349487322261349,
        0.0,
        0.006638834038897959,
        0.0,
        0.0,
        0.0,
        0.0,
        0.0,
        0.0,
        0.0,
        0.0,
        0.0,
        0.0,
        0.0,
        0.0,
        0.0,
        0.0,
        0.0,
        0.0,
        0.0,
        0.0,
        0.0,
        0.0
      ],
      "intercept_": 1.266637577518313,
      "n_iter_": 7
    },
    "variable_p1_p2": {
      "coef_": [
        0.8889674579856984,
        0.4779062951941064,
        0.049293141192719395,
        -0.06256039682823446,
        -0.4066802496921725,
        -0.8265467979162626,
        0.0,
        0.0,
        0.0,
        0.0,
        0.0,
        0.0,
        0.0,
        0.0,
        0.0,
        0.0,
        0.0,
        0.0,
        0.0,
        0.0,
        0.0,
        0.0,
        0.0,
        0.0,
        0.0,
        0.0,
        0.0,
        0.0
      ],
      "intercept_": 1.2669064965973602,
      "n_iter_": 7
    },
    "fit_intercept_weights": {
      "coef_": [
        1.1104588471250296,
        0.5711924637960291,
        0.0944499708264037,
        -0.10769773174843915,
        -0.5761262982437044,
        -1.123356175429143,
        -0.009670493654528154,
        -0.0017091941531398114,
        0.004747163676743912,
        0.0009536302942733158,
        0.07367754285899464,
        0.1780121861550579,
        0.207341169277737,
        0.3721977554112181,
        0.07651828379457337,
        0.1576880264350789,
        0.23080220123477133,
        0.07813592687554463,
        0.4720856237185215,
        0.13567499364842972,
        0.2776795249946035,
        0.13845337912592812,
        0.07153975673551524,
        0.16490994828508915,
        0.42017406072534186,
        0.271965555762569,
        0.29137405973075314,
        0.12098572801137873
      ],
      "intercept_": 0.0,
      "n_iter_": 4
    },
    "fit_intercept": {
      "coef_": [
        1.1070641439667555,
        0.5720374739425013,
        0.11365491194551824,
        -0.10728843328080086,
        -0.5686396446554755,
        -1.1168980190310238,
        -0.01722493633972327,
        0.0024404101605064415,
        0.023777511718582046,
        0.00023753149766017243,
        0.08137718564518145,
        0.1681439885895215,
        0.211355143784278,
        0.3872036514929018,
        0.07594479017915516,
        0.16181058193564957,
        0.2394962768443804,
        0.07668960095894221,
        0.4561779968927949,
        0.13095864333572504,
        0.28621258237098196,
        0.14861444932917167,
        0.08342293698646817,
        0.17421633805786357,
        0.4120807110137844,
        0.27069109313741285,
        0.3121050719985936,
        0.11633930899898974
      ],
      "intercept_": 0.0,
      "n_iter_": 5
    }
  },
  "normal": {
    "default_weights": {
      "coef_": [
        0.5132407538295038,
        0.2579816851983711,
        0.0472380796007698,
        -0.05951987780100425,
        -0.23039796117793487,
        -0.4924049254569586,
        0.002365389456472855,
        0.025939569890474135,
        0.0099022033299382,
        0.0030399086918895604,
        -0.020495316735787875,
        -0.002452421754816768,
        0.005332203250406178,
        0.025398082224455592,
        -0.007882248744558885,
        -0.0026637981825210835,
        0.01797099623679884,
        -0.01663555702334769,
        0.034189601502232034,
        -0.011435798335798865,
        0.02362271172109738,
        -0.0022187869818295278,
        -0.018742773085510325,
        -0.004472612650702451,
        0.04091730860766526,
        0.017885874330139172,
        0.01490204776076063,
        -0.015200892650396418
      ],
      "intercept_": 0.8891998236992573,
      "n_iter_": 1
    },
    "default": {
      "coef_": [
        0.5034172109341093,
        0.25606595839183766,
        0.04308247218950974,
        -0.06140974063344444,
        -0.2370876442597642,
        -0.4936267346388907,
        0.0004893630520934958,
        0.012406401495636304,
        0.01307616308405417,
        -0.0009305941080425192,
        -0.019459100016043743,
        -0.004450231855999541,
        0.001473624878626574,
        0.024279832761964583,
        -0.010120286828722784,
        0.004650598623136548,
        0.018355698182968547,
        -0.01417361377329543,
        0.0359260942443792,
        -0.01022184311725971,
        0.021270126993831684,
        -0.0026714694737262623,
        -0.016521665732522478,
        -0.00431070462235799,
        0.03602186475514463,
        0.012693562954282572,
        0.019443503017853248,
        -0.015247456632227235
      ],
      "intercept_": 0.8696164087525893,
      "n_iter_": 1
    },
    "no-regularization_weights": {
      "coef_": [
        1.0249316818992242,
        0.5018171772680295,
        0.08408584409346762,
        -0.13200717762762446,
        -0.4926654018992165,
        -0.9973719838531017,
        -0.011702368207947567,
        0.024194620041779802,
        0.01191516567604367,
        0.01651750696027246,
        0.07707534003159329,
        0.2886038446363921,
        0.32837912460216295,
        0.6345809647763926,
        0.16466118181847328,
        0.2478675460893151,
        0.5221474512694058,
        0.012333677232122711,
        0.6986130855298829,
        0.269086455055471,
        0.7816748391296973,
        0.3428420555513618,
        0.18275945806312127,
        0.3712562193196157,
        0.8006756079196372,
        0.554718494741902,
        0.5957778128926248,
        0.21261422216300052
      ],
      "intercept_": 0.1605924427091142,
      "n_iter_": 1
    },
    "no-regularization": {
      "coef_": [
        1.0131328769250338,
        0.49876901051001754,
        0.087470943662152,
        -0.1353585009467364,
        -0.5002001200580775,
        -0.9961404912884153,
        -0.008205945625713876,
        0.009494452837801468,
        0.0161870153562531,
        0.004678474838030619,
        0.09366650353016319,
        0.28123234776683714,
        0.3147666487914248,
        0.615092008060341,
        0.15711421926352215,
        0.3025088663389328,
        0.5256275892861504,
        0.05892053959264799,
        0.7079654039493026,
        0.2598245116826935,
        0.7032077859467321,
        0.32748956440276855,
        0.18917688964654858,
        0.36117156013905927,
        0.7736599165238511,
        0.5249548152136392,
        0.6440068289148311,
        0.17864538461608997
      ],
      "intercept_": 0.162038111720892,
      "n_iter_": 1
    },
    "half-regularization_weights": {
      "coef_": [
        0.6837845402763006,
        0.3411531682618194,
        0.060255444795648774,
        -0.08262579907509182,
        -0.3130106605250509,
        -0.6575311395905215,
        -0.0005008285998692463,
        0.02919268292144453,
        0.01265157197603814,
        0.006825722883142399,
        -0.03743363135933832,
        -0.0034199642834597636,
        0.008149186097293558,
        0.051541112565422376,
        -0.015522116775257642,
        -0.0053497470328259834,
        0.03558907656243605,
        -0.034235200256445164,
        0.06429601188304261,
        -0.021460049311202434,
        0.04952219306775126,
        -0.005731156995660888,
        -0.03388170974362878,
        -0.006307696366036376,
        0.07359933941834355,
        0.029782480006264128,
        0.029249014133779977,
        -0.029003198867150352
      ],
      "intercept_": 0.8740880347103931,
      "n_iter_": 1
    },
    "half-regularization": {
      "coef_": [
        0.6722139507836773,
        0.33899604507458736,
        0.057650438822173654,
        -0.08389415687260834,
        -0.3214603670090859,
        -0.6585448296912235,
        -0.0020616833476182345,
        0.01405192987632618,
        0.016309072597779244,
        0.000659238537438038,
        -0.035184327700790365,
        -0.006390742078625729,
        0.0022846628142081243,
        0.04857014247163357,
        -0.019062134346048056,
        0.0061545465612887346,
        0.03551114736431432,
        -0.029624666047199377,
        0.06688170375506594,
        -0.01975624251280403,
        0.04339074965894635,
        -0.006675858319886013,
        -0.030372842288304225,
        -0.006031579401925745,
        0.06657157968989896,
        0.022867659320641907,
        0.03797965904930649,
        -0.03043908371090795
      ],
      "intercept_": 0.8594177973653594,
      "n_iter_": 1
    },
    "elastic-net_weights": {
      "coef_": [
        0.3537868055725144,
        0.01128659233773437,
        0.0,
        0.0,
        0.0,
        -0.32301726425768024,
        0.0,
        0.0,
        0.0,
        0.0,
        0.0,
        0.0,
        0.0,
        0.0,
        0.0,
        0.0,
        0.0,
        0.0,
        0.0,
        0.0,
        0.0,
        0.0,
        0.0,
        0.0,
        0.0,
        0.0,
        0.0,
        0.0
      ],
      "intercept_": 0.9115220307044418,
      "n_iter_": 1
    },
    "elastic-net": {
      "coef_": [
        0.3373237061172445,
        0.00928607561220731,
        0.0,
        0.0,
        0.0,
        -0.32442057632054583,
        0.0,
        0.0,
        0.0,
        0.0,
        0.0,
        0.0,
        0.0,
        0.0,
        0.0,
        0.0,
        0.0,
        0.0,
        0.0,
        0.0,
        0.0,
        0.0,
        0.0,
        0.0,
        0.0,
        0.0,
        0.0,
        0.0
      ],
      "intercept_": 0.8856269310034364,
      "n_iter_": 1
    },
    "lasso_weights": {
      "coef_": [
        0.031025355113965702,
        0.0,
        0.0,
        0.0,
        0.0,
        0.0,
        0.0,
        0.0,
        0.0,
        0.0,
        0.0,
        0.0,
        0.0,
        0.0,
        0.0,
        0.0,
        0.0,
        0.0,
        0.0,
        0.0,
        0.0,
        0.0,
        0.0,
        0.0,
        0.0,
        0.0,
        0.0,
        0.0
      ],
      "intercept_": 0.9201699327589609,
      "n_iter_": 1
    },
    "lasso": {
      "coef_": [
        0.00393878608154794,
        0.0,
        0.0,
        0.0,
        0.0,
        0.0,
        0.0,
        0.0,
        0.0,
        0.0,
        0.0,
        0.0,
        0.0,
        0.0,
        0.0,
        0.0,
        0.0,
        0.0,
        0.0,
        0.0,
        0.0,
        0.0,
        0.0,
        0.0,
        0.0,
        0.0,
        0.0,
        0.0
      ],
      "intercept_": 0.8864609709405988,
      "n_iter_": 1
    },
    "variable_p1_weights": {
      "coef_": [
        1.0400120966737565,
        0.4117620173332648,
        0.0,
        0.0,
        -0.04525736421416565,
        -0.4625451406876235,
        0.0,
        0.0,
        0.0,
        0.0,
        0.0,
        0.0,
        0.0,
        0.0,
        0.0,
        0.0,
        0.0,
        0.0,
        0.0,
        0.0,
        0.0,
        0.0,
        0.0,
        0.0,
        0.0,
        0.0,
        0.0,
        0.0
      ],
      "intercept_": 0.9190654838779792,
      "n_iter_": 1
    },
    "variable_p1": {
      "coef_": [
        1.0167602630163972,
        0.40865855081064967,
        0.0,
        0.0,
        -0.06922605852878135,
        -0.47033095988466717,
        0.0,
        0.0,
        0.0,
        0.0,
        0.0,
        0.0,
        0.0,
        0.0,
        0.0,
        0.0,
        0.0,
        0.0,
        0.0,
        0.0,
        0.0,
        0.0,
        0.0,
        0.0,
        0.0,
        0.0,
        0.0,
        0.0
      ],
      "intercept_": 0.901365730628604,
      "n_iter_": 1
    },
    "variable_p2_weights": {
      "coef_": [
        0.4685954036105614,
        0.3040920814344298,
        0.04814787502820062,
        -0.0384824894599449,
        -0.15182383244528969,
        -0.5168357483638524,
        0.04807892916052957,
        -0.04283532954312396,
        0.16862270050290756,
        0.09633944167258035,
        0.052281356710652496,
        -0.04354661615528986,
        -0.21374153760459752,
        0.15213049459621286,
        0.10629436369174122,
        -0.09291819913725094,
        -0.04060478011527434,
        0.0920530551995779,
        0.12841934015288675,
        0.13004502273345095,
        0.019001139163587998,
        0.22657189394344088,
        -0.3596716319070875,
        -0.0981291735486775,
        -0.2328033906458756,
        0.26075604316493256,
        -0.10266317105794115,
        0.25151194720154135
      ],
      "intercept_": 0.8625557145828383,
      "n_iter_": 1
    },
    "variable_p2": {
      "coef_": [
        0.45586171015476523,
        0.300470555242324,
        0.04125892896323464,
        -0.03802011807653011,
        -0.16873107729932113,
        -0.5160498653126753,
        0.04638900682743559,
        -0.06252169371824301,
        0.17240731003589677,
        0.09304132445958588,
        0.059979208372507434,
        -0.052178282943492166,
        -0.22648305140790886,
        0.15260870473593166,
        0.10275064999955057,
        -0.09159546373838393,
        -0.031113740425070667,
        0.0764629667738436,
        0.14202165995760002,
        0.12240868835497906,
        0.014739350119096231,
        0.2262564520216707,
        -0.3642257398750418,
        -0.09254158875433277,
        -0.2521157133121419,
        0.251140785870451,
        -0.09937967476646123,
        0.24862020757400788
      ],
      "intercept_": 0.847132798222419,
      "n_iter_": 1
    },
    "variable_p1_p2_weights": {
      "coef_": [
        0.5071791729152196,
        0.2911637430355169,
        0.0,
        -0.00333926041207611,
        -0.06541693092123343,
        -0.3194187008868007,
        0.0,
        0.0,
        0.0,
        0.0,
        0.0,
        0.0,
        0.0,
        0.0,
        0.0,
        0.0,
        0.0,
        0.0,
        0.0,
        0.0,
        0.0,
        0.0,
        0.0,
        0.0,
        0.0,
        0.0,
        0.0,
        0.0
      ],
      "intercept_": 0.9114520471171256,
      "n_iter_": 1
    },
    "variable_p1_p2": {
      "coef_": [
        0.49630553194156946,
        0.2865094093867725,
        0.0,
        -0.004896544571942786,
        -0.07371181257616602,
        -0.32059535246109666,
        0.0,
        0.0,
        0.0,
        0.0,
        0.0,
        0.0,
        0.0,
        0.0,
        0.0,
        0.0,
        0.0,
        0.0,
        0.0,
        0.0,
        0.0,
        0.0,
        0.0,
        0.0,
        0.0,
        0.0,
        0.0,
        0.0
      ],
      "intercept_": 0.887783910696737,
      "n_iter_": 1
    },
    "fit_intercept_weights": {
      "coef_": [
        0.5006035127708247,
        0.2622973310303176,
        0.040075640728999884,
        -0.06855884310007007,
        -0.24043679593626677,
        -0.5147179795375052,
        0.00962693321933495,
        0.02036006492091913,
        0.029054606818881796,
        0.007102952269988168,
        0.05441040968254056,
        0.06906547948097654,
        0.08233883884277955,
        0.10685072689317632,
        0.062188457461945235,
        0.06833315079852507,
        0.09443576058848821,
        0.053065006642770696,
        0.10915842957878444,
        0.06357937599906967,
        0.09686325698928026,
        0.07733453896681586,
        0.05580028264929174,
        0.0706043248106182,
        0.11623739854017776,
        0.08829758455040114,
        0.08819037035594031,
        0.059009676205884654
      ],
      "intercept_": 0.0,
      "n_iter_": 1
    },
    "fit_intercept": {
      "coef_": [
        0.487448297905083,
        0.2601590947879039,
        0.038296715185990385,
        -0.0661921320577324,
        -0.2436403528189327,
        -0.5103053927212744,
        0.0012003805423229513,
        0.005255280594487422,
        0.026801224436218588,
        0.00370443144707526,
        0.05230439683712129,
        0.0648039793000466,
        0.07305734377342189,
        0.10190275279780536,
        0.06034164348317177,
        0.07754059409532017,
        0.09255629598913807,
        0.05793186074150674,
        0.10881109570671854,
        0.06354008286090838,
        0.09573914167146585,
        0.07514947474988866,
        0.05817161959216687,
        0.06792172608717673,
        0.1106094258300942,
        0.08337683661495278,
        0.08903003458480091,
        0.05738225581607646
      ],
      "intercept_": 0.0,
      "n_iter_": 1
    }
  },
  "gamma": {
    "default_weights": {
      "coef_": [
        0.5073935192902262,
        0.26740420496677053,
        0.04758928644043577,
        -0.045667737317863534,
        -0.24158642711834422,
        -0.5056134245912833,
        0.01890108678470793,
        -0.002288392324052641,
        0.005196984424875235,
        -0.00037124718233320887,
        -0.024775149699487672,
        0.002215130151984292,
        0.0011350512027819496,
        0.02769457953623899,
        -0.007149415545645219,
        -0.0014485399996451342,
        0.006664780382248424,
        -0.01520361574107784,
        0.04523024363978635,
        -0.01253019836311694,
        0.006361254608762752,
        -0.0033345735062692444,
        -0.014987236126552839,
        -0.01120490356027473,
        0.044168583635088944,
        0.00879505173052712,
        0.021656953497089848,
        -0.009397200097920654
      ],
      "intercept_": 1.226357019000472,
      "n_iter_": 38
    },
    "default": {
      "coef_": [
        0.5030012574100965,
        0.2648594943505894,
        0.0515551562680016,
        -0.04495714725871965,
        -0.23584359374898897,
        -0.49695313153175685,
        0.0027813371046756254,
        0.00810233275183397,
        -0.002000477144436378,
        -0.0023217253877791445,
        -0.01913680168327682,
        0.0008433016195014657,
        -0.00015145241417828168,
        0.028188557360926368,
        -0.011084228898000942,
        -0.00016774827042750296,
        0.005280177768795005,
        -0.01126367532114419,
        0.04206002407071367,
        -0.013160116031757993,
        0.006473234134477795,
        -0.002881876003193148,
        -0.016053374583485474,
        -0.00838008347393041,
        0.04300394001566194,
        0.009436885878835776,
        0.020506153841629984,
        -0.007279866915263699
      ],
      "intercept_": 1.2387752163537018,
      "n_iter_": 33
    },
    "no-regularization_weights": {
      "coef_": [
        1.0199684538698675,
        0.523289745152349,
        0.11724534923861174,
        -0.10379099719549979,
        -0.4941035562249749,
        -1.0335597075549054,
        0.005347766843678565,
        -0.013494248805360896,
        0.012868377148674448,
        0.02237792681174353,
        0.0741746516700753,
        0.4076018688390392,
        0.34324543479372627,
        0.6122597886608491,
        0.21332141251429418,
        0.2761774124443306,
        0.3208152947952265,
        0.11337419491738684,
        0.7063555554951173,
        0.21992296470614536,
        0.5908059693571321,
        0.26245330123169247,
        0.06905018047019132,
        0.29725755457578407,
        0.6878428933376569,
        0.43186622924753193,
        0.6751328372485846,
        0.16697112711473322
      ],
      "intercept_": 0.21929595251071998,
      "n_iter_": 8
    },
    "no-regularization": {
      "coef_": [
        1.0217087848574677,
        0.529226176223263,
        0.1091091365483544,
        -0.1018091739398113,
        -0.4938195419086957,
        -1.0204375133114727,
        0.00029731859655409733,
        -0.001851498191362329,
        0.006516988953110787,
        0.0005887607152553111,
        0.13286797755552465,
        0.44270307413937626,
        0.39915590463441875,
        0.6887351087567956,
        0.20291144901442099,
        0.3346799733640409,
        0.402592756285715,
        0.1938265374189924,
        0.7339903815064411,
        0.23138417794812294,
        0.5997711022452307,
        0.3068266271383312,
        0.1270514204120392,
        0.3369473915728608,
        0.7320960804620175,
        0.45509211103405517,
        0.6841286019190898,
        0.21486104329662786
      ],
      "intercept_": 0.1454834852930148,
      "n_iter_": 7
    },
    "half-regularization_weights": {
      "coef_": [
        0.6738819249763123,
        0.3506347341076335,
        0.06580596874765962,
        -0.06384607804398838,
        -0.32361973444170206,
        -0.6746283740765373,
        0.015170298139456436,
        -0.0020830966755772972,
        0.00982471328001838,
        0.002362045495035956,
        -0.04147548263699363,
        0.006955440486370526,
        0.004065310920957992,
        0.05220073346473848,
        -0.016031532029936634,
        -0.0012608726427751015,
        0.010559269718771379,
        -0.02701771710586892,
        0.07499241856294923,
        -0.019836558238661286,
        0.02355891567927225,
        -0.007593319124917797,
        -0.030393109489730324,
        -0.014802421471640055,
        0.07099290788500312,
        0.017657236385919293,
        0.039340105530066546,
        -0.02033628466763606
      ],
      "intercept_": 1.0367424943314434,
      "n_iter_": 18
    },
    "half-regularization": {
      "coef_": [
        0.6709313359318162,
        0.35035457341742615,
        0.06834568320427864,
        -0.0629961473990112,
        -0.3189645432583026,
        -0.6659715433198111,
        0.0002621624133831478,
        0.009362200875763185,
        0.002696735687217249,
        -0.003938801346890051,
        -0.03564009963818585,
        0.0046574782442245395,
        0.002814404658563056,
        0.05564352295104212,
        -0.022550843358457574,
        -8.691197106733052e-05,
        0.010738631295334266,
        -0.021334985222788466,
        0.07140427602085471,
        -0.021938272816779,
        0.02297906207120409,
        -0.00637375783076139,
        -0.03103473539079274,
        -0.011777952076145692,
        0.07208948915403186,
        0.0177204479663778,
        0.038712984255755936,
        -0.01750363237847655
      ],
      "intercept_": 1.04737219604947,
      "n_iter_": 18
    },
    "elastic-net_weights": {
      "coef_": [
        0.3490194893215494,
        0.03439778725202113,
        0.0,
        0.0,
        0.0,
        -0.35613376266005936,
        0.0,
        0.0,
        0.0,
        0.0,
        0.0,
        0.0,
        0.0,
        0.0,
        0.0,
        0.0,
        0.0,
        0.0,
        0.0,
        0.0,
        0.0,
        0.0,
        0.0,
        0.0,
        0.0,
        0.0,
        0.0,
        0.0
      ],
      "intercept_": 1.6109102460448534,
      "n_iter_": 24
    },
    "elastic-net": {
      "coef_": [
        0.33528742653104443,
        0.021354908446211036,
        0.0,
        0.0,
        0.0,
        -0.3352390191940494,
        0.0,
        0.0,
        0.0,
        0.0,
        0.0,
        0.0,
        0.0,
        0.0,
        0.0,
        0.0,
        0.0,
        0.0,
        0.0,
        0.0,
        0.0,
        0.0,
        0.0,
        0.0,
        0.0,
        0.0,
        0.0,
        0.0
      ],
      "intercept_": 1.633781095255716,
      "n_iter_": 22
    },
    "lasso_weights": {
      "coef_": [
        0.031269893037869714,
        0.0,
        0.0,
        0.0,
        0.0,
        -0.017631669868242647,
        0.0,
        0.0,
        0.0,
        0.0,
        0.0,
        0.0,
        0.0,
        0.0,
        0.0,
        0.0,
        0.0,
        0.0,
        0.0,
        0.0,
        0.0,
        0.0,
        0.0,
        0.0,
        0.0,
        0.0,
        0.0,
        0.0
      ],
      "intercept_": 2.1814869678276176,
      "n_iter_": 60
    },
    "lasso": {
      "coef_": [
        0.001564202722691184,
        0.0,
        0.0,
        0.0,
        0.0,
        0.0,
        0.0,
        0.0,
        0.0,
        0.0,
        0.0,
        0.0,
        0.0,
        0.0,
        0.0,
        0.0,
        0.0,
        0.0,
        0.0,
        0.0,
        0.0,
        0.0,
        0.0,
        0.0,
        0.0,
        0.0,
        0.0,
        0.0
      ],
      "intercept_": 2.2018386726298527,
      "n_iter_": 32
    },
    "variable_p1_weights": {
      "coef_": [
        1.035008105568324,
        0.4297548455998808,
        0.0,
        0.0,
        -0.07509142367517435,
        -0.47637319942100426,
        0.0,
        0.0,
        0.0,
        0.0,
        0.0,
        0.0,
        0.0,
        0.0,
        0.0,
        0.0,
        0.0,
        0.0,
        0.0,
        0.0,
        0.0,
        0.0,
        0.0,
        0.0,
        0.0,
        0.0,
        0.0,
        0.0
      ],
      "intercept_": 1.1783391729669426,
      "n_iter_": 71
    },
    "variable_p1": {
      "coef_": [
        1.0229476215725728,
        0.4283801390048697,
        0.0,
        0.0,
        -0.06784650570382406,
        -0.46844590237146994,
        0.0,
        0.0,
        0.0,
        0.0,
        0.0,
        0.0,
        0.0,
        0.0,
        0.0,
        0.0,
        0.0,
        0.0,
        0.0,
        0.0,
        0.0,
        0.0,
        0.0,
        0.0,
        0.0,
        0.0,
        0.0,
        0.0
      ],
      "intercept_": 1.1905325726053804,
      "n_iter_": 50
    },
    "variable_p2_weights": {
      "coef_": [
        0.4544169260319611,
        0.31155012106467095,
        0.05659243640967203,
        -0.016535547873023655,
        -0.1606195331862877,
        -0.5446593072797433,
        0.07859535481546254,
        -0.07158081984037877,
        0.15057522260994752,
        0.10137350234456678,
        0.05164608510382827,
        -0.03867709842217742,
        -0.21595272144311256,
        0.15439308030426413,
        0.09453680392633168,
        -0.09170448389280043,
        -0.056811418991197765,
        0.07588596713955852,
        0.1509139684283036,
        0.13864544282383812,
        -0.02815231780416519,
        0.2470256407452729,
        -0.3787126423178169,
        -0.09102400078925625,
        -0.22927247896406738,
        0.24463066332807076,
        -0.09543373988619712,
        0.26503019679077194
      ],
      "intercept_": 1.2778900217895068,
      "n_iter_": 25
    },
    "variable_p2": {
      "coef_": [
        0.4512264347077671,
        0.30920860262385036,
        0.06588584906856082,
        -0.02151648967229602,
        -0.1548776119353303,
        -0.5282549340314469,
        0.048698185415230216,
        -0.054473697849289106,
        0.14277887361648506,
        0.09854029660236208,
        0.045722501264911806,
        -0.023830786135524345,
        -0.21670715949493954,
        0.14215507672051286,
        0.08622730376384187,
        -0.09066221379906046,
        -0.05946008764412471,
        0.10420613626653112,
        0.14122558503228588,
        0.1295720114024218,
        -0.030013626335781,
        0.2377115620402231,
        -0.36794170868211107,
        -0.07980435680562649,
        -0.20665388222478398,
        0.24758229501517903,
        -0.10091781980012653,
        0.26061213526473653
      ],
      "intercept_": 1.2903244620790149,
      "n_iter_": 21
    },
    "variable_p1_p2_weights": {
      "coef_": [
        0.5056728881203172,
        0.29873247080215387,
        0.0,
        0.0,
        -0.0828080618580231,
        -0.32898798690550596,
        0.0,
        0.0,
        0.0,
        0.0,
        0.0,
        0.0,
        0.0,
        0.0,
        0.0,
        0.0,
        0.0,
        0.0,
        0.0,
        0.0,
        0.0,
        0.0,
        0.0,
        0.0,
        0.0,
        0.0,
        0.0,
        0.0
      ],
      "intercept_": 1.4037702287509046,
      "n_iter_": 67
    },
    "variable_p1_p2": {
      "coef_": [
        0.4988934844358811,
        0.2948618177019868,
        0.0,
        0.0,
        -0.07576211664325708,
        -0.31925160708666084,
        0.0,
        0.0,
        0.0,
        0.0,
        0.0,
        0.0,
        0.0,
        0.0,
        0.0,
        0.0,
        0.0,
        0.0,
        0.0,
        0.0,
        0.0,
        0.0,
        0.0,
        0.0,
        0.0,
        0.0,
        0.0,
        0.0
      ],
      "intercept_": 1.4166029462924343,
      "n_iter_": 71
    },
    "fit_intercept_weights": {
      "coef_": [
        0.6764718619008276,
        0.3661056321232962,
        0.06295220430261894,
        -0.07955419959672082,
        -0.33426409302292587,
        -0.7148228492542793,
        0.015363449960300125,
        -0.009350398173764658,
        0.023175074880710432,
        0.010780639340327936,
        0.07471913956593017,
        0.1212694397753505,
        0.12297981505680082,
        0.18264898673840393,
        0.09681780645214408,
        0.11928606115888177,
        0.13216139448295994,
        0.08741552749695929,
        0.1957551631135002,
        0.10277083546758702,
        0.14541473466426158,
        0.11449712895369117,
        0.09215736291549664,
        0.10506427902057819,
        0.19303216297351355,
        0.13729012271468097,
        0.15549278255504154,
        0.09909595259450613
      ],
      "intercept_": 0.0,
      "n_iter_": 12
    },
    "fit_intercept": {
      "coef_": [
        0.6776173062813534,
        0.3655378447883787,
        0.06579575994070636,
        -0.07051569708955158,
        -0.3369842056144352,
        -0.7075830106343716,
        0.0006025253087056487,
        0.0018221604884614015,
        0.017657474494251157,
        0.0005887694864743912,
        0.0796162509020931,
        0.12050392543373027,
        0.12225043071459449,
        0.18718054012480598,
        0.09202502628665121,
        0.12066265473300382,
        0.13386348908044915,
        0.09548380986033288,
        0.1966943502439026,
        0.09794989943896572,
        0.14916931685251758,
        0.12047282406819598,
        0.08909579564552622,
        0.107163353874106,
        0.19983214545796998,
        0.1364638228198467,
        0.1585150708533545,
        0.10054011518169699
      ],
      "intercept_": 0.0,
      "n_iter_": 11
    }
  },
  "tweedie_p=1.5": {
    "default_weights": {
      "coef_": [
        0.7018996043561249,
        0.3493741415934307,
        0.07119750664824753,
        -0.07246732708816014,
        -0.326382432289868,
        -0.6935540823627809,
        -0.0026021401303714846,
        0.014573660781090784,
        -0.023565751631766368,
        0.0036322367444463826,
        -0.030917422815700365,
        0.007134753365163827,
        0.00545275563436247,
        0.058933856382868494,
        -0.02840362758121042,
        0.0013578048297132523,
        0.009591061305749956,
        -0.03970532502727359,
        0.09471026708645557,
        -0.020135095139049226,
        0.018015072505749588,
        -0.01349070746084648,
        -0.0366589473554267,
        -0.014597501117601825,
        0.08666294051289515,
        0.02233252722474345,
        0.036690333795673304,
        -0.024145194695981698
      ],
      "intercept_": 1.311695860484578,
      "n_iter_": 9
    },
    "default": {
      "coef_": [
        0.7034960298038223,
        0.35151123724502004,
        0.06878515309475948,
        -0.06400256720001855,
        -0.3338083938946192,
        -0.6900378165946898,
        0.015014954219843208,
        0.007260050444041663,
        -0.022412026932393716,
        0.0036405852903286158,
        -0.03168329999897657,
        0.005585785427248649,
        0.0028679914351220324,
        0.060483225299597036,
        -0.02615205500283284,
        0.002127126792452395,
        0.007674946633469548,
        -0.03530363941249261,
        0.09222734561377831,
        -0.027003654426360085,
        0.01299848204460901,
        -0.01019547455591841,
        -0.038122070062028744,
        -0.015561999882108837,
        0.09325299965571812,
        0.01815752950756952,
        0.042130246788124374,
        -0.023081397251044817
      ],
      "intercept_": 1.3055337266775517,
      "n_iter_": 9
    },
    "no-regularization_weights": {
      "coef_": [
        1.0081249622241897,
        0.49634079665080966,
        0.1040929215561052,
        -0.1023619367235524,
        -0.4940612122197327,
        -1.0076673045177904,
        -0.002703943984584307,
        0.0002566402238489135,
        -0.008032428176695436,
        0.0035974236942921778,
        0.1470318019095585,
        0.4441648712804212,
        0.44829471231755913,
        0.686748779103691,
        0.18097436083397048,
        0.3969600449089734,
        0.4942512122129024,
        0.15710246211573523,
        0.7568432345001411,
        0.25179457113969417,
        0.5499584097654168,
        0.2590388187091398,
        0.10740834711498681,
        0.27272118029236153,
        0.7138339061083798,
        0.4769531197515597,
        0.5374795417703994,
        0.14427536850801315
      ],
      "intercept_": 0.18705588070903834,
      "n_iter_": 8
    },
    "no-regularization": {
      "coef_": [
        1.0115332203472813,
        0.4869844782844567,
        0.10074023323570708,
        -0.09901645621959689,
        -0.4990863374301692,
        -1.0040847186786641,
        0.009009227460907676,
        -0.004943841408167792,
        -0.012723056434809752,
        0.0014159395110987494,
        0.17062485121630513,
        0.433414991693398,
        0.44549440595213013,
        0.6982620484514603,
        0.15215562882472145,
        0.38756087086869406,
        0.47223650242463455,
        0.14633617236243404,
        0.7628072471825427,
        0.20048794817228674,
        0.5333489231483524,
        0.23951582345635528,
        0.07848049639614924,
        0.2551224854084581,
        0.69853823351253,
        0.4628719380884698,
        0.5488578524007557,
        0.14493910254667094
      ],
      "intercept_": 0.19832517645511272,
      "n_iter_": 9
    },
    "half-regularization_weights": {
      "coef_": [
        0.8246298782272095,
        0.41000825916203565,
        0.08129325319794817,
        -0.08472770918800382,
        -0.39124129268324803,
        -0.817091605153482,
        -0.0036997841593691427,
        0.01212999677730605,
        -0.018042279519636432,
        0.004022208725829364,
        -0.0553533151959057,
        0.014754027843667743,
        0.015415869794538371,
        0.10268843284815672,
        -0.04773114781690312,
        0.002898909869865094,
        0.02422771479245228,
        -0.06347906466752376,
        0.1481667081295881,
        -0.030114561709165287,
        0.04458898181876903,
        -0.02345801569296168,
        -0.061475261568469636,
        -0.02055232775117077,
        0.1408238487092323,
        0.04053599035811088,
        0.062433235249712005,
        -0.047011505847758615
      ],
      "intercept_": 1.140840118534332,
      "n_iter_": 8
    },
    "half-regularization": {
      "coef_": [
        0.8265382827505632,
        0.40854425983426024,
        0.07981621282293597,
        -0.07751650778178247,
        -0.39841181044816865,
        -0.8121195050968485,
        0.012162578992943804,
        0.00576735727712089,
        -0.018663971573446746,
        0.0036910737484433013,
        -0.052672600810797394,
        0.01235977068023558,
        0.012520114911922887,
        0.1062198616822501,
        -0.04752675636504436,
        0.00405727162781526,
        0.020542569485861275,
        -0.060020275069980186,
        0.14692336054758046,
        -0.041026679229850434,
        0.03875641793173276,
        -0.02012798740994932,
        -0.06381050132205272,
        -0.02116035005760403,
        0.14681279599496844,
        0.036227088740178395,
        0.0714181514134001,
        -0.043601882228934775
      ],
      "intercept_": 1.1331197873072103,
      "n_iter_": 8
    },
    "elastic-net_weights": {
      "coef_": [
        0.6547255357982035,
        0.23511856240777945,
        0.0,
        0.0,
        -0.19938789234281584,
        -0.6512909155663713,
        0.0,
        0.0,
        0.0,
        0.0,
        0.0,
        0.0,
        0.0,
        0.0,
        0.0,
        0.0,
        0.0,
        0.0,
        0.0,
        0.0,
        0.0,
        0.0,
        0.0,
        0.0,
        0.0,
        0.0,
        0.0,
        0.0
      ],
      "intercept_": 1.442948642664929,
      "n_iter_": 15
    },
    "elastic-net": {
      "coef_": [
        0.6572167457966512,
        0.2410353336499786,
        0.0,
        0.0,
        -0.21000644117487421,
        -0.6473952944384607,
        0.0,
        0.0,
        0.0,
        0.0,
        0.0,
        0.0,
        0.0,
        0.0,
        0.0,
        0.0,
        0.0,
        0.0,
        0.0,
        0.0,
        0.0,
        0.0,
        0.0,
        0.0,
        0.0,
        0.0,
        0.0,
        0.0
      ],
      "intercept_": 1.4374730916856624,
      "n_iter_": 15
    },
    "lasso_weights": {
      "coef_": [
        0.5948253740812293,
        0.07879527958603702,
        0.0,
        0.0,
        -0.02299342903798875,
        -0.5957085312331057,
        0.0,
        0.0,
        0.0,
        0.0,
        0.0,
        0.0,
        0.0,
        0.0,
        0.0,
        0.0,
        0.0,
        0.0,
        0.0,
        0.0,
        0.0,
        0.0,
        0.0,
        0.0,
        0.0,
        0.0,
        0.0,
        0.0
      ],
      "intercept_": 1.5802820636681387,
      "n_iter_": 30
    },
    "lasso": {
      "coef_": [
        0.5979051929854524,
        0.09266269201676819,
        0.0,
        0.0,
        -0.038768254503414826,
        -0.5953919074363311,
        0.0,
        0.0,
        0.0,
        0.0,
        0.0,
        0.0,
        0.0,
        0.0,
        0.0,
        0.0,
        0.0,
        0.0,
        0.0,
        0.0,
        0.0,
        0.0,
        0.0,
        0.0,
        0.0,
        0.0,
        0.0,
        0.0
      ],
      "intercept_": 1.5752750294021298,
      "n_iter_": 22
    },
    "variable_p1_weights": {
      "coef_": [
        1.0139809757597658,
        0.4611414710502999,
        0.005963071474593775,
        0.0,
        -0.297577898068573,
        -0.7675074411865129,
        0.0,
        0.0,
        0.0,
        0.0,
        0.0,
        0.0,
        0.0,
        0.0,
        0.0,
        0.0,
        0.0,
        0.0,
        0.0,
        0.0,
        0.0,
        0.0,
        0.0,
        0.0,
        0.0,
        0.0,
        0.0,
        0.0
      ],
      "intercept_": 1.1357660776482272,
      "n_iter_": 8
    },
    "variable_p1": {
      "coef_": [
        1.0152101822205577,
        0.456709675282178,
        0.004669880872442079,
        0.0,
        -0.3101375821282987,
        -0.7585601656383144,
        0.0,
        0.0,
        0.0,
        0.0,
        0.0,
        0.0,
        0.0,
        0.0,
        0.0,
        0.0,
        0.0,
        0.0,
        0.0,
        0.0,
        0.0,
        0.0,
        0.0,
        0.0,
        0.0,
        0.0,
        0.0,
        0.0
      ],
      "intercept_": 1.125966040797219,
      "n_iter_": 8
    },
    "variable_p2_weights": {
      "coef_": [
        0.6345949262778499,
        0.37844541054253755,
        0.05730408376719521,
        -0.0806462680073765,
        -0.25358368226520506,
        -0.6725668766053672,
        0.035692883220858326,
        -0.007117041225024663,
        0.06451824958293087,
        0.09363212387790947,
        0.0459091341082428,
        0.02158682830856916,
        -0.13811296733850384,
        0.16733310862891113,
        0.08890823093035997,
        -0.0795866414812323,
        -0.05372239284787801,
        0.12592387897077847,
        0.18616451242708457,
        0.16797340684632103,
        -0.041658060944664205,
        0.21604717047628208,
        -0.4955050463583396,
        -0.031165433232252494,
        -0.2041798381805291,
        0.26930990884001627,
        -0.053217889668950004,
        0.3268981858651491
      ],
      "intercept_": 1.3256011814189945,
      "n_iter_": 8
    },
    "variable_p2": {
      "coef_": [
        0.6330124117055156,
        0.3762536817707299,
        0.06108312287142945,
        -0.06610188645364252,
        -0.26006622233910526,
        -0.6749375817215123,
        0.058693239353886324,
        -0.02093310841058061,
        0.06872905346770843,
        0.09635754165707358,
        0.06592893487270994,
        0.0024578570218388796,
        -0.13358902976897355,
        0.17042263634325322,
        0.09582007864291847,
        -0.07985898804282869,
        -0.049069570347743556,
        0.124053495825634,
        0.19295636956645126,
        0.17232969626656186,
        -0.05125700414850371,
        0.22461252777215324,
        -0.5010238606951407,
        -0.02636263181748389,
        -0.19752927999060527,
        0.26098611603675775,
        -0.0513785699682195,
        0.3298655678547691
      ],
      "intercept_": 1.316621329132729,
      "n_iter_": 9
    },
    "variable_p1_p2_weights": {
      "coef_": [
        0.7008327694429722,
        0.3815710620923726,
        0.0,
        -0.04497554357711454,
        -0.1992861058456039,
        -0.5691047371688044,
        0.0,
        0.0,
        0.0,
        0.0,
        0.0,
        0.0,
        0.0,
        0.0,
        0.0,
        0.0,
        0.0,
        0.0,
        0.0,
        0.0,
        0.0,
        0.0,
        0.0,
        0.0,
        0.0,
        0.0,
        0.0,
        0.0
      ],
      "intercept_": 1.4251945938520254,
      "n_iter_": 10
    },
    "variable_p1_p2": {
      "coef_": [
        0.7017718467321292,
        0.3856062987361746,
        0.0,
        -0.03217255526679958,
        -0.20943018641242048,
        -0.5635569648717097,
        0.0,
        0.0,
        0.0,
        0.0,
        0.0,
        0.0,
        0.0,
        0.0,
        0.0,
        0.0,
        0.0,
        0.0,
        0.0,
        0.0,
        0.0,
        0.0,
        0.0,
        0.0,
        0.0,
        0.0,
        0.0,
        0.0
      ],
      "intercept_": 1.4206719896735789,
      "n_iter_": 11
    },
    "fit_intercept_weights": {
      "coef_": [
        0.9161528159532879,
        0.47755994616153236,
        0.0872422398967683,
        -0.09795004885356942,
        -0.44719959510724117,
        -0.9605962467862285,
        0.0009918730472250024,
        0.01187915213754562,
        0.006295085350156922,
        0.0055699827630427195,
        0.10217468153956288,
        0.15599062878265302,
        0.17121359910997608,
        0.24445647702740705,
        0.1159278610047135,
        0.16341869867400963,
        0.17210811754419045,
        0.09835709496638444,
        0.2759850213108457,
        0.1308252307176793,
        0.19400052283543762,
        0.14233554030210543,
        0.10561747410963304,
        0.13483660922861107,
        0.2785204375791138,
        0.187089700008533,
        0.1985839488353203,
        0.11826333482745324
      ],
      "intercept_": 0.0,
      "n_iter_": 16
    },
    "fit_intercept": {
      "coef_": [
        0.9252375615945176,
        0.4742728274177014,
        0.08617200625925507,
        -0.0924636684213538,
        -0.46201668078768904,
        -0.9518936278619358,
        0.015083367188409177,
        -0.000449702956662061,
        0.0024803611947003426,
        0.0071043936786568205,
        0.10587426718890884,
        0.15332027236854284,
        0.16380899486355704,
        0.24580736990570892,
        0.10955153578618924,
        0.160151254625499,
        0.1715450126398737,
        0.10577248748112178,
        0.271309477486359,
        0.12226678822191765,
        0.18556984926183806,
        0.14569275325930067,
        0.10561419928565541,
        0.13364724143192436,
        0.2770081703511841,
        0.18167471713487363,
        0.20461032860154038,
        0.1197513571180661
      ],
      "intercept_": 0.0,
      "n_iter_": 16
    }
  }
}