{
  "poisson": {
    "default_weights": {
      "coef_": [
        0.8852735295678722,
        0.4503952415422106,
        0.08576232030825395,
        -0.07462227356811552,
        -0.45164235020184634,
        -0.8795496292577688,
        0.004447799763432044,
        0.009476592815518443,
        -0.02681010117297238,
        0.006924045436764754,
        -0.08182718970960322,
        0.01412650303078004,
        0.014360407523505243,
        0.15152649374294969,
        -0.09010038816816363,
        -0.03180556151341007,
        0.038955276219605005,
        -0.09663761148456107,
        0.3033741216769588,
        -0.05624144792063446,
        0.07665963651431684,
        -0.04936915659312695,
        -0.09256716683695305,
        -0.007692002854329669,
        0.2512974289260434,
        0.06517494068569875,
        0.09891347641510327,
        -0.05688003968250944
      ],
      "intercept_": 1.1464466671597713,
      "n_iter_": 3
    },
    "default": {
      "coef_": [
        0.8917581565883027,
        0.463831002330166,
        0.08879741003800047,
        -0.08080707399414952,
        -0.44900271032486055,
        -0.8817095890812345,
        0.008920927462105824,
        0.0014902526061781687,
        -0.008404172072333495,
        0.007731918274244199,
        -0.0817068033883794,
        0.014365001265623359,
        0.01211688328860546,
        0.16835063896347824,
        -0.06964381447725959,
        -0.029737393194772775,
        0.03896969154596428,
        -0.10035243893852838,
        0.2745883416292536,
        -0.0686282381413873,
        0.07403429173907687,
        -0.03121072622685525,
        -0.10211983274185402,
        -0.013119696141775852,
        0.2401524679704164,
        0.06000207919989913,
        0.1205163129468537,
        -0.05619646054911468
      ],
      "intercept_": 1.1440664589132676,
      "n_iter_": 3
    },
    "no-regularization_weights": {
      "coef_": [
        1.0015203139231237,
        0.5083046156411201,
        0.09653725977573199,
        -0.10693257075156617,
        -0.5027997706318943,
        -1.0039808784349673,
        -0.005917734015223701,
        -0.005389727780014793,
        -0.0009804742051343189,
        0.0003340521087325291,
        0.10433164981758973,
        0.39218555353316575,
        0.3803290915081525,
        0.6678881360839152,
        0.06983035372741364,
        0.3006619333947909,
        0.44703165935778755,
        0.07788531479099396,
        0.7406256391209446,
        0.26536686021556094,
        0.6343190219745811,
        0.2810613743858304,
        0.1223902667342534,
        0.30696219490196097,
        0.7210174680285538,
        0.5274064568236997,
        0.5952146463460262,
        0.2132602434760934
      ],
      "intercept_": 0.19954331756101273,
      "n_iter_": 4
    },
    "no-regularization": {
      "coef_": [
        1.0012633304372887,
        0.505815326896956,
        0.09883222602980604,
        -0.10248089110471609,
        -0.5038940155837586,
        -0.9968561194306592,
        -0.004386236064099234,
        -0.004877012132578765,
        0.002900185464532132,
        0.002229947082094306,
        0.11173300105167178,
        0.36753161221630937,
        0.37768843588494505,
        0.6535940045423054,
        0.07392976444501925,
        0.29667413857545727,
        0.44211838365434236,
        0.08339089448801777,
        0.7373985123680272,
        0.2509770892170312,
        0.6233360076851833,
        0.29445822842639974,
        0.13379554231235344,
        0.31651466629370906,
        0.7279692058812768,
        0.5300176002034586,
        0.6086669003910081,
        0.21998012826026053
      ],
      "intercept_": 0.20675921004500508,
      "n_iter_": 4
    },
    "half-regularization_weights": {
      "coef_": [
        0.9391333068174434,
        0.4771491067501749,
        0.08673772985374535,
        -0.08646509701536675,
        -0.4759449631739735,
        -0.9332900504534289,
        0.0005797194098806944,
        0.003610166181750249,
        -0.016945968671143872,
        0.005455516346332854,
        -0.10272617085888122,
        0.03876057435888149,
        0.03761902011710358,
        0.23350481649028074,
        -0.11983814850759533,
        -0.028583519925219878,
        0.07613923442034483,
        -0.1212719062052633,
        0.3720071983872023,
        -0.055990467447011055,
        0.1447054321193152,
        -0.04603208643987881,
        -0.11850192237713245,
        -0.004915409212184158,
        0.3166746102701964,
        0.10920290030329866,
        0.15330062174485345,
        -0.06924301886549493
      ],
      "intercept_": 0.9861000399213056,
      "n_iter_": 3
    },
    "half-regularization": {
      "coef_": [
        0.9397482268215855,
        0.4859552091384677,
        0.09227495575370706,
        -0.0892995402968555,
        -0.4726554598223097,
        -0.9313523421367503,
        0.0014569573618707459,
        -0.00025555712682666127,
        -0.0028611810942830132,
        0.0064038646223376705,
        -0.10038424097386252,
        0.029957607599993462,
        0.03891532204634227,
        0.24529535660893131,
        -0.10046057089747,
        -0.026234815824355148,
        0.07692100699347786,
        -0.12320122095393816,
        0.35425565313474566,
        -0.06993121199049952,
        0.14052028762548396,
        -0.028046052819469335,
        -0.12501164289063002,
        -0.005028161370383266,
        0.30784773778466556,
        0.10458649093951801,
        0.17659816611166043,
        -0.06645494359319797
      ],
      "intercept_": 0.9877002999155294,
      "n_iter_": 3
    },
    "elastic-net_weights": {
      "coef_": [
        0.8835313868227271,
        0.42116119881074116,
        0.032030115341976244,
        -0.011139547011570059,
        -0.4316408237766309,
        -0.8883570544754891,
        0.0,
        0.0,
        0.0,
        0.0,
        0.0,
        0.0,
        0.0,
        0.0,
        0.0,
        0.0,
        0.0,
        0.0,
        0.11695742012379882,
        0.0,
        0.0,
        0.0,
        0.0,
        0.0,
        0.026670213924089435,
        0.0,
        0.0,
        0.0
      ],
      "intercept_": 1.2187136764522535,
      "n_iter_": 7
    },
    "elastic-net": {
      "coef_": [
        0.889108144543084,
        0.4369456467673436,
        0.042317712135936936,
        -0.024755913776439868,
        -0.4260601086064715,
        -0.8786026114266313,
        0.0,
        0.0,
        0.0,
        0.0,
        0.0,
        0.0,
        0.0,
        0.0,
        0.0,
        0.0,
        0.0,
        0.0,
        0.04778747268373622,
        0.0,
        0.0,
        0.0,
        0.0,
        0.0,
        0.009384615047206479,
        0.0,
        0.0,
        0.0
      ],
      "intercept_": 1.2296520969143943,
      "n_iter_": 7
    },
    "lasso_weights": {
      "coef_": [
        0.8767676363075422,
        0.3879161900825998,
        0.0,
        0.0,
        -0.39901571711957873,
        -0.8918790217164493,
        0.0,
        0.0,
        0.0,
        0.0,
        0.0,
        0.0,
        0.0,
        0.0,
        0.0,
        0.0,
        0.0,
        0.0,
        0.0,
        0.0,
        0.0,
        0.0,
        0.0,
        0.0,
        0.0,
        0.0,
        0.0,
        0.0
      ],
      "intercept_": 1.2682269244813562,
      "n_iter_": 6
    },
    "lasso": {
      "coef_": [
        0.8828658037107959,
        0.40483676393863094,
        0.0,
        0.0,
        -0.39092191110002744,
        -0.8760264103857448,
        0.0,
        0.0,
        0.0,
        0.0,
        0.0,
        0.0,
        0.0,
        0.0,
        0.0,
        0.0,
        0.0,
        0.0,
        0.0,
        0.0,
        0.0,
        0.0,
        0.0,
        0.0,
        0.0,
        0.0,
        0.0,
        0.0
      ],
      "intercept_": 1.2733633963920432,
      "n_iter_": 6
    },
    "variable_p1_weights": {
      "coef_": [
        1.0078061213006624,
        0.499917906031839,
        0.058755650418092026,
        -0.032728235583981934,
        -0.4894135780506036,
        -0.9462119848542025,
        0.0,
        0.0,
        0.0,
        0.0,
        0.0,
        0.0,
        0.0,
        0.0,
        0.0,
        0.0,
        0.0,
        0.0,
        0.0,
        0.0,
        0.0,
        0.0,
        0.0,
        0.0,
        0.0,
        0.0,
        0.0,
        0.0
      ],
      "intercept_": 1.0192588232715307,
      "n_iter_": 6
    },
    "variable_p1": {
      "coef_": [
        0.9919342303009847,
        0.5021824692649183,
        0.08028788613451247,
        -0.04962804039963655,
        -0.47321432401988506,
        -0.922519464294658,
        0.0,
        0.0,
        0.0,
        0.0,
        0.0,
        0.0,
        0.0,
        0.0,
        0.0,
        0.0,
        0.0,
        0.0,
        0.0,
        0.0,
        0.0,
        0.0,
        0.0,
        0.0,
        0.0,
        0.0,
        0.0,
        0.0
      ],
      "intercept_": 1.044670526717954,
      "n_iter_": 7
    },
    "variable_p2_weights": {
      "coef_": [
        0.8053055590153682,
        0.4702233402506531,
        0.07783378024405187,
        -0.07663157500354309,
        -0.4216214005854042,
        -0.8432576752291943,
        0.02161649235468773,
        0.029894363840422523,
        -0.012155948666804401,
        0.06571138029840239,
        0.0925679209949969,
        0.06404576948479948,
        -0.0060558282975522555,
        0.23736654812502891,
        0.09794307630935312,
        -0.023311256265635252,
        0.05511480361804601,
        0.12473693297453489,
        0.3574156400512705,
        0.21028972690066425,
        -0.07917061153322957,
        0.10215491215992234,
        -0.5351785990834141,
        0.08959646208827816,
        -0.024543923185003345,
        0.21119168137573427,
        0.028200170213729666,
        0.3443249756968648
      ],
      "intercept_": 1.1339368960807619,
      "n_iter_": 3
    },
    "variable_p2": {
      "coef_": [
        0.8196027212688878,
        0.47848298402217765,
        0.07551162088098148,
        -0.09022825604095233,
        -0.4117659324501867,
        -0.840490648886,
        0.0332033232830355,
        0.01675657292103714,
        0.01641319571610858,
        0.06300285021839827,
        0.08570628453468938,
        0.056029315011994256,
        -0.016422214949860417,
        0.2631501895653107,
        0.13479401443444167,
        -0.014578042464910472,
        0.04797006490449103,
        0.09642159922865619,
        0.331255133607567,
        0.20594161568692315,
        -0.0637370202340086,
        0.11944755570356058,
        -0.5245646476008748,
        0.06618749056010863,
        -0.05437176171108457,
        0.21640630231906471,
        0.032958041415368254,
        0.32433765387604224
      ],
      "intercept_": 1.1377133510617012,
      "n_iter_": 3
    },
    "variable_p1_p2_weights": {
      "coef_": [
        0.8835890009409054,
        0.46813413043646634,
        0.041971354380052804,
        -0.04763945355335907,
        -0.4149037835347239,
        -0.834948732226135,
        0.0,
        0.006638834038897932,
        0.0,
        0.0,
        0.0,
        0.0,
        0.0,
        0.0,
        0.0,
        0.0,
        0.0,
        0.0,
        0.0,
        0.0,
        0.0,
        0.0,
        0.0,
        0.0,
        0.0,
        0.0,
        0.0,
        0.0
      ],
      "intercept_": 1.266637577518313,
      "n_iter_": 7
    },
    "variable_p1_p2": {
      "coef_": [
        0.8889674579856983,
        0.4779062951941063,
        0.04929314119271937,
        -0.06256039682823444,
        -0.40668024969217254,
        -0.8265467979162624,
        0.0,
        0.0,
        0.0,
        0.0,
        0.0,
        0.0,
        0.0,
        0.0,
        0.0,
        0.0,
        0.0,
        0.0,
        0.0,
        0.0,
        0.0,
        0.0,
        0.0,
        0.0,
        0.0,
        0.0,
        0.0,
        0.0
      ],
      "intercept_": 1.2669064965973602,
      "n_iter_": 7
    },
    "fit_intercept_weights": {
      "coef_": [
        1.1104590978689592,
        0.5711925548410978,
        0.09445017727101221,
        -0.10769767318017942,
        -0.5761264776632626,
        -1.1233565186916015,
        -0.009670317705774834,
        -0.001709065901474806,
        0.004746981723274688,
        0.0009537592379032913,
        0.07367750486958084,
        0.17801220945093893,
        0.20734112187398798,
        0.3721976562474159,
        0.07651823681328915,
        0.15768803979426044,
        0.2308021320477712,
        0.07813586166814802,
        0.4720857860040804,
        0.13567491359374306,
        0.2776794750522038,
        0.1384533394316447,
        0.0715396680935922,
        0.16490994527886668,
        0.4201742083333576,
        0.2719654638279901,
        0.2913739947111269,
        0.12098568922567912
      ],
      "intercept_": 0.0,
      "n_iter_": 3
    },
    "fit_intercept": {
      "coef_": [
        1.107064542951561,
        0.5720374750628335,
        0.11365497284101274,
        -0.10728840071452438,
        -0.568639944703117,
        -1.116898393926923,
        -0.017224478662877473,
        0.0024404664928610433,
        0.023777319412214108,
        0.00023766564784634655,
        0.08137709531563338,
        0.1681443043306796,
        0.21135504587902149,
        0.387203531261937,
        0.07594476266924888,
        0.16181062390783044,
        0.2394961707691617,
        0.07668951744533017,
        0.45617803528837925,
        0.13095856935047942,
        0.286212519856859,
        0.14861443290725315,
        0.08342281672251972,
        0.17421628574033793,
        0.4120808209458357,
        0.27069098276089815,
        0.31210495375776753,
        0.11633921969041462
      ],
      "intercept_": 0.0,
      "n_iter_": 3
    },
    "bounds_weights": {
      "coef_": [
        0.8852735295678732,
        0.45039524154221067,
        0.08576232030825334,
        -0.07462227356811564,
        -0.4516423502018468,
        -0.8795496292577676,
        0.0044477997634316405,
        0.009476592815518133,
        -0.02681010117297205,
        0.006924045436764649,
        -0.08182718970960276,
        0.014126503030780287,
        0.014360407523504778,
        0.15152649374294908,
        -0.09010038816816343,
        -0.03180556151341017,
        0.038955276219604915,
        -0.0966376114845609,
        0.3033741216769598,
        -0.0562414479206348,
        0.07665963651431612,
        -0.04936915659312706,
        -0.09256716683695233,
        -0.007692002854329647,
        0.25129742892604395,
        0.06517494068569804,
        0.09891347641510298,
        -0.056880039682509084
      ],
      "intercept_": 1.146446667159767,
      "n_iter_": 3
    },
    "bounds": {
      "coef_": [
        0.8917581565883045,
        0.463831002330167,
        0.08879741003800085,
        -0.08080707399414962,
        -0.4490027103248608,
        -0.8817095890812352,
        0.0089209274621057,
        0.0014902526061783378,
        -0.008404172072333668,
        0.007731918274243924,
        -0.08170680338837943,
        0.0143650012656232,
        0.012116883288604989,
        0.16835063896347865,
        -0.06964381447726037,
        -0.029737393194772643,
        0.03896969154596404,
        -0.10035243893852841,
        0.2745883416292535,
        -0.06862823814138713,
        0.07403429173907675,
        -0.03121072622685533,
        -0.10211983274185357,
        -0.013119696141775753,
        0.24015246797041648,
        0.0600020791998993,
        0.12051631294685364,
        -0.056196460549114376
      ],
      "intercept_": 1.1440664589132652,
      "n_iter_": 3
    }
  },
  "normal": {
    "default_weights": {
      "coef_": [
        0.5132407538295041,
        0.2579816851983705,
        0.047238079600770026,
        -0.059519877801004324,
        -0.2303979611779346,
        -0.4924049254569588,
        0.002365389456472959,
        0.025939569890474582,
        0.009902203329937924,
        0.003039908691889546,
        -0.02049531673578764,
        -0.002452421754816788,
        0.005332203250406312,
        0.02539808222445571,
        -0.007882248744558834,
        -0.002663798182521075,
        0.017970996236798875,
        -0.01663555702334752,
        0.034189601502231846,
        -0.011435798335798926,
        0.023622711721097357,
        -0.002218786981829414,
        -0.018742773085510308,
        -0.004472612650702493,
        0.04091730860766533,
        0.017885874330139367,
        0.014902047760760656,
        -0.015200892650396211
      ],
      "intercept_": 0.8891998236992569,
      "n_iter_": 1
    },
    "default": {
      "coef_": [
        0.5034172109341095,
        0.25606595839183766,
        0.04308247218950949,
        -0.06140974063344407,
        -0.23708764425976336,
        -0.4936267346388905,
        0.000489363052093179,
        0.012406401495636318,
        0.01307616308405394,
        -0.000930594108042453,
        -0.019459100016043656,
        -0.004450231855999541,
        0.0014736248786267837,
        0.024279832761964243,
        -0.010120286828722905,
        0.004650598623136488,
        0.01835569818296845,
        -0.014173613773295308,
        0.03592609424437932,
        -0.010221843117259672,
        0.021270126993831587,
        -0.002671469473725994,
        -0.016521665732522443,
        -0.004310704622357889,
        0.03602186475514437,
        0.012693562954282882,
        0.019443503017853442,
        -0.015247456632227242
      ],
      "intercept_": 0.8696164087525893,
      "n_iter_": 1
    },
    "no-regularization_weights": {
      "coef_": [
        1.0249316818992265,
        0.5018171772680289,
        0.08408584409346767,
        -0.13200717762762457,
        -0.49266540189921637,
        -0.9973719838531007,
        -0.011702368207947324,
        0.024194620041780367,
        0.01191516567604391,
        0.016517506960273036,
        0.07707534003159902,
        0.28860384463639,
        0.3283791246021672,
        0.6345809647763977,
        0.16466118181846567,
        0.24786754608931044,
        0.522147451269408,
        0.0123336772321277,
        0.6986130855298844,
        0.2690864550554665,
        0.7816748391296926,
        0.3428420555513577,
        0.18275945806312494,
        0.37125621931961594,
        0.8006756079196424,
        0.5547184947419133,
        0.5957778128926127,
        0.21261422216299578
      ],
      "intercept_": 0.160592442709114,
      "n_iter_": 1
    },
    "no-regularization": {
      "coef_": [
        1.0131328769250332,
        0.4987690105100168,
        0.08747094366215201,
        -0.1353585009467371,
        -0.5002001200580768,
        -0.9961404912884152,
        -0.008205945625713855,
        0.009494452837801521,
        0.016187015356252773,
        0.0046784748380307275,
        0.09366650353017679,
        0.2812323477668505,
        0.31476664879143795,
        0.6150920080603529,
        0.1571142192635376,
        0.30250886633894414,
        0.525627589286164,
        0.05892053959266066,
        0.7079654039493155,
        0.25982451168269366,
        0.7032077859467318,
        0.32748956440276716,
        0.18917688964654952,
        0.36117156013905755,
        0.7736599165238468,
        0.5249548152136402,
        0.6440068289148279,
        0.1786453846160862
      ],
      "intercept_": 0.16203811172088156,
      "n_iter_": 1
    },
    "half-regularization_weights": {
      "coef_": [
        0.6837845402763003,
        0.3411531682618198,
        0.060255444795647935,
        -0.0826257990750913,
        -0.31301066052505166,
        -0.6575311395905216,
        -0.0005008285998690502,
        0.02919268292144466,
        0.012651571976039428,
        0.006825722883142638,
        -0.03743363135933845,
        -0.0034199642834601054,
        0.008149186097293488,
        0.05154111256542204,
        -0.015522116775257715,
        -0.005349747032826113,
        0.03558907656243525,
        -0.03423520025644574,
        0.06429601188304251,
        -0.021460049311202368,
        0.04952219306775112,
        -0.005731156995660089,
        -0.033881709743628724,
        -0.006307696366036808,
        0.07359933941834362,
        0.0297824800062643,
        0.02924901413378003,
        -0.029003198867150713
      ],
      "intercept_": 0.874088034710393,
      "n_iter_": 1
    },
    "half-regularization": {
      "coef_": [
        0.6722139507836772,
        0.3389960450745863,
        0.05765043882217322,
        -0.0838941568726078,
        -0.32146036700908576,
        -0.6585448296912241,
        -0.0020616833476179695,
        0.014051929876326738,
        0.016309072597779358,
        0.0006592385374385106,
        -0.0351843277007894,
        -0.006390742078625021,
        0.002284662814209129,
        0.048570142471635006,
        -0.01906213434604773,
        0.006154546561286892,
        0.03551114736431302,
        -0.029624666047199332,
        0.06688170375506583,
        -0.019756242512803855,
        0.04339074965894516,
        -0.006675858319885152,
        -0.030372842288303933,
        -0.006031579401926808,
        0.06657157968990055,
        0.022867659320642258,
        0.03797965904930586,
        -0.030439083710907814
      ],
      "intercept_": 0.8594177973653593,
      "n_iter_": 1
    },
    "elastic-net_weights": {
      "coef_": [
        0.353786805572515,
        0.011286592337734557,
        0.0,
        0.0,
        0.0,
        -0.3230172642576811,
        0.0,
        0.0,
        0.0,
        0.0,
        0.0,
        0.0,
        0.0,
        0.0,
        0.0,
        0.0,
        0.0,
        0.0,
        0.0,
        0.0,
        0.0,
        0.0,
        0.0,
        0.0,
        0.0,
        0.0,
        0.0,
        0.0
      ],
      "intercept_": 0.9115220307044417,
      "n_iter_": 2
    },
    "elastic-net": {
      "coef_": [
        0.33732370611724366,
        0.009286075612207123,
        0.0,
        0.0,
        0.0,
        -0.3244205763205455,
        0.0,
        0.0,
        0.0,
        0.0,
        0.0,
        0.0,
        0.0,
        0.0,
        0.0,
        0.0,
        0.0,
        0.0,
        0.0,
        0.0,
        0.0,
        0.0,
        0.0,
        0.0,
        0.0,
        0.0,
        0.0,
        0.0
      ],
      "intercept_": 0.8856269310034365,
      "n_iter_": 2
    },
    "lasso_weights": {
      "coef_": [
        0.03102535511396638,
        0.0,
        0.0,
        0.0,
        0.0,
        0.0,
        0.0,
        0.0,
        0.0,
        0.0,
        0.0,
        0.0,
        0.0,
        0.0,
        0.0,
        0.0,
        0.0,
        0.0,
        0.0,
        0.0,
        0.0,
        0.0,
        0.0,
        0.0,
        0.0,
        0.0,
        0.0,
        0.0
      ],
      "intercept_": 0.920169932758961,
      "n_iter_": 1
    },
    "lasso": {
      "coef_": [
        0.00393878608154794,
        0.0,
        0.0,
        0.0,
        0.0,
        0.0,
        0.0,
        0.0,
        0.0,
        0.0,
        0.0,
        0.0,
        0.0,
        0.0,
        0.0,
        0.0,
        0.0,
        0.0,
        0.0,
        0.0,
        0.0,
        0.0,
        0.0,
        0.0,
        0.0,
        0.0,
        0.0,
        0.0
      ],
      "intercept_": 0.8864609709405988,
      "n_iter_": 1
    },
    "variable_p1_weights": {
      "coef_": [
        1.0400120966737565,
        0.41176201733326484,
        0.0,
        0.0,
        -0.045257364214166054,
        -0.46254514068762326,
        0.0,
        0.0,
        0.0,
        0.0,
        0.0,
        0.0,
        0.0,
        0.0,
        0.0,
        0.0,
        0.0,
        0.0,
        0.0,
        0.0,
        0.0,
        0.0,
        0.0,
        0.0,
        0.0,
        0.0,
        0.0,
        0.0
      ],
      "intercept_": 0.9190654838779793,
      "n_iter_": 2
    },
    "variable_p1": {
      "coef_": [
        1.016760263016397,
        0.4086585508106495,
        0.0,
        0.0,
        -0.06922605852878094,
        -0.4703309598846675,
        0.0,
        0.0,
        0.0,
        0.0,
        0.0,
        0.0,
        0.0,
        0.0,
        0.0,
        0.0,
        0.0,
        0.0,
        0.0,
        0.0,
        0.0,
        0.0,
        0.0,
        0.0,
        0.0,
        0.0,
        0.0,
        0.0
      ],
      "intercept_": 0.901365730628604,
      "n_iter_": 3
    },
    "variable_p2_weights": {
      "coef_": [
        0.46859540361056123,
        0.30409208143442895,
        0.048147875028200615,
        -0.038482489459945014,
        -0.15182383244529069,
        -0.5168357483638522,
        0.04807892916052969,
        -0.0428353295431242,
        0.16862270050290784,
        0.09633944167258003,
        0.052281356710653426,
        -0.04354661615529022,
        -0.21374153760459777,
        0.15213049459621225,
        0.10629436369174104,
        -0.0929181991372512,
        -0.04060478011527409,
        0.09205305519957817,
        0.12841934015288703,
        0.1300450227334508,
        0.01900113916358794,
        0.226571893943441,
        -0.35967163190708823,
        -0.0981291735486771,
        -0.23280339064587605,
        0.2607560431649322,
        -0.10266317105794151,
        0.2515119472015413
      ],
      "intercept_": 0.862555714582837,
      "n_iter_": 1
    },
    "variable_p2": {
      "coef_": [
        0.4558617101547656,
        0.300470555242324,
        0.04125892896323504,
        -0.03802011807652999,
        -0.16873107729932152,
        -0.5160498653126754,
        0.04638900682743574,
        -0.06252169371824369,
        0.17240731003589743,
        0.09304132445958589,
        0.05997920837250762,
        -0.05217828294349195,
        -0.22648305140791045,
        0.15260870473593144,
        0.10275064999954933,
        -0.09159546373838431,
        -0.031113740425070403,
        0.07646296677384368,
        0.1420216599576006,
        0.1224086883549784,
        0.01473935011909552,
        0.22625645202167127,
        -0.3642257398750417,
        -0.09254158875433315,
        -0.25211571331214255,
        0.25114078587045185,
        -0.09937967476646177,
        0.24862020757400763
      ],
      "intercept_": 0.8471327982224204,
      "n_iter_": 1
    },
    "variable_p1_p2_weights": {
      "coef_": [
        0.5071791729152195,
        0.29116374303551684,
        0.0,
        -0.0033392604120761385,
        -0.06541693092123373,
        -0.3194187008868007,
        0.0,
        0.0,
        0.0,
        0.0,
        0.0,
        0.0,
        0.0,
        0.0,
        0.0,
        0.0,
        0.0,
        0.0,
        0.0,
        0.0,
        0.0,
        0.0,
        0.0,
        0.0,
        0.0,
        0.0,
        0.0,
        0.0
      ],
      "intercept_": 0.9114520471171257,
      "n_iter_": 3
    },
    "variable_p1_p2": {
      "coef_": [
        0.49630553194156934,
        0.2865094093867724,
        0.0,
        -0.004896544571942871,
        -0.07371181257616613,
        -0.32059535246109633,
        0.0,
        0.0,
        0.0,
        0.0,
        0.0,
        0.0,
        0.0,
        0.0,
        0.0,
        0.0,
        0.0,
        0.0,
        0.0,
        0.0,
        0.0,
        0.0,
        0.0,
        0.0,
        0.0,
        0.0,
        0.0,
        0.0
      ],
      "intercept_": 0.8877839106967371,
      "n_iter_": 3
    },
    "fit_intercept_weights": {
      "coef_": [
        0.5006035127708252,
        0.26229733103031777,
        0.04007564072900031,
        -0.06855884310007035,
        -0.24043679593626682,
        -0.5147179795375054,
        0.00962693321933526,
        0.020360064920919446,
        0.029054606818881792,
        0.007102952269987753,
        0.054410409682540704,
        0.06906547948097667,
        0.08233883884277955,
        0.10685072689317666,
        0.062188457461945214,
        0.06833315079852531,
        0.09443576058848852,
        0.05306500664277034,
        0.1091584295787847,
        0.06357937599906983,
        0.0968632569892803,
        0.07733453896681583,
        0.055800282649291925,
        0.07060432481061833,
        0.11623739854017792,
        0.08829758455040106,
        0.08819037035594,
        0.05900967620588455
      ],
      "intercept_": 0.0,
      "n_iter_": 1
    },
    "fit_intercept": {
      "coef_": [
        0.48744829790508326,
        0.2601590947879038,
        0.038296715185990454,
        -0.06619213205773235,
        -0.24364035281893281,
        -0.5103053927212743,
        0.0012003805423228397,
        0.00525528059448733,
        0.02680122443621886,
        0.0037044314470752334,
        0.052304396837121445,
        0.06480397930004668,
        0.07305734377342192,
        0.1019027527978058,
        0.06034164348317199,
        0.07754059409532016,
        0.09255629598913825,
        0.05793186074150671,
        0.10881109570671875,
        0.0635400828609083,
        0.09573914167146577,
        0.07514947474988859,
        0.05817161959216677,
        0.06792172608717663,
        0.11060942583009413,
        0.08337683661495265,
        0.08903003458480088,
        0.05738225581607634
      ],
      "intercept_": 0.0,
      "n_iter_": 1
    },
    "bounds_weights": {
      "coef_": [
        0.513240753829504,
        0.2579816851983711,
        0.047238079600769874,
        -0.059519877801004276,
        -0.23039796117793512,
        -0.4924049254569588,
        0.0023653894564725567,
        0.025939569890474034,
        0.009902203329938939,
        0.003039908691889892,
        -0.02049531673578798,
        -0.0024524217548166694,
        0.005332203250406164,
        0.02539808222445551,
        -0.00788224874455868,
        -0.0026637981825211256,
        0.01797099623679873,
        -0.016635557023347784,
        0.034189601502231985,
        -0.011435798335798806,
        0.023622711721097436,
        -0.002218786981829395,
        -0.018742773085510384,
        -0.004472612650702568,
        0.04091730860766527,
        0.01788587433013904,
        0.01490204776076068,
        -0.01520089265039631
      ],
      "intercept_": 0.889199823699257,
      "n_iter_": 1
    },
    "bounds": {
      "coef_": [
        0.5034172109341091,
        0.25606595839183766,
        0.04308247218950912,
        -0.061409740633444336,
        -0.2370876442597635,
        -0.49362673463889095,
        0.0004893630520934191,
        0.01240640149563594,
        0.013076163084053911,
        -0.0009305941080426256,
        -0.01945910001604347,
        -0.004450231855999093,
        0.0014736248786266874,
        0.0242798327619647,
        -0.010120286828722475,
        0.004650598623136796,
        0.01835569818296863,
        -0.014173613773295247,
        0.03592609424437938,
        -0.010221843117259884,
        0.021270126993831507,
        -0.0026714694737261023,
        -0.01652166573252269,
        -0.004310704622358009,
        0.036021864755144295,
        0.01269356295428264,
        0.019443503017853307,
        -0.015247456632227343
      ],
      "intercept_": 0.8696164087525892,
      "n_iter_": 1
    }
  },
  "gamma": {
    "default_weights": {
      "coef_": [
        0.5073650119467237,
        0.2673885261089489,
        0.04758607506482833,
        -0.04566479600475273,
        -0.2415718842621335,
        -0.5055857199584216,
        0.018899873659347644,
        -0.0022881658996340972,
        0.0051980700400964695,
        -0.0003714721242941818,
        -0.02477268652808925,
        0.0022149712125168657,
        0.0011354138510793893,
        0.02769117270649301,
        -0.0071489061121802755,
        -0.0014474820604485049,
        0.006663751015328875,
        -0.015201443466512763,
        0.0452244101073163,
        -0.012528309994897374,
        0.0063611404372403355,
        -0.0033338440170535256,
        -0.01498555529445768,
        -0.01120344817183681,
        0.04416238715537861,
        0.008794693875598864,
        0.021654004319731135,
        -0.009396025693037062
      ],
      "intercept_": 1.2263097004810506,
      "n_iter_": 32
    },
    "default": {
      "coef_": [
        0.5029794116846777,
        0.2648481971413945,
        0.051552742819351724,
        -0.04495526997149077,
        -0.23583284691193498,
        -0.4969320664193945,
        0.002781246993355334,
        0.008102385352098942,
        -0.0019992498728775157,
        -0.002322229101458129,
        -0.01913543452067013,
        0.0008431924781770553,
        -0.0001510194077485422,
        0.028186147504858244,
        -0.011083551562488166,
        -0.000167251066488314,
        0.0052796377483911704,
        -0.011262236810744815,
        0.04205590688577221,
        -0.013158632619269578,
        0.006473212213965174,
        -0.0028814326184923725,
        -0.016052170384510813,
        -0.00837936003648652,
        0.042999710246956015,
        0.009436409183938458,
        0.020504174941474496,
        -0.007279242323083033
      ],
      "intercept_": 1.2387391743002312,
      "n_iter_": 28
    },
    "no-regularization_weights": {
      "coef_": [
        1.019926048544816,
        0.5232673188049589,
        0.11721759382161084,
        -0.10378687127102566,
        -0.4940763398264076,
        -1.033519680334812,
        0.005354502629874197,
        -0.013483617148659402,
        0.0128640087187256,
        0.02236875122257115,
        0.07419633728781527,
        0.40758812978698816,
        0.3432519468178563,
        0.6122722164410106,
        0.2132637629638996,
        0.27620828592058727,
        0.32089907808013163,
        0.11339298543495488,
        0.7063633841562845,
        0.21992572691509837,
        0.5908082709501552,
        0.2624918518072563,
        0.06910481437194335,
        0.297286475378735,
        0.6878544287787496,
        0.4319173916924011,
        0.675057473812514,
        0.16701001367176624
      ],
      "intercept_": 0.21926836887886036,
      "n_iter_": 6
    },
    "no-regularization": {
      "coef_": [
        1.0216034131341762,
        0.52914372936318,
        0.10905838492681459,
        -0.10179528726827719,
        -0.4937807396407566,
        -1.0203175533558453,
        0.0003083560886995978,
        -0.0018196567405166105,
        0.006509291962056097,
        0.0005892520392429061,
        0.13273114426201152,
        0.4425626047328678,
        0.39904316450933236,
        0.6886342853702735,
        0.20272517632075518,
        0.3346427892813619,
        0.40273664832659667,
        0.1936833438760831,
        0.7339133675530384,
        0.23139230987376863,
        0.5997854835929806,
        0.30697823337486074,
        0.12722360328082388,
        0.33693836059827814,
        0.7320958831254027,
        0.45525907916362296,
        0.6839055783916663,
        0.2149609815388327
      ],
      "intercept_": 0.14552487631732447,
      "n_iter_": 5
    },
    "half-regularization_weights": {
      "coef_": [
        0.6738444124776526,
        0.35061459774727843,
        0.065802028801025,
        -0.06384164006434216,
        -0.3235999940740441,
        -0.674592186259528,
        0.015170566996969654,
        -0.0020832523821156155,
        0.00982669901210582,
        0.0023619637313873434,
        -0.04147037135453858,
        0.006955457601716836,
        0.004065687868796239,
        0.05219181554138333,
        -0.01602894973993988,
        -0.0012587887455984582,
        0.01055615982290654,
        -0.02701255155991986,
        0.07497890000104245,
        -0.019832369982785782,
        0.023556924549075587,
        -0.0075915410352227946,
        -0.030389253534262254,
        -0.014799754479667434,
        0.07097930991333462,
        0.01765530065002292,
        0.039333686660150316,
        -0.02033335634825712
      ],
      "intercept_": 1.0366863620963715,
      "n_iter_": 14
    },
    "half-regularization": {
      "coef_": [
        0.6709624357214613,
        0.35036988221930654,
        0.06834885585200401,
        -0.06299906988600047,
        -0.3189805631550974,
        -0.6660012247400428,
        0.00026118696061815024,
        0.00936206093712767,
        0.0026948580899487807,
        -0.00393796412072059,
        -0.03564378718186807,
        0.0046575232949351425,
        0.0028136560777498876,
        0.05565069577588928,
        -0.022553251890509756,
        -8.8070717501903e-05,
        0.010740804055128091,
        -0.0213390766499883,
        0.07141492042875176,
        -0.021941884358897153,
        0.02298036758732895,
        -0.006375017191050357,
        -0.031037714962432073,
        -0.011779493982210952,
        0.07210012687668697,
        0.017722355604140094,
        0.038717836795130085,
        -0.01750559854165216
      ],
      "intercept_": 1.0474217611385939,
      "n_iter_": 13
    },
    "elastic-net_weights": {
      "coef_": [
        0.34901948932154947,
        0.034397787252021056,
        0.0,
        0.0,
        0.0,
        -0.3561337626600593,
        0.0,
        0.0,
        0.0,
        0.0,
        0.0,
        0.0,
        0.0,
        0.0,
        0.0,
        0.0,
        0.0,
        0.0,
        0.0,
        0.0,
        0.0,
        0.0,
        0.0,
        0.0,
        0.0,
        0.0,
        0.0,
        0.0
      ],
      "intercept_": 1.6109102460448546,
      "n_iter_": 24
    },
    "elastic-net": {
      "coef_": [
        0.3352874265310442,
        0.02135490844621079,
        0.0,
        0.0,
        0.0,
        -0.33523901919404936,
        0.0,
        0.0,
        0.0,
        0.0,
        0.0,
        0.0,
        0.0,
        0.0,
        0.0,
        0.0,
        0.0,
        0.0,
        0.0,
        0.0,
        0.0,
        0.0,
        0.0,
        0.0,
        0.0,
        0.0,
        0.0,
        0.0
      ],
      "intercept_": 1.6337810952557152,
      "n_iter_": 22
    },
    "lasso_weights": {
      "coef_": [
        0.03126989303786937,
        0.0,
        0.0,
        0.0,
        0.0,
        -0.017631669868242456,
        0.0,
        0.0,
        0.0,
        0.0,
        0.0,
        0.0,
        0.0,
        0.0,
        0.0,
        0.0,
        0.0,
        0.0,
        0.0,
        0.0,
        0.0,
        0.0,
        0.0,
        0.0,
        0.0,
        0.0,
        0.0,
        0.0
      ],
      "intercept_": 2.181486967827619,
      "n_iter_": 60
    },
    "lasso": {
      "coef_": [
        0.0015642027226911311,
        0.0,
        0.0,
        0.0,
        0.0,
        0.0,
        0.0,
        0.0,
        0.0,
        0.0,
        0.0,
        0.0,
        0.0,
        0.0,
        0.0,
        0.0,
        0.0,
        0.0,
        0.0,
        0.0,
        0.0,
        0.0,
        0.0,
        0.0,
        0.0,
        0.0,
        0.0,
        0.0
      ],
      "intercept_": 2.2018386726298536,
      "n_iter_": 32
    },
    "variable_p1_weights": {
      "coef_": [
        1.0350081055683245,
        0.42975484559988086,
        0.0,
        0.0,
        -0.07509142367517432,
        -0.4763731994210038,
        0.0,
        0.0,
        0.0,
        0.0,
        0.0,
        0.0,
        0.0,
        0.0,
        0.0,
        0.0,
        0.0,
        0.0,
        0.0,
        0.0,
        0.0,
        0.0,
        0.0,
        0.0,
        0.0,
        0.0,
        0.0,
        0.0
      ],
      "intercept_": 1.1783391729669421,
      "n_iter_": 71
    },
    "variable_p1": {
      "coef_": [
        1.0229476215725726,
        0.4283801390048695,
        0.0,
        0.0,
        -0.06784650570382408,
        -0.4684459023714699,
        0.0,
        0.0,
        0.0,
        0.0,
        0.0,
        0.0,
        0.0,
        0.0,
        0.0,
        0.0,
        0.0,
        0.0,
        0.0,
        0.0,
        0.0,
        0.0,
        0.0,
        0.0,
        0.0,
        0.0,
        0.0,
        0.0
      ],
      "intercept_": 1.1905325726053808,
      "n_iter_": 50
    },
    "variable_p2_weights": {
      "coef_": [
        0.4544441627015929,
        0.3115617563846409,
        0.05659335681025584,
        -0.016542854624990142,
        -0.1606334263958574,
        -0.5446790118618423,
        0.07859369974737393,
        -0.07157578168030633,
        0.15056789112712343,
        0.10137415521149007,
        0.0516490512532799,
        -0.03867440955324324,
        -0.21594439567690094,
        0.15439580080198068,
        0.09454011835405556,
        -0.09170518032696812,
        -0.05681038559278902,
        0.0758937573389419,
        0.15091967710306767,
        0.13865137526012428,
        -0.028154389314003776,
        0.2470268916868358,
        -0.37873161268912914,
        -0.09101716995227362,
        -0.22927092673555086,
        0.24463570686131178,
        -0.09542977060735351,
        0.2650422880928457
      ],
      "intercept_": 1.277932670628535,
      "n_iter_": 23
    },
    "variable_p2": {
      "coef_": [
        0.451209785478106,
        0.3092021361668706,
        0.06588555901497391,
        -0.021511691877142327,
        -0.15486891630237393,
        -0.5282425952301055,
        0.04869932570946819,
        -0.054476414457272894,
        0.1427839270978326,
        0.09853973552459278,
        0.04572044535727251,
        -0.023832396900154422,
        -0.21671252355808077,
        0.14215337961939606,
        0.08622572530260764,
        -0.09066168430874647,
        -0.05946059591169204,
        0.10420142551104757,
        0.14122196556780003,
        0.12956885580297714,
        -0.030012056618477192,
        0.2377107166135258,
        -0.36792950637891464,
        -0.07980908451147695,
        -0.20665444346870862,
        0.24757935394299185,
        -0.10092047748075522,
        0.2606046320326635
      ],
      "intercept_": 1.290297904733611,
      "n_iter_": 22
    },
    "variable_p1_p2_weights": {
      "coef_": [
        0.5056728881203172,
        0.298732470802154,
        0.0,
        0.0,
        -0.0828080618580228,
        -0.32898798690550585,
        0.0,
        0.0,
        0.0,
        0.0,
        0.0,
        0.0,
        0.0,
        0.0,
        0.0,
        0.0,
        0.0,
        0.0,
        0.0,
        0.0,
        0.0,
        0.0,
        0.0,
        0.0,
        0.0,
        0.0,
        0.0,
        0.0
      ],
      "intercept_": 1.4037702287509037,
      "n_iter_": 67
    },
    "variable_p1_p2": {
      "coef_": [
        0.4988934844358811,
        0.29486181770198683,
        0.0,
        0.0,
        -0.07576211664325698,
        -0.3192516070866609,
        0.0,
        0.0,
        0.0,
        0.0,
        0.0,
        0.0,
        0.0,
        0.0,
        0.0,
        0.0,
        0.0,
        0.0,
        0.0,
        0.0,
        0.0,
        0.0,
        0.0,
        0.0,
        0.0,
        0.0,
        0.0,
        0.0
      ],
      "intercept_": 1.4166029462924365,
      "n_iter_": 71
    },
    "bounds_weights": {
      "coef_": [
        0.5073650119467217,
        0.2673885261089481,
        0.047586075064827996,
        -0.04566479600475244,
        -0.24157188426213314,
        -0.5055857199584213,
        0.01889987365934758,
        -0.0022881658996347096,
        0.005198070040096005,
        -0.0003714721242949754,
        -0.024772686528089293,
        0.0022149712125164914,
        0.001135413851078914,
        0.02769117270649324,
        -0.007148906112180278,
        -0.001447482060448399,
        0.006663751015328712,
        -0.015201443466512496,
        0.04522441010731635,
        -0.012528309994897326,
        0.006361140437240537,
        -0.003333844017053388,
        -0.014985555294457524,
        -0.011203448171836656,
        0.04416238715537879,
        0.008794693875598754,
        0.021654004319731295,
        -0.009396025693036875
      ],
      "intercept_": 1.22630970048105,
      "n_iter_": 32
    },
    "bounds": {
      "coef_": [
        0.5029794116846779,
        0.2648481971413944,
        0.051552742819352196,
        -0.044955269971490984,
        -0.23583284691193446,
        -0.49693206641939425,
        0.0027812469933553284,
        0.008102385352099499,
        -0.0019992498728778675,
        -0.0023222291014581924,
        -0.019135434520669944,
        0.0008431924781768143,
        -0.00015101940774869336,
        0.028186147504858636,
        -0.01108355156248828,
        -0.00016725106648866794,
        0.005279637748390634,
        -0.011262236810744845,
        0.04205590688577195,
        -0.013158632619269393,
        0.006473212213965097,
        -0.002881432618492029,
        -0.016052170384510546,
        -0.008379360036486113,
        0.042999710246956195,
        0.009436409183938647,
        0.02050417494147469,
        -0.007279242323082821
      ],
      "intercept_": 1.2387391743002314,
      "n_iter_": 28
    }
  },
  "tweedie_p=1.5": {
    "default_weights": {
      "coef_": [
        0.7019051488326317,
        0.34937658055775367,
        0.07119821248665271,
        -0.0724679962139093,
        -0.3263850416676021,
        -0.6935597103224532,
        -0.0026022052014792623,
        0.014574130913236177,
        -0.023566868967192345,
        0.003632552592686122,
        -0.030917640087192888,
        0.007134977215669953,
        0.005452234916749379,
        0.0589350890567511,
        -0.028404149320566025,
        0.0013574669337719537,
        0.009591070494281435,
        -0.03970614568248816,
        0.09471304776710492,
        -0.02013562010195123,
        0.01801522045183458,
        -0.013490630617411997,
        -0.03665985185916104,
        -0.014597476846463316,
        0.08666461354389815,
        0.022332380930630433,
        0.036691127075596054,
        -0.02414571122702134
      ],
      "intercept_": 1.3117029292454618,
      "n_iter_": 7
    },
    "default": {
      "coef_": [
        0.7035010419005431,
        0.35151368681648787,
        0.06878569168163835,
        -0.06400294028779988,
        -0.3338109134336609,
        -0.6900431322316949,
        0.0150153823452929,
        0.007260265896579155,
        -0.02241301914537623,
        0.0036407741919088016,
        -0.03168377887220897,
        0.0055860692139640305,
        0.0028675968306666037,
        0.060484309699919976,
        -0.026152367491052767,
        0.002126908589396529,
        0.007674796205676916,
        -0.03530445365336386,
        0.09222986783625312,
        -0.027004338643876327,
        0.012998365270321756,
        -0.010195430234535993,
        -0.03812290574265468,
        -0.015562139708574577,
        0.09325519210214965,
        0.018157394136627036,
        0.04213102358245412,
        -0.023081841583462243
      ],
      "intercept_": 1.3055400179112615,
      "n_iter_": 7
    },
    "no-regularization_weights": {
      "coef_": [
        1.0081152139324976,
        0.49633600638466374,
        0.10408795425457094,
        -0.10236678378975983,
        -0.4940506026830087,
        -1.007654174515481,
        -0.0027011827660059487,
        0.0002594463801748964,
        -0.008030425092443545,
        0.0035941294855820483,
        0.14702931407732278,
        0.44416840743672265,
        0.4483040393269772,
        0.686735495113428,
        0.18096897648479407,
        0.3969460645296837,
        0.49424928541316604,
        0.15709279069836057,
        0.7568381050752475,
        0.2518101592963657,
        0.5499657525537883,
        0.2590643635754877,
        0.10742498512491466,
        0.2727222869413008,
        0.7138400532295521,
        0.47695932470359476,
        0.5374596177216708,
        0.14429674981338386
      ],
      "intercept_": 0.18706716411522828,
      "n_iter_": 4
    },
    "no-regularization": {
      "coef_": [
        1.0115263397191,
        0.4869809467011006,
        0.10073581081732841,
        -0.09901305132003688,
        -0.4990786490991569,
        -1.004080706824258,
        0.009010930370522668,
        -0.004941969356956992,
        -0.0127256716096271,
        0.0014145180834822567,
        0.17062136019878207,
        0.4334127015543372,
        0.445494797809784,
        0.6982501933217031,
        0.15214898913660005,
        0.3875611095287988,
        0.47223211595309755,
        0.14634200302920752,
        0.7628099882703999,
        0.20048750860995246,
        0.5333330671383584,
        0.23952875966435036,
        0.07848211880283601,
        0.25511964205252874,
        0.6985316063503544,
        0.4628674225106743,
        0.54884601103484,
        0.1449364962308504
      ],
      "intercept_": 0.19833919967478153,
      "n_iter_": 4
    },
    "half-regularization_weights": {
      "coef_": [
        0.8246293317699155,
        0.41000783896198056,
        0.08129321647974191,
        -0.08472774931952796,
        -0.3912408483379117,
        -0.8170911264002111,
        -0.003699745637159055,
        0.012130267886932548,
        -0.018042825783847586,
        0.004022238260027068,
        -0.055352723581292264,
        0.014753861204074898,
        0.01541516828615057,
        0.10268826138391561,
        -0.047730902064932246,
        0.0028985192214264596,
        0.024227287372030788,
        -0.06347890277034844,
        0.14816710035442637,
        -0.030114634078772656,
        0.044588409590650496,
        -0.023457646306318594,
        -0.06147518280914919,
        -0.020552286607119948,
        0.14082361309334632,
        0.04053539462045331,
        0.06243297306307413,
        -0.04701113392572108
      ],
      "intercept_": 1.1408463554406385,
      "n_iter_": 6
    },
    "half-regularization": {
      "coef_": [
        0.8265373119373598,
        0.4085437986300118,
        0.07981611179446864,
        -0.07751636644311337,
        -0.39841123492264213,
        -0.8121187334970643,
        0.012162758235485273,
        0.005767498587761961,
        -0.018664403285986564,
        0.0036911057001616683,
        -0.05267227533179973,
        0.012359612826477087,
        0.012519600208835704,
        0.10621938273316024,
        -0.047526339150206175,
        0.004057021619717396,
        0.020542131422362046,
        -0.06002004138194303,
        0.1469232995614619,
        -0.04102665890209396,
        0.03875569697258545,
        -0.02012768698593332,
        -0.06381023597968467,
        -0.021160318488532687,
        0.14681254760955476,
        0.03622654727454579,
        0.07141778424776164,
        -0.0436015973039172
      ],
      "intercept_": 1.133125194893005,
      "n_iter_": 6
    },
    "elastic-net_weights": {
      "coef_": [
        0.6547255357982036,
        0.23511856240777945,
        0.0,
        0.0,
        -0.1993878923428156,
        -0.6512909155663711,
        0.0,
        0.0,
        0.0,
        0.0,
        0.0,
        0.0,
        0.0,
        0.0,
        0.0,
        0.0,
        0.0,
        0.0,
        0.0,
        0.0,
        0.0,
        0.0,
        0.0,
        0.0,
        0.0,
        0.0,
        0.0,
        0.0
      ],
      "intercept_": 1.4429486426649292,
      "n_iter_": 15
    },
    "elastic-net": {
      "coef_": [
        0.6572167457966509,
        0.2410353336499786,
        0.0,
        0.0,
        -0.21000644117487402,
        -0.6473952944384606,
        0.0,
        0.0,
        0.0,
        0.0,
        0.0,
        0.0,
        0.0,
        0.0,
        0.0,
        0.0,
        0.0,
        0.0,
        0.0,
        0.0,
        0.0,
        0.0,
        0.0,
        0.0,
        0.0,
        0.0,
        0.0,
        0.0
      ],
      "intercept_": 1.4374730916856624,
      "n_iter_": 15
    },
    "lasso_weights": {
      "coef_": [
        0.5948253740812293,
        0.07879527958603745,
        0.0,
        0.0,
        -0.02299342903798851,
        -0.5957085312331062,
        0.0,
        0.0,
        0.0,
        0.0,
        0.0,
        0.0,
        0.0,
        0.0,
        0.0,
        0.0,
        0.0,
        0.0,
        0.0,
        0.0,
        0.0,
        0.0,
        0.0,
        0.0,
        0.0,
        0.0,
        0.0,
        0.0
      ],
      "intercept_": 1.5802820636681385,
      "n_iter_": 30
    },
    "lasso": {
      "coef_": [
        0.5979051929854524,
        0.09266269201676855,
        0.0,
        0.0,
        -0.03876825450341497,
        -0.5953919074363314,
        0.0,
        0.0,
        0.0,
        0.0,
        0.0,
        0.0,
        0.0,
        0.0,
        0.0,
        0.0,
        0.0,
        0.0,
        0.0,
        0.0,
        0.0,
        0.0,
        0.0,
        0.0,
        0.0,
        0.0,
        0.0,
        0.0
      ],
      "intercept_": 1.5752750294021296,
      "n_iter_": 22
    },
    "variable_p1_weights": {
      "coef_": [
        1.0139809757597653,
        0.4611414710502999,
        0.005963071474593722,
        0.0,
        -0.297577898068573,
        -0.7675074411865128,
        0.0,
        0.0,
        0.0,
        0.0,
        0.0,
        0.0,
        0.0,
        0.0,
        0.0,
        0.0,
        0.0,
        0.0,
        0.0,
        0.0,
        0.0,
        0.0,
        0.0,
        0.0,
        0.0,
        0.0,
        0.0,
        0.0
      ],
      "intercept_": 1.1357660776482275,
      "n_iter_": 8
    },
    "variable_p1": {
      "coef_": [
        1.0152101822205577,
        0.4567096752821781,
        0.004669880872442117,
        0.0,
        -0.3101375821282988,
        -0.7585601656383143,
        0.0,
        0.0,
        0.0,
        0.0,
        0.0,
        0.0,
        0.0,
        0.0,
        0.0,
        0.0,
        0.0,
        0.0,
        0.0,
        0.0,
        0.0,
        0.0,
        0.0,
        0.0,
        0.0,
        0.0,
        0.0,
        0.0
      ],
      "intercept_": 1.1259660407972194,
      "n_iter_": 8
    },
    "variable_p2_weights": {
      "coef_": [
        0.6346004859523241,
        0.3784478218101819,
        0.05730414892414333,
        -0.08064762675339074,
        -0.25358696659018937,
        -0.6725715744693933,
        0.03569222636069225,
        -0.007115552139518152,
        0.06451619723714135,
        0.09363172966345393,
        0.0459097508777555,
        0.021587904098922844,
        -0.1381102532032974,
        0.16733390270220663,
        0.0889089786770287,
        -0.07958591018476074,
        -0.05372147272644303,
        0.12592502518599552,
        0.18616613216574374,
        0.16797490131090062,
        -0.04165849436624919,
        0.2160461071551567,
        -0.49550794987348523,
        -0.031163435522132642,
        -0.20417828968682147,
        0.26930977895028335,
        -0.053216419995529604,
        0.32689986500655766
      ],
      "intercept_": 1.32559815084196,
      "n_iter_": 7
    },
    "variable_p2": {
      "coef_": [
        0.6330168320990345,
        0.37625552263129886,
        0.061083411191939205,
        -0.06610288821171263,
        -0.260068889982489,
        -0.6749418100471928,
        0.05869310729612315,
        -0.020931758429882576,
        0.06872660137457479,
        0.0963574080610211,
        0.0659293452198345,
        0.002459280156683526,
        -0.13358662924245254,
        0.1704230683668036,
        0.09582033788983611,
        -0.07985824830270113,
        -0.04906930064752791,
        0.12405468649839196,
        0.192958041092647,
        0.17233083476707253,
        -0.051258441787460425,
        0.22461208246936842,
        -0.5010266064082787,
        -0.02636057708705198,
        -0.19752708814131573,
        0.26098569998120247,
        -0.0513771340101842,
        0.32986702686056224
      ],
      "intercept_": 1.3166251718112147,
      "n_iter_": 7
    },
    "variable_p1_p2_weights": {
      "coef_": [
        0.7008327694429723,
        0.38157106209237257,
        0.0,
        -0.04497554357711459,
        -0.1992861058456039,
        -0.5691047371688048,
        0.0,
        0.0,
        0.0,
        0.0,
        0.0,
        0.0,
        0.0,
        0.0,
        0.0,
        0.0,
        0.0,
        0.0,
        0.0,
        0.0,
        0.0,
        0.0,
        0.0,
        0.0,
        0.0,
        0.0,
        0.0,
        0.0
      ],
      "intercept_": 1.4251945938520252,
      "n_iter_": 10
    },
    "variable_p1_p2": {
      "coef_": [
        0.7017718467321289,
        0.3856062987361744,
        0.0,
        -0.03217255526679958,
        -0.2094301864124205,
        -0.5635569648717095,
        0.0,
        0.0,
        0.0,
        0.0,
        0.0,
        0.0,
        0.0,
        0.0,
        0.0,
        0.0,
        0.0,
        0.0,
        0.0,
        0.0,
        0.0,
        0.0,
        0.0,
        0.0,
        0.0,
        0.0,
        0.0,
        0.0
      ],
      "intercept_": 1.4206719896735787,
      "n_iter_": 11
    },
    "fit_intercept_weights": {
      "coef_": [
        0.9161391111094981,
        0.47755516487726274,
        0.08724158417183166,
        -0.09794716224207423,
        -0.4471937212539846,
        -0.9605831973235924,
        0.0009921669398735634,
        0.011877422783071712,
        0.006298298638233803,
        0.005570403629175432,
        0.10217429961588673,
        0.15598941964415594,
        0.17121288602819695,
        0.24445368768492015,
        0.11592735409176151,
        0.16341779292173214,
        0.17210698855252834,
        0.09835707456770416,
        0.27598124646176814,
        0.13082463823036758,
        0.19399883236339843,
        0.14233444004996781,
        0.1056176325555231,
        0.13483566901486174,
        0.278517266989491,
        0.18708854465551797,
        0.19858210223925746,
        0.11826288463222595
      ],
      "intercept_": 0.0,
      "n_iter_": 12
    },
    "fit_intercept": {
      "coef_": [
        0.9252276577527341,
        0.4742691600666225,
        0.08617110136742806,
        -0.09246242578484676,
        -0.46201236834276255,
        -0.9518838836884438,
        0.015083194516831875,
        -0.0004513704134356164,
        0.002482528031514481,
        0.00710442283447435,
        0.1058740549820575,
        0.15331935975802982,
        0.1638083560623672,
        0.24580532869654512,
        0.1095512397185267,
        0.16015052908365593,
        0.17154424342764876,
        0.10577255635176215,
        0.2713066558527527,
        0.12226646009418615,
        0.18556886120908075,
        0.1456919537140246,
        0.10561428171472469,
        0.13364659291641082,
        0.2770055542470132,
        0.18167380959448579,
        0.20460878864016097,
        0.11975112321140328
      ],
      "intercept_": 0.0,
      "n_iter_": 12
    },
    "bounds_weights": {
      "coef_": [
        0.701905148832632,
        0.34937658055775406,
        0.07119821248665273,
        -0.07246799621390909,
        -0.32638504166760257,
        -0.6935597103224544,
        -0.002602205201479474,
        0.014574130913236274,
        -0.023566868967192164,
        0.003632552592686143,
        -0.03091764008719291,
        0.007134977215669908,
        0.005452234916749258,
        0.05893508905675103,
        -0.02840414932056599,
        0.0013574669337719275,
        0.009591070494281508,
        -0.03970614568248816,
        0.09471304776710486,
        -0.020135620101951274,
        0.018015220451834513,
        -0.013490630617411957,
        -0.03665985185916104,
        -0.014597476846463358,
        0.0866646135438981,
        0.022332380930630454,
        0.0366911270755961,
        -0.024145711227021326
      ],
      "intercept_": 1.311702929245461,
      "n_iter_": 7
    },
    "bounds": {
      "coef_": [
        0.7035010419005449,
        0.3515136868164892,
        0.06878569168163846,
        -0.06400294028779975,
        -0.33381091343366154,
        -0.6900431322316961,
        0.015015382345292955,
        0.007260265896578919,
        -0.022413019145376283,
        0.0036407741919089044,
        -0.031683778872208995,
        0.005586069213964075,
        0.002867596830666596,
        0.060484309699920115,
        -0.02615236749105272,
        0.0021269085893966034,
        0.007674796205676925,
        -0.03530445365336389,
        0.09222986783625334,
        -0.02700433864387633,
        0.012998365270321749,
        -0.010195430234536066,
        -0.03812290574265465,
        -0.015562139708574585,
        0.09325519210214979,
        0.018157394136627047,
        0.042131023582454234,
        -0.023081841583462274
      ],
      "intercept_": 1.3055400179112606,
      "n_iter_": 7
    }
  }
}