{
  "poisson": {
    "default_weights": {
      "coef_": [
        0.8852735295678706,
        0.4503952415422101,
        0.08576232030825283,
        -0.07462227356811556,
        -0.4516423502018466,
        -0.8795496292577667,
        0.004447799763431785,
        0.009476592815518377,
        -0.026810101172972174,
        0.006924045436764948,
        -0.08182718970960241,
        0.01412650303078034,
        0.014360407523505444,
        0.15152649374294994,
        -0.09010038816816324,
        -0.03180556151341,
        0.03895527621960504,
        -0.09663761148456101,
        0.3033741216769585,
        -0.05624144792063477,
        0.07665963651431655,
        -0.04936915659312709,
        -0.09256716683695251,
        -0.0076920028543299036,
        0.2512974289260436,
        0.06517494068569835,
        0.09891347641510312,
        -0.056880039682508814
      ],
      "intercept_": 1.1464466671597733,
      "n_iter_": 3
    },
    "default": {
      "coef_": [
        0.8917581565883026,
        0.46383100233016666,
        0.08879741003800035,
        -0.08080707399414942,
        -0.44900271032486017,
        -0.8817095890812344,
        0.008920927462105863,
        0.001490252606178335,
        -0.008404172072333696,
        0.007731918274244045,
        -0.08170680338837989,
        0.014365001265623062,
        0.012116883288605391,
        0.16835063896347852,
        -0.06964381447726009,
        -0.029737393194772692,
        0.03896969154596416,
        -0.10035243893852858,
        0.2745883416292534,
        -0.06862823814138708,
        0.07403429173907762,
        -0.03121072622685514,
        -0.10211983274185384,
        -0.013119696141775576,
        0.2401524679704166,
        0.06000207919989975,
        0.120516312946854,
        -0.0561964605491145
      ],
      "intercept_": 1.144066458913268,
      "n_iter_": 3
    },
    "no-regularization_weights": {
      "coef_": [
        1.0015203139231235,
        0.5083046156411197,
        0.09653725977573183,
        -0.10693257075156525,
        -0.5027997706318947,
        -1.0039808784349669,
        -0.005917734015223867,
        -0.005389727780014406,
        -0.0009804742051349466,
        0.0003340521087318482,
        0.10433164981758951,
        0.392185553533165,
        0.38032909150815186,
        0.6678881360839157,
        0.06983035372741239,
        0.30066193339479136,
        0.4470316593577874,
        0.07788531479099349,
        0.7406256391209415,
        0.2653668602155642,
        0.6343190219745839,
        0.28106137438583384,
        0.12239026673425613,
        0.30696219490196425,
        0.7210174680285604,
        0.5274064568237047,
        0.5952146463460295,
        0.2132602434760985
      ],
      "intercept_": 0.19954331756100985,
      "n_iter_": 4
    },
    "no-regularization": {
      "coef_": [
        1.0012633304372855,
        0.5058153268969551,
        0.09883222602980637,
        -0.10248089110471528,
        -0.5038940155837576,
        -0.9968561194306583,
        -0.004386236064099637,
        -0.004877012132578087,
        0.0029001854645328297,
        0.0022299470820937566,
        0.11173300105167312,
        0.36753161221631203,
        0.3776884358849468,
        0.653594004542307,
        0.07392976444502275,
        0.2966741385754589,
        0.4421183836543435,
        0.08339089448802033,
        0.737398512368029,
        0.2509770892170327,
        0.6233360076851825,
        0.29445822842639935,
        0.1337955423123551,
        0.3165146662937083,
        0.7279692058812756,
        0.5300176002034584,
        0.6086669003910079,
        0.2199801282602621
      ],
      "intercept_": 0.20675921004500364,
      "n_iter_": 4
    },
    "half-regularization_weights": {
      "coef_": [
        0.9391333068174458,
        0.4771491067501758,
        0.08673772985374553,
        -0.08646509701536712,
        -0.47594496317397406,
        -0.9332900504534298,
        0.0005797194098809505,
        0.0036101661817507453,
        -0.016945968671143438,
        0.0054555163463330765,
        -0.10272617085888121,
        0.038760574358881444,
        0.03761902011710395,
        0.2335048164902824,
        -0.11983814850759615,
        -0.02858351992521977,
        0.07613923442034483,
        -0.12127190620526272,
        0.3720071983872012,
        -0.05599046744701105,
        0.14470543211931602,
        -0.046032086439879015,
        -0.11850192237713307,
        -0.0049154092121848035,
        0.3166746102701959,
        0.10920290030329843,
        0.153300621744854,
        -0.06924301886549596
      ],
      "intercept_": 0.9861000399213053,
      "n_iter_": 3
    },
    "half-regularization": {
      "coef_": [
        0.9397482268215859,
        0.48595520913846824,
        0.09227495575370698,
        -0.08929954029685586,
        -0.47265545982230955,
        -0.9313523421367523,
        0.0014569573618709026,
        -0.0002555571268266246,
        -0.00286118109428273,
        0.006403864622337904,
        -0.10038424097386263,
        0.029957607599993195,
        0.03891532204634213,
        0.24529535660893134,
        -0.10046057089747062,
        -0.026234815824355287,
        0.07692100699347813,
        -0.12320122095393828,
        0.35425565313474566,
        -0.06993121199049943,
        0.14052028762548385,
        -0.02804605281946911,
        -0.12501164289063071,
        -0.00502816137038295,
        0.3078477377846651,
        0.10458649093951787,
        0.17659816611166063,
        -0.06645494359319809
      ],
      "intercept_": 0.987700299915529,
      "n_iter_": 3
    },
    "elastic-net_weights": {
      "coef_": [
        0.8835313868227269,
        0.4211611988107411,
        0.03203011534197621,
        -0.011139547011570022,
        -0.4316408237766309,
        -0.8883570544754891,
        0.0,
        0.0,
        0.0,
        0.0,
        0.0,
        0.0,
        0.0,
        0.0,
        0.0,
        0.0,
        0.0,
        0.0,
        0.11695742012379877,
        0.0,
        0.0,
        0.0,
        0.0,
        0.0,
        0.0266702139240893,
        0.0,
        0.0,
        0.0
      ],
      "intercept_": 1.2187136764522537,
      "n_iter_": 7
    },
    "elastic-net": {
      "coef_": [
        0.8891081445430838,
        0.43694564676734365,
        0.04231771213593695,
        -0.024755913776439806,
        -0.4260601086064715,
        -0.8786026114266314,
        0.0,
        0.0,
        0.0,
        0.0,
        0.0,
        0.0,
        0.0,
        0.0,
        0.0,
        0.0,
        0.0,
        0.0,
        0.04778747268373624,
        0.0,
        0.0,
        0.0,
        0.0,
        0.0,
        0.00938461504720651,
        0.0,
        0.0,
        0.0
      ],
      "intercept_": 1.229652096914394,
      "n_iter_": 7
    },
    "lasso_weights": {
      "coef_": [
        0.8767676363075421,
        0.38791619008259987,
        0.0,
        0.0,
        -0.39901571711957873,
        -0.8918790217164494,
        0.0,
        0.0,
        0.0,
        0.0,
        0.0,
        0.0,
        0.0,
        0.0,
        0.0,
        0.0,
        0.0,
        0.0,
        0.0,
        0.0,
        0.0,
        0.0,
        0.0,
        0.0,
        0.0,
        0.0,
        0.0,
        0.0
      ],
      "intercept_": 1.268226924481356,
      "n_iter_": 6
    },
    "lasso": {
      "coef_": [
        0.8828658037107961,
        0.40483676393863094,
        0.0,
        0.0,
        -0.39092191110002744,
        -0.876026410385745,
        0.0,
        0.0,
        0.0,
        0.0,
        0.0,
        0.0,
        0.0,
        0.0,
        0.0,
        0.0,
        0.0,
        0.0,
        0.0,
        0.0,
        0.0,
        0.0,
        0.0,
        0.0,
        0.0,
        0.0,
        0.0,
        0.0
      ],
      "intercept_": 1.2733633963920434,
      "n_iter_": 6
    },
    "variable_p1_weights": {
      "coef_": [
        1.0078061213006626,
        0.49991790603183894,
        0.05875565041809199,
        -0.03272823558398199,
        -0.4894135780506035,
        -0.9462119848542025,
        0.0,
        0.0,
        0.0,
        0.0,
        0.0,
        0.0,
        0.0,
        0.0,
        0.0,
        0.0,
        0.0,
        0.0,
        0.0,
        0.0,
        0.0,
        0.0,
        0.0,
        0.0,
        0.0,
        0.0,
        0.0,
        0.0
      ],
      "intercept_": 1.0192588232715307,
      "n_iter_": 6
    },
    "variable_p1": {
      "coef_": [
        0.9919342303009847,
        0.5021824692649185,
        0.08028788613451253,
        -0.04962804039963663,
        -0.47321432401988517,
        -0.9225194642946579,
        0.0,
        0.0,
        0.0,
        0.0,
        0.0,
        0.0,
        0.0,
        0.0,
        0.0,
        0.0,
        0.0,
        0.0,
        0.0,
        0.0,
        0.0,
        0.0,
        0.0,
        0.0,
        0.0,
        0.0,
        0.0,
        0.0
      ],
      "intercept_": 1.044670526717954,
      "n_iter_": 7
    },
    "variable_p2_weights": {
      "coef_": [
        0.8053055590153682,
        0.470223340250653,
        0.07783378024405153,
        -0.07663157500354277,
        -0.4216214005854039,
        -0.8432576752291958,
        0.021616492354687537,
        0.0298943638404228,
        -0.012155948666803855,
        0.06571138029840244,
        0.09256792099499658,
        0.06404576948479991,
        -0.006055828297553304,
        0.23736654812502916,
        0.0979430763093533,
        -0.023311256265634944,
        0.05511480361804599,
        0.1247369329745347,
        0.35741564005127074,
        0.21028972690066436,
        -0.07917061153323003,
        0.10215491215992233,
        -0.5351785990834138,
        0.08959646208827773,
        -0.024543923185003556,
        0.21119168137573496,
        0.028200170213729437,
        0.344324975696865
      ],
      "intercept_": 1.13393689608076,
      "n_iter_": 3
    },
    "variable_p2": {
      "coef_": [
        0.8196027212688882,
        0.4784829840221772,
        0.07551162088098123,
        -0.09022825604095248,
        -0.41176593245018606,
        -0.8404906488859993,
        0.03320332328303542,
        0.016756572921037226,
        0.01641319571610881,
        0.06300285021839815,
        0.08570628453468974,
        0.05602931501199474,
        -0.01642221494985943,
        0.26315018956531083,
        0.13479401443444242,
        -0.014578042464909628,
        0.0479700649044912,
        0.09642159922865642,
        0.33125513360756675,
        0.20594161568692324,
        -0.06373702023400885,
        0.11944755570356062,
        -0.5245646476008743,
        0.06618749056010877,
        -0.05437176171108291,
        0.21640630231906482,
        0.03295804141536781,
        0.32433765387604174
      ],
      "intercept_": 1.1377133510617008,
      "n_iter_": 3
    },
    "variable_p1_p2_weights": {
      "coef_": [
        0.8835890009409055,
        0.46813413043646623,
        0.04197135438005278,
        -0.04763945355335904,
        -0.414903783534724,
        -0.8349487322261349,
        0.0,
        0.006638834038897955,
        0.0,
        0.0,
        0.0,
        0.0,
        0.0,
        0.0,
        0.0,
        0.0,
        0.0,
        0.0,
        0.0,
        0.0,
        0.0,
        0.0,
        0.0,
        0.0,
        0.0,
        0.0,
        0.0,
        0.0
      ],
      "intercept_": 1.266637577518313,
      "n_iter_": 7
    },
    "variable_p1_p2": {
      "coef_": [
        0.8889674579856984,
        0.47790629519410627,
        0.049293141192719346,
        -0.06256039682823443,
        -0.40668024969217254,
        -0.8265467979162626,
        0.0,
        0.0,
        0.0,
        0.0,
        0.0,
        0.0,
        0.0,
        0.0,
        0.0,
        0.0,
        0.0,
        0.0,
        0.0,
        0.0,
        0.0,
        0.0,
        0.0,
        0.0,
        0.0,
        0.0,
        0.0,
        0.0
      ],
      "intercept_": 1.2669064965973602,
      "n_iter_": 7
    },
    "fit_intercept_weights": {
      "coef_": [
        1.1104590978689612,
        0.5711925548410975,
        0.09445017727101042,
        -0.10769767318017918,
        -0.5761264776632624,
        -1.1233565186916008,
        -0.00967031770577454,
        -0.0017090659014734858,
        0.004746981723274554,
        0.0009537592379029203,
        0.07367750486958036,
        0.17801220945093918,
        0.20734112187398737,
        0.37219765624741624,
        0.07651823681328884,
        0.1576880397942603,
        0.23080213204777159,
        0.07813586166814791,
        0.47208578600408113,
        0.13567491359374298,
        0.27767947505220353,
        0.13845333943164503,
        0.07153966809359165,
        0.1649099452788664,
        0.4201742083333575,
        0.2719654638279901,
        0.29137399471112624,
        0.12098568922567889
      ],
      "intercept_": 0.0,
      "n_iter_": 3
    },
    "fit_intercept": {
      "coef_": [
        1.107064542951561,
        0.5720374750628335,
        0.11365497284101274,
        -0.10728840071452438,
        -0.568639944703117,
        -1.116898393926923,
        -0.017224478662877473,
        0.0024404664928610433,
        0.023777319412214108,
        0.00023766564784634655,
        0.08137709531563338,
        0.1681443043306796,
        0.21135504587902149,
        0.387203531261937,
        0.07594476266924888,
        0.16181062390783044,
        0.2394961707691617,
        0.07668951744533017,
        0.45617803528837925,
        0.13095856935047942,
        0.286212519856859,
        0.14861443290725315,
        0.08342281672251972,
        0.17421628574033793,
        0.4120808209458357,
        0.27069098276089815,
        0.31210495375776753,
        0.11633921969041462
      ],
      "intercept_": 0.0,
      "n_iter_": 3
    }
  },
  "normal": {
    "default_weights": {
      "coef_": [
        0.5132407538295041,
        0.25798168519837117,
        0.04723807960076955,
        -0.059519877801004276,
        -0.2303979611779348,
        -0.4924049254569588,
        0.002365389456472553,
        0.02593956989047411,
        0.009902203329938755,
        0.003039908691889773,
        -0.020495316735787927,
        -0.002452421754816667,
        0.005332203250406219,
        0.025398082224455575,
        -0.007882248744558779,
        -0.0026637981825209395,
        0.017970996236798705,
        -0.01663555702334767,
        0.03418960150223198,
        -0.011435798335798898,
        0.023622711721097343,
        -0.0022187869818296253,
        -0.018742773085510214,
        -0.004472612650702361,
        0.04091730860766536,
        0.017885874330139148,
        0.014902047760760597,
        -0.015200892650396279
      ],
      "intercept_": 0.8891998236992569,
      "n_iter_": 1
    },
    "default": {
      "coef_": [
        0.5034172109341091,
        0.2560659583918375,
        0.0430824721895093,
        -0.06140974063344397,
        -0.23708764425976342,
        -0.4936267346388906,
        0.0004893630520934199,
        0.012406401495635986,
        0.01307616308405413,
        -0.000930594108042923,
        -0.019459100016043725,
        -0.0044502318559993094,
        0.0014736248786267217,
        0.02427983276196438,
        -0.010120286828722857,
        0.004650598623136522,
        0.01835569818296858,
        -0.01417361377329527,
        0.035926094244379266,
        -0.01022184311725974,
        0.021270126993831646,
        -0.0026714694737260724,
        -0.01652166573252247,
        -0.004310704622357907,
        0.03602186475514444,
        0.012693562954282438,
        0.01944350301785343,
        -0.015247456632227279
      ],
      "intercept_": 0.8696164087525893,
      "n_iter_": 1
    },
    "no-regularization_weights": {
      "coef_": [
        1.0249316818992251,
        0.5018171772680289,
        0.0840858440934677,
        -0.13200717762762545,
        -0.49266540189921604,
        -0.9973719838531016,
        -0.011702368207946956,
        0.024194620041780742,
        0.011915165676044476,
        0.016517506960273688,
        0.07707534003159851,
        0.2886038446363908,
        0.32837912460216734,
        0.6345809647763974,
        0.16466118181846634,
        0.2478675460893105,
        0.5221474512694089,
        0.012333677232127173,
        0.698613085529886,
        0.2690864550554678,
        0.7816748391296944,
        0.34284205555135955,
        0.18275945806312652,
        0.37125621931961716,
        0.8006756079196434,
        0.5547184947419137,
        0.5957778128926141,
        0.21261422216299883
      ],
      "intercept_": 0.16059244270911222,
      "n_iter_": 1
    },
    "no-regularization": {
      "coef_": [
        1.0131328769250336,
        0.4987690105100161,
        0.087470943662151,
        -0.13535850094673677,
        -0.5002001200580772,
        -0.9961404912884152,
        -0.008205945625713834,
        0.009494452837802337,
        0.016187015356253685,
        0.004678474838031216,
        0.09366650353016726,
        0.281232347766843,
        0.31476664879143074,
        0.615092008060344,
        0.15711421926353117,
        0.3025088663389401,
        0.5256275892861555,
        0.05892053959265438,
        0.7079654039493097,
        0.25982451168268994,
        0.7032077859467293,
        0.32748956440276294,
        0.18917688964654625,
        0.3611715601390536,
        0.773659916523844,
        0.5249548152136364,
        0.6440068289148265,
        0.17864538461608315
      ],
      "intercept_": 0.1620381117208909,
      "n_iter_": 1
    },
    "half-regularization_weights": {
      "coef_": [
        0.6837845402763005,
        0.3411531682618194,
        0.06025544479564839,
        -0.08262579907509135,
        -0.31301066052505144,
        -0.6575311395905213,
        -0.0005008285998690052,
        0.02919268292144483,
        0.012651571976038355,
        0.006825722883142853,
        -0.0374336313593383,
        -0.003419964283459859,
        0.008149186097293492,
        0.05154111256542264,
        -0.015522116775257526,
        -0.005349747032825746,
        0.035589076562436366,
        -0.03423520025644494,
        0.06429601188304256,
        -0.02146004931120216,
        0.049522193067751574,
        -0.005731156995661404,
        -0.033881709743628564,
        -0.00630769636603583,
        0.07359933941834379,
        0.029782480006264322,
        0.029249014133780244,
        -0.029003198867150377
      ],
      "intercept_": 0.8740880347103928,
      "n_iter_": 1
    },
    "half-regularization": {
      "coef_": [
        0.672213950783677,
        0.33899604507458736,
        0.05765043882217348,
        -0.08389415687260827,
        -0.3214603670090862,
        -0.6585448296912241,
        -0.0020616833476173957,
        0.014051929876326374,
        0.016309072597778907,
        0.0006592385374382812,
        -0.03518432770078965,
        -0.006390742078625152,
        0.0022846628142088187,
        0.048570142471634846,
        -0.019062134346048018,
        0.006154546561287029,
        0.03551114736431269,
        -0.029624666047199582,
        0.06688170375506582,
        -0.019756242512803668,
        0.04339074965894516,
        -0.00667585831988512,
        -0.03037284228830452,
        -0.00603157940192671,
        0.06657157968990039,
        0.022867659320642195,
        0.037979659049305815,
        -0.03043908371090809
      ],
      "intercept_": 0.8594177973653595,
      "n_iter_": 1
    },
    "elastic-net_weights": {
      "coef_": [
        0.3537868055725149,
        0.011286592337734557,
        0.0,
        0.0,
        0.0,
        -0.323017264257681,
        0.0,
        0.0,
        0.0,
        0.0,
        0.0,
        0.0,
        0.0,
        0.0,
        0.0,
        0.0,
        0.0,
        0.0,
        0.0,
        0.0,
        0.0,
        0.0,
        0.0,
        0.0,
        0.0,
        0.0,
        0.0,
        0.0
      ],
      "intercept_": 0.9115220307044417,
      "n_iter_": 2
    },
    "elastic-net": {
      "coef_": [
        0.33732370611724366,
        0.009286075612207123,
        0.0,
        0.0,
        0.0,
        -0.3244205763205455,
        0.0,
        0.0,
        0.0,
        0.0,
        0.0,
        0.0,
        0.0,
        0.0,
        0.0,
        0.0,
        0.0,
        0.0,
        0.0,
        0.0,
        0.0,
        0.0,
        0.0,
        0.0,
        0.0,
        0.0,
        0.0,
        0.0
      ],
      "intercept_": 0.8856269310034365,
      "n_iter_": 2
    },
    "lasso_weights": {
      "coef_": [
        0.031025355113966376,
        0.0,
        0.0,
        0.0,
        0.0,
        0.0,
        0.0,
        0.0,
        0.0,
        0.0,
        0.0,
        0.0,
        0.0,
        0.0,
        0.0,
        0.0,
        0.0,
        0.0,
        0.0,
        0.0,
        0.0,
        0.0,
        0.0,
        0.0,
        0.0,
        0.0,
        0.0,
        0.0
      ],
      "intercept_": 0.920169932758961,
      "n_iter_": 1
    },
    "lasso": {
      "coef_": [
        0.00393878608154794,
        0.0,
        0.0,
        0.0,
        0.0,
        0.0,
        0.0,
        0.0,
        0.0,
        0.0,
        0.0,
        0.0,
        0.0,
        0.0,
        0.0,
        0.0,
        0.0,
        0.0,
        0.0,
        0.0,
        0.0,
        0.0,
        0.0,
        0.0,
        0.0,
        0.0,
        0.0,
        0.0
      ],
      "intercept_": 0.8864609709405988,
      "n_iter_": 1
    },
    "variable_p1_weights": {
      "coef_": [
        1.0400120966737565,
        0.41176201733326484,
        0.0,
        0.0,
        -0.045257364214166054,
        -0.4625451406876232,
        0.0,
        0.0,
        0.0,
        0.0,
        0.0,
        0.0,
        0.0,
        0.0,
        0.0,
        0.0,
        0.0,
        0.0,
        0.0,
        0.0,
        0.0,
        0.0,
        0.0,
        0.0,
        0.0,
        0.0,
        0.0,
        0.0
      ],
      "intercept_": 0.9190654838779792,
      "n_iter_": 2
    },
    "variable_p1": {
      "coef_": [
        1.016760263016397,
        0.40865855081064956,
        0.0,
        0.0,
        -0.06922605852878101,
        -0.4703309598846674,
        0.0,
        0.0,
        0.0,
        0.0,
        0.0,
        0.0,
        0.0,
        0.0,
        0.0,
        0.0,
        0.0,
        0.0,
        0.0,
        0.0,
        0.0,
        0.0,
        0.0,
        0.0,
        0.0,
        0.0,
        0.0,
        0.0
      ],
      "intercept_": 0.901365730628604,
      "n_iter_": 3
    },
    "variable_p2_weights": {
      "coef_": [
        0.46859540361056146,
        0.3040920814344294,
        0.048147875028200726,
        -0.038482489459944896,
        -0.1518238324452898,
        -0.5168357483638528,
        0.04807892916053044,
        -0.04283532954312434,
        0.16862270050290765,
        0.09633944167258018,
        0.052281356710653225,
        -0.043546616155291304,
        -0.21374153760459633,
        0.15213049459621317,
        0.10629436369174183,
        -0.09291819913725126,
        -0.040604780115274644,
        0.09205305519957784,
        0.12841934015288664,
        0.13004502273345137,
        0.019001139163588036,
        0.22657189394344152,
        -0.35967163190708884,
        -0.09812917354867753,
        -0.23280339064587569,
        0.26075604316493217,
        -0.10266317105794097,
        0.251511947201542
      ],
      "intercept_": 0.8625557145828368,
      "n_iter_": 1
    },
    "variable_p2": {
      "coef_": [
        0.4558617101547652,
        0.3004705552423242,
        0.041258928963234874,
        -0.03802011807653022,
        -0.1687310772993217,
        -0.5160498653126754,
        0.046389006827435166,
        -0.0625216937182435,
        0.17240731003589754,
        0.09304132445958606,
        0.05997920837250703,
        -0.05217828294349122,
        -0.22648305140791056,
        0.15260870473593163,
        0.10275064999954961,
        -0.09159546373838416,
        -0.03111374042507029,
        0.07646296677384364,
        0.14202165995760066,
        0.1224086883549787,
        0.014739350119095258,
        0.2262564520216712,
        -0.36422573987504114,
        -0.09254158875433288,
        -0.2521157133121425,
        0.2511407858704515,
        -0.09937967476646163,
        0.24862020757400735
      ],
      "intercept_": 0.8471327982224186,
      "n_iter_": 1
    },
    "variable_p1_p2_weights": {
      "coef_": [
        0.5071791729152195,
        0.2911637430355168,
        0.0,
        -0.0033392604120761524,
        -0.0654169309212337,
        -0.31941870088680074,
        0.0,
        0.0,
        0.0,
        0.0,
        0.0,
        0.0,
        0.0,
        0.0,
        0.0,
        0.0,
        0.0,
        0.0,
        0.0,
        0.0,
        0.0,
        0.0,
        0.0,
        0.0,
        0.0,
        0.0,
        0.0,
        0.0
      ],
      "intercept_": 0.9114520471171257,
      "n_iter_": 3
    },
    "variable_p1_p2": {
      "coef_": [
        0.49630553194156934,
        0.2865094093867724,
        0.0,
        -0.004896544571942857,
        -0.0737118125761661,
        -0.3205953524610964,
        0.0,
        0.0,
        0.0,
        0.0,
        0.0,
        0.0,
        0.0,
        0.0,
        0.0,
        0.0,
        0.0,
        0.0,
        0.0,
        0.0,
        0.0,
        0.0,
        0.0,
        0.0,
        0.0,
        0.0,
        0.0,
        0.0
      ],
      "intercept_": 0.8877839106967371,
      "n_iter_": 3
    },
    "fit_intercept_weights": {
      "coef_": [
        0.5006035127708252,
        0.26229733103031777,
        0.04007564072900031,
        -0.06855884310007035,
        -0.24043679593626682,
        -0.5147179795375054,
        0.00962693321933526,
        0.020360064920919446,
        0.029054606818881792,
        0.007102952269987753,
        0.054410409682540704,
        0.06906547948097667,
        0.08233883884277955,
        0.10685072689317666,
        0.062188457461945214,
        0.06833315079852531,
        0.09443576058848852,
        0.05306500664277034,
        0.1091584295787847,
        0.06357937599906983,
        0.0968632569892803,
        0.07733453896681583,
        0.055800282649291925,
        0.07060432481061833,
        0.11623739854017792,
        0.08829758455040106,
        0.08819037035594,
        0.05900967620588455
      ],
      "intercept_": 0.0,
      "n_iter_": 1
    },
    "fit_intercept": {
      "coef_": [
        0.48744829790508326,
        0.2601590947879038,
        0.038296715185990454,
        -0.06619213205773235,
        -0.24364035281893281,
        -0.5103053927212743,
        0.0012003805423228397,
        0.00525528059448733,
        0.02680122443621886,
        0.0037044314470752334,
        0.052304396837121445,
        0.06480397930004668,
        0.07305734377342192,
        0.1019027527978058,
        0.06034164348317199,
        0.07754059409532016,
        0.09255629598913825,
        0.05793186074150671,
        0.10881109570671875,
        0.0635400828609083,
        0.09573914167146577,
        0.07514947474988859,
        0.05817161959216677,
        0.06792172608717663,
        0.11060942583009413,
        0.08337683661495265,
        0.08903003458480088,
        0.05738225581607634
      ],
      "intercept_": 0.0,
      "n_iter_": 1
    }
  },
  "gamma": {
    "default_weights": {
      "coef_": [
        0.5073650119467212,
        0.2673885261089481,
        0.047586075064827316,
        -0.04566479600475247,
        -0.24157188426213264,
        -0.505585719958422,
        0.018899873659348154,
        -0.0022881658996349234,
        0.0051980700400957695,
        -0.0003714721242956511,
        -0.02477268652809057,
        0.0022149712125155395,
        0.0011354138510779193,
        0.02769117270649193,
        -0.007148906112181473,
        -0.0014474820604494921,
        0.006663751015327676,
        -0.015201443466513836,
        0.04522441010731507,
        -0.012528309994897336,
        0.0063611404372409435,
        -0.003333844017053296,
        -0.014985555294456844,
        -0.011203448171836286,
        0.04416238715537917,
        0.008794693875599155,
        0.02165400431973171,
        -0.00939602569303665
      ],
      "intercept_": 1.2263097004810513,
      "n_iter_": 32
    },
    "default": {
      "coef_": [
        0.5029794116846787,
        0.2648481971413951,
        0.051552742819351155,
        -0.044955269971490484,
        -0.23583284691193454,
        -0.49693206641939536,
        0.0027812469933553353,
        0.008102385352098425,
        -0.0019992498728771072,
        -0.00232222910145882,
        -0.019135434520669955,
        0.000843192478176934,
        -0.00015101940774853224,
        0.0281861475048588,
        -0.011083551562488265,
        -0.0001672510664887577,
        0.005279637748390898,
        -0.01126223681074477,
        0.04205590688577207,
        -0.013158632619269403,
        0.006473212213964876,
        -0.0028814326184920403,
        -0.01605217038451075,
        -0.008379360036486276,
        0.042999710246956535,
        0.009436409183938718,
        0.020504174941474784,
        -0.007279242323082978
      ],
      "intercept_": 1.2387391743002316,
      "n_iter_": 28
    },
    "no-regularization_weights": {
      "coef_": [
        1.0199260485448172,
        0.5232673188049588,
        0.11721759382161064,
        -0.10378687127102491,
        -0.4940763398264073,
        -1.0335196803348132,
        0.005354502629875576,
        -0.013483617148658667,
        0.012864008718725204,
        0.022368751222569427,
        0.07419633728781379,
        0.407588129786989,
        0.343251946817853,
        0.612272216441006,
        0.21326376296389768,
        0.27620828592058405,
        0.32089907808012813,
        0.11339298543494875,
        0.70636338415628,
        0.21992572691510276,
        0.5908082709501581,
        0.26249185180725987,
        0.06910481437194904,
        0.29728647537873854,
        0.687854428778752,
        0.43191739169240595,
        0.6750574738125157,
        0.16701001367176896
      ],
      "intercept_": 0.21926836887886003,
      "n_iter_": 6
    },
    "no-regularization": {
      "coef_": [
        1.021603413134178,
        0.5291437293631797,
        0.10905838492681451,
        -0.1017952872682754,
        -0.4937807396407565,
        -1.0203175533558477,
        0.0003083560887010329,
        -0.0018196567405154229,
        0.006509291962056936,
        0.0005892520392430158,
        0.13273114426201396,
        0.44256260473287434,
        0.3990431645093341,
        0.6886342853702748,
        0.20272517632076012,
        0.33464278928136254,
        0.4027366483266005,
        0.19368334387608588,
        0.7339133675530403,
        0.23139230987377335,
        0.5997854835929844,
        0.3069782333748636,
        0.12722360328082685,
        0.33693836059828075,
        0.7320958831254092,
        0.45525907916362557,
        0.6839055783916683,
        0.21496098153883833
      ],
      "intercept_": 0.14552487631731825,
      "n_iter_": 5
    },
    "half-regularization_weights": {
      "coef_": [
        0.6738444124776528,
        0.35061459774727866,
        0.06580202880102515,
        -0.06384164006434206,
        -0.32359999407404477,
        -0.6745921862595281,
        0.015170566996970267,
        -0.0020832523821155964,
        0.009826699012105566,
        0.0023619637313876656,
        -0.041470371354539404,
        0.006955457601716757,
        0.004065687868796981,
        0.052191815541383836,
        -0.016028949739940124,
        -0.0012587887455986222,
        0.010556159822906093,
        -0.02701255155991964,
        0.07497890000104233,
        -0.01983236998278628,
        0.023556924549075674,
        -0.007591541035222679,
        -0.030389253534262604,
        -0.014799754479667165,
        0.07097930991333436,
        0.017655300650022812,
        0.03933368666015031,
        -0.020333356348257326
      ],
      "intercept_": 1.036686362096371,
      "n_iter_": 14
    },
    "half-regularization": {
      "coef_": [
        0.6709624357214626,
        0.35036988221930637,
        0.06834885585200302,
        -0.06299906988600001,
        -0.31898056315509676,
        -0.6660012247400435,
        0.000261186960617805,
        0.009362060937127548,
        0.002694858089948625,
        -0.003937964120721285,
        -0.03564378718186783,
        0.004657523294934787,
        0.0028136560777490545,
        0.05565069577588816,
        -0.022553251890509836,
        -8.80707175011035e-05,
        0.010740804055128917,
        -0.021339076649987885,
        0.07141492042875196,
        -0.021941884358897393,
        0.022980367587329856,
        -0.006375017191051535,
        -0.031037714962431646,
        -0.011779493982210686,
        0.07210012687668527,
        0.01772235560414004,
        0.03871783679513026,
        -0.017505598541652418
      ],
      "intercept_": 1.0474217611385932,
      "n_iter_": 13
    },
    "elastic-net_weights": {
      "coef_": [
        0.34901948932154975,
        0.034397787252021195,
        0.0,
        0.0,
        0.0,
        -0.35613376266005947,
        0.0,
        0.0,
        0.0,
        0.0,
        0.0,
        0.0,
        0.0,
        0.0,
        0.0,
        0.0,
        0.0,
        0.0,
        0.0,
        0.0,
        0.0,
        0.0,
        0.0,
        0.0,
        0.0,
        0.0,
        0.0,
        0.0
      ],
      "intercept_": 1.6109102460448543,
      "n_iter_": 24
    },
    "elastic-net": {
      "coef_": [
        0.33528742653104415,
        0.021354908446210862,
        0.0,
        0.0,
        0.0,
        -0.33523901919404925,
        0.0,
        0.0,
        0.0,
        0.0,
        0.0,
        0.0,
        0.0,
        0.0,
        0.0,
        0.0,
        0.0,
        0.0,
        0.0,
        0.0,
        0.0,
        0.0,
        0.0,
        0.0,
        0.0,
        0.0,
        0.0,
        0.0
      ],
      "intercept_": 1.6337810952557155,
      "n_iter_": 22
    },
    "lasso_weights": {
      "coef_": [
        0.03126989303786931,
        0.0,
        0.0,
        0.0,
        0.0,
        -0.01763166986824243,
        0.0,
        0.0,
        0.0,
        0.0,
        0.0,
        0.0,
        0.0,
        0.0,
        0.0,
        0.0,
        0.0,
        0.0,
        0.0,
        0.0,
        0.0,
        0.0,
        0.0,
        0.0,
        0.0,
        0.0,
        0.0,
        0.0
      ],
      "intercept_": 2.1814869678276185,
      "n_iter_": 60
    },
    "lasso": {
      "coef_": [
        0.0015642027226912074,
        0.0,
        0.0,
        0.0,
        0.0,
        0.0,
        0.0,
        0.0,
        0.0,
        0.0,
        0.0,
        0.0,
        0.0,
        0.0,
        0.0,
        0.0,
        0.0,
        0.0,
        0.0,
        0.0,
        0.0,
        0.0,
        0.0,
        0.0,
        0.0,
        0.0,
        0.0,
        0.0
      ],
      "intercept_": 2.2018386726298536,
      "n_iter_": 32
    },
    "variable_p1_weights": {
      "coef_": [
        1.0350081055683242,
        0.42975484559988075,
        0.0,
        0.0,
        -0.07509142367517418,
        -0.4763731994210038,
        0.0,
        0.0,
        0.0,
        0.0,
        0.0,
        0.0,
        0.0,
        0.0,
        0.0,
        0.0,
        0.0,
        0.0,
        0.0,
        0.0,
        0.0,
        0.0,
        0.0,
        0.0,
        0.0,
        0.0,
        0.0,
        0.0
      ],
      "intercept_": 1.1783391729669423,
      "n_iter_": 71
    },
    "variable_p1": {
      "coef_": [
        1.022947621572573,
        0.4283801390048695,
        0.0,
        0.0,
        -0.06784650570382415,
        -0.46844590237147005,
        0.0,
        0.0,
        0.0,
        0.0,
        0.0,
        0.0,
        0.0,
        0.0,
        0.0,
        0.0,
        0.0,
        0.0,
        0.0,
        0.0,
        0.0,
        0.0,
        0.0,
        0.0,
        0.0,
        0.0,
        0.0,
        0.0
      ],
      "intercept_": 1.1905325726053804,
      "n_iter_": 50
    },
    "variable_p2_weights": {
      "coef_": [
        0.4544441627015927,
        0.3115617563846406,
        0.05659335681025647,
        -0.01654285462499037,
        -0.160633426395857,
        -0.5446790118618418,
        0.07859369974737435,
        -0.07157578168030615,
        0.15056789112712302,
        0.10137415521148993,
        0.05164905125327922,
        -0.03867440955324333,
        -0.2159443956768988,
        0.154395800801981,
        0.09454011835405615,
        -0.09170518032696796,
        -0.05681038559278968,
        0.07589375733894209,
        0.15091967710306692,
        0.13865137526012516,
        -0.02815438931400288,
        0.24702689168683564,
        -0.3787316126891292,
        -0.09101716995227309,
        -0.22927092673555005,
        0.24463570686131186,
        -0.09542977060735335,
        0.26504228809284586
      ],
      "intercept_": 1.277932670628534,
      "n_iter_": 23
    },
    "variable_p2": {
      "coef_": [
        0.45120978547810664,
        0.30920213616687187,
        0.06588555901497196,
        -0.021511691877142247,
        -0.15486891630237076,
        -0.5282425952301048,
        0.04869932570946704,
        -0.05447641445727333,
        0.14278392709782955,
        0.09853973552459147,
        0.04572044535727164,
        -0.023832396900153516,
        -0.21671252355807963,
        0.14215337961939573,
        0.08622572530260574,
        -0.09066168430874463,
        -0.05946059591169352,
        0.10420142551104755,
        0.14122196556780395,
        0.1295688558029778,
        -0.030012056618474805,
        0.23771071661352766,
        -0.36792950637891414,
        -0.079809084511475,
        -0.20665444346870976,
        0.24757935394299135,
        -0.1009204774807575,
        0.2606046320326637
      ],
      "intercept_": 1.2902979047336125,
      "n_iter_": 22
    },
    "variable_p1_p2_weights": {
      "coef_": [
        0.5056728881203171,
        0.29873247080215387,
        0.0,
        0.0,
        -0.08280806185802278,
        -0.32898798690550585,
        0.0,
        0.0,
        0.0,
        0.0,
        0.0,
        0.0,
        0.0,
        0.0,
        0.0,
        0.0,
        0.0,
        0.0,
        0.0,
        0.0,
        0.0,
        0.0,
        0.0,
        0.0,
        0.0,
        0.0,
        0.0,
        0.0
      ],
      "intercept_": 1.403770228750904,
      "n_iter_": 67
    },
    "variable_p1_p2": {
      "coef_": [
        0.49889348443588105,
        0.2948618177019867,
        0.0,
        0.0,
        -0.07576211664325698,
        -0.3192516070866606,
        0.0,
        0.0,
        0.0,
        0.0,
        0.0,
        0.0,
        0.0,
        0.0,
        0.0,
        0.0,
        0.0,
        0.0,
        0.0,
        0.0,
        0.0,
        0.0,
        0.0,
        0.0,
        0.0,
        0.0,
        0.0,
        0.0
      ],
      "intercept_": 1.4166029462924352,
      "n_iter_": 71
    }
  },
  "tweedie_p=1.5": {
    "default_weights": {
      "coef_": [
        0.7019051488326326,
        0.3493765805577544,
        0.07119821248665266,
        -0.07246799621390923,
        -0.3263850416676025,
        -0.6935597103224551,
        -0.0026022052014794688,
        0.014574130913235983,
        -0.023566868967192345,
        0.0036325525926863547,
        -0.030917640087192947,
        0.007134977215669866,
        0.005452234916749338,
        0.058935089056751114,
        -0.028404149320566112,
        0.0013574669337719913,
        0.009591070494281408,
        -0.039706145682488106,
        0.09471304776710492,
        -0.020135620101951284,
        0.01801522045183465,
        -0.01349063061741203,
        -0.03665985185916111,
        -0.014597476846463352,
        0.08666461354389829,
        0.02233238093063047,
        0.0366911270755961,
        -0.02414571122702135
      ],
      "intercept_": 1.3117029292454623,
      "n_iter_": 7
    },
    "default": {
      "coef_": [
        0.7035010419005423,
        0.35151368681648754,
        0.06878569168163813,
        -0.06400294028780004,
        -0.3338109134336607,
        -0.6900431322316948,
        0.015015382345293102,
        0.007260265896579061,
        -0.02241301914537635,
        0.0036407741919088914,
        -0.03168377887220896,
        0.0055860692139640886,
        0.002867596830666577,
        0.06048430969991994,
        -0.026152367491052698,
        0.002126908589396598,
        0.007674796205676873,
        -0.0353044536533639,
        0.09222986783625313,
        -0.027004338643876323,
        0.012998365270321752,
        -0.010195430234535934,
        -0.038122905742654596,
        -0.015562139708574549,
        0.09325519210214961,
        0.01815739413662705,
        0.04213102358245423,
        -0.02308184158346217
      ],
      "intercept_": 1.3055400179112642,
      "n_iter_": 7
    },
    "no-regularization_weights": {
      "coef_": [
        1.0081152139324976,
        0.49633600638466374,
        0.1040879542545706,
        -0.10236678378975932,
        -0.4940506026830085,
        -1.0076541745154808,
        -0.002701182766006185,
        0.000259446380174704,
        -0.008030425092443266,
        0.00359412948558173,
        0.1470293140773245,
        0.4441684074367241,
        0.4483040393269786,
        0.6867354951134305,
        0.1809689764847956,
        0.3969460645296856,
        0.49424928541316804,
        0.15709279069836224,
        0.7568381050752502,
        0.25181015929636774,
        0.5499657525537903,
        0.25906436357548834,
        0.10742498512491616,
        0.27272228694130246,
        0.7138400532295532,
        0.47695932470359664,
        0.5374596177216723,
        0.1442967498133857
      ],
      "intercept_": 0.18706716411522506,
      "n_iter_": 4
    },
    "no-regularization": {
      "coef_": [
        1.0115263397190992,
        0.4869809467010997,
        0.10073581081732817,
        -0.09901305132003667,
        -0.4990786490991563,
        -1.004080706824257,
        0.009010930370522485,
        -0.004941969356956798,
        -0.012725671609627648,
        0.0014145180834820642,
        0.1706213601987835,
        0.43341270155433936,
        0.445494797809785,
        0.6982501933217056,
        0.15214898913660346,
        0.387561109528801,
        0.47223211595309983,
        0.14634200302920952,
        0.7628099882704018,
        0.20048750860995057,
        0.5333330671383556,
        0.2395287596643487,
        0.07848211880283425,
        0.255119642052527,
        0.698531606350353,
        0.4628674225106721,
        0.5488460110348379,
        0.14493649623084856
      ],
      "intercept_": 0.19833919967478342,
      "n_iter_": 4
    },
    "half-regularization_weights": {
      "coef_": [
        0.8246293317699157,
        0.41000783896198095,
        0.08129321647974184,
        -0.08472774931952794,
        -0.39124084833791156,
        -0.8170911264002111,
        -0.003699745637159321,
        0.012130267886932467,
        -0.018042825783847544,
        0.004022238260027046,
        -0.05535272358129221,
        0.014753861204074861,
        0.015415168286150574,
        0.10268826138391567,
        -0.04773090206493216,
        0.0028985192214265433,
        0.024227287372030788,
        -0.0634789027703482,
        0.1481671003544262,
        -0.030114634078772563,
        0.04458840959065058,
        -0.023457646306318657,
        -0.061475182809149105,
        -0.020552286607119986,
        0.1408236130933461,
        0.04053539462045324,
        0.06243297306307414,
        -0.04701113392572112
      ],
      "intercept_": 1.1408463554406387,
      "n_iter_": 6
    },
    "half-regularization": {
      "coef_": [
        0.8265373119373598,
        0.4085437986300121,
        0.07981611179446871,
        -0.0775163664431135,
        -0.39841123492264235,
        -0.8121187334970644,
        0.012162758235485144,
        0.005767498587761822,
        -0.018664403285986297,
        0.0036911057001613964,
        -0.05267227533179981,
        0.012359612826477101,
        0.012519600208835677,
        0.10621938273316017,
        -0.047526339150206265,
        0.0040570216197173235,
        0.02054213142236217,
        -0.06002004138194303,
        0.1469232995614619,
        -0.041026658902093956,
        0.03875569697258552,
        -0.02012768698593327,
        -0.06381023597968469,
        -0.021160318488532774,
        0.14681254760955464,
        0.036226547274545835,
        0.07141778424776168,
        -0.043601597303917036
      ],
      "intercept_": 1.1331251948930032,
      "n_iter_": 6
    },
    "elastic-net_weights": {
      "coef_": [
        0.6547255357982035,
        0.23511856240777942,
        0.0,
        0.0,
        -0.19938789234281562,
        -0.6512909155663712,
        0.0,
        0.0,
        0.0,
        0.0,
        0.0,
        0.0,
        0.0,
        0.0,
        0.0,
        0.0,
        0.0,
        0.0,
        0.0,
        0.0,
        0.0,
        0.0,
        0.0,
        0.0,
        0.0,
        0.0,
        0.0,
        0.0
      ],
      "intercept_": 1.4429486426649292,
      "n_iter_": 15
    },
    "elastic-net": {
      "coef_": [
        0.657216745796651,
        0.2410353336499785,
        0.0,
        0.0,
        -0.21000644117487408,
        -0.6473952944384607,
        0.0,
        0.0,
        0.0,
        0.0,
        0.0,
        0.0,
        0.0,
        0.0,
        0.0,
        0.0,
        0.0,
        0.0,
        0.0,
        0.0,
        0.0,
        0.0,
        0.0,
        0.0,
        0.0,
        0.0,
        0.0,
        0.0
      ],
      "intercept_": 1.437473091685662,
      "n_iter_": 15
    },
    "lasso_weights": {
      "coef_": [
        0.5948253740812297,
        0.07879527958603735,
        0.0,
        0.0,
        -0.022993429037988507,
        -0.5957085312331063,
        0.0,
        0.0,
        0.0,
        0.0,
        0.0,
        0.0,
        0.0,
        0.0,
        0.0,
        0.0,
        0.0,
        0.0,
        0.0,
        0.0,
        0.0,
        0.0,
        0.0,
        0.0,
        0.0,
        0.0,
        0.0,
        0.0
      ],
      "intercept_": 1.580282063668139,
      "n_iter_": 30
    },
    "lasso": {
      "coef_": [
        0.5979051929854525,
        0.09266269201676837,
        0.0,
        0.0,
        -0.038768254503414916,
        -0.5953919074363313,
        0.0,
        0.0,
        0.0,
        0.0,
        0.0,
        0.0,
        0.0,
        0.0,
        0.0,
        0.0,
        0.0,
        0.0,
        0.0,
        0.0,
        0.0,
        0.0,
        0.0,
        0.0,
        0.0,
        0.0,
        0.0,
        0.0
      ],
      "intercept_": 1.5752750294021296,
      "n_iter_": 22
    },
    "variable_p1_weights": {
      "coef_": [
        1.013980975759766,
        0.46114147105029996,
        0.005963071474593725,
        0.0,
        -0.2975778980685729,
        -0.7675074411865128,
        0.0,
        0.0,
        0.0,
        0.0,
        0.0,
        0.0,
        0.0,
        0.0,
        0.0,
        0.0,
        0.0,
        0.0,
        0.0,
        0.0,
        0.0,
        0.0,
        0.0,
        0.0,
        0.0,
        0.0,
        0.0,
        0.0
      ],
      "intercept_": 1.1357660776482275,
      "n_iter_": 8
    },
    "variable_p1": {
      "coef_": [
        1.0152101822205575,
        0.456709675282178,
        0.004669880872442055,
        0.0,
        -0.3101375821282989,
        -0.7585601656383144,
        0.0,
        0.0,
        0.0,
        0.0,
        0.0,
        0.0,
        0.0,
        0.0,
        0.0,
        0.0,
        0.0,
        0.0,
        0.0,
        0.0,
        0.0,
        0.0,
        0.0,
        0.0,
        0.0,
        0.0,
        0.0,
        0.0
      ],
      "intercept_": 1.1259660407972192,
      "n_iter_": 8
    },
    "variable_p2_weights": {
      "coef_": [
        0.6346004859523247,
        0.37844782181018166,
        0.057304148924143136,
        -0.08064762675339042,
        -0.2535869665901892,
        -0.6725715744693931,
        0.035692226360691956,
        -0.007115552139517301,
        0.06451619723714117,
        0.09363172966345461,
        0.0459097508777553,
        0.021587904098922743,
        -0.13811025320329814,
        0.1673339027022064,
        0.08890897867702835,
        -0.07958591018476034,
        -0.05372147272644256,
        0.12592502518599621,
        0.18616613216574404,
        0.16797490131090034,
        -0.04165849436624953,
        0.21604610715515726,
        -0.4955079498734858,
        -0.03116343552213223,
        -0.2041782896868215,
        0.26930977895028263,
        -0.05321641999553006,
        0.32689986500655716
      ],
      "intercept_": 1.3255981508419592,
      "n_iter_": 7
    },
    "variable_p2": {
      "coef_": [
        0.6330168320990337,
        0.3762555226312986,
        0.061083411191939746,
        -0.0661028882117129,
        -0.2600688899824884,
        -0.6749418100471921,
        0.05869310729612226,
        -0.02093175842988243,
        0.06872660137457444,
        0.09635740806102165,
        0.06592934521983362,
        0.002459280156683973,
        -0.13358662924245224,
        0.1704230683668032,
        0.0958203378898356,
        -0.07985824830270007,
        -0.04906930064752768,
        0.12405468649839076,
        0.19295804109264697,
        0.17233083476707228,
        -0.05125844178746102,
        0.22461208246936817,
        -0.5010266064082778,
        -0.02636057708705229,
        -0.19752708814131476,
        0.26098569998120197,
        -0.05137713401018457,
        0.32986702686056163
      ],
      "intercept_": 1.316625171811216,
      "n_iter_": 7
    },
    "variable_p1_p2_weights": {
      "coef_": [
        0.7008327694429722,
        0.38157106209237257,
        0.0,
        -0.04497554357711457,
        -0.199286105845604,
        -0.5691047371688048,
        0.0,
        0.0,
        0.0,
        0.0,
        0.0,
        0.0,
        0.0,
        0.0,
        0.0,
        0.0,
        0.0,
        0.0,
        0.0,
        0.0,
        0.0,
        0.0,
        0.0,
        0.0,
        0.0,
        0.0,
        0.0,
        0.0
      ],
      "intercept_": 1.4251945938520256,
      "n_iter_": 10
    },
    "variable_p1_p2": {
      "coef_": [
        0.701771846732129,
        0.3856062987361744,
        0.0,
        -0.03217255526679966,
        -0.2094301864124205,
        -0.5635569648717095,
        0.0,
        0.0,
        0.0,
        0.0,
        0.0,
        0.0,
        0.0,
        0.0,
        0.0,
        0.0,
        0.0,
        0.0,
        0.0,
        0.0,
        0.0,
        0.0,
        0.0,
        0.0,
        0.0,
        0.0,
        0.0,
        0.0
      ],
      "intercept_": 1.420671989673579,
      "n_iter_": 11
    },
    "fit_intercept_weights": {
      "coef_": [
        0.9161391111094989,
        0.47755516487726385,
        0.08724158417183188,
        -0.09794716224207395,
        -0.44719372125398466,
        -0.9605831973235932,
        0.0009921669398737054,
        0.011877422783071754,
        0.006298298638233612,
        0.005570403629175461,
        0.10217429961588687,
        0.15598941964415583,
        0.17121288602819704,
        0.24445368768491996,
        0.11592735409176154,
        0.16341779292173206,
        0.17210698855252818,
        0.09835707456770419,
        0.275981246461768,
        0.13082463823036752,
        0.19399883236339832,
        0.1423344400499679,
        0.10561763255552309,
        0.13483566901486171,
        0.278517266989491,
        0.18708854465551775,
        0.19858210223925718,
        0.11826288463222578
      ],
      "intercept_": 0.0,
      "n_iter_": 12
    },
    "fit_intercept": {
      "coef_": [
        0.9252276577527322,
        0.4742691600666225,
        0.0861711013674282,
        -0.0924624257848464,
        -0.4620123683427617,
        -0.951883883688443,
        0.015083194516832432,
        -0.00045137041343588046,
        0.002482528031514334,
        0.007104422834474533,
        0.10587405498205782,
        0.15331935975802982,
        0.16380835606236727,
        0.24580532869654512,
        0.10955123971852675,
        0.16015052908365598,
        0.1715442434276486,
        0.10577255635176216,
        0.2713066558527525,
        0.12226646009418624,
        0.18556886120908106,
        0.14569195371402485,
        0.10561428171472483,
        0.13364659291641098,
        0.2770055542470132,
        0.18167380959448584,
        0.20460878864016077,
        0.11975112321140319
      ],
      "intercept_": 0.0,
      "n_iter_": 12
    }
  }
}