{
  "intermediate-insurance-weights-l2-gaussian": {
    "coef": [
      -111.20521894741981,
      -152.6528071635375,
      54.528535857700376,
      243.44561328939196,
      -67.71472140609241,
      33.59859836995938,
      -1.1679631500299925,
      43.74622721379104,
      -42.57826406375698,
      76.28986368392411,
      -49.518060923796185,
      -122.11637892393988,
      -77.11494418030905,
      -110.4261575154669,
      42.765098668193296,
      240.12057919139554,
      4.692227041338983,
      -15.771647834399577,
      187.66023249727286,
      19.822380459108782,
      166.62501983733677,
      -78.88500483320071,
      -19.151064084616127,
      -141.3777706663609,
      -57.01263940947266,
      26.317711562836543,
      -14.367548521969141,
      -73.85966900653354,
      -37.97662951484575,
      37.97662951484835,
      -14.25208645177156,
      -133.1729423199564,
      79.71147210500091,
      -33.516430110976216,
      -31.327155590426383,
      4.605772854968002,
      272.8363154575458,
      5.0627771727164665,
      -31.05080603315493,
      -74.75923638864131,
      -30.09184913615634,
      -3.558522896030687,
      -148.5125335455935,
      -145.5104120042022,
      -36.27982141224784,
      71.403079735712,
      -10.589180138678884,
      -48.9737709517326,
      -81.93844866239495,
      -14.661755781769955,
      228.98490967934987,
      139.01047971973205,
      22.328058246939197,
      -32.559543443824865,
      9.5566667424844,
      14.47150994335523,
      -6.713409480632263,
      15.932161664703019,
      31.268084012809442,
      -2.039916542416845,
      -19.22861180165374,
      4.605544915953333,
      -16.813077687963048,
      10.756031046409426,
      23.579965288419718,
      -13.44114348077723,
      -17.240070809721196,
      60.43392893431515,
      -51.51533865696248,
      -5.171850295968353,
      -16.085445737153915,
      -20.140290690590653,
      -55.76869123565465,
      -14.525575116719041,
      -1.6354273579744314,
      -23.91429628842255,
      123.72800012149547,
      -18.796101870445405,
      -10.646858493002837,
      45.454438132719766,
      140.92293255411508,
      -32.38473075988229,
      0.009354275199108251,
      -0.7743209194316824,
      -97.57826458333628,
      6.555118785386604,
      -11.606277887708856,
      -15.239387766414696,
      -9.56988197977445,
      -53.69971715860361,
      -2.9934640685975293,
      -1.1279842535355817,
      -14.473708174297984,
      -3.4887723567137545,
      72.16590946306076,
      -4.959948619358199,
      -5.975358210513423,
      12.893669064936589,
      -2.6253427660828947,
      -7.717454389712317,
      -5.370314230327074,
      40.34872418582816,
      -0.9862280654610966,
      13.052805548383837,
      -61.48758294376366
    ],
    "intercept": 1752.2457774382988
  },
  "intermediate-insurance-no-weights-l2-gaussian": {
    "coef": [
      -122.14098309541914,
      -134.3113411737626,
      43.899928345922305,
      212.93993328682478,
      -60.28657293868541,
      59.89903557511383,
      3.1989854970786493,
      52.48717901517492,
      -55.68616451224988,
      71.35658318579708,
      -51.740271216741505,
      -111.58301183617417,
      -74.85658697795016,
      -89.12789478106461,
      25.79779241803954,
      230.1533892080886,
      4.772027157918637,
      -33.50606950484413,
      188.91911934807771,
      30.195474323416455,
      87.74820187467239,
      -66.65091901141642,
      -14.682888716272307,
      -110.10323287337742,
      -66.22554234401066,
      39.252739522014984,
      3.0084168430422564,
      -57.955299461307916,
      -19.813810066294455,
      19.813810066295858,
      -16.732773764764495,
      -151.20335985717693,
      33.56115130640783,
      -29.782366786602505,
      -24.826296049562735,
      14.26908987683668,
      284.26274579389406,
      15.77957640955522,
      -21.710815995230416,
      -67.2882481312194,
      -24.923263691212966,
      -3.03893197003167,
      -155.3411162427865,
      -123.79041855966135,
      -19.286177269432173,
      60.40767616962597,
      -8.251512568190506,
      -43.03151395612175,
      -83.32553949692884,
      -12.049014138148447,
      208.7458626025291,
      147.97624367805847,
      2.846228875392682,
      -16.811713151711306,
      -20.984025283403106,
      13.82869046862548,
      -2.8708080192797385,
      18.51529295850973,
      37.42733133448073,
      -7.162968654625957,
      -15.776657372248604,
      3.8411554212130747,
      -7.656034243218746,
      11.222440198090696,
      -29.887209496417835,
      -12.325043061572563,
      -2.652284615441478,
      59.8727854624856,
      -45.05574229612058,
      -7.341510886581325,
      -15.190554564655349,
      -19.845194337220057,
      -52.82614675188656,
      -10.11044843129782,
      1.3801894368119176,
      -21.969812517940984,
      114.65040163933894,
      -15.564497403323667,
      -9.090428414501853,
      49.272446406031186,
      135.29555636879465,
      -28.693544210011208,
      0.4734131123427916,
      -0.7113036073672687,
      -85.5186754575267,
      6.9552046295831484,
      -9.770760693811946,
      -13.740028950947304,
      -9.669880525972188,
      -45.1967550398781,
      -4.185661645962589,
      -1.1462513683058728,
      -14.460491308793127,
      -3.2796705473091405,
      81.73859732053872,
      -5.254917797370813,
      -5.08530666745704,
      18.43620535341376,
      -2.6049757856159617,
      -5.088503802969423,
      -2.2504415660298034,
      18.372647095138365,
      -0.8850059859077114,
      13.052863646772543,
      -50.48367954120202
    ],
    "intercept": 1695.1030924501604
  },
  "intermediate-insurance-offset-l2-gaussian": {
    "coef": [
      -111.08871598336252,
      -156.03902678678594,
      52.67942952521972,
      256.22388218280634,
      -71.07640652372145,
      29.30083758582485,
      -8.776014070240935,
      58.74130713112056,
      -49.96529306087634,
      72.436420043056,
      -40.13955742480078,
      -132.25282573206917,
      -95.07301467584527,
      -118.94817046798322,
      56.179115834900365,
      257.7980324227261,
      6.709866434669387,
      -28.289076203518245,
      177.32718625956855,
      14.390828487771875,
      222.63415034123204,
      -67.15930552210963,
      -17.618221460628927,
      -153.19350761641869,
      -69.13638751029171,
      15.746825463545953,
      -18.761806307907104,
      -75.94068593125868,
      -35.53905325672831,
      35.53905325672566,
      -13.302944132515023,
      -125.00990225503985,
      85.12752599919642,
      -43.76415085012534,
      -36.07751721114085,
      -10.656180080483573,
      274.8871440808693,
      5.241977265185366,
      -28.133266802169846,
      -85.09917175462087,
      -22.060908503989545,
      -4.629811101367499,
      -155.47576484867966,
      -146.05472119037606,
      -45.03364516121062,
      76.63705184534159,
      -16.050279737115584,
      -49.513453785944066,
      -84.43944283146986,
      -18.722654422181147,
      234.1610952857016,
      162.93809679274838,
      31.72797926685793,
      -29.99273947454923,
      11.01932228672078,
      12.409181332659145,
      -4.451541055250899,
      23.879987600461952,
      33.73367818742597,
      -1.7582327936853417,
      -20.04989671829151,
      5.477490564837392,
      -11.349339775983276,
      12.616532263357362,
      21.25502658527203,
      -16.357809247103127,
      -7.559298421774739,
      59.68770092670037,
      -53.71461991999019,
      -0.2899178409030125,
      -17.409693024990606,
      -22.78848451922405,
      -65.33610530912024,
      -10.711078324332174,
      -0.6525932151872801,
      -28.817496374886638,
      107.43215978491041,
      -13.37601041645271,
      -11.153631426557519,
      46.47453791857353,
      140.5355550059788,
      -22.809816700704527,
      -2.4009137091936563,
      -1.8454791705813023,
      -99.62535816910834,
      6.528739919879523,
      -11.935491319446278,
      -14.700762517768931,
      -10.866419029096361,
      -66.66286718708996,
      -2.680106007331047,
      -1.3192670778786217,
      -15.029784134882913,
      -4.209601557945937,
      58.383148328075514,
      -4.265147737221689,
      -4.818736672193668,
      20.29608560445464,
      -3.053386767440489,
      -11.811378647522137,
      1.5440875022936924,
      43.62387352995545,
      -1.2319579098546913,
      12.769729452422979,
      -52.624614094992964
    ],
    "intercept": 1707.3949168216566
  },
  "narrow-insurance-weights-l2-gaussian": {
    "coef": [
      -110.21574838874118,
      -152.55289456993654,
      53.52845826748072,
      244.76937943359093,
      -69.22517610470314,
      33.695981362311514,
      -2.5799785590300557,
      44.40578991553921,
      -41.82581135650758,
      74.88058762912395,
      -47.94707189915385,
      -119.32484821820769,
      -75.57821176838824,
      -111.9097741740326,
      41.46272191527215,
      238.41659651538882,
      3.8837719545648617,
      -15.464469810587397,
      188.0444691779782,
      19.732098075323727,
      165.97246056115887,
      -78.2796842444534,
      -18.853844279604882,
      -142.0151690346203,
      -57.610213402047705,
      26.809568476642728,
      -14.102473556266041,
      -74.23274196352233,
      -37.72503471202259,
      37.725034712024296,
      -13.794756937762024,
      -131.6686759592578,
      79.80991534695733,
      -32.70855086643986,
      -31.925343591958075,
      2.5353727964267034,
      271.81968211870526,
      5.230477399006918,
      -30.78329131886731,
      -74.74170762704608,
      -30.197510571970536,
      -3.5072362695964117,
      -149.84967982986387,
      -146.98187244890147,
      -35.95228370291173,
      71.66670178355892,
      -9.888879619473308,
      -49.29986540381223,
      -81.73801899519299,
      -14.620158304701777,
      230.6384691486714,
      139.51441070032652,
      22.648045216342574,
      -33.40584632898187
    ],
    "intercept": 1805.5671815644728
  },
  "narrow-insurance-no-weights-l2-gaussian": {
    "coef": [
      -121.35738046821449,
      -134.32148283430598,
      43.30295971268521,
      214.00675782452615,
      -61.321886002471636,
      59.69103176777862,
      1.6851948688147722,
      52.790303028090875,
      -54.47549789690556,
      69.45116006482722,
      -50.7311612337649,
      -107.63117916822796,
      -71.20862843890903,
      -91.45199013728156,
      23.303268403179395,
      228.26853051017477,
      4.641628421831921,
      -33.16131408855256,
      189.11655612446975,
      30.06615565942161,
      86.58788415947005,
      -66.13211920601776,
      -14.591948487111745,
      -110.6182018939787,
      -66.69958964115906,
      40.21235200236723,
      3.4235735919828287,
      -58.20334822089268,
      -19.525843718005873,
      19.525843718003568,
      -15.99166150638002,
      -149.85077496800577,
      33.55979068174481,
      -28.974476223220087,
      -25.672823109032716,
      12.41887228174548,
      283.2428700981244,
      15.868659960037307,
      -21.23172306752544,
      -67.59227521893777,
      -24.969155970000422,
      -2.980116363768573,
      -156.74631254385568,
      -125.20558388103211,
      -18.80709296327022,
      60.67137694750539,
      -7.826866102024448,
      -43.27468975609159,
      -82.74149278388447,
      -12.030780466709535,
      210.33158650339175,
      148.58947378207603,
      3.2215331627316277,
      -17.709202216817147
    ],
    "intercept": 1690.9093621129814
  },
  "narrow-insurance-offset-l2-gaussian": {
    "coef": [
      -110.3197261702766,
      -155.94097658438778,
      52.03720325974174,
      257.39687200714843,
      -72.35501938612687,
      29.181646873897577,
      -9.900456789811958,
      59.110735175310374,
      -49.2102783855012,
      71.54520537496057,
      -38.85476608280542,
      -131.19664655870582,
      -94.00819880658358,
      -119.83882401234862,
      55.57803763604823,
      256.7751924494319,
      5.926997017585615,
      -27.881328723685687,
      177.6344306850067,
      14.415599365628077,
      221.9919370299196,
      -66.39666680417454,
      -17.369850821251188,
      -153.61604524372987,
      -69.79272253332807,
      16.11778120370865,
      -18.66105159156283,
      -76.44208256653295,
      -35.39101223523017,
      35.39101223522445,
      -12.99602114552913,
      -124.08362032406582,
      85.15477803956338,
      -43.03324832337045,
      -36.782397638765794,
      -12.19178167089281,
      274.02815157354644,
      5.436788281569588,
      -27.971073028264215,
      -84.9821774847507,
      -22.066010046199693,
      -4.571025434158337,
      -156.81830269511502,
      -147.52843632101414,
      -44.55963412428163,
      76.98279017771841,
      -15.565418679718286,
      -49.817399429710704,
      -83.82592634952474,
      -18.743863147294913,
      235.50303963413384,
      163.3812900183623,
      32.05347697222985,
      -30.81551846112949
    ],
    "intercept": 1760.3966411541342
  },
  "wide-insurance-weights-l2-gaussian": {
    "coef": [
      -709.8270565105918,
      -3.910384433776812,
      20.7195584704662,
      -4.356055920108161,
      0.5164771620843206,
      0.9846608201530713,
      0.001696949403629698,
      0.017270181914924975,
      0.7923893288838642,
      -709.8270565105927,
      -29.203839748894314,
      -11.881758472633436,
      51.19870984395331,
      -26.364541041097773,
      13.348849111073369,
      2.9025803075614354,
      -17.99996255462294,
      34.60679688417068,
      -3.7144130494215073,
      -20.579259008175974,
      -6.174148422883473,
      24.558814522057457,
      -12.539552673492809,
      -14.623043707257567,
      -0.011002011549409241,
      20.93088151190537,
      4.5031833335292495,
      -8.958294824296308,
      -0.016324322432317386,
      -21.02257938660782,
      -35.63186412131303,
      32.533352627371976,
      25.283042090312335,
      -3.22942826457023,
      2.1766649156328626,
      18.414259975250403,
      13.682437537276815,
      2.8511583564215623,
      10.168561285584497,
      23.782243211551794,
      -52.136487914473335,
      -17.256887239599905,
      11.572227030282757,
      0.21669304335392406,
      -66.11933084892145,
      16.69233304746171,
      30.11571554803573,
      1.5766497120747347,
      2.914095472067401,
      0.27763902620578396,
      0.03339603869286629,
      -0.03970212592101935,
      -0.5982520039612244,
      3.5789163704978475,
      -0.07901463121612612,
      -0.3072897714716406,
      -0.20504825415554007,
      -0.03749508990150204,
      -0.06807463109669075,
      0.3890667912909497,
      -0.021020145926277708,
      -0.05869464770215365,
      0.5151893014510257,
      0.05385201841068084,
      5.365469014550228,
      12.5984110798962,
      -7.926345530089143,
      6.963743568498819,
      -42.864971525462586,
      14.128688946609527,
      9.152330125259606,
      -1.8137496659865564,
      0.9160956938976947,
      -10.491674642228725,
      -0.036996442866730296,
      3.6140848047694103,
      11.798058076488347,
      13.843307306762059,
      -20.17860813303427,
      18.688494810917934,
      18.474026790800675,
      -1.2262210962041877,
      -52.50482747487235,
      -1.873058466454171,
      -6.430786850879601,
      5.495091634989009,
      15.6017437768889,
      10.51555867129244,
      32.16331483674834,
      -0.5101390095801036,
      19.26718636825765,
      6.221914262304935,
      23.520271607110082,
      23.539709493341118,
      -34.68443089506531,
      -1.7020979716463198,
      3.7487627508180883,
      12.060019560229934,
      -68.05416276991284,
      -19.76770966443955,
      -15.04530967033902,
      1.335291237382712,
      25.585741365663957,
      -2.767965633802216,
      -9.782816679183888,
      0.14557139294754445,
      -100.95816191354625,
      6.5594587272025615,
      5.147863199456083,
      -0.1282999724940866,
      38.23203997807334,
      9.267987111504606,
      23.18974534578744,
      25.9310688992073,
      0.7062702498336172,
      -14.343999887291353,
      -23.70260479362646,
      -2.0083295041493088,
      3.62919403651689,
      17.269092496138796,
      13.105790744454733,
      0.8711494712098536,
      28.279518455392463,
      -49.78075801875528,
      19.822660830790447,
      2.925407390730494,
      1.0671033397406602,
      0.8795492582261556,
      -0.13568690185095886,
      -0.07887372753643658,
      0.6042924784367758,
      -5.187887762952289,
      1.1611180851135303,
      0.26103869290349707,
      -0.26568081847243363,
      -1.0666374651231596,
      -0.1436825309570234,
      1.9576536369374287,
      -0.1484141853179074,
      -60.69651132602618,
      0.7183730724412566,
      5.709409098302246,
      6.263388787329002,
      18.05732936862651,
      -5.882655798255768,
      2.657864646439407,
      -0.5846233472095386,
      9.984189043215869,
      4.0500518672923995,
      -79.99909003092439,
      -0.4399272064405747,
      20.729575613496802,
      0.290582966640471,
      3.170050783667273,
      -6.604109787606381,
      -2.2874577563203617,
      -1.4546966170126823,
      -2.3492632974651158,
      4.91897221636281,
      3.8064051198794653,
      -0.4960728018505045,
      10.001442326473054,
      0.8242269707552808,
      0.19242853052384182,
      13.997075258218425,
      16.089278972544967,
      -0.7763240466042427,
      1.5388162580755937,
      0.1286428649289543,
      1.8962028139678218,
      1.9645767532715368,
      0.5964232849495115,
      -0.0600261716889662,
      -1.7107783499227156,
      6.988873138235966,
      -2.6133063477192224,
      -0.2008157566243782,
      -2.6524694500047774,
      0.018883339172412663,
      35.27692517936367,
      -1.834041505260019,
      -0.08492076664619769,
      10.29537793524788,
      -0.5617305307519276,
      6.607585402804636,
      4.227046556016227,
      -28.95610885575608,
      0.00451852319429658,
      2.448491133382164,
      12.629798908955612,
      10.598046221615686,
      1.299277278941556,
      -0.24294016953876094,
      -0.4271740592492093,
      0.8456319586723626,
      5.315801532022263,
      0.1553205869836084,
      1.3251170754555615,
      -0.4718403788780127,
      10.607779829265791,
      1.1283693801998682,
      -0.16911468860920176,
      -0.23321961259884408,
      -0.14274129733825122,
      13.88693979255897,
      1.0324032661592963,
      0.4535268581249452,
      -1.1300492055654427,
      -0.5949120391995578,
      -0.05725647978162541,
      -4.901990635092692,
      -0.3279559971491373,
      -0.1289730247750822,
      -0.9688117240051893,
      1.9726709096596236,
      -1.993827575908946,
      -0.7028242162234137,
      -42.98821897882054,
      0.006677293285809569,
      -0.15485220357874577,
      0.5774236002548954,
      0.5938397193732802,
      -39.322603179061325,
      31.524218078198228,
      8.868391522955234,
      -114.3905719116511,
      4.058646224165349,
      7.801927387780153,
      39.20839395242883,
      -18.32278175574659,
      30.7382320781971,
      30.432834591322067,
      19.403313011375346,
      27.06547622738693,
      -27.06547622745827,
      -39.09182976875899,
      -69.19074936862398,
      2.2127555957538525,
      6.924366107977166,
      21.478946219550906,
      67.11695488206382,
      18.465844112401502,
      15.730144739601766,
      2.4289971782598143,
      1.729466276102229,
      0.39396614157364124,
      -28.147488072304057,
      12.178980863929512,
      26.97408332000032,
      -2.295124419913629,
      4.162753734462756,
      1.3572146206049522,
      -8.444676591789772,
      2.676693869315534,
      -40.599770718277504,
      32.60107967511812,
      -28.662608397087897
    ],
    "intercept": 1545.7349133314037
  },
  "wide-insurance-no-weights-l2-gaussian": {
    "coef": [
      -574.4903908237786,
      -8.966971873866425,
      11.833990280065974,
      -1.7445280232930425,
      0.00046963920846355327,
      -0.05627726826162341,
      0.0002621392907013808,
      0.010673203713030956,
      0.875127696146088,
      -574.4903908237783,
      -19.42616496465494,
      -9.118499710493856,
      26.699855123720567,
      -7.966840142958451,
      6.239950565903821,
      3.5716991283499624,
      -3.610961438201869,
      18.234494681127636,
      -2.730870381845798,
      -18.830620459420462,
      -3.872161005566779,
      14.546788424823292,
      -7.6124331856889915,
      -8.518355688018884,
      1.596384058677651,
      13.097608612253364,
      1.7400516089250768,
      -4.039925227196892,
      1.51406940686523,
      -13.881119841563516,
      -29.99205401461192,
      21.521898305780752,
      12.364698980717456,
      -2.3040381857563,
      7.767836971049511,
      8.858206357149559,
      9.072881395409492,
      -2.2468004183789256,
      5.965493432194587,
      14.650099948091102,
      -9.956840998786264,
      -10.129764086134102,
      4.714563846386457,
      -1.570143760095217,
      -44.608727832800305,
      8.685104550294273,
      16.980311120869512,
      1.1226220440033978,
      1.4197275755305854,
      -0.710344788883782,
      0.27521921668409755,
      0.0974822144143588,
      -0.2829321769143698,
      0.4494722751406706,
      0.010984012565230331,
      -0.15449195226404927,
      -0.09673590934777555,
      -0.012667549514660622,
      0.029315100917124456,
      0.19028610791429093,
      -0.0035622754779083294,
      -0.047316369702199323,
      0.30262519510806885,
      0.004642103025827245,
      2.9328484399341153,
      6.620377523303337,
      -3.868627102040709,
      4.550724164768043,
      -30.85352423616428,
      6.447998084285932,
      5.5086527076223435,
      -0.5522967132199856,
      2.480865452002084,
      -6.804010851563823,
      -0.10853343653021037,
      2.6214667122332065,
      5.883809802735858,
      8.013136830620054,
      -11.869762481419007,
      12.936876416245,
      11.580952959150396,
      -3.200098144334391,
      -28.976079612135916,
      -1.7602742148207264,
      -3.707815052182882,
      2.564962635628406,
      9.402347632428164,
      6.497605135402006,
      19.746016384587815,
      -2.6051036928268756,
      11.495622263094582,
      -2.006992497778927,
      14.59022924653522,
      13.158862485877682,
      -21.510047178267026,
      -0.34209597151801757,
      0.8651890865283814,
      6.333389002882825,
      -11.360872673433116,
      -6.694087386169852,
      -10.80721912330852,
      2.413214561754645,
      9.54233409108347,
      -2.3305645808198956,
      -6.011179569478459,
      0.2597096264891209,
      -65.53646401401721,
      3.6461757574304055,
      3.324061739934965,
      0.37976819881449364,
      23.884685282060538,
      6.206684994073889,
      11.416319984367403,
      13.408182306226214,
      -0.40813034368967216,
      -7.574370831476445,
      -15.356727229000969,
      0.08180093013010899,
      2.6374152639558903,
      9.059428441305583,
      7.605294271755454,
      -1.3144973400047566,
      16.46639477636826,
      -34.501072929763104,
      12.339649462937341,
      2.5773191876499872,
      1.0028981634024894,
      1.1218408568526639,
      -0.12436062513863876,
      0.512032506548252,
      0.23586421888534484,
      -3.404392899582772,
      0.8339894400554215,
      0.15092603366875243,
      -0.08968523639397195,
      -0.3867348479144014,
      -0.05645867183731026,
      0.8417999362206477,
      -0.05764351112783045,
      -32.00675661758751,
      0.5348967142461966,
      2.8299534097457197,
      2.1998092395202873,
      8.549750757915353,
      -4.4593608338455395,
      1.547500655242823,
      -1.1048412942249854,
      5.477345277368759,
      1.8680023169831177,
      -49.69239728059078,
      0.357948749163429,
      10.712243236871604,
      0.1011883539895902,
      1.9685386636191506,
      -4.479418945703822,
      -0.8622616401881331,
      -0.19143172815423865,
      0.7092059844770761,
      2.1590481272169444,
      2.222887289906178,
      0.9036694141580899,
      9.02993099104177,
      -0.2954624019936629,
      0.26982093045424316,
      8.495644304370298,
      9.355493394377229,
      -2.0562396572464614,
      1.5244256356657035,
      0.4083937753774827,
      1.9392868340506106,
      1.2448141620484787,
      0.537795270896335,
      -0.014413142746845766,
      -0.6263436360957776,
      6.74190241640783,
      -1.51616233550824,
      -0.05435803990588499,
      -1.3459139611315036,
      0.12561566680622363,
      22.44487669848169,
      -1.2124763109329357,
      -0.07394544108886178,
      4.405674295066025,
      -0.16801946500337525,
      4.18937900219726,
      1.2362382615626664,
      -18.781490304456312,
      0.06856444558757697,
      1.5505290689170796,
      4.574012772874732,
      2.9466690609505206,
      0.432854733879904,
      -0.09457487025029958,
      -0.14386253516246916,
      0.18460372535429692,
      4.756614261126464,
      0.22114500852200822,
      0.550561303814445,
      -0.1897957422687011,
      9.043506403201478,
      0.30879517889828634,
      0.011541028184951957,
      -0.0766021447736801,
      -0.051847004320196406,
      9.986837190641268,
      0.6740771690435226,
      0.02217045341065402,
      2.489724358859333,
      -0.21610618175944468,
      0.04870323894010074,
      -3.5496230150298786,
      -0.06419970448810433,
      -0.012456235983939743,
      -0.25295982797715444,
      0.7576660622719888,
      -1.5143751400055674,
      0.12449369444517865,
      -28.46979683973932,
      0.08434663657580344,
      -0.0023713910987128296,
      0.4452887121541163,
      0.2058793322591774,
      -13.79845709257241,
      21.63527203218631,
      6.661884990023519,
      -81.43074713919871,
      0.3560774759824863,
      2.551302263564754,
      24.601949470163927,
      -10.69292976965123,
      20.874439024354857,
      19.03959861768707,
      10.20161012733215,
      12.500685220978294,
      -12.500685221100369,
      -29.47186498262551,
      -41.805809523984905,
      3.378274134041592,
      4.845520810721762,
      12.706259821284496,
      40.05163139005895,
      10.725194418533091,
      6.376288395405242,
      2.7975652281308756,
      -0.5457860336696504,
      0.5063505033584377,
      -19.253418944055454,
      5.733004814776986,
      15.788124904853927,
      -4.604869555949184,
      3.738326991039634,
      0.49355933228116383,
      -9.856228754140593,
      2.4026652177455188,
      0.5139338952802331,
      15.97495844109706,
      -20.493680504313232
    ],
    "intercept": 1261.4167890079802
  },
  "wide-insurance-offset-l2-gaussian": {
    "coef": [
      -0.17801456201853427,
      -0.0018269943762715944,
      0.00045114738188918325,
      0.00022767111272264134,
      -0.0001812756219056796,
      -0.00036701975677564373,
      -6.658815376397847e-07,
      5.061241951486375e-07,
      0.999997388055657,
      -0.1780145620183155,
      0.0004405264921546606,
      6.25328966176182e-05,
      -0.0015317893477335756,
      -0.0004475825659779999,
      0.0010234753079111712,
      0.0004528371539191931,
      0.00046846103652989536,
      -0.0009373111510757101,
      0.0010468513681982379,
      -0.000612703525260908,
      -0.00011836510815651919,
      0.00034870995615511255,
      -0.001227965989189726,
      0.0006264343872148442,
      0.0006457367173725866,
      0.000518839007764049,
      -0.001355642117858561,
      0.000596955358301,
      0.0018440320690167773,
      0.000380587688577251,
      -0.003425764699121296,
      0.0016740759386550674,
      -0.00010871534511746238,
      -0.00017271395143309356,
      0.0008349276455370428,
      -0.0020365887116756557,
      0.0008587681625008612,
      -0.0017319140639623152,
      0.0003833735075681816,
      0.0005988890929262959,
      0.0004621947287689169,
      0.0019342444115065928,
      -0.0010857155037792578,
      -0.00015812650793862388,
      -0.00028742671227813824,
      2.0564950201652494e-05,
      -0.00030464345511434113,
      0.0006000338433511403,
      4.4348419237812424e-05,
      -0.0007720741922661572,
      0.0002645662889307943,
      0.000127926365711387,
      7.736780908638824e-05,
      -0.00024495826038922183,
      6.350242063994413e-05,
      3.232949056555662e-05,
      1.8792727756499505e-05,
      6.683406932814218e-06,
      5.374497345909536e-05,
      8.292529298001886e-06,
      1.0750440893661773e-05,
      9.053350341236684e-06,
      1.771667426702602e-05,
      1.87446386907503e-06,
      -0.0004683969335161727,
      -0.0004732760952882047,
      0.000940844858701794,
      0.00020472981172576016,
      -0.002609740106655957,
      -4.937932650664886e-05,
      -0.00041638161397362255,
      0.0006525257612281394,
      0.0012586252930188958,
      -0.0002741619547300181,
      -0.0004312564681465379,
      -0.0003414859876526435,
      -0.0005211698415439612,
      0.0010718217843358525,
      0.0008701571225802918,
      0.0014712548896364725,
      0.00023741079086054932,
      -0.0012144694372870635,
      0.001714037615736225,
      -0.0008305323397537559,
      0.0005104232692592744,
      -0.0009233288184750437,
      4.0385717800815674e-05,
      0.00013748092306810897,
      0.0012548629470016423,
      -0.0014528714882728062,
      -0.00018477017452296136,
      -0.00211407118037589,
      0.0007870713988273398,
      0.0005288366011973037,
      0.0010390411012364206,
      0.0005871356495615213,
      0.00017214797483665993,
      -4.58442169818558e-05,
      0.0007717468580352747,
      -6.307257418252604e-05,
      7.176392982369972e-05,
      0.0013355326960417708,
      -0.0019835864288405393,
      -0.0007217011888059099,
      -0.00027484733876897803,
      0.000201043771826281,
      -0.0009816615221584458,
      0.0003528554401583403,
      1.5866957258546387e-06,
      0.000653359273103978,
      0.0009014855700302058,
      0.0003650501114622875,
      -0.0008149593839353234,
      -0.001510411876354545,
      -0.0005647559145584767,
      0.0009213491359290172,
      -0.00010523760121278302,
      0.0010239216081613903,
      0.0011034415070742764,
      -0.000708591009780252,
      -7.669470980809654e-05,
      -0.0013546508978837762,
      -0.0002749653863371686,
      -0.0013225130025705987,
      0.0005713266464065492,
      0.0006219838559090253,
      0.000290551259072902,
      0.0004362900487836798,
      -0.00021717962385654115,
      0.00040807759992472634,
      -0.00010358445468906162,
      -0.00014052255950444342,
      2.3250964720470483e-05,
      1.4025110440432143e-05,
      4.4794454345704084e-05,
      0.00020013328462270723,
      6.433490591396274e-05,
      -0.0003069849988267939,
      2.0358208079009376e-05,
      0.0004255806759849267,
      0.0002671999130972452,
      -0.0005390871176159604,
      -0.0013429149944181363,
      -0.0006187719398726301,
      -0.00020075502084553585,
      5.6264738266522136e-05,
      -0.00016198831409517403,
      -0.0008103794976989447,
      -0.0003180740443936762,
      0.00037842863634916346,
      0.0004670659718525768,
      -0.001865727764949675,
      6.280083505004798e-05,
      -5.2523383309887525e-05,
      -0.0002618192217932062,
      0.00028110409061335613,
      0.0002983929316759414,
      0.0012609960340116495,
      -0.0007683455250608045,
      -0.00014678698809781162,
      0.0008175931859431862,
      0.002939599442829439,
      -0.0008825142009524347,
      4.425268066675469e-05,
      -3.669430606142753e-06,
      0.0004990259064252057,
      -0.001690746358045935,
      0.0004365524165030066,
      0.0002000670944178047,
      -0.00024087008520163694,
      2.2345477839033773e-05,
      0.00012016639003802355,
      -0.00015522024063298762,
      0.000205700443143836,
      0.0024108549656480065,
      -7.42580804910755e-05,
      3.6491116477319265e-05,
      8.689929399756475e-05,
      0.00011939734223220344,
      0.0024894767364122697,
      -9.803584098453094e-05,
      -0.0001732174929243893,
      -0.0008249158250666865,
      7.87539548917852e-05,
      0.00031238360771940687,
      -0.001333410318505697,
      -0.0003163649622541015,
      3.5834247564374195e-05,
      8.152650952457824e-05,
      -0.003127293749498091,
      -0.00041848213032624716,
      -0.0004232039324343523,
      2.3975518804841342e-05,
      5.352241942299588e-05,
      -0.0003065829080107445,
      0.0016360921200940296,
      7.532024749135479e-05,
      -0.0002809562594068947,
      4.4532224867365844e-05,
      0.0012976627998197883,
      -0.00028899533123393325,
      6.807408571309791e-05,
      3.383855890718244e-05,
      3.5080134489000926e-05,
      0.0007132095755167742,
      4.4982897913850014e-05,
      -0.0002956239537012587,
      0.001642742807512913,
      7.377407151776993e-05,
      4.807593301379705e-05,
      -0.0004913438983864171,
      7.177715953950879e-05,
      4.3607786058904244e-05,
      0.00020363493067729785,
      -0.0007824269211104028,
      -0.00047298203103899727,
      0.00040103693530123947,
      -0.0010979615405351873,
      5.71390511647188e-05,
      6.154214429670836e-05,
      7.526650459450105e-05,
      -0.0002733932190758678,
      0.0023725922253323493,
      0.002075725526576593,
      0.00039490519709484617,
      -0.006330396319880093,
      -0.0024594184691007622,
      -0.00019563765192152693,
      0.0007032148662650305,
      0.0014612272855090902,
      0.0017646160517015095,
      0.00024094587076697055,
      -2.7774629029994957e-05,
      -0.0011396485961270297,
      0.0011396486686167423,
      -0.0011911293323806583,
      -0.0007885198329777279,
      0.001469500686786623,
      0.0006029834569871872,
      0.0021501049056839995,
      0.0003892045113985151,
      -0.00013882412047746452,
      -0.0005526573135325372,
      0.001465090756825038,
      -0.001450043722212079,
      0.00017484435866105212,
      -2.876086696300344e-05,
      -0.000845865408908891,
      0.0016708014651395328,
      -0.000596693203409967,
      0.0007990383219094912,
      -0.00010190590714110909,
      -0.0004039094412917928,
      0.0005724798133782246,
      0.0006826485824643701,
      -0.0024208716451312767,
      -0.0014575161037852758
    ],
    "intercept": 0.3715504172087094
  },
  "intermediate-insurance-no-weights-l2-poisson": {
    "coef": [
      -0.1209909808235405,
      0.04540551483740342,
      0.09670837907878214,
      0.11494275818886986,
      -0.08242507508517749,
      -0.05364059619633746,
      0.3800312051220355,
      -0.17680257894081752,
      -0.20322862618121787,
      0.0013597186808616997,
      0.012408689137524269,
      -0.031079051821617153,
      0.013641894875142632,
      -0.09213174185810206,
      0.1367509406456661,
      -0.040950449659475543,
      0.009755309180409798,
      -0.05716745610674946,
      -0.021385567431797408,
      -0.0041232217579253655,
      0.24285781671200174,
      -0.019626749244720586,
      0.0007198780015432778,
      -0.03467012309036775,
      -0.08818998561178708,
      -0.017399199086190895,
      -0.042218289848002515,
      0.041202897463995955,
      -0.17458362500809946,
      0.17458362500809946,
      -0.01844037172484307,
      0.013164656588566416,
      0.002892039694397612,
      -0.00948851567803902,
      -0.01866360363310344,
      -0.1373891505485538,
      -0.004389892824498123,
      0.03682954961444842,
      0.0051610172489365185,
      -0.020686316433963407,
      -0.007052706478628574,
      -0.003610020495665424,
      0.024232279971475187,
      0.08664345807650888,
      -0.02526855265898973,
      -0.04880527589428686,
      0.08556351258090843,
      -0.0006777668253455453,
      0.06676767526455767,
      -0.016677588952853963,
      -0.00652117217909685,
      -0.009576521925624101,
      -0.012447104511150319,
      0.0010258206234151218,
      0.012880032411171515,
      -0.028474236199717912,
      -0.01067191731016311,
      -0.001666689835204374,
      -0.014199638779791439,
      -0.0136476912947697,
      0.005732290491660415,
      -0.020094868600974244,
      0.0007062581831667687,
      -0.006883304910640921,
      0.11418864483542084,
      -0.00036851324254484125,
      0.013043958991428127,
      0.007845724809972266,
      -0.03786965191186379,
      -0.002106257365463817,
      -0.003690338976612044,
      -0.0022759598918736935,
      -0.02001458619606982,
      0.006820076417650336,
      -0.004078775911850606,
      -0.006230384446495488,
      0.0344160606502928,
      -0.0021055380933512825,
      -0.0011105687036077247,
      0.0030674648044092634,
      0.006114398923294857,
      -0.0036056357246321592,
      0.0005413863345667265,
      -0.00017570240881118254,
      0.01696353962873743,
      -0.001929633011235366,
      -0.0014954860371528221,
      0.0005242159118196847,
      -0.0006516482136324052,
      -0.023065241752277053,
      -0.001475900139795596,
      -0.0023664975691924713,
      -0.0007424934459462605,
      -0.014372866247537995,
      -0.0007493142096002057,
      0.0005050356329337262,
      -0.0005315587622233638,
      -0.022658454946839636,
      0.001977909241820084,
      -0.0008643044904203922,
      -0.0005418541401351163,
      0.02538851550208194
    ],
    "intercept": -1.9480186212943051
  },
  "intermediate-insurance-offset-l2-poisson": {
    "coef": [
      -0.0170751078120288,
      -0.011271905838913649,
      0.009910407013661509,
      0.010868892212624937,
      -0.0049323204680367695,
      0.01250003489269277,
      0.05832469273602959,
      -0.017498979425244178,
      -0.04082571331078538,
      -0.003107712812079974,
      0.0019144296054411192,
      -0.013365503033566357,
      -0.012021477784418536,
      0.007511246767601428,
      0.022970958819717047,
      -0.0039019415626947293,
      0.02060756963345124,
      0.006105035726026996,
      -0.002350691757194744,
      0.0012606527277215483,
      0.034026986673056134,
      -0.004211729491902362,
      0.0021356189840603564,
      -0.016414677612793332,
      -0.015353352135410104,
      -0.009207404469976754,
      -0.00012941575348337662,
      0.004138977109895648,
      -0.0021802208751308763,
      0.002180220875130874,
      0.04691991686716511,
      0.008715411906016683,
      0.0022060392036950117,
      -0.0028129724920329616,
      -0.002426873997836597,
      -0.01144913147568721,
      -0.0016566255188344872,
      0.004167232410408768,
      0.001142831403049411,
      -0.006572386490428498,
      -0.001044006726093271,
      -0.0004768578257184037,
      -0.003343340520240587,
      0.006132659451290596,
      -0.0043977146196240895,
      -0.009323054178262348,
      -0.0022642099025200675,
      0.001903193345359386,
      0.00785134102896971,
      -0.0020061987188104706,
      -0.0030063113423663837,
      0.018546853618487697,
      0.0001141214411781084,
      0.023507676917780225,
      -0.011683430116793871,
      -0.0038591273181657823,
      0.0003520869503017098,
      0.0010364739390524183,
      -0.00019712189629104987,
      -0.001117046752231297,
      0.0032096682844087914,
      0.0002950797846649424,
      0.004870155564298219,
      0.000528128471614234,
      0.003297618000306163,
      8.089619159129394e-05,
      0.012981159180592934,
      0.001298150792223845,
      -0.0036465058856829263,
      0.0007916523080138412,
      -0.0010943482620494292,
      0.0006785459552605002,
      -0.005146677018905757,
      0.0046008683897878185,
      -0.0011365313987768031,
      -0.0006160437096880084,
      -0.0032838676377235348,
      -0.0007940179412086077,
      -9.102480526289558e-05,
      0.00275792889818083,
      -0.0007877141938479044,
      -0.00014869981051338855,
      0.0019088769114735424,
      -2.221084761780349e-05,
      0.0009666143296130464,
      -0.0003700022086788279,
      -0.00035994745298284216,
      0.0016152064001824797,
      -3.8884514708234424e-05,
      -0.006166870306681007,
      -0.0003789945318133393,
      -0.00044764280614169257,
      -3.0595126846748e-05,
      -0.0026034005347869934,
      -0.00018550549579032918,
      0.000410634880931371,
      -0.0002308007291573529,
      -0.007984091382848384,
      0.002329036023588654,
      -0.00011908477940809056,
      -4.3125403654103853e-05,
      0.008574531612170385
    ],
    "intercept": -3.8141965093672123
  },
  "narrow-insurance-no-weights-l2-poisson": {
    "coef": [
      -0.12114291768120364,
      0.04542375336122062,
      0.09673341536016929,
      0.11474143519097742,
      -0.08233926394933853,
      -0.05341642228182523,
      0.3801240295376261,
      -0.17710307405383083,
      -0.20302095548379545,
      0.0015596347358890303,
      0.011975233525616797,
      -0.03150104730940771,
      0.013635166580395007,
      -0.09204126027608364,
      0.13724123983056744,
      -0.04086896708697704,
      0.009616289108779616,
      -0.05715055623157517,
      -0.021347726877370358,
      -0.004189720423468242,
      0.24293240508988206,
      -0.01971997190221084,
      0.000717204026238443,
      -0.03448026925788259,
      -0.08807273315270672,
      -0.017521038436546784,
      -0.04232194109316463,
      0.04115434825880493,
      -0.17474082816565334,
      0.17474082816565337,
      -0.01841709334715932,
      0.012882049164812882,
      0.0029165580105231176,
      -0.009539448222052611,
      -0.018632023507906433,
      -0.13744976559653685,
      -0.0044271328062692825,
      0.03686541870412813,
      0.005524350232770834,
      -0.02062432841258321,
      -0.007021738830528159,
      -0.0036435095670589958,
      0.024243098614545832,
      0.08684631475604927,
      -0.02522067515252307,
      -0.04896448222221019,
      0.08556020681739107,
      -0.0006601522937961198,
      0.06670069073355916,
      -0.016714290363497766,
      -0.006563295170189915,
      -0.009600995877102766,
      -0.012476849011524968,
      0.0010206136346617022
    ],
    "intercept": -1.9311032810088822
  },
  "narrow-insurance-offset-l2-poisson": {
    "coef": [
      -0.01707613939436407,
      -0.011263670931487741,
      0.009903775295227112,
      0.010851876386365866,
      -0.0049124538844715305,
      0.01249661252873037,
      0.05832959975891604,
      -0.017510712329390967,
      -0.04081888742952507,
      -0.0031083240013817523,
      0.001883246512616419,
      -0.013307489346170384,
      -0.011885425951706599,
      0.007483082979060457,
      0.022878204140313378,
      -0.003943294332731525,
      0.020853845152530137,
      0.006097709261993901,
      -0.0023399240987143246,
      0.0012654340101332928,
      0.034005872271063775,
      -0.00420943322061348,
      0.00213360357675337,
      -0.01642895012400273,
      -0.015341410820949473,
      -0.009197807836468707,
      -0.00011337734246257462,
      0.004128284323266956,
      -0.0021578399087158816,
      0.0021578399087158954,
      0.04695873394113011,
      0.008718694697974948,
      0.002205863806874255,
      -0.0028096225568846915,
      -0.0024262886262856266,
      -0.011470452030037444,
      -0.001658398485603277,
      0.004172331178602785,
      0.0011511287090530068,
      -0.006580857725672889,
      -0.0010481130127426568,
      -0.0004794952883048619,
      -0.003351871121337011,
      0.006130940155382688,
      -0.004401753936137496,
      -0.009331459022985874,
      -0.002264897448561195,
      0.0019018694728274786,
      0.00788283303779463,
      -0.0020068178287707154,
      -0.0030022047060543847,
      0.018553497769567367,
      0.00011507296130097355,
      0.02353829624686887
    ],
    "intercept": -3.8361053513103944
  },
  "wide-insurance-no-weights-l2-poisson": {
    "coef": [
      1.5165648171392228,
      -0.49771597911098664,
      -0.03659302025095489,
      -0.06024718051826513,
      0.003685900366468569,
      0.00397125870961566,
      4.472770850008623e-06,
      1.8575951345029197e-05,
      1.8575951345465588e-05,
      0.3208163234745817,
      -0.03205930571128734,
      0.058491864409763464,
      0.09292219419332852,
      -0.05187068644432921,
      -0.08074311654949558,
      0.013259050102020208,
      -0.1190086476828428,
      0.02982467196299499,
      0.08321145701230039,
      0.12060899084928799,
      -0.07194029518433326,
      3.1375948457496962e-06,
      -0.01866609701725604,
      -0.029324442291654335,
      0.02031443486106357,
      -0.004972567108754449,
      -0.0031402901642560628,
      -0.006910352831395602,
      0.26622047007942445,
      -0.13769384021650374,
      -0.06728180012337558,
      -0.0018846348267003905,
      -0.06687915899818668,
      -0.031652011663335936,
      -0.039259144311763076,
      -0.02585328795031008,
      0.0013701340885342247,
      -0.025557119599962836,
      0.12550950746103504,
      -0.019727944728601645,
      0.02867466750513222,
      -0.01567078198967803,
      0.0020820716675758943,
      0.017911294635897735,
      0.005743768831746082,
      -0.006734280087950899,
      -0.0003143186174265895,
      -0.004849277915062469,
      -0.002734375493906059,
      -0.00230189455333794,
      -0.0005254811780992681,
      2.1016794553977957e-05,
      -0.0004249034538863823,
      -0.00031695331293631355,
      -0.0001570005840730164,
      0.0023307808384468933,
      -0.0001360215022099653,
      -8.766632726860505e-05,
      0.0008105354598208045,
      -0.0002361109507442687,
      -0.00010251099817833685,
      -4.010141267739416e-05,
      -5.179322421956021e-05,
      -6.760956406108564e-05,
      -2.1650796173830326e-05,
      -7.262977868406895e-05,
      -2.422959629944456e-05,
      -1.071480492566674e-05,
      -4.287307520934679e-06,
      -7.114941072746212e-07,
      0.00020068347031050723,
      0.003969052816038585,
      -0.0018334748612755236,
      0.004685961840270877,
      0.016873806133913823,
      0.0007133381515161317,
      0.003968705474827143,
      -0.011768979064363168,
      -0.006553109206829588,
      -0.012243380527124547,
      0.03732186818948468,
      -0.005012967949816892,
      -0.02282869779258971,
      -0.006857748384793878,
      0.02711955258878341,
      0.11909011964553969,
      -0.025715914041403793,
      -0.019720496026040594,
      -0.0010748999720802343,
      -0.0020647056357252047,
      -0.023181400962548726,
      -0.007495526724780789,
      -0.02066581957378739,
      -0.042801466708067906,
      0.02826625343780559,
      -0.004801354378159622,
      -0.020176270698234754,
      -0.029173324667526625,
      -0.016516930525648153,
      -0.02197551000703127,
      -0.006991320736071453,
      -0.009819417491601675,
      -0.022081283630425233,
      -0.004038845860297643,
      0.06536678164007133,
      0.03069228419391239,
      0.006779045310617411,
      -0.023225294860294197,
      0.007433643481337389,
      -0.014763328603206867,
      0.0007532856460837641,
      -0.0015660356052053642,
      -0.01434788409990846,
      -0.018333634424607174,
      -0.015406294423165318,
      -0.015165847572658238,
      0.016066156026545087,
      0.008466804168468248,
      -0.018141046678206357,
      -0.012917089450921935,
      0.06857490020778824,
      0.009708806832447896,
      0.08293178334791139,
      -0.011311535039310027,
      -0.012521446541068564,
      -0.009665467153402298,
      -0.010333517444738427,
      0.0026137095848005466,
      0.002576601920775772,
      -0.004501741688248035,
      -0.0010168772018511437,
      -0.003935282930378033,
      -0.005643193000246315,
      -0.0036621617120717533,
      -0.0022049347018723887,
      -0.002335654569424135,
      -0.0008972440954238594,
      -7.318290775750147e-06,
      -0.0004647268931206235,
      0.005732763765102556,
      -0.0002500346484348141,
      -0.0008579613736960224,
      -7.867666177586245e-05,
      -0.00019293918520228793,
      -0.0002037463185056765,
      -0.00013498904325152553,
      -0.0003013331656123001,
      -0.000125825071544449,
      0.009951262517723582,
      -0.023918278598878247,
      -0.010427097242357365,
      -0.002322799659945255,
      -0.011626272164219548,
      -0.014551702054224689,
      -0.0027200040135010044,
      -0.018912688272001585,
      -0.0012515046513855456,
      -0.006186774079934956,
      0.10819853324680845,
      -0.00047151657245076014,
      -0.0041799642078518395,
      0.007755295370349617,
      -0.033628572778970356,
      -0.0024801657070303825,
      -0.00264863686749409,
      -0.0012287482598720533,
      -0.01017367221056195,
      0.0033409034348799074,
      -0.0026826973578661945,
      -0.004760309924606415,
      0.04276496729042821,
      -0.001998355903992039,
      -0.001080162459339954,
      0.0007964487441920527,
      0.010105017921335061,
      -0.003009424604127327,
      -0.0008882130783556746,
      -0.000155056243916578,
      0.02500987639817988,
      -0.0014236234651324121,
      -0.0008849804249962863,
      -0.0016036357875877196,
      -0.0004399280823233517,
      -0.010997926807216098,
      -0.000946012025574185,
      -0.0014656481087600363,
      -0.0004951033972675256,
      -0.014383618856260477,
      -0.000447037315350419,
      0.00033548235285263303,
      -0.00033479254298283685,
      -0.006845478112318094,
      -0.008076491036018965,
      -0.000722480696004966,
      -0.00031386670654257173,
      -0.008403865491062881,
      0.0008188742061828846,
      -7.616662667634599e-05,
      -0.003870416488100313,
      -0.0001516419570201152,
      0.00541673525951881,
      -0.0001603739981564767,
      0.009746005501376083,
      0.0007451573087676749,
      -0.00024081621307193258,
      -0.00016881897320897952,
      -0.0005993394439305764,
      -0.00044498682129655244,
      -0.0001848932628510014,
      -0.046687729671826425,
      -0.020117346661121888,
      -0.0018597895122246738,
      0.14242091218056513,
      -0.011169072009314109,
      0.0016945156558542235,
      0.00843355382084819,
      -0.06545867630683219,
      -0.00541335290227155,
      -0.03654849050052603,
      0.03470547590684929,
      -0.1933206396526987,
      0.19332063965269872,
      -0.014013939422686316,
      0.003603229850701972,
      -0.006310974424341172,
      -0.015918595311441613,
      -0.08902529274822737,
      -0.0002491242299055666,
      0.024516567993939403,
      -0.0029958588939520883,
      -0.014211539548414212,
      -0.005856558075809633,
      -0.0027611057819817994,
      0.02242232389751412,
      0.07142851352362123,
      -0.013644193219822203,
      -0.03864720172147804,
      0.08735957022088588,
      -0.0060187948706302,
      0.07537818013341206,
      -0.013046003258161406,
      -0.007327616842549593,
      -0.04481922809357132,
      -0.00986235917710216
    ],
    "intercept": -1.481653376914812
  },
  "wide-insurance-offset-l2-poisson": {
    "coef": [
      0.5036957007997875,
      -0.06764488693000106,
      0.019185783804746656,
      -0.037802447223977236,
      0.005253463249481476,
      0.017796067076872986,
      2.4404125224675375e-05,
      3.75578756851362e-05,
      3.75578756852667e-05,
      0.34429221773828417,
      -0.00435636140473028,
      -0.012636272046609106,
      -0.00046727147938837124,
      0.006239437062481977,
      0.015092753309168667,
      -0.0038722854409228833,
      -0.008084588943630844,
      -0.006554623944275944,
      0.013750507860747316,
      0.003101957421300261,
      -0.006834540890032624,
      0.004251459450866847,
      0.0010215736652078305,
      0.000625320065869574,
      0.0017139960108873953,
      -0.001353439132533283,
      -0.0009905249312614714,
      -0.0006470966331450441,
      0.04905646616594011,
      -0.027483741013316774,
      -0.020161278049380043,
      -0.0031168062457638673,
      -0.0008569399836706389,
      -0.0038950560375168087,
      -0.0017309849958949102,
      0.0009448230255210032,
      0.002657327581433219,
      -0.006609506223133402,
      0.0100343176134272,
      -0.0008833364095078257,
      0.007348268984865604,
      -0.00457914364992343,
      0.001899019716860315,
      -0.0008860742406276782,
      -0.0003034318677416168,
      -0.001885048785180872,
      0.0023950753288540737,
      -8.998083031615172e-05,
      -0.001457693491281223,
      -0.0011139875559222278,
      -0.00028559646210410216,
      0.00031623400846530434,
      -0.00021892747646602153,
      -5.191518498658609e-05,
      -0.0001425344305718425,
      0.0008039745940601036,
      -7.81169236903592e-05,
      -2.7543047262725303e-05,
      0.0008020347421837881,
      -0.00010597778431941449,
      -4.9679084937698906e-05,
      -5.9295105884165545e-05,
      -5.3479737682923136e-05,
      -3.338901011194101e-05,
      -2.1686146871546394e-05,
      -5.119240816152717e-05,
      -1.2073321086365149e-05,
      -8.643530911176923e-06,
      -4.437466463665693e-06,
      -4.526092117113608e-08,
      0.0005511374498214437,
      -0.00048101463595938594,
      -0.01124827951046252,
      -0.0006087560997032829,
      -1.853470600969289e-05,
      0.001800669183956551,
      0.005944133230699918,
      0.0008707293331766059,
      -0.0027397762640812436,
      0.001827852551539603,
      -0.0027431641469161275,
      0.004102923386945061,
      -0.003634371377421418,
      0.0008573670466104425,
      0.001980234076803087,
      0.0013027099028740943,
      -0.00329510029932312,
      -0.002828760707605822,
      0.0024918907945526082,
      -0.004000166801357497,
      -0.0033465958307188686,
      -4.0693642283133916e-05,
      0.00046525630718661874,
      -0.004489547311885746,
      0.006562085583465204,
      0.0028533888282172826,
      -0.0025151466898763685,
      -0.004755090564576475,
      0.004949407555590189,
      -0.002772554832954164,
      0.002806745433441961,
      0.0012636809906581303,
      0.006014526352499769,
      0.0012220461350841527,
      0.0033129957028808516,
      0.007729950918343785,
      0.0022579660867647674,
      0.005216181198364052,
      0.0018686689679753771,
      -0.0030035592682253203,
      0.000488958145982596,
      -0.00011689817396828266,
      -0.000889770164743489,
      -0.0009245674833585603,
      -0.003027294554195934,
      0.0006407725804512444,
      0.0006229330697580195,
      0.0007501595170540819,
      -0.0005776885247771816,
      -0.002536594941483606,
      0.0004102931525717879,
      0.00011982579172200246,
      -0.0016765150188513072,
      -0.001065367315883612,
      -0.002078252159653357,
      -0.0023083898024235864,
      -0.0025817893833051026,
      0.0006495988136529929,
      -0.00023709910394870495,
      -0.0009348238667310788,
      0.0011609976577565929,
      -0.0010935451051284613,
      0.0005592099856554849,
      -0.001345216441306482,
      -0.0010406667705624277,
      7.338279588341138e-05,
      -0.00042224048284583867,
      0.0006990688950951315,
      -0.00027161114366663235,
      0.002153950373986929,
      -0.00010929704892905615,
      -0.00028155378917020475,
      -5.9167810885824997e-05,
      -0.0001353359393493991,
      -0.00014165021457444299,
      -8.251713676535297e-05,
      -4.918388255223215e-05,
      -7.354884860148321e-05,
      -0.01579550327178941,
      -0.0032079327273979046,
      8.069954882632272e-05,
      0.0008809010827084905,
      0.0005242225290051308,
      -0.001194474666754716,
      0.003028572054778749,
      0.0006949675594285627,
      0.004069893186551299,
      0.00043642253741999604,
      0.003021818874926465,
      0.000125994770207636,
      0.009558961929055818,
      0.0013666129241022874,
      -0.0027257698210483208,
      0.0005624201117384549,
      -0.0009587124593217687,
      0.0005647930872491805,
      -0.003301055483222915,
      0.004138441613845458,
      -0.0009930161558867263,
      -0.0006601105093445962,
      -0.0008399849556407724,
      -0.0008075547261875595,
      -8.737755961047334e-05,
      0.002619038576194138,
      0.001326904757693447,
      -0.0003851426822831676,
      0.0015491021511596689,
      -2.435839000978766e-05,
      0.0038863897544846476,
      -0.00024758491417999144,
      -0.0003195363317700016,
      0.0010792659193959635,
      -2.909083111390421e-05,
      -0.00324375045818054,
      -0.0003603917536866637,
      -0.0003428582365239745,
      -2.6447302691970097e-05,
      6.155466368254345e-06,
      -0.00015249941789201204,
      0.0004399374658925457,
      -0.0001658055100457618,
      -0.0038889465045193476,
      0.001120436288279998,
      -0.00012465169933943603,
      -3.532005833279597e-05,
      -0.0021168530608527483,
      0.0007578204360469622,
      -0.00010562204510327426,
      -0.0008159330756747754,
      -0.00012330168351681376,
      0.0018413332678892283,
      -6.579422096330206e-05,
      0.00218027364369915,
      -0.0006042006058275789,
      -0.0006601198382002588,
      -0.0006080379694420688,
      -0.0006899329824422776,
      -2.3195252563385774e-05,
      -0.00013051237558686147,
      0.0035431807649792405,
      -0.0016937781700667814,
      0.001689375261451075,
      0.016373894551884004,
      -0.0032912964297258747,
      0.0022984329885444776,
      -0.00848756641362251,
      -0.011353213634607203,
      -0.007168859116327185,
      0.0028888728960147197,
      0.005200957301476053,
      -0.005800651032392789,
      0.005800651032392771,
      0.0013188658794550507,
      0.0021338334982698454,
      -0.002147997435465184,
      -0.002155286076488722,
      -0.014518710709382517,
      -0.001214585674759361,
      0.0031603719598530147,
      0.0022302761886930237,
      -0.00497399499836286,
      -0.0007510130130679184,
      -0.00037695073163930397,
      -0.0005916507296375767,
      0.006673055728156262,
      -0.0022211508171191894,
      -0.007471784587693538,
      -0.0021365085739104683,
      0.0015931366465186333,
      0.009980986583633208,
      -0.002141508103129353,
      -0.001569919480794991,
      0.015092328034994412,
      8.82064118775319e-05
    ],
    "intercept": -3.5308768710650766
  },
  "intermediate-insurance-no-weights-l2-gamma": {
    "coef": [
      -0.06117061082316092,
      -0.07856802365036249,
      0.02807296467204747,
      0.10920334495165912,
      -0.03273650363631795,
      0.03519882848613476,
      0.007718776936780687,
      0.030755153625684446,
      -0.0384739305624651,
      0.03696960782480964,
      -0.027853601794377167,
      -0.062410157382807495,
      -0.03938552408460083,
      -0.039243886410092806,
      0.014765289412020996,
      0.11715827243504764,
      0.0029208913134892256,
      -0.0051039550987512375,
      0.08598849563642748,
      0.022350044697769425,
      0.04462498579181664,
      -0.03477208872972825,
      -0.0076557103507401145,
      -0.05762195773408931,
      -0.037262318566056316,
      0.011925699316898535,
      0.0030065370605070786,
      -0.025479732024054055,
      -0.006239117489604936,
      0.006239117489604944,
      -0.010168274875043506,
      -0.07987464292463388,
      0.01604757507028715,
      -0.01269687582764167,
      -0.011801900207023179,
      0.016562580472056002,
      0.13424657927994674,
      0.01666440964010263,
      -0.008440263881412599,
      -0.03192361441212612,
      -0.013811610080972371,
      -0.0017771222107803048,
      -0.09289426262169023,
      -0.069229491624177,
      -0.006164602509392102,
      0.040321610180568984,
      -0.002305139653472249,
      -0.022331917223023166,
      -0.045414320275835605,
      -0.005424374344978509,
      0.09502076762541091,
      0.08335226630848876,
      0.0018743492202978411,
      -0.0033641344038348314,
      -0.01417370969287403,
      0.006548598591154312,
      0.000421246885852449,
      0.009321055392777498,
      0.020228816090867074,
      -0.0033214873385871003,
      -0.0078962090772307,
      -0.003894734965151114,
      -0.0001984005749852643,
      0.010453911760004968,
      -0.016951774169143785,
      -0.00634609713287783,
      0.002630290541596764,
      0.03128948095817987,
      -0.019648723811640394,
      -0.0034758930452302482,
      -0.008126433962913005,
      -0.007645296818230557,
      -0.02959738342292192,
      -0.005514575992900442,
      0.0013973271419437684,
      -0.014316143975316558,
      0.04420320034118474,
      -0.006765587306577152,
      -0.004294859333318692,
      0.021377711982708363,
      0.07453451829492999,
      -0.015856242902587962,
      0.0014043670943371855,
      -0.0004351932707931834,
      -0.04275656628031758,
      0.003975139660360323,
      -0.005037046893457142,
      -0.007278921243020706,
      -0.004836455911195919,
      -0.024021978228468084,
      -0.0017850864789602152,
      -0.0004936796288340484,
      -0.0077394755743224455,
      -0.0016675508603118247,
      0.04495249227483766,
      -0.002902810332325012,
      -0.0025070943001499497,
      0.00855561060323209,
      -0.001267474275819821,
      0.0007213396156721827,
      -0.0006901708146388442,
      0.008716953551054488,
      -0.00042059580324568086,
      0.0071352663858604455,
      -0.026003673748206894
    ],
    "intercept": 7.376328401761934
  },
  "intermediate-insurance-offset-l2-gamma": {
    "coef": [
      -0.061170610823160915,
      -0.0785680236503625,
      0.028072964672047496,
      0.10920334495165912,
      -0.03273650363631795,
      0.035198828486134745,
      0.007718776936780661,
      0.030755153625684414,
      -0.03847393056246511,
      0.03696960782480967,
      -0.02785360179437716,
      -0.062410157382807495,
      -0.03938552408460085,
      -0.039243886410092806,
      0.014765289412020995,
      0.11715827243504769,
      0.0029208913134892234,
      -0.00510395509875121,
      0.08598849563642749,
      0.022350044697769418,
      0.04462498579181668,
      -0.03477208872972823,
      -0.007655710350740122,
      -0.05762195773408928,
      -0.037262318566056295,
      0.011925699316898568,
      0.003006537060507063,
      -0.025479732024054055,
      -0.006239117489604965,
      0.006239117489604957,
      -0.010168274875043402,
      -0.07987464292463388,
      0.016047575070287146,
      -0.012696875827641665,
      -0.011801900207023179,
      0.016562580472056002,
      0.13424657927994676,
      0.01666440964010263,
      -0.008440263881412599,
      -0.031923614412126114,
      -0.013811610080972371,
      -0.0017771222107803041,
      -0.09289426262169023,
      -0.06922949162417699,
      -0.00616460250939209,
      0.04032161018056898,
      -0.002305139653472241,
      -0.02233191722302318,
      -0.045414320275835605,
      -0.00542437434497852,
      0.09502076762541097,
      0.08335226630848877,
      0.0018743492202978355,
      -0.0033641344038349715,
      -0.014173709692874029,
      0.006548598591154316,
      0.0004212468858524383,
      0.009321055392777507,
      0.02022881609086708,
      -0.0033214873385871003,
      -0.007896209077230713,
      -0.0038947349651511074,
      -0.0001984005749852491,
      0.01045391176000497,
      -0.0169517741691438,
      -0.006346097132877833,
      0.002630290541596755,
      0.03128948095817983,
      -0.019648723811640383,
      -0.0034758930452302448,
      -0.008126433962913002,
      -0.007645296818230557,
      -0.029597383422921945,
      -0.005514575992900448,
      0.0013973271419437572,
      -0.014316143975316567,
      0.04420320034118475,
      -0.0067655873065771525,
      -0.004294859333318692,
      0.021377711982708367,
      0.07453451829493,
      -0.01585624290258796,
      0.0014043670943371862,
      -0.00043519327079318725,
      -0.042756566280317564,
      0.003975139660360323,
      -0.005037046893457143,
      -0.007278921243020705,
      -0.004836455911195919,
      -0.02402197822846807,
      -0.001785086478960216,
      -0.0004936796288340489,
      -0.007739475574322444,
      -0.001667550860311826,
      0.04495249227483765,
      -0.002902810332325014,
      -0.0025070943001499497,
      0.00855561060323209,
      -0.001267474275819822,
      0.0007213396156721828,
      -0.0006901708146388443,
      0.008716953551054486,
      -0.00042059580324568026,
      0.007135266385860447,
      -0.026003673748206828
    ],
    "intercept": 7.376328401761934
  },
  "narrow-insurance-no-weights-l2-gamma": {
    "coef": [
      -0.0602096449100893,
      -0.07925220680485431,
      0.02660260056588019,
      0.1107059022158537,
      -0.0326648116588712,
      0.03481816059208082,
      0.007046392241125877,
      0.03136178358457106,
      -0.03840817582569688,
      0.03551847680489452,
      -0.02629683784399373,
      -0.061288656189754084,
      -0.035804012879682046,
      -0.04172377418632921,
      0.014518333821409827,
      0.11507647047345478,
      0.0029718404631133353,
      -0.006893484560188401,
      0.08677833464215609,
      0.023823021206403873,
      0.04375645816605234,
      -0.034878027000757726,
      -0.007824700615266552,
      -0.0578190375471167,
      -0.03725122557263265,
      0.012345276876713072,
      0.003984091311185229,
      -0.0260207069065487,
      -0.0058143945363972145,
      0.005814394536397172,
      -0.008915994599773784,
      -0.07963009044889495,
      0.015724178313904196,
      -0.012564094786101859,
      -0.012265619793946931,
      0.015369090572082352,
      0.13250784316850903,
      0.01675639292513806,
      -0.007993586165284018,
      -0.03220026847412812,
      -0.013916442029630159,
      -0.001781411502039432,
      -0.09427560735334645,
      -0.06904499474166252,
      -0.006587263495251501,
      0.04175867795517565,
      -0.0026298517268215746,
      -0.02236935492865161,
      -0.045535439971760884,
      -0.005284134515489597,
      0.09754117030785878,
      0.08457617579286268,
      0.001844630897478726,
      -0.004373522544191431
    ],
    "intercept": 7.363707446301817
  },
  "narrow-insurance-offset-l2-gamma": {
    "coef": [
      -0.060209644910089295,
      -0.07925220680485431,
      0.02660260056588018,
      0.11070590221585372,
      -0.03266481165887121,
      0.03481816059208087,
      0.00704639224112589,
      0.03136178358457105,
      -0.038408175825696916,
      0.03551847680489451,
      -0.026296837843993753,
      -0.06128865618975411,
      -0.03580401287968203,
      -0.04172377418632921,
      0.014518333821409825,
      0.11507647047345479,
      0.0029718404631133384,
      -0.00689348456018839,
      0.08677833464215612,
      0.02382302120640388,
      0.04375645816605235,
      -0.03487802700075773,
      -0.007824700615266548,
      -0.0578190375471167,
      -0.037251225572632635,
      0.012345276876713088,
      0.0039840913111852385,
      -0.026020706906548712,
      -0.005814394536397135,
      0.005814394536397195,
      -0.008915994599773906,
      -0.07963009044889495,
      0.015724178313904238,
      -0.012564094786101866,
      -0.01226561979394693,
      0.015369090572082331,
      0.13250784316850908,
      0.016756392925138062,
      -0.007993586165284014,
      -0.03220026847412811,
      -0.013916442029630159,
      -0.0017814115020394297,
      -0.09427560735334645,
      -0.06904499474166254,
      -0.006587263495251498,
      0.04175867795517564,
      -0.002629851726821576,
      -0.02236935492865161,
      -0.045535439971760884,
      -0.005284134515489604,
      0.09754117030785878,
      0.08457617579286271,
      0.0018446308974787286,
      -0.004373522544191264
    ],
    "intercept": 7.363707446301817
  },
  "wide-insurance-no-weights-l2-gamma": {
    "coef": [
      -0.08500026407677075,
      -0.06263229467815394,
      0.0017943762449398307,
      -0.0030589228119592264,
      0.0030213229703456154,
      0.0025610339333585488,
      -3.5865505398555028e-06,
      -2.617161491709405e-05,
      0.0002405489518027499,
      -0.08500026407677073,
      0.0011386777854535829,
      -0.009239658251857956,
      0.010481030774677288,
      -0.0024769948884670197,
      0.006380133019723837,
      -0.006283188439529734,
      0.003883938505123314,
      -0.0017916992882546533,
      -0.011235002075589966,
      -0.00585994519597017,
      0.007052298688216146,
      0.007890408098490882,
      0.004440692859464476,
      0.000796634360508772,
      -0.001750897531629414,
      0.0017042388228136868,
      0.00113954713076596,
      -0.006270214373939035,
      0.010301566413811377,
      -0.010853257267766396,
      -0.007432413461644989,
      0.0023552576241053507,
      0.005059735221158238,
      0.0013505164541766834,
      0.012239746044332664,
      0.012225558623968262,
      0.0001200031590458644,
      -0.0019665969607998474,
      -0.010155932690587462,
      -0.011946928100713612,
      0.0068457633185135215,
      -0.010793338297239623,
      -0.009087347409999627,
      -0.0016708482008354181,
      0.0026589892903468052,
      0.00108422102417508,
      -0.0002788237270829778,
      0.003801687812256465,
      0.0003040749679741414,
      -0.0018001886094817553,
      0.0011692549150886529,
      0.0011427048969673585,
      0.00034076019089278244,
      0.0014431904221725966,
      0.0013016444931118847,
      -0.0002727624698869301,
      0.0001477416387969204,
      0.00019545410883487507,
      -0.0003341799882160523,
      0.0011382407791640664,
      0.0001442118631677541,
      0.0005172163565842504,
      0.00112649489136222,
      -0.0004214173257531271,
      0.005195592364980162,
      -0.0040455764753698255,
      0.007509752218598136,
      0.006500995414749773,
      -0.008746452357259184,
      -0.005672086236212134,
      -0.007475050704789824,
      -0.001709994713660847,
      -0.0004567132323362304,
      -0.00526142339151376,
      0.0008422290961055529,
      -0.0030656147544675157,
      0.0031269296251401142,
      0.0008734356583688442,
      0.0003452021698829394,
      0.0003308835300277497,
      0.0034501575855828324,
      -0.01752410721404774,
      0.0016064775726450321,
      -0.010617790508195718,
      -0.003680690741711163,
      -0.0032063496987838327,
      0.010763261975235416,
      0.0047964501356539055,
      0.015732623814627693,
      -0.000965641047850757,
      0.00946398910179724,
      0.002447616994229552,
      0.010726040075613995,
      0.004876150275816401,
      0.012711758768374519,
      -0.015465595157660134,
      0.010699707830007092,
      0.0035171783470449953,
      -0.00448017958298431,
      -0.008056820334499629,
      -4.4887399641292695e-06,
      0.0001328360223082988,
      -0.006641631564977267,
      0.0024971953945198207,
      -0.004387194510737865,
      0.006500206232183939,
      -0.0017347293035122283,
      -0.00331215580068586,
      0.0027160856897770432,
      -0.0018061672437129255,
      0.0019637889135268437,
      0.00625867096711441,
      -0.004912249733765395,
      -0.012394937421300992,
      0.0013163449790343981,
      -0.0042731937288676336,
      0.001738701506387407,
      -0.0036483303416341368,
      0.0053275789121903045,
      0.0040429961799919225,
      -0.0006816996416226736,
      0.0019840778306030923,
      -0.0022828545449361513,
      -0.002396938159097271,
      -0.005667433261417854,
      0.0010939385858822852,
      0.0016725191296487164,
      0.002329601395348758,
      0.00014624100719021855,
      0.0012785675391677835,
      -0.000922631691194962,
      0.0004493904163641176,
      0.0011801439028494203,
      0.0006057699594923232,
      0.00010213866383614433,
      -0.0014606534279745778,
      -5.3004736954160656e-05,
      -0.0017401577384683826,
      -0.00010268803973210968,
      -0.00847823187969004,
      -0.02162636627314913,
      0.002951412077812179,
      -0.0002463309965125757,
      -0.01063967859295595,
      0.009037643714534157,
      -0.002683126763457848,
      -0.009274986644430138,
      0.0071501304718623575,
      0.006568242113852,
      -0.01239895430515508,
      0.003737845821629282,
      0.024067552181258223,
      0.0061469639489504695,
      -0.004880242346402647,
      0.005585746638890462,
      0.003442970360844465,
      0.004211783152135567,
      -0.007532893467741805,
      -0.0010437751529924065,
      -0.0007105023234620513,
      0.003972688137776979,
      -0.004022343498495928,
      0.0024194270562339004,
      -0.0001831999430608824,
      0.0009268814963544624,
      0.010816868760931337,
      -0.0012742558533106586,
      0.007517161312243868,
      0.0025658874930447736,
      -0.013620259428487762,
      0.0032396598891103238,
      0.0011779168640161663,
      -0.0006015650752754013,
      -0.0015989984583902003,
      0.0019776606319074526,
      0.00015891914582567325,
      -8.228116889406798e-05,
      -0.0012721886197776203,
      -0.0002662371337499084,
      -0.0006373721114866827,
      -0.00011947405336097279,
      -9.582892555344686e-06,
      -0.0021127023690291815,
      -3.856335799845887e-05,
      0.00493418411593359,
      2.7530630174537318e-05,
      -0.002067414623968527,
      2.593642294018957e-05,
      0.0010668994678968598,
      -0.0007947216094138468,
      -0.000690087232749435,
      0.00046006373717868645,
      -6.9852521539825e-05,
      -1.3173424872889733e-05,
      -8.77931536001322e-05,
      -0.00024008001590912582,
      -0.000112146683136593,
      -0.00036675528203342815,
      -0.0003606299709867294,
      0.0009048692255026903,
      -0.00019795104714062642,
      0.0006749966494618897,
      -3.475872795652297e-05,
      -6.665115468287297e-05,
      0.0017489497567657161,
      0.0006217500686894314,
      -0.00013091939880621688,
      -0.0003029352387570913,
      -0.0008373402793770286,
      -9.783933347775258e-05,
      -0.0006293499087718888,
      -0.00029903228068952427,
      -9.369749363734046e-05,
      -0.0003442474758340907,
      -0.0007024243019944666,
      -0.000267286687288984,
      -0.0010671024046251506,
      -0.0026764172239145422,
      -0.0001949920464537559,
      -0.0002034712851668726,
      0.0004885371725427131,
      -0.0003238949996924278,
      -0.003781289056761567,
      0.001029553125956351,
      -0.009245029527274146,
      0.025691847262048848,
      0.009577028380615237,
      0.005244845997140372,
      -5.61986633162491e-05,
      -0.006958067469542857,
      0.008959350957108939,
      -0.01625433433664409,
      -0.014207706669330838,
      0.006279390916892953,
      -0.00627939091689294,
      0.0075210072589183075,
      -0.002990566250338071,
      0.007284670342466472,
      0.0010707999119177124,
      -0.01314701030873681,
      -0.004628196127690785,
      0.002280196222590182,
      -0.009806140506448919,
      -0.004500934924635942,
      -0.00505323065091257,
      0.001011223762191305,
      0.005159068126570267,
      0.011727793811049271,
      0.002576797922541941,
      0.0080759974181838,
      0.0042983988558570356,
      0.001136283097602443,
      -0.022282990584998653,
      0.0004696128037371102,
      0.007264210984291541,
      0.0021391120208366352,
      0.0003938968150076958
    ],
    "intercept": 6.643217796430227
  },
  "wide-insurance-offset-l2-gamma": {
    "coef": [
      -0.08500026407677075,
      -0.06263229467815397,
      0.0017943762449398385,
      -0.003058922811959224,
      0.0030213229703456154,
      0.0025610339333585488,
      -3.5865505398555007e-06,
      -2.617161491709405e-05,
      0.0002405489518027499,
      -0.08500026407677073,
      0.0011386777854535983,
      -0.009239658251857956,
      0.010481030774677281,
      -0.0024769948884670163,
      0.0063801330197238,
      -0.006283188439529732,
      0.0038839385051233372,
      -0.0017916992882546351,
      -0.011235002075589928,
      -0.005859945195970193,
      0.007052298688216125,
      0.007890408098490896,
      0.004440692859464459,
      0.0007966343605087348,
      -0.0017508975316294128,
      0.0017042388228136918,
      0.0011395471307659546,
      -0.006270214373939033,
      0.010301566413811391,
      -0.010853257267766406,
      -0.0074324134616450144,
      0.0023552576241053524,
      0.00505973522115821,
      0.0013505164541766984,
      0.012239746044332662,
      0.012225558623968283,
      0.00012000315904588387,
      -0.001966596960799831,
      -0.010155932690587455,
      -0.0119469281007136,
      0.006845763318513503,
      -0.01079333829723962,
      -0.009087347409999632,
      -0.0016708482008354266,
      0.002658989290346807,
      0.0010842210241750784,
      -0.0002788237270829749,
      0.0038016878122564633,
      0.0003040749679741418,
      -0.0018001886094817542,
      0.0011692549150886511,
      0.0011427048969673604,
      0.00034076019089278515,
      0.001443190422172594,
      0.001301644493111884,
      -0.0002727624698869299,
      0.00014774163879692034,
      0.00019545410883487483,
      -0.0003341799882160501,
      0.0011382407791640672,
      0.00014421186316775132,
      0.0005172163565842505,
      0.0011264948913622176,
      -0.00042141732575312813,
      0.005195592364980159,
      -0.0040455764753698125,
      0.007509752218598151,
      0.0065009954147497865,
      -0.008746452357259163,
      -0.005672086236212158,
      -0.0074750507047898155,
      -0.0017099947136608395,
      -0.0004567132323362341,
      -0.005261423391513769,
      0.0008422290961055477,
      -0.0030656147544675556,
      0.0031269296251401025,
      0.0008734356583688157,
      0.00034520216988296183,
      0.000330883530027739,
      0.0034501575855828445,
      -0.017524107214047745,
      0.0016064775726450239,
      -0.010617790508195713,
      -0.0036806907417111733,
      -0.0032063496987838687,
      0.010763261975235408,
      0.004796450135653913,
      0.015732623814627714,
      -0.0009656410478507616,
      0.009463989101797236,
      0.002447616994229535,
      0.010726040075614013,
      0.004876150275816393,
      0.012711758768374541,
      -0.015465595157660113,
      0.010699707830007064,
      0.003517178347044989,
      -0.0044801795829842945,
      -0.008056820334499585,
      -4.488739964115456e-06,
      0.000132836022308265,
      -0.006641631564977281,
      0.002497195394519819,
      -0.004387194510737847,
      0.006500206232183926,
      -0.0017347293035122559,
      -0.003312155800685854,
      0.002716085689777038,
      -0.0018061672437129316,
      0.001963788913526849,
      0.006258670967114403,
      -0.004912249733765385,
      -0.01239493742130096,
      0.0013163449790343864,
      -0.004273193728867636,
      0.0017387015063874188,
      -0.003648330341634137,
      0.005327578912190295,
      0.00404299617999193,
      -0.0006816996416226792,
      0.001984077830603089,
      -0.002282854544936152,
      -0.002396938159097261,
      -0.0056674332614178565,
      0.0010939385858822876,
      0.0016725191296487183,
      0.002329601395348758,
      0.00014624100719022189,
      0.0012785675391677796,
      -0.0009226316911949573,
      0.0004493904163641236,
      0.0011801439028494135,
      0.0006057699594923233,
      0.00010213866383614272,
      -0.0014606534279745771,
      -5.30047369541584e-05,
      -0.0017401577384683824,
      -0.00010268803973210933,
      -0.008478231879690074,
      -0.021626366273149154,
      0.002951412077812187,
      -0.0002463309965125702,
      -0.010639678592955953,
      0.009037643714534149,
      -0.0026831267634578283,
      -0.009274986644430135,
      0.0071501304718623445,
      0.006568242113852001,
      -0.012398954305155068,
      0.003737845821629275,
      0.024067552181258223,
      0.006146963948950468,
      -0.004880242346402642,
      0.0055857466388904865,
      0.003442970360844469,
      0.00421178315213558,
      -0.0075328934677418085,
      -0.0010437751529924003,
      -0.0007105023234620464,
      0.003972688137776988,
      -0.0040223434984959176,
      0.0024194270562339017,
      -0.00018319994306088263,
      0.0009268814963544649,
      0.010816868760931327,
      -0.0012742558533106556,
      0.007517161312243868,
      0.002565887493044779,
      -0.013620259428487786,
      0.003239659889110333,
      0.0011779168640161642,
      -0.0006015650752754123,
      -0.0015989984583902022,
      0.001977660631907448,
      0.00015891914582567495,
      -8.228116889406789e-05,
      -0.001272188619777621,
      -0.0002662371337499118,
      -0.0006373721114866866,
      -0.00011947405336097388,
      -9.58289255534308e-06,
      -0.002112702369029179,
      -3.8563357998457495e-05,
      0.004934184115933629,
      2.7530630174533428e-05,
      -0.002067414623968526,
      2.593642294018911e-05,
      0.0010668994678968624,
      -0.0007947216094138562,
      -0.0006900872327494375,
      0.0004600637371786888,
      -6.985252153982655e-05,
      -1.3173424872890877e-05,
      -8.779315360013247e-05,
      -0.0002400800159091287,
      -0.00011214668313659411,
      -0.000366755282033428,
      -0.00036062997098673053,
      0.0009048692255026929,
      -0.0001979510471406261,
      0.0006749966494618886,
      -3.475872795652255e-05,
      -6.665115468287299e-05,
      0.001748949756765695,
      0.0006217500686894348,
      -0.00013091939880621728,
      -0.0003029352387571029,
      -0.0008373402793770293,
      -9.783933347775082e-05,
      -0.0006293499087718871,
      -0.0002990322806895243,
      -9.36974936373412e-05,
      -0.0003442474758340906,
      -0.0007024243019944702,
      -0.0002672866872889822,
      -0.0010671024046251473,
      -0.0026764172239145427,
      -0.00019499204645375619,
      -0.00020347128516687155,
      0.0004885371725427165,
      -0.0003238949996924282,
      -0.003781289056761575,
      0.0010295531259563227,
      -0.009245029527274188,
      0.025691847262048838,
      0.009577028380615252,
      0.005244845997140372,
      -5.6198663316229444e-05,
      -0.006958067469542884,
      0.008959350957108932,
      -0.01625433433664407,
      -0.014207706669330794,
      0.0062793909168929,
      -0.006279390916892956,
      0.007521007258918324,
      -0.0029905662503380646,
      0.007284670342466488,
      0.001070799911917715,
      -0.013147010308736834,
      -0.004628196127690764,
      0.002280196222590178,
      -0.009806140506448933,
      -0.00450093492463592,
      -0.005053230650912579,
      0.0010112237621913082,
      0.005159068126570271,
      0.011727793811049252,
      0.002576797922541895,
      0.0080759974181838,
      0.004298398855857043,
      0.0011362830976024323,
      -0.022282990584998632,
      0.00046961280373711517,
      0.007264210984291546,
      0.002139112020836639,
      0.000393896815007701
    ],
    "intercept": 6.643217796430226
  },
  "intermediate-insurance-no-weights-l2-tweedie-p=1.5": {
    "coef": [
      -0.644543293012628,
      0.2190835561745113,
      -0.035381420360627504,
      0.27951165169627173,
      0.015714954267963467,
      0.16561455123451085,
      -0.20492017764815768,
      0.06477715422939052,
      0.1401430234187678,
      0.9486199678866014,
      -0.21656753198266535,
      -0.9863518178869178,
      -0.15620148852572727,
      0.23287276148139,
      0.27933802401412483,
      -0.10170991498680695,
      0.014734629829418451,
      0.30584845591469956,
      -0.22488344223042733,
      -0.27889060338376526,
      0.2260262663927259,
      -0.4687812350314115,
      0.401527008570609,
      0.1897618533228791,
      -0.4961376840985073,
      0.2132622633900295,
      -0.312203728921409,
      0.44447084607458054,
      0.14868405996942788,
      -0.14868405996942236,
      0.1367990919959407,
      0.08323413866257129,
      -0.03780306129046376,
      0.14232079324567964,
      -0.6440061536956018,
      -0.17643357152332537,
      0.4679766955647884,
      -0.43194970625142975,
      0.17836529574269752,
      0.2153327768111302,
      -0.23210954244253312,
      -0.113543020898077,
      0.17750338475972707,
      0.5374528953580271,
      -0.16828595496851448,
      0.12031099840100386,
      -0.009148131722383646,
      0.10518589361323692,
      0.5112532446416967,
      -0.5070827728938654,
      -0.5503648208491622,
      0.49206081352778613,
      -0.16027019379298912,
      -0.025143277961366325,
      -0.545758761250084,
      -0.6141989201606214,
      0.29821258381937255,
      -0.2765040551990056,
      -0.23206759386311732,
      -0.5126106011307201,
      0.2711832485244897,
      0.009364799214727054,
      0.3363263851070713,
      -0.10345614797398524,
      0.44833897254315086,
      0.017839457676860324,
      1.262182807928095,
      -0.32647338600216647,
      0.2812547821932947,
      -0.01940433619222906,
      -0.194545055045439,
      -0.05730846464760765,
      -0.6581623819957231,
      0.4865464535942965,
      -0.213391106561869,
      -0.2538220988328713,
      0.9563406206594661,
      -0.0929180358090926,
      -0.0615303289163815,
      0.15654784789307322,
      -0.27810639652595176,
      -0.1853386705095305,
      0.05922045774942006,
      -0.00589764135780098,
      0.380706167620783,
      -0.10919813709135585,
      -0.08086970785764241,
      -0.024055674039766717,
      -0.03160650877582717,
      -0.5435512153160599,
      -0.08078679345754197,
      -0.071082345005107,
      -0.015496649112804666,
      -0.40053932959789934,
      -0.04178889895216104,
      0.04403177353718013,
      -0.03567895324716681,
      0.4165976840703043,
      0.09806993591389568,
      -0.0209946234199071,
      -0.017966929343066127,
      0.5823457691450286
    ],
    "intercept": 3.06753161225091
  },
  "intermediate-insurance-offset-l2-tweedie-p=1.5": {
    "coef": [
      -0.4666763212112867,
      0.06306840701817208,
      -0.09999288151031419,
      0.18728119905050775,
      0.12770560881720772,
      0.18861398783571828,
      0.12152641175313691,
      -0.03366884091579685,
      -0.08785757083733818,
      0.8924766997978093,
      -0.18870583030705096,
      -0.9209210974783532,
      -0.12830625542789545,
      0.20788161359362586,
      0.20233693929051808,
      -0.06476206946865556,
      0.018191291060587835,
      0.40126608849089834,
      -0.26428541855665855,
      -0.17683264934036638,
      0.31154051309079184,
      -0.3911302801043932,
      0.409463591275668,
      0.194507363880814,
      -0.3617384595411134,
      -0.10189921305297414,
      -0.2412742262960342,
      0.22038269015337225,
      0.14437346910428314,
      -0.14437346910427273,
      0.0923866180329014,
      0.03164109294717664,
      0.04917491684180829,
      -0.1234641948141663,
      -0.32219971018288196,
      -0.11194080958194376,
      0.36638830982949183,
      -0.1844281225974403,
      0.14012494671832018,
      -0.008582333547102897,
      -0.14499693591424853,
      -0.05937583566738628,
      -0.041320981263686454,
      0.4491949990809908,
      -0.22208006680931158,
      0.06960988209447266,
      -0.15364423655607468,
      0.06989533828837831,
      0.3390402711171087,
      -0.2956655469905602,
      -0.21561053284385634,
      0.4743176999340806,
      -0.10607815008316723,
      0.046129896933958664,
      -0.6337676083757381,
      -0.5421535771533755,
      0.34181651607097113,
      -0.17579515413312552,
      -0.1853426154950523,
      -0.3561959822171297,
      0.20573160913571645,
      -0.17182794904416052,
      0.40905193308887966,
      0.04188455950057091,
      0.41865740664739504,
      -0.014490657710255829,
      1.2199148469549768,
      -0.16788661391883086,
      0.34535584382032863,
      0.023464528134545637,
      -0.1357849466538805,
      -0.015266907313395932,
      -0.6022614554073281,
      0.2862891988035163,
      -0.1426860562000553,
      -0.1316293802531972,
      0.31312102468079117,
      -0.08623699080011764,
      -0.02228756843409225,
      0.13767213215119797,
      -0.20704621491916086,
      -0.11011551496762886,
      0.08385711555568623,
      -0.002766654702769879,
      0.07362525563014588,
      -0.051369667436767893,
      -0.050025984088468096,
      0.02370370592961556,
      -0.009836375630045807,
      -0.4341733741422222,
      -0.05501720664833693,
      -0.0497909567801372,
      -0.007346189193107388,
      -0.34246536573571457,
      -0.027388117621635923,
      0.03535770449203832,
      -0.02409858394743123,
      0.21687483803292723,
      0.10845604941403406,
      -0.013088100386398214,
      -0.007753659274154688,
      0.4910611605403805
    ],
    "intercept": 3.0758893905007403
  },
  "narrow-insurance-no-weights-l2-tweedie-p=1.5": {
    "coef": [
      -0.715421686094834,
      0.20660543064932252,
      -0.019867311301373175,
      0.30026276094946575,
      0.03524398792938238,
      0.19317681786803517,
      -0.3049258141150321,
      0.08619964868537436,
      0.21872616542966222,
      0.9482728491549869,
      -0.302575455629967,
      -0.9976356381310455,
      -0.07758573591371044,
      0.2363740828510847,
      0.34850585227748465,
      -0.15535595460883175,
      0.033495018580048316,
      0.31454956545336216,
      -0.3865729840436588,
      -0.20534628049779532,
      0.22489808560439759,
      -0.4453750366179713,
      0.3717007455098358,
      0.29234163872718344,
      -0.4277159122903287,
      0.15004281090737878,
      -0.24987930263507813,
      0.3613566698826735,
      0.17349455710944545,
      -0.1734945571094493,
      0.054509454917453716,
      0.10434503220121927,
      -0.06843734727792464,
      0.1411089279749005,
      -0.5662980555592608,
      -0.15297965782510747,
      0.39850096816231356,
      -0.265815415367201,
      0.13242977697715555,
      0.19586874997931583,
      -0.2589791513098554,
      -0.11749053820888199,
      0.15740597883298246,
      0.5636852010718745,
      -0.262791850648747,
      0.06578439439040533,
      -0.023735585036895004,
      0.04705852304797362,
      0.6510846980392894,
      -0.5253713202595344,
      -0.5590855356222592,
      0.5285420436117018,
      -0.18482983717346754,
      0.09591701570792978
    ],
    "intercept": 1.742830409120212
  },
  "narrow-insurance-offset-l2-tweedie-p=1.5": {
    "coef": [
      -0.5194676257219075,
      0.04710023774126467,
      -0.10281532773540025,
      0.18390179027864856,
      0.15779233910464452,
      0.2334885863327467,
      0.038832210890378936,
      0.003259478476282625,
      -0.04209168936666337,
      0.9002313285486528,
      -0.26186055961453436,
      -0.9078724783277186,
      -0.021594097792321302,
      0.20874234356351926,
      0.23233202198149197,
      -0.14997855835909135,
      0.035355962481478924,
      0.40627802137816577,
      -0.3621968916519927,
      -0.13933649480147214,
      0.2813505423644144,
      -0.3748492313990134,
      0.3627200760482197,
      0.2641774897295776,
      -0.31933084783439986,
      -0.10721802387503802,
      -0.1591151123650946,
      0.1475204724066318,
      0.1566941153143571,
      -0.1566941153143585,
      0.04008794680679811,
      0.025311425749468153,
      0.023384687074193538,
      -0.12921811142992864,
      -0.29038640589038917,
      -0.04579042788370263,
      0.30981744157414604,
      -0.015578092202887847,
      0.11146473453277142,
      -0.014960757542513666,
      -0.16340695374593106,
      -0.06317516372401309,
      -0.05932825567887205,
      0.46172144852111097,
      -0.3039050873402434,
      0.003183736677349586,
      -0.1526272764683407,
      0.025859096829518806,
      0.39218614421822734,
      -0.3092718280364634,
      -0.2433559596500734,
      0.5449006022884788,
      -0.10682499787190577,
      0.12475029489640692
    ],
    "intercept": 1.7480436559046022
  },
  "wide-insurance-no-weights-l2-tweedie-p=1.5": {
    "coef": [
      2.582948798511775,
      -1.290290095757615,
      0.02605999273807161,
      0.022459830215588734,
      0.0034697364696304536,
      -0.0043896595923958,
      3.445594284098097e-05,
      7.481950642296378e-05,
      7.481950642255498e-05,
      3.412078640873225,
      -0.18451802834189718,
      -0.014046536250085732,
      -0.10182283897011002,
      0.545692939703609,
      -0.3270467285336907,
      0.08174119239217432,
      -0.007275827865218224,
      0.18434853525458406,
      0.14240081671267638,
      0.07749770982229037,
      -0.42867249436408394,
      0.007514834423794307,
      -0.47573891378366256,
      0.07898084083589323,
      0.4917096891379406,
      -0.06789612032689402,
      -0.012047434938406272,
      0.009178365091084488,
      -0.37942082095084534,
      -0.18169090932523693,
      -0.24757405652501058,
      0.5710401918833277,
      0.060817892162460065,
      -0.24064711801738742,
      0.3363682340833994,
      -0.1823502927301677,
      0.29433756436025776,
      0.14770530708151655,
      -0.054321933558922696,
      -0.3225142050756482,
      0.5407853219272206,
      0.01495126489987222,
      -0.12870592210090193,
      0.22061652388720798,
      -0.402327164724679,
      0.019808601697631857,
      0.11223014969733108,
      -0.05947655968415735,
      -0.055098024399951234,
      -0.0516494767904129,
      -0.015014746394819997,
      0.05165986844813622,
      -0.011901456398683992,
      -0.007040915854608375,
      -0.004463476480360051,
      0.027683864792019692,
      -0.005573094768882111,
      -0.004508646969819232,
      -0.0014043526060415596,
      -0.010604014467340953,
      -0.0038299152597573664,
      -0.0017546946347584906,
      -0.0026157773004426518,
      -0.00518901534767285,
      -0.0009053097928575617,
      -0.005100058347872288,
      -0.0019136333828189335,
      -0.0019237673877265926,
      -0.0045426852239851875,
      -0.003942740418611254,
      0.156683861255728,
      0.09679752190021468,
      -0.34869719911366354,
      -0.03852219743179424,
      -0.057316939648449756,
      -0.10999778661682302,
      -0.3012587236821901,
      -0.1253990381702588,
      0.11263918481651394,
      -0.3920157268495135,
      -0.007093254724615115,
      -0.4416693994083666,
      0.0018377499276122527,
      -0.17772834644414703,
      0.4618177817278808,
      -0.32288496506950454,
      0.06616379059004272,
      0.09153607262938086,
      0.04253634883568435,
      0.11346926863923631,
      0.05160987032325822,
      0.10800946997631483,
      0.6069447790699959,
      -0.4211755984331339,
      0.33718658540479113,
      0.42711792603471216,
      -0.2608551834230005,
      0.05766773294362012,
      0.2031916088330176,
      0.058665455684931964,
      -0.0074878477982028655,
      0.1813292364024217,
      0.33321917784418076,
      -0.3676072147419644,
      0.2215040249993347,
      -0.019630086182885073,
      0.24694915816478996,
      -0.1844489551635767,
      0.11972457362537302,
      0.22522071671564547,
      0.0986734512300612,
      -0.3044434848281804,
      0.4014142531576494,
      0.01023050288183724,
      0.016071274545590125,
      -0.5222248351759443,
      0.3666502009208456,
      0.01133694798458586,
      0.04023714194767957,
      -0.10232096848314155,
      0.05987687112218159,
      0.024456199209833673,
      -0.11400596306813662,
      -0.0035579382641566736,
      0.021869865203333772,
      -0.04061923742532128,
      0.1811159424986456,
      0.03790641729265209,
      0.09073463243782891,
      0.023844078821328305,
      -0.6159060085438433,
      0.019664459031939654,
      -0.3226195913535793,
      -0.02916056265711099,
      -0.01869027087596692,
      -0.0029802369392616635,
      -0.007813204277652131,
      -0.007644770955933367,
      -0.006630886552334914,
      -0.025745419548645104,
      -0.003276836029036485,
      -0.007035944351515552,
      -0.0010261884905306718,
      -0.0009885946651561257,
      -0.0016007154720784828,
      -0.0010454294189415824,
      -0.0011544640481411894,
      -0.0016241203039746596,
      -0.17645716048045926,
      -0.0749444369261785,
      0.14707509132918178,
      0.023774913094783908,
      -0.02642272453767655,
      -0.30773891035876133,
      -0.24875343255736365,
      0.08614247728663474,
      0.223009703667204,
      0.005184461013472259,
      -0.2158183977827738,
      0.09830167792972144,
      0.10509968784062546,
      -0.03685621331978994,
      -0.09842515067463807,
      0.07952837152952956,
      -0.02171363179042718,
      0.04448596090657248,
      0.029746679376737167,
      0.263875493978562,
      -0.022460962458638385,
      -0.03674998912806884,
      0.39873247933176653,
      0.047401226959992396,
      -0.005796175441552051,
      0.12170163952302344,
      0.03698125676604804,
      -0.00016299640145868443,
      0.07950972683861203,
      -0.0007680465040065004,
      0.5211216489449129,
      -0.012670856861741044,
      -0.008304576439866623,
      -0.33087196168389293,
      -0.002859548556312391,
      0.06009152923012871,
      -0.008273699214966145,
      -0.006563796719759563,
      -0.0006874799571102616,
      -0.34085254636563844,
      -0.0022290058383537897,
      0.04768969582961098,
      -0.003853483036993431,
      0.03854391172303291,
      -0.20149343735548067,
      -0.002090854731142768,
      -0.0017800836093128764,
      -0.7750514134197929,
      0.01936500066175681,
      -0.0011087926612081843,
      0.07675358318970538,
      -0.001259706070809982,
      0.21609482451351011,
      -0.0021406204522354797,
      0.1798655090230658,
      -0.017486836977773052,
      -0.0019244424848428184,
      0.050703103316543784,
      -0.002604081146860354,
      -0.0011124008805452705,
      -0.0024918009783046853,
      -0.03412398117774814,
      -0.07230978616987961,
      -0.2466771637212532,
      -0.1154239005850869,
      0.08736804497361073,
      0.17447816749087525,
      0.20271051795400483,
      -0.10355762314523367,
      0.20691799895933213,
      -0.38588245585982406,
      0.28650018128120136,
      -0.062310410436974745,
      0.06231041043697941,
      -0.05201735544784309,
      0.08132470371577313,
      0.18746140306537387,
      -0.050899547420203334,
      -0.09766996336004018,
      0.3614822078448811,
      -0.332226461366423,
      -0.5324801943434442,
      0.26534858804666484,
      -0.04332490974341894,
      -0.014083468961066142,
      0.10773764134982575,
      -0.4700597918971216,
      0.15998387512798956,
      -0.034854096529081544,
      0.139064424837969,
      -0.19695373828732848,
      0.6365247441618983,
      -0.06355356301691475,
      -0.18882176101509635,
      0.040266850157729336,
      0.09775041307987754
    ],
    "intercept": 0.7260253616606666
  },
  "wide-insurance-offset-l2-tweedie-p=1.5": {
    "coef": [
      2.456351263298059,
      -1.201674414330022,
      0.030095243829733862,
      0.010216208973382544,
      0.0022126778330035977,
      -0.002902108522131522,
      2.695951574416896e-05,
      7.45216794080819e-05,
      7.452167940842262e-05,
      3.017255847766358,
      -0.1409690306638378,
      -0.10133174920015718,
      -0.07574749018482299,
      0.4769245243031178,
      -0.1982780520716034,
      0.039401797817302436,
      -0.0006143292586836301,
      0.12106445063727529,
      0.10804001917651146,
      0.017204288710056678,
      -0.3099456362935195,
      0.016976448155455393,
      -0.2856909457147598,
      0.11802402738614906,
      0.2687247453098078,
      -0.057519112504919166,
      -0.010993237394524985,
      0.014729281791150961,
      -0.13342448018690065,
      -0.1615107078356466,
      -0.3074027073936843,
      0.4661691354014098,
      -0.015431347999764202,
      -0.11369842900673485,
      0.3081495989498507,
      -0.14899559647768143,
      0.22803451548321546,
      0.06413778879418093,
      0.0027849489935365696,
      -0.27704624799862865,
      0.346650958078255,
      0.006865507972790064,
      -0.08995689854577031,
      0.09085927023936428,
      -0.31869692457186943,
      0.020625261721742387,
      0.10417962355196686,
      -0.01608818057730855,
