{
  "intermediate-insurance-weights-l2-gaussian": {
    "coef": [
      -111.2052189474299,
      -152.65280716354602,
      54.52853585769027,
      243.44561328938073,
      -67.71472140610118,
      33.5985983699474,
      -1.167963150046227,
      43.74622721374547,
      -42.57826406378665,
      76.2898636839311,
      -49.51806092377842,
      -122.11637892393736,
      -77.1149441803268,
      -110.42615751549035,
      42.76509866816868,
      240.12057919138113,
      4.692227041334684,
      -15.771647834409729,
      187.66023249726814,
      19.82238045910708,
      166.62501983732557,
      -78.88500483320243,
      -19.15106408461627,
      -141.37777066636914,
      -57.012639409477856,
      26.31771156283148,
      -14.36754852197416,
      -73.85966900653867,
      -37.97662951489209,
      37.97662951481174,
      -14.252086451772652,
      -133.17294231994526,
      79.71147210499956,
      -33.51643011097743,
      -31.327155590427907,
      4.605772854947471,
      272.836315457543,
      5.062777172713404,
      -31.05080603315559,
      -74.75923638864467,
      -30.09184913615557,
      -3.5585228960308966,
      -148.51253354559768,
      -145.510412004211,
      -36.279821412252666,
      71.40307973570769,
      -10.589180138682096,
      -48.973770951737166,
      -81.93844866239583,
      -14.661755781770974,
      228.98490967934316,
      139.01047971972946,
      22.3280582469386,
      -32.55954344384536,
      9.556666742402747,
      14.471509943340841,
      -6.713409480639267,
      15.93216166469802,
      31.268084012797267,
      -2.0399165424243515,
      -19.228611801658396,
      4.605544915942319,
      -16.813077687974427,
      10.756031046405978,
      23.579965288410353,
      -13.44114348077879,
      -17.240070809735386,
      60.43392893431071,
      -51.5153386569693,
      -5.171850295970043,
      -16.085445737154867,
      -20.14029069059285,
      -55.76869123565952,
      -14.525575116719597,
      -1.6354273579750624,
      -23.914296288423344,
      123.7280001214936,
      -18.796101870446055,
      -10.646858493002929,
      45.454438132720036,
      140.92293255411653,
      -32.38473075988109,
      0.009354275199959218,
      -0.7743209194312062,
      -97.57826458333106,
      6.55511878538724,
      -11.60627788770839,
      -15.239387766413671,
      -9.569881979773905,
      -53.69971715859273,
      -2.9934640685968485,
      -1.1279842535355,
      -14.473708174296997,
      -3.4887723567134725,
      72.16590946307342,
      -4.959948619357533,
      -5.975358210512935,
      12.893669064937333,
      -2.6253427660826767,
      -7.71745438969174,
      -5.370314230325717,
      40.348724185828885,
      -0.9862280654609824,
      13.052805548383985,
      -61.487582943692374
    ],
    "intercept": 1752.2457774388156
  },
  "intermediate-insurance-no-weights-l2-gaussian": {
    "coef": [
      -122.140983095422,
      -134.31134117376388,
      43.899928345919946,
      212.93993328682296,
      -60.28657293869017,
      59.89903557511061,
      3.198985497064955,
      52.487179015131815,
      -55.68616451227832,
      71.3565831858004,
      -51.7402712167318,
      -111.58301183617301,
      -74.85658697795853,
      -89.12789478107534,
      25.797792418026788,
      230.1533892080807,
      4.772027157916282,
      -33.50606950484983,
      188.9191193480755,
      30.19547432341564,
      87.74820187466958,
      -66.65091901141729,
      -14.68288871627209,
      -110.10323287338076,
      -66.22554234401228,
      39.25273952201302,
      3.0084168430398,
      -57.955299461310574,
      -19.81381006634137,
      19.813810066254764,
      -16.732773764716004,
      -151.20335985717054,
      33.56115130640693,
      -29.782366786602534,
      -24.826296049563446,
      14.26908987682447,
      284.2627457938926,
      15.779576409553322,
      -21.710815995229154,
      -67.28824813122104,
      -24.9232636912125,
      -3.0389319700317463,
      -155.34111624278884,
      -123.79041855966426,
      -19.28617726943584,
      60.40767616962382,
      -8.251512568191934,
      -43.03151395612397,
      -83.32553949692847,
      -12.049014138148879,
      208.74586260252678,
      147.97624367806245,
      2.8462288753928737,
      -16.811713151794223,
      -20.984025283453338,
      13.828690468617895,
      -2.8708080192836447,
      18.51529295850705,
      37.427331334474076,
      -7.162968654629743,
      -15.776657372251352,
      3.841155421206666,
      -7.656034243225163,
      11.222440198089064,
      -29.887209496423008,
      -12.325043061573679,
      -2.652284615450069,
      59.872785462483144,
      -45.05574229612453,
      -7.3415108865822365,
      -15.190554564655832,
      -19.84519433722151,
      -52.82614675188981,
      -10.110448431298504,
      1.3801894368114864,
      -21.969812517941463,
      114.65040163933736,
      -15.564497403324067,
      -9.090428414502075,
      49.27244640603116,
      135.29555636879448,
      -28.693544210010824,
      0.47341311234307826,
      -0.7113036073670475,
      -85.51867545752462,
      6.955204629583424,
      -9.770760693812022,
      -13.740028950946881,
      -9.669880525971887,
      -45.19675503987218,
      -4.185661645962254,
      -1.146251368305813,
      -14.460491308792937,
      -3.2796705473089887,
      81.73859732054454,
      -5.254917797370494,
      -5.085306667456829,
      18.43620535341393,
      -2.6049757856158533,
      -5.088503802959171,
      -2.2504415660294783,
      18.37264709513857,
      -0.8850059859076389,
      13.05286364677256,
      -50.48367954116568
    ],
    "intercept": 1695.1030924504196
  },
  "intermediate-insurance-offset-l2-gaussian": {
    "coef": [
      -111.0887159833619,
      -156.03902678678116,
      52.67942952522381,
      256.22388218281185,
      -71.07640652372682,
      29.30083758582634,
      -8.776014070262885,
      58.741307131048956,
      -49.96529306092209,
      72.4364200430616,
      -40.139557424784996,
      -132.25282573206485,
      -95.07301467585114,
      -118.94817046799217,
      56.17911583488759,
      257.79803242271686,
      6.709866434666018,
      -28.289076203522995,
      177.32718625956625,
      14.390828487771165,
      222.634150341234,
      -67.15930552211002,
      -17.61822146062812,
      -153.19350761641823,
      -69.13638751029121,
      15.746825463544894,
      -18.76180630790876,
      -75.94068593126103,
      -35.539053256807065,
      35.53905325665524,
      -13.302944132381127,
      -125.00990225503524,
      85.127525999195,
      -43.76415085012426,
      -36.077517211141476,
      -10.656180080497574,
      274.88714408086724,
      5.241977265183145,
      -28.13326680216602,
      -85.09917175462289,
      -22.060908503988593,
      -4.629811101367518,
      -155.47576484868242,
      -146.05472119037793,
      -45.03364516121604,
      76.63705184533966,
      -16.050279737116686,
      -49.51345378594605,
      -84.43944283146992,
      -18.722654422181336,
      234.16109528570098,
      162.93809679275884,
      31.727979266859027,
      -29.99273947475519,
      11.01932228664725,
      12.409181332649158,
      -4.451541055256489,
      23.87998760045808,
      33.73367818741638,
      -1.7582327936902094,
      -20.04989671829561,
      5.477490564827971,
      -11.349339775992089,
      12.616532263355381,
      21.25502658526504,
      -16.35780924710494,
      -7.559298421786958,
      59.687700926697126,
      -53.71461991999568,
      -0.2899178409042441,
      -17.40969302499112,
      -22.788484519226003,
      -65.33610530912472,
      -10.711078324333494,
      -0.6525932151878904,
      -28.817496374887188,
      107.43215978490827,
      -13.376010416453179,
      -11.15363142655792,
      46.47453791857339,
      140.53555500597807,
      -22.809816700703898,
      -2.4009137091933943,
      -1.8454791705810878,
      -99.62535816910545,
      6.528739919879864,
      -11.935491319446685,
      -14.700762517768407,
      -10.866419029095931,
      -66.66286718708062,
      -2.680106007330523,
      -1.3192670778785147,
      -15.02978413488289,
      -4.209601557945696,
      58.383148328083955,
      -4.265147737221185,
      -4.818736672193352,
      20.296085604454827,
      -3.0533867674403123,
      -11.811378647506896,
      1.5440875022940468,
      43.62387352995569,
      -1.2319579098545703,
      12.769729452422943,
      -52.624614094939965
    ],
    "intercept": 1707.3949168219303
  },
  "narrow-insurance-weights-l2-gaussian": {
    "coef": [
      -110.2157483887429,
      -152.55289456993825,
      53.528458267478996,
      244.76937943358914,
      -69.22517610470435,
      33.6959813623093,
      -2.5799785590317796,
      44.40578991553516,
      -41.82581135651002,
      74.88058762912507,
      -47.94707189915139,
      -119.32484821820695,
      -75.57821176839097,
      -111.90977417403747,
      41.46272191526739,
      238.41659651538632,
      3.8837719545645224,
      -15.464469810589113,
      188.04446917797745,
      19.732098075323407,
      165.9724605611569,
      -78.27968424445382,
      -18.853844279604978,
      -142.01516903462198,
      -57.610213402048515,
      26.80956847664202,
      -14.102473556266872,
      -74.23274196352307,
      -37.72503471202757,
      37.725034712020346,
      -13.794756937768394,
      -131.6686759592563,
      79.80991534695723,
      -32.70855086644005,
      -31.925343591958303,
      2.535372796424235,
      271.8196821187049,
      5.23047739900648,
      -30.78329131886759,
      -74.74170762704665,
      -30.197510571970508,
      -3.5072362695964463,
      -149.8496798298644,
      -146.98187244890283,
      -35.95228370291225,
      71.66670178355828,
      -9.888879619473785,
      -49.299865403812895,
      -81.73801899519327,
      -14.620158304701908,
      230.63846914867025,
      139.51441070032539,
      22.648045216342425,
      -33.40584632897522
    ],
    "intercept": 1805.5671815645276
  },
  "narrow-insurance-no-weights-l2-gaussian": {
    "coef": [
      -121.35738046821587,
      -134.3214828343079,
      43.30295971268317,
      214.00675782452404,
      -61.321886002472866,
      59.69103176777648,
      1.685194868814117,
      52.790303028091074,
      -54.47549789690546,
      69.45116006482857,
      -50.731161233762286,
      -107.63117916822696,
      -71.20862843891128,
      -91.45199013728605,
      23.303268403174574,
      228.26853051017247,
      4.641628421831574,
      -33.161314088554704,
      189.11655612446907,
      30.066155659421224,
      86.58788415946798,
      -66.13211920601823,
      -14.591948487111818,
      -110.61820189398067,
      -66.69958964115976,
      40.21235200236643,
      3.4235735919820347,
      -58.20334822089352,
      -19.525843718005678,
      19.52584371800489,
      -15.991661506384917,
      -149.85077496800403,
      33.559790681744694,
      -28.974476223220215,
      -25.672823109032954,
      12.41887228174294,
      283.242870098124,
      15.868659960036934,
      -21.231723067525692,
      -67.59227521893834,
      -24.96915597000042,
      -2.9801163637686092,
      -156.74631254385633,
      -125.20558388103329,
      -18.807092963270783,
      60.67137694750467,
      -7.826866102024949,
      -43.2746897560922,
      -82.74149278388457,
      -12.030780466709663,
      210.33158650339072,
      148.58947378207517,
      3.2215331627314705,
      -17.70920221681286
    ],
    "intercept": 1690.9093621130269
  },
  "narrow-insurance-offset-l2-gaussian": {
    "coef": [
      -110.31972617027931,
      -155.9409765843916,
      52.03720325973753,
      257.3968720071444,
      -72.35501938612887,
      29.181646873893932,
      -9.90045678981388,
      59.11073517530706,
      -49.21027838550475,
      71.54520537496195,
      -38.854766082802875,
      -131.19664655870537,
      -94.00819880658872,
      -119.83882401235674,
      55.57803763603947,
      256.77519244942806,
      5.926997017585163,
      -27.8813287236895,
      177.63443068500553,
      14.415599365627402,
      221.99193702991536,
      -66.3966668041753,
      -17.369850821251337,
      -153.61604524373388,
      -69.79272253332974,
      16.117781203707175,
      -18.661051591564327,
      -76.4420825665345,
      -35.39101223523576,
      35.39101223522019,
      -12.996021145537082,
      -124.08362032406322,
      85.15477803956323,
      -43.03324832337074,
      -36.78239763876616,
      -12.191781670897928,
      274.0281515735458,
      5.436788281568926,
      -27.971073028264698,
      -84.98217748475159,
      -22.066010046199704,
      -4.571025434158389,
      -156.81830269511616,
      -147.5284363210162,
      -44.55963412428265,
      76.98279017771718,
      -15.565418679719055,
      -49.81739942971167,
      -83.82592634952513,
      -18.743863147295148,
      235.50303963413214,
      163.38129001836097,
      32.05347697222961,
      -30.815518461122696
    ],
    "intercept": 1760.3966411542133
  },
  "wide-insurance-weights-l2-gaussian": {
    "coef": [
      -709.8270565103799,
      -3.9103844334801607,
      20.71955847070655,
      -4.3560559200748425,
      0.5164771621188807,
      0.98466082018728,
      0.0016969494036451378,
      0.01727018191491946,
      0.7923893288838875,
      -709.8270565103821,
      -29.20383974871068,
      -11.881758472449523,
      51.198709844216275,
      -26.36454104086332,
      13.348849111262005,
      2.902580307548882,
      -17.99996255404988,
      34.60679688465472,
      -3.7144130490997047,
      -20.579259007986273,
      -6.174148422878548,
      24.558814522015698,
      -12.539552673631961,
      -14.62304370737785,
      -0.01100201163112614,
      20.930881511855794,
      4.503183333470358,
      -8.958294824353725,
      -0.016324322296636294,
      -21.022579386417693,
      -35.63186412116105,
      32.53335262751112,
      25.28304209039293,
      -3.229428264481327,
      2.176664915715899,
      18.414259975335025,
      13.68243753734356,
      2.851158356472045,
      10.16856128564674,
      23.782243211582585,
      -52.136487914471445,
      -17.256887239608496,
      11.57222703025689,
      0.2166930433461674,
      -66.11933084894204,
      16.692333047445537,
      30.115715548009966,
      1.5766497120671852,
      2.9140954720605636,
      0.27763902619254477,
      0.0333960386878934,
      -0.03970212592557519,
      -0.5982520039655917,
      3.5789163704861795,
      -0.07901463121960897,
      -0.3072897714730008,
      -0.20504825415675085,
      -0.03749508990338691,
      -0.06807463110227006,
      0.38906679128752014,
      -0.02102014592809804,
      -0.05869464770584557,
      0.5151893014509613,
      0.05385201840901365,
      5.365469014556413,
      12.59841107991497,
      -7.9263455300691374,
      6.963743568507525,
      -42.86497152546891,
      14.128688946619736,
      9.152330125289893,
      -1.8137496659351102,
      0.916095693949504,
      -10.49167464217586,
      -0.03699644279616711,
      3.6140848048595804,
      11.798058076560746,
      13.843307306857671,
      -20.17860813293493,
      18.688494811026747,
      18.474026790894698,
      -1.2262210961235804,
      -52.50482747477454,
      -1.873058466349307,
      -6.430786850790076,
      5.495091635069405,
      15.601743776959122,
      10.515558671372895,
      32.16331483681372,
      -0.5101390095206138,
      19.267186368325753,
      6.22191426236301,
      23.520271607162766,
      23.53970949339931,
      -34.68443089501568,
      -1.7020979716191027,
      3.74876275084835,
      12.060019560253691,
      -68.0541627699073,
      -19.767709664438883,
      -15.045309670352394,
      1.3352912373747186,
      25.585741365633126,
      -2.767965633825641,
      -9.782816679217891,
      0.14557139291977306,
      -100.95816191358858,
      6.559458727180297,
      5.147863199427799,
      -0.12829997251765102,
      38.23203997804488,
      9.26798711147469,
      23.18974534576021,
      25.93106889915817,
      0.7062702498031859,
      -14.34399988732835,
      -23.70260479366847,
      -2.0083295041745446,
      3.629194036486275,
      17.269092496095844,
      13.105790744424596,
      0.8711494711713823,
      28.279518455347013,
      -49.78075801881266,
      19.822660830760924,
      2.9254073906941334,
      1.0671033397115286,
      0.8795492582093254,
      -0.13568690188056734,
      -0.07887372754847143,
      0.6042924784244883,
      -5.187887762967622,
      1.1611180850948801,
      0.2610386929028644,
      -0.26568081847671154,
      -1.066637465133209,
      -0.14368253095911673,
      1.9576536369336492,
      -0.14841418531945325,
      -60.696511325499564,
      0.7183730725920092,
      5.7094090983459775,
      6.263388787359282,
      18.05732936874616,
      -5.882655798211131,
      2.6578646464737585,
      -0.5846233470882868,
      9.984189043268199,
      4.050051867328823,
      -79.99909003080954,
      -0.439927206421197,
      20.729575613542647,
      0.29058296669684824,
      3.170050783778682,
      -6.604109787592534,
      -2.2874577563129077,
      -1.454696616993302,
      -2.3492632973854364,
      4.918972216359354,
      3.8064051198821485,
      -0.49607280182456776,
      10.001442326547584,
      0.8242269707474753,
      0.1924285305212032,
      13.997075258219951,
      16.08927897260984,
      -0.7763240466262801,
      1.5388162580728235,
      0.1286428649287933,
      1.896202814019661,
      1.9645767532699219,
      0.5964232849444198,
      -0.06002617169658048,
      -1.710778349926351,
      6.988873138235586,
      -2.6133063477264753,
      -0.2008157566260826,
      -2.6524694500147525,
      0.018883339171444743,
      35.276925179334604,
      -1.8340415052646395,
      -0.08492076665197047,
      10.295377935239115,
      -0.5617305307527014,
      6.6075854027602645,
      4.227046556000021,
      -28.956108855770438,
      0.0045185231936904855,
      2.448491133381793,
      12.629798908849146,
      10.598046221600038,
      1.2992772789276057,
      -0.24294016953928915,
      -0.4271740592496873,
      0.8456319586707802,
      5.315801531970047,
      0.15532058698242102,
      1.3251170754526604,
      -0.4718403788810092,
      10.607779829199153,
      1.128369380195916,
      -0.16911468861111084,
      -0.2332196125992744,
      -0.14274129733959537,
      13.886939792465656,
      1.032403266158599,
      0.4535268581196078,
      -1.1300492056810227,
      -0.5949120392017758,
      -0.05725647978288358,
      -4.901990635106604,
      -0.32795599715161006,
      -0.12897302477686645,
      -0.9688117240146092,
      1.972670909622477,
      -1.993827575936578,
      -0.7028242162411283,
      -42.98821897885689,
      0.006677293282360367,
      -0.15485220358339924,
      0.5774236002513603,
      0.5938397193657635,
      -39.32260317886657,
      31.52421807818677,
      8.868391522960202,
      -114.3905719114969,
      4.058646224172992,
      7.801927387785494,
      39.20839395260476,
      -18.322781755596015,
      30.738232078323932,
      30.43283459142771,
      19.403313011488,
      27.065476227949997,
      -27.065476227037703,
      -39.091829768697686,
      -69.19074936860949,
      2.212755595783334,
      6.924366108020227,
      21.47894621966505,
      67.11695488207704,
      18.46584411242965,
      15.730144739671424,
      2.428997178287018,
      1.7294662761072033,
      0.39396614157834847,
      -28.147488072249534,
      12.178980864005226,
      26.974083320030307,
      -2.29512441985539,
      4.162753734504918,
      1.3572146206350122,
      -8.444676591698626,
      2.676693869332466,
      -40.599770718189646,
      32.601079675230125,
      -28.66260839708609
    ],
    "intercept": 1545.7349133233927
  },
  "wide-insurance-no-weights-l2-gaussian": {
    "coef": [
      -574.4903908234917,
      -8.966971873522452,
      11.83399028042003,
      -1.744528023242577,
      0.00046963925671568804,
      -0.05627726821272867,
      0.00026213929072224553,
      0.01067320371303162,
      0.8751276961461109,
      -574.4903908234915,
      -19.42616496442391,
      -9.118499710260835,
      26.699855124048206,
      -7.966840142666738,
      6.239950566139256,
      3.571699128327341,
      -3.6109614374046575,
      18.234494681807345,
      -2.7308703814070197,
      -18.83062045918529,
      -3.8721610055803466,
      14.546788424734533,
      -7.6124331858942265,
      -8.518355688203936,
      1.5963840585561102,
      13.097608612176609,
      1.7400516088452387,
      -4.039925227285076,
      1.514069407044859,
      -13.881119841303823,
      -29.992054014397624,
      21.521898305969042,
      12.36469898083295,
      -2.304038185629938,
      7.76783697116815,
      8.858206357252774,
      9.072881395490755,
      -2.2468004183227146,
      5.965493432261077,
      14.650099948118703,
      -9.95684099879387,
      -10.129764086157593,
      4.714563846343843,
      -1.570143760125345,
      -44.60872783283661,
      8.685104550261357,
      16.980311120825903,
      1.1226220439868637,
      1.419727575518379,
      -0.7103447889000665,
      0.2752192166748912,
      0.0974822144070167,
      -0.2829321769218823,
      0.44947227512609633,
      0.010984012559464688,
      -0.1544919522664347,
      -0.09673590934968353,
      -0.012667549517525658,
      0.02931510090825581,
      0.19028610790906775,
      -0.0035622754806981594,
      -0.04731636970782054,
      0.3026251951077987,
      0.004642103023100682,
      2.9328484399392156,
      6.620377523322161,
      -3.868627102023874,
      4.550724164774625,
      -30.853524236171015,
      6.447998084297406,
      5.508652707655938,
      -0.5522967131571653,
      2.4808654520630427,
      -6.804010851501782,
      -0.10853343644186729,
      2.6214667123456783,
      5.8838098028315855,
      8.013136830738484,
      -11.86976248129712,
      12.936876416381473,
      11.580952959265707,
      -3.2000981442216037,
      -28.976079612015884,
      -1.7602742146905426,
      -3.707815052068688,
      2.5649626357391506,
      9.402347632511715,
      6.497605135505222,
      19.746016384664664,
      -2.605103692753968,
      11.495622263181978,
      -2.006992497700256,
      14.590229246601242,
      13.158862485948601,
      -21.510047178202527,
      -0.34209597148697374,
      0.865189086566803,
      6.333389002913707,
      -11.360872673422646,
      -6.694087386165897,
      -10.807219123326597,
      2.4132145617404865,
      9.542334091054933,
      -2.3305645808484092,
      -6.011179569519702,
      0.2597096264538976,
      -65.53646401406866,
      3.646175757398828,
      3.324061739896398,
      0.3797681987799251,
      23.884685282019703,
      6.206684994033066,
      11.416319984333741,
      13.408182306165942,
      -0.4081303437295091,
      -7.574370831527085,
      -15.356727229052273,
      0.0818009300933603,
      2.637415263913398,
      9.059428441252129,
      7.605294271718977,
      -1.3144973400483295,
      16.466394776308658,
      -34.50107292982342,
      12.339649462895453,
      2.577319187599367,
      1.002898163364062,
      1.121840856828319,
      -0.12436062517470389,
      0.5120325065310878,
      0.235864218869561,
      -3.404392899599069,
      0.8339894400313399,
      0.15092603366785373,
      -0.08968523640010216,
      -0.386734847928726,
      -0.056458671840416544,
      0.8417999362172743,
      -0.057643511130087303,
      -32.00675661690555,
      0.534896714441646,
      2.8299534098027412,
      2.1998092395608246,
      8.549750758068125,
      -4.4593608337912825,
      1.5475006552848238,
      -1.104841294071217,
      5.477345277434308,
      1.868002317030558,
      -49.692397280442414,
      0.35794874918802516,
      10.712243236926447,
      0.10118835405594813,
      1.9685386637577824,
      -4.4794189456885105,
      -0.8622616401802601,
      -0.19143172813132614,
      0.7092059845703396,
      2.1590481272106015,
      2.222887289907327,
      0.903669414187005,
      9.029930991125669,
      -0.29546240200429424,
      0.269820930450098,
      8.495644304369394,
      9.35549339445297,
      -2.0562396572727035,
      1.52442563565983,
      0.40839377537649235,
      1.9392868341021245,
      1.244814162045384,
      0.5377952708874074,
      -0.014413142757268332,
      -0.6263436361021498,
      6.741902416387915,
      -1.5161623355180995,
      -0.054358039908384795,
      -1.3459139611462916,
      0.12561566680434827,
      22.444876698422494,
      -1.2124763109381664,
      -0.07394544109522251,
      4.405674295059663,
      -0.16801946500475604,
      4.189379002115558,
      1.2362382615463248,
      -18.78149030447323,
      0.06856444558663977,
      1.550529068916402,
      4.574012772716213,
      2.9466690609388135,
      0.4328547338656552,
      -0.09457487025117421,
      -0.14386253516342284,
      0.18460372535309633,
      4.756614261050158,
      0.22114500852016605,
      0.5505613038122795,
      -0.1897957422732671,
      9.043506403104221,
      0.3087951788954149,
      0.01154102818196594,
      -0.0766021447744018,
      -0.051847004322223264,
      9.986837190514578,
      0.6740771690424019,
      0.022170453406773354,
      2.4897243586933384,
      -0.21610618176280744,
      0.04870323893815311,
      -3.5496230150418926,
      -0.06419970449185183,
      -0.012456235986561998,
      -0.252959827991067,
      0.757666062232537,
      -1.5143751400369385,
      0.12449369441898915,
      -28.469796839773284,
      0.08434663657085403,
      -0.0023713911054208453,
      0.4452887121489633,
      0.20587933225374416,
      -13.79845709232402,
      21.63527203214924,
      6.661884990010628,
      -81.43074713898984,
      0.3560774759929887,
      2.5513022635694047,
      24.601949470389894,
      -10.692929769461546,
      20.87443902451884,
      19.03959861781947,
      10.201610127473051,
      12.500685221560497,
      -12.500685220712827,
      -29.47186498254653,
      -41.80580952396965,
      3.3782741340751867,
      4.845520810775533,
      12.70625982141934,
      40.051631390077894,
      10.725194418564532,
      6.376288395494963,
      2.7975652281634256,
      -0.545786033658674,
      0.5063505033644515,
      -19.253418943989526,
      5.73300481487592,
      15.788124904887058,
      -4.604869555880027,
      3.7383269910938144,
      0.4935593323176536,
      -9.856228754024215,
      2.402665217765267,
      0.5139338953920892,
      15.97495844124527,
      -20.493680504308223
    ],
    "intercept": 1261.4167889970165
  },
  "wide-insurance-offset-l2-gaussian": {
    "coef": [
      -0.17801456269879784,
      -0.0018269945438155672,
      0.0004511474315335029,
      0.00022767113104973208,
      -0.00018127561791722236,
      -0.0003670197614040007,
      -6.658815297436174e-07,
      5.061241902735499e-07,
      0.9999973880556589,
      -0.1780145626996984,
      0.00044052657299104405,
      6.253296916782824e-05,
      -0.0015317892237706767,
      -0.00044758243058236054,
      0.0010234754203713205,
      0.00045283715561427964,
      0.00046846120522039866,
      -0.0009373109722689238,
      0.0010468515028670728,
      -0.000612703415908155,
      -0.00011836509685013182,
      0.0003487099490636917,
      -0.001227966003258053,
      0.0006264343596303294,
      0.0006457367037570199,
      0.0005188389980513301,
      -0.0013556421230166954,
      0.000596955345384843,
      0.0018440320980294455,
      0.00038058776225874256,
      -0.0034257646237783063,
      0.001674075983247128,
      -0.00010871530637636215,
      -0.0001727139211400032,
      0.000834927669667171,
      -0.0020365886830838297,
      0.0008587681615150915,
      -0.0017319140560283488,
      0.0003833735002613201,
      0.0005988890787137892,
      0.0004621947108826776,
      0.0019342443861621336,
      -0.0010857155233381765,
      -0.00015812653732308576,
      -0.0002874267332999474,
      2.0564934723866835e-05,
      -0.000304643466234192,
      0.0006000338317091061,
      4.434841231208559e-05,
      -0.0007720741914133966,
      0.0002645662844750848,
      0.000127926363937554,
      7.736780663098516e-05,
      -0.00024495826234833406,
      6.350241878308764e-05,
      3.232948928818068e-05,
      1.879272739706362e-05,
      6.683406438618185e-06,
      5.374497088237844e-05,
      8.292528098243542e-06,
      1.075044014255007e-05,
      9.05334908594618e-06,
      1.7716673678640746e-05,
      1.8744627808111485e-06,
      -0.000468396929557577,
      -0.000473276082478203,
      0.000940844870150297,
      0.00020472982708536177,
      -0.0026097400806849047,
      -4.937930343205159e-05,
      -0.00041638159170721817,
      0.0006525257721714085,
      0.0012586253013993588,
      -0.000274161947265467,
      -0.0004312564560148097,
      -0.00034148597638688653,
      -0.0005211698308912675,
      0.00107182179047687,
      0.0008701571209560683,
      0.0014712548882908892,
      0.00023741079176532354,
      -0.00121446942729511,
      0.0017140376141971875,
      -0.0008305323357948591,
      0.000510423271002045,
      -0.0009233288128430403,
      4.038572136154108e-05,
      0.00013748092566569217,
      0.0012548629431357009,
      -0.0014528714808978395,
      -0.000184770169593508,
      -0.002114071166882026,
      0.0007870714006350906,
      0.0005288366042118475,
      0.0010390410966244635,
      0.0005871356518307974,
      0.0001721479731307386,
      -4.584421915054981e-05,
      0.0007717468563581621,
      -6.307257067013693e-05,
      7.176392281310398e-05,
      0.001335532688532588,
      -0.0019835864191050452,
      -0.0007217011861692499,
      -0.0002748473393807616,
      0.00020104377026121623,
      -0.0009816615179145808,
      0.00035285543973539296,
      1.5866916036804372e-06,
      0.0006533592680357535,
      0.0009014855658180756,
      0.00036505010614778426,
      -0.000814959381769032,
      -0.0015104118725678022,
      -0.0005647559160780159,
      0.0009213491296034921,
      -0.0001052376030403225,
      0.001023921601130188,
      0.0011034415010323848,
      -0.0007085910091616043,
      -7.669471088343276e-05,
      -0.0013546508948194995,
      -0.00027496538803385777,
      -0.0013225129971828943,
      0.0005713266420046478,
      0.0006219838495072975,
      0.00029055125535466477,
      0.00043629004506181586,
      -0.00021717962430637815,
      0.0004080775965913599,
      -0.00010358445494289442,
      -0.00014052256000853138,
      2.325096397183691e-05,
      1.4025110156878223e-05,
      4.479445375870316e-05,
      0.00020013328248915193,
      6.433490515470698e-05,
      -0.0003069849977967644,
      2.0358207692573908e-05,
      0.00042558046633476226,
      0.000267199892390029,
      -0.0005390871256407492,
      -0.0013429149962143495,
      -0.0006187719571985299,
      -0.00020075503448678373,
      5.6264727502897316e-05,
      -0.00016198833435964436,
      -0.0008103795143289891,
      -0.0003180740481680456,
      0.00037842862000823284,
      0.00046706596741815325,
      -0.0018657277853746583,
      6.280083209958546e-05,
      -5.252339484303247e-05,
      -0.000261819220153894,
      0.0002811040877331163,
      0.00029839292789672346,
      0.0012609960189863942,
      -0.0007683455233879931,
      -0.00014678698895920114,
      0.0008175931799398976,
      0.0029395994257225555,
      -0.0008825141977113073,
      4.4252679458398815e-05,
      -3.6694308444204367e-06,
      0.0004990259018704932,
      -0.0016907463521342832,
      0.0004365524146468258,
      0.00020006709349730336,
      -0.00024087008292812765,
      2.2345478334180073e-05,
      0.00012016639010286296,
      -0.0001552202390147002,
      0.00020570044234240577,
      0.0024108549660571943,
      -7.42580796726638e-05,
      3.649111642274208e-05,
      8.68992942973136e-05,
      0.00011939734178600326,
      0.0024894767453032384,
      -9.803583987534472e-05,
      -0.00017321749146142047,
      -0.0008249158195632069,
      7.875395502939572e-05,
      0.00031238363187487177,
      -0.0013334103112385455,
      -0.0003163649601146977,
      3.583424759499461e-05,
      8.152650980148487e-05,
      -0.0031272937002287185,
      -0.00041848212438875854,
      -0.0004232039295660825,
      2.397551892061847e-05,
      5.352241959908256e-05,
      -0.0003065829065800839,
      0.001636092127948332,
      7.532024780045194e-05,
      -0.0002809562580056854,
      4.453222507073396e-05,
      0.0012976628160900243,
      -0.0002889953298359274,
      6.80740856925803e-05,
      3.3838559073356664e-05,
      3.508013451413907e-05,
      0.0007132095962470232,
      4.498289801704125e-05,
      -0.00029562395222524994,
      0.0016427428288313445,
      7.377407194944484e-05,
      4.8075933064168704e-05,
      -0.0004913438952672004,
      7.177716000509476e-05,
      4.360778640750968e-05,
      0.00020363493157000558,
      -0.0007824269127402701,
      -0.00047298202375584364,
      0.0004010369377114404,
      -0.0010979615307398075,
      5.713905145966551e-05,
      6.154214443955758e-05,
      7.526650503300055e-05,
      -0.00027339321709993284,
      0.0023725923040267623,
      0.0020757255213202427,
      0.0003949051986445838,
      -0.006330396197217431,
      -0.002459418446250446,
      -0.0001956376466827231,
      0.0007032149562371577,
      0.0014612273334684697,
      0.0017646160712697463,
      0.00024094589545434547,
      -2.777459895664971e-05,
      -0.0011396489727969682,
      0.0011396482787292318,
      -0.0011911292926568388,
      -0.0007885198278947351,
      0.0014695006871059187,
      0.0006029834578659075,
      0.002150104978168978,
      0.0003892045257012965,
      -0.00013882410948226075,
      -0.0005526572976362205,
      0.001465090756769607,
      -0.0014500437125212846,
      0.0001748443581759082,
      -2.8760849968885953e-05,
      -0.0008458653744626052,
      0.001670801473242307,
      -0.000596693179305967,
      0.0007990383255925433,
      -0.00010190590287862192,
      -0.0004039093883232341,
      0.0005724798144826656,
      0.0006826485972419903,
      -0.00242087159637615,
      -0.0014575160948197882
    ],
    "intercept": 0.37155041851860915
  },
  "intermediate-insurance-no-weights-l2-poisson": {
    "coef": [
      -0.12099098082354035,
      0.045405514837403606,
      0.09670837907878235,
      0.1149427581888701,
      -0.08242507508517741,
      -0.0536405961963372,
      0.38003120512203553,
      -0.17680257894081694,
      -0.20322862618121762,
      0.0013597186808616197,
      0.012408689137524024,
      -0.031079051821617264,
      0.013641894875142745,
      -0.09213174185810158,
      0.1367509406456666,
      -0.04095044965947535,
      0.009755309180409937,
      -0.0571674561067492,
      -0.02138556743179736,
      -0.0041232217579253395,
      0.24285781671200218,
      -0.019626749244720562,
      0.000719878001543289,
      -0.03467012309036764,
      -0.088189985611787,
      -0.01739919908619085,
      -0.04221828984800246,
      0.04120289746399598,
      -0.17458362500809918,
      0.1745836250080995,
      -0.018440371724842308,
      0.013164656588566203,
      0.002892039694397623,
      -0.009488515678039,
      -0.01866360363310341,
      -0.1373891505485534,
      -0.0043898928244980855,
      0.03682954961444844,
      0.00516101724893651,
      -0.020686316433963382,
      -0.007052706478628571,
      -0.003610020495665427,
      0.024232279971475222,
      0.08664345807650885,
      -0.02526855265898967,
      -0.04880527589428679,
      0.08556351258090847,
      -0.0006777668253455303,
      0.06676767526455776,
      -0.016677588952853956,
      -0.006521172179096801,
      -0.009576521925623981,
      -0.012447104511150327,
      0.001025820623414573,
      0.012880032411172861,
      -0.028474236199717798,
      -0.010671917310163072,
      -0.001666689835204359,
      -0.014199638779791328,
      -0.013647691294769669,
      0.005732290491660433,
      -0.02009486860097414,
      0.0007062581831667926,
      -0.00688330491064091,
      0.11418864483542081,
      -0.0003685132425448348,
      0.013043958991428154,
      0.007845724809972273,
      -0.037869651911863735,
      -0.0021062573654638157,
      -0.0036903389766120395,
      -0.0022759598918736914,
      -0.02001458619606977,
      0.0068200764176503375,
      -0.004078775911850608,
      -0.006230384446495491,
      0.03441606065029279,
      -0.0021055380933512856,
      -0.0011105687036077263,
      0.003067464804409261,
      0.006114398923294821,
      -0.003605635724632165,
      0.000541386334566721,
      -0.00017570240881118268,
      0.016963539628737354,
      -0.0019296330112353692,
      -0.0014954860371528243,
      0.0005242159118196814,
      -0.0006516482136324067,
      -0.023065241752277175,
      -0.0014759001397955992,
      -0.002366497569192477,
      -0.0007424934459462629,
      -0.014372866247538169,
      -0.000749314209600208,
      0.0005050356329337239,
      -0.0005315587622233659,
      -0.022658454946839893,
      0.001977909241820079,
      -0.0008643044904203956,
      -0.000541854140135119,
      0.025388515502081325
    ],
    "intercept": -1.9480186212943185
  },
  "intermediate-insurance-offset-l2-poisson": {
    "coef": [
      -0.01707510781202878,
      -0.011271905838913646,
      0.009910407013661537,
      0.010868892212624923,
      -0.004932320468036761,
      0.012500034892692802,
      0.05832469273602959,
      -0.017498979425244185,
      -0.04082571331078536,
      -0.003107712812079982,
      0.001914429605441097,
      -0.013365503033566364,
      -0.012021477784418502,
      0.007511246767601454,
      0.022970958819717075,
      -0.0039019415626947197,
      0.020607569633451256,
      0.006105035726027003,
      -0.0023506917571947433,
      0.0012606527277215522,
      0.03402698667305615,
      -0.004211729491902361,
      0.002135618984060356,
      -0.01641467761279332,
      -0.015353352135410102,
      -0.009207404469976754,
      -0.00012941575348336147,
      0.004138977109895644,
      -0.0021802208751308567,
      0.0021802208751309222,
      0.04691991686716517,
      0.00871541190601669,
      0.002206039203695012,
      -0.0028129724920329595,
      -0.0024268739978365954,
      -0.011449131475687196,
      -0.0016566255188344857,
      0.004167232410408766,
      0.0011428314030494109,
      -0.006572386490428494,
      -0.0010440067260932715,
      -0.00047685782571840404,
      -0.0033433405202405804,
      0.006132659451290604,
      -0.004397714619624087,
      -0.009323054178262348,
      -0.0022642099025200666,
      0.001903193345359388,
      0.007851341028969715,
      -0.00200619871881047,
      -0.003006311342366382,
      0.01854685361848771,
      0.00011412144117810808,
      0.02350767691778015,
      -0.011683430116793812,
      -0.0038591273181657762,
      0.00035208695030171096,
      0.001036473939052419,
      -0.00019712189629104266,
      -0.0011170467522312957,
      0.0032096682844087927,
      0.00029507978466494853,
      0.00487015556429822,
      0.0005281284716142349,
      0.0032976180003061717,
      8.089619159129432e-05,
      0.012981159180592932,
      0.0012981507922238467,
      -0.003646505885682923,
      0.0007916523080138413,
      -0.0010943482620494288,
      0.000678545955260501,
      -0.005146677018905754,
      0.00460086838978782,
      -0.0011365313987768033,
      -0.0006160437096880086,
      -0.0032838676377235304,
      -0.0007940179412086083,
      -9.102480526289558e-05,
      0.00275792889818083,
      -0.0007877141938478959,
      -0.00014869981051338874,
      0.0019088769114735421,
      -2.2210847617803476e-05,
      0.000966614329613041,
      -0.00037000220867882815,
      -0.000359947452982842,
      0.0016152064001824793,
      -3.88845147082344e-05,
      -0.006166870306681019,
      -0.0003789945318133394,
      -0.00044764280614169257,
      -3.059512684674802e-05,
      -0.002603400534787009,
      -0.00018550549579032924,
      0.0004106348809313708,
      -0.00023080072915735304,
      -0.00798409138284841,
      0.0023290360235886528,
      -0.00011908477940809059,
      -4.312540365410387e-05,
      0.008574531612170332
    ],
    "intercept": -3.814196509367215
  },
  "narrow-insurance-no-weights-l2-poisson": {
    "coef": [
      -0.1211429176812036,
      0.045423753361220634,
      0.0967334153601693,
      0.11474143519097732,
      -0.08233926394933853,
      -0.053416422281825235,
      0.38012402953762603,
      -0.1771030740538309,
      -0.2030209554837954,
      0.0015596347358890646,
      0.011975233525616915,
      -0.031501047309407615,
      0.013635166580394922,
      -0.09204126027608374,
      0.13724123983056727,
      -0.04086896708697708,
      0.00961628910877958,
      -0.05715055623157513,
      -0.021347726877370365,
      -0.004189720423468237,
      0.242932405089882,
      -0.01971997190221084,
      0.0007172040262384414,
      -0.03448026925788264,
      -0.08807273315270672,
      -0.017521038436546787,
      -0.04232194109316463,
      0.04115434825880494,
      -0.17474082816565337,
      0.17474082816565326,
      -0.01841709334715981,
      0.012882049164812955,
      0.0029165580105231194,
      -0.00953944822205261,
      -0.018632023507906426,
      -0.1374497655965369,
      -0.004427132806269285,
      0.03686541870412813,
      0.005524350232770851,
      -0.0206243284125832,
      -0.007021738830528159,
      -0.0036435095670589944,
      0.02424309861454581,
      0.08684631475604918,
      -0.025220675152523072,
      -0.048964482222210205,
      0.08556020681739107,
      -0.0006601522937961211,
      0.06670069073355923,
      -0.016714290363497763,
      -0.00656329517018991,
      -0.009600995877102787,
      -0.012476849011524965,
      0.0010206136346623373
    ],
    "intercept": -1.9311032810088786
  },
  "narrow-insurance-offset-l2-poisson": {
    "coef": [
      -0.01707613939436406,
      -0.011263670931487743,
      0.00990377529522711,
      0.01085187638636587,
      -0.004912453884471533,
      0.012496612528730371,
      0.058329599758916044,
      -0.01751071232939097,
      -0.04081888742952504,
      -0.0031083240013817476,
      0.001883246512616439,
      -0.01330748934617037,
      -0.011885425951706594,
      0.007483082979060423,
      0.02287820414031335,
      -0.0039432943327315315,
      0.02085384515253012,
      0.006097709261993895,
      -0.0023399240987143264,
      0.001265434010133292,
      0.03400587227106377,
      -0.00420943322061348,
      0.0021336035767533694,
      -0.01642895012400272,
      -0.015341410820949473,
      -0.009197807836468706,
      -0.00011337734246257328,
      0.004128284323266957,
      -0.0021578399087158868,
      0.0021578399087158946,
      0.04695873394113024,
      0.00871869469797494,
      0.0022058638068742542,
      -0.0028096225568846928,
      -0.002426288626285628,
      -0.011470452030037444,
      -0.0016583984856032743,
      0.004172331178602784,
      0.0011511287090530083,
      -0.00658085772567289,
      -0.001048113012742657,
      -0.00047949528830486184,
      -0.0033518711213370083,
      0.006130940155382688,
      -0.00440175393613749,
      -0.009331459022985876,
      -0.0022648974485611926,
      0.0019018694728274786,
      0.007882833037794627,
      -0.002006817828770716,
      -0.0030022047060543847,
      0.01855349776956736,
      0.0001150729613009739,
      0.023538296246868783
    ],
    "intercept": -3.836105351310394
  },
  "wide-insurance-no-weights-l2-poisson": {
    "coef": [
      1.5165648171392225,
      -0.4977159791109872,
      -0.036593020250955066,
      -0.06024718051826513,
      0.003685900366468497,
      0.003971258709615645,
      4.472770850008636e-06,
      1.857595134387391e-05,
      1.857595134662086e-05,
      0.3208163234745818,
      -0.032059305711287296,
      0.05849186440976352,
      0.09292219419332846,
      -0.05187068644432918,
      -0.08074311654949545,
      0.013259050102020241,
      -0.11900864768284285,
      0.029824671962995018,
      0.08321145701230045,
      0.12060899084928803,
      -0.0719402951843332,
      3.137594845770454e-06,
      -0.018666097017255984,
      -0.029324442291654283,
      0.020314434861063584,
      -0.00497256710875444,
      -0.003140290164256058,
      -0.006910352831395586,
      0.2662204700794244,
      -0.13769384021650372,
      -0.0672818001233755,
      -0.0018846348267003831,
      -0.06687915899818667,
      -0.03165201166333595,
      -0.03925914431176304,
      -0.02585328795031008,
      0.0013701340885342334,
      -0.025557119599962815,
      0.1255095074610349,
      -0.019727944728601624,
      0.028674667505132236,
      -0.015670781989678022,
      0.002082071667575925,
      0.017911294635897742,
      0.005743768831746089,
      -0.006734280087950894,
      -0.0003143186174265848,
      -0.004849277915062466,
      -0.0027343754939060582,
      -0.0023018945533379393,
      -0.0005254811780992678,
      2.1016794553978706e-05,
      -0.00042490345388638206,
      -0.0003169533129363135,
      -0.00015700058407301605,
      0.0023307808384468933,
      -0.00013602150220996527,
      -8.766632726860508e-05,
      0.000810535459820805,
      -0.00023611095074426862,
      -0.00010251099817833672,
      -4.010141267739412e-05,
      -5.179322421956023e-05,
      -6.760956406108568e-05,
      -2.1650796173830336e-05,
      -7.262977868406886e-05,
      -2.422959629944453e-05,
      -1.071480492566673e-05,
      -4.287307520934681e-06,
      -7.114941072746212e-07,
      0.0002006834703105025,
      0.003969052816038578,
      -0.0018334748612755425,
      0.004685961840270864,
      0.016873806133913805,
      0.0007133381515161095,
      0.0039687054748271215,
      -0.011768979064363198,
      -0.0065531092068296095,
      -0.012243380527124573,
      0.03732186818948466,
      -0.005012967949816928,
      -0.02282869779258974,
      -0.0068577483847938984,
      0.027119552588783426,
      0.11909011964553955,
      -0.02571591404140383,
      -0.019720496026040615,
      -0.0010748999720802648,
      -0.0020647056357252177,
      -0.023181400962548754,
      -0.007495526724780794,
      -0.020665819573787395,
      -0.04280146670806791,
      0.028266253437805568,
      -0.004801354378159658,
      -0.02017627069823476,
      -0.029173324667526628,
      -0.016516930525648153,
      -0.021975510007031268,
      -0.006991320736071463,
      -0.009819417491601678,
      -0.02208128363042522,
      -0.004038845860297629,
      0.06536678164007137,
      0.030692284193912407,
      0.006779045310617428,
      -0.023225294860294128,
      0.007433643481337412,
      -0.014763328603206833,
      0.0007532856460837859,
      -0.0015660356052053304,
      -0.01434788409990843,
      -0.01833363442460715,
      -0.015406294423165294,
      -0.015165847572658198,
      0.016066156026545108,
      0.008466804168468275,
      -0.018141046678206322,
      -0.012917089450921914,
      0.06857490020778825,
      0.009708806832447923,
      0.08293178334791146,
      -0.011311535039310002,
      -0.012521446541068534,
      -0.009665467153402281,
      -0.010333517444738406,
      0.0026137095848005765,
      0.002576601920775794,
      -0.004501741688248022,
      -0.0010168772018511062,
      -0.003935282930378019,
      -0.005643193000246295,
      -0.0036621617120717455,
      -0.002204934701872383,
      -0.0023356545694241267,
      -0.0008972440954238569,
      -7.318290775747658e-06,
      -0.00046472689312062205,
      0.005732763765102567,
      -0.0002500346484348132,
      -0.0008579613736960198,
      -7.86766617758622e-05,
      -0.00019293918520228712,
      -0.0002037463185056759,
      -0.00013498904325152513,
      -0.0003013331656122987,
      -0.00012582507154444835,
      0.009951262517724182,
      -0.02391827859887825,
      -0.010427097242357353,
      -0.0023227996599452503,
      -0.011626272164219544,
      -0.01455170205422467,
      -0.002720004013501011,
      -0.018912688272001585,
      -0.0012515046513855363,
      -0.006186774079934955,
      0.1081985332468083,
      -0.0004715165724507621,
      -0.004179964207851793,
      0.007755295370349615,
      -0.03362857277897036,
      -0.002480165707030379,
      -0.002648636867494089,
      -0.001228748259872051,
      -0.010173672210561946,
      0.003340903434879911,
      -0.002682697357866193,
      -0.004760309924606414,
      0.04276496729042822,
      -0.001998355903992034,
      -0.0010801624593399534,
      0.0007964487441920583,
      0.010105017921335046,
      -0.003009424604127322,
      -0.0008882130783556731,
      -0.00015505624391657808,
      0.025009876398179882,
      -0.0014236234651324117,
      -0.0008849804249962855,
      -0.0016036357875877138,
      -0.00043992808232335215,
      -0.010997926807216101,
      -0.0009460120255741846,
      -0.0014656481087600365,
      -0.0004951033972675259,
      -0.014383618856260478,
      -0.0004470373153504192,
      0.0003354823528526331,
      -0.00033479254298283685,
      -0.006845478112318093,
      -0.00807649103601896,
      -0.0007224806960049647,
      -0.00031386670654257124,
      -0.008403865491062906,
      0.0008188742061828846,
      -7.61666266763458e-05,
      -0.0038704164881003113,
      -0.0001516419570201146,
      0.005416735259518818,
      -0.0001603739981564763,
      0.009746005501376097,
      0.0007451573087676769,
      -0.00024081621307193228,
      -0.0001688189732089759,
      -0.0005993394439305755,
      -0.0004449868212965521,
      -0.00018489326285100113,
      -0.046687729671826474,
      -0.020117346661121877,
      -0.001859789512224667,
      0.1424209121805653,
      -0.011169072009314107,
      0.001694515655854229,
      0.008433553820848053,
      -0.06545867630683219,
      -0.00541335290227155,
      -0.03654849050052604,
      0.0347054759068493,
      -0.1933206396526989,
      0.19332063965269838,
      -0.014013939422686299,
      0.0036032298507019684,
      -0.006310974424341173,
      -0.015918595311441602,
      -0.08902529274822715,
      -0.0002491242299055541,
      0.024516567993939448,
      -0.0029958588939521295,
      -0.014211539548414214,
      -0.005856558075809631,
      -0.0027611057819818003,
      0.022422323897514113,
      0.07142851352362115,
      -0.013644193219822198,
      -0.03864720172147803,
      0.08735957022088586,
      -0.006018794870630197,
      0.07537818013341212,
      -0.013046003258161402,
      -0.007327616842549613,
      -0.044819228093571216,
      -0.00986235917710216
    ],
    "intercept": -1.4816533769148068
  },
  "wide-insurance-offset-l2-poisson": {
    "coef": [
      0.5036957007997873,
      -0.06764488693000112,
      0.019185783804746673,
      -0.037802447223977256,
      0.0052534632494815655,
      0.017796067076873066,
      2.4404125224675354e-05,
      3.755787568519849e-05,
      3.7557875685204457e-05,
      0.3442922177382843,
      -0.004356361404730257,
      -0.012636272046609066,
      -0.00046727147938836587,
      0.006239437062481981,
      0.01509275330916866,
      -0.003872285440922887,
      -0.008084588943630839,
      -0.006554623944275948,
      0.013750507860747312,
      0.0031019574213002935,
      -0.006834540890032611,
      0.0042514594508668525,
      0.0010215736652078341,
      0.0006253200658695869,
      0.0017139960108873973,
      -0.001353439132533282,
      -0.0009905249312614705,
      -0.0006470966331450442,
      0.04905646616594009,
      -0.027483741013316756,
      -0.02016127804938003,
      -0.0031168062457638704,
      -0.0008569399836706265,
      -0.0038950560375168065,
      -0.0017309849958948961,
      0.0009448230255210085,
      0.0026573275814332237,
      -0.006609506223133401,
      0.0100343176134272,
      -0.0008833364095078295,
      0.007348268984865603,
      -0.004579143649923434,
      0.0018990197168603149,
      -0.000886074240627675,
      -0.0003034318677416162,
      -0.0018850487851808724,
      0.0023950753288540737,
      -8.998083031615228e-05,
      -0.0014576934912812227,
      -0.0011139875559222278,
      -0.00028559646210410216,
      0.00031623400846530385,
      -0.00021892747646602148,
      -5.191518498658611e-05,
      -0.0001425344305718426,
      0.0008039745940601037,
      -7.811692369035921e-05,
      -2.7543047262725275e-05,
      0.0008020347421837884,
      -0.00010597778431941457,
      -4.967908493769887e-05,
      -5.929510588416547e-05,
      -5.347973768292299e-05,
      -3.3389010111940956e-05,
      -2.168614687154634e-05,
      -5.119240816152714e-05,
      -1.2073321086365139e-05,
      -8.643530911176906e-06,
      -4.437466463665704e-06,
      -4.5260921171135935e-08,
      0.0005511374498214436,
      -0.0004810146359593858,
      -0.01124827951046252,
      -0.0006087560997032837,
      -1.853470600969179e-05,
      0.0018006691839565485,
      0.005944133230699924,
      0.0008707293331766091,
      -0.002739776264081241,
      0.0018278525515396098,
      -0.002743164146916118,
      0.0041029233869450685,
      -0.003634371377421406,
      0.0008573670466104532,
      0.0019802340768030947,
      0.001302709902874107,
      -0.0032951002993231115,
      -0.0028287607076058203,
      0.002491890794552618,
      -0.004000166801357491,
      -0.0033465958307188548,
      -4.0693642283127e-05,
      0.0004652563071866268,
      -0.004489547311885738,
      0.006562085583465216,
      0.002853388828217291,
      -0.002515146689876361,
      -0.00475509056457647,
      0.004949407555590196,
      -0.0027725548329541605,
      0.002806745433441968,
      0.0012636809906581318,
      0.006014526352499773,
      0.001222046135084157,
      0.0033129957028808494,
      0.007729950918343784,
      0.0022579660867647652,
      0.005216181198364047,
      0.0018686689679753737,
      -0.0030035592682253268,
      0.0004889581459825836,
      -0.00011689817396828642,
      -0.0008897701647434923,
      -0.0009245674833585645,
      -0.0030272945541959385,
      0.0006407725804512419,
      0.0006229330697580148,
      0.000750159517054075,
      -0.0005776885247771852,
      -0.0025365949414836134,
      0.00041029315257178306,
      0.00011982579172199577,
      -0.0016765150188513143,
      -0.0010653673158836205,
      -0.0020782521596533644,
      -0.002308389802423592,
      -0.0025817893833051135,
      0.0006495988136529866,
      -0.00023709910394870937,
      -0.0009348238667310844,
      0.001160997657756586,
      -0.0010935451051284658,
      0.000559209985655482,
      -0.0013452164413064848,
      -0.0010406667705624298,
      7.338279588340929e-05,
      -0.00042224048284583975,
      0.0006990688950951309,
      -0.0002716111436666331,
      0.0021539503739869265,
      -0.00010929704892905637,
      -0.0002815537891702056,
      -5.916781088582518e-05,
      -0.0001353359393493996,
      -0.00014165021457444342,
      -8.25171367653532e-05,
      -4.918388255223247e-05,
      -7.354884860148351e-05,
      -0.01579550327178932,
      -0.003207932727397889,
      8.069954882632474e-05,
      0.0008809010827084927,
      0.0005242225290051451,
      -0.0011944746667547114,
      0.0030285720547787516,
      0.0006949675594285791,
      0.004069893186551301,
      0.00043642253741999826,
      0.0030218188749264845,
      0.00012599477020763664,
      0.00955896192905582,
      0.001366612924102289,
      -0.0027257698210483112,
      0.0005624201117384543,
      -0.0009587124593217689,
      0.0005647930872491806,
      -0.003301055483222909,
      0.004138441613845456,
      -0.0009930161558867273,
      -0.0006601105093445972,
      -0.0008399849556407687,
      -0.0008075547261875618,
      -8.737755961047343e-05,
      0.0026190385761941377,
      0.0013269047576934527,
      -0.0003851426822831702,
      0.0015491021511596674,
      -2.4358390009787645e-05,
      0.003886389754484644,
      -0.0002475849141799918,
      -0.0003195363317700019,
      0.0010792659193959624,
      -2.909083111390421e-05,
      -0.0032437504581805466,
      -0.0003603917536866646,
      -0.0003428582365239748,
      -2.6447302691970107e-05,
      6.1554663682345245e-06,
      -0.00015249941789201218,
      0.00043993746589254503,
      -0.000165805510045762,
      -0.0038889465045193685,
      0.0011204362882799945,
      -0.00012465169933943663,
      -3.5320058332796154e-05,
      -0.002116853060852789,
      0.000757820436046962,
      -0.00010562204510327452,
      -0.0008159330756747818,
      -0.0001233016835168146,
      0.0018413332678892177,
      -6.579422096330245e-05,
      0.0021802736436991243,
      -0.0006042006058275855,
      -0.0006601198382002619,
      -0.0006080379694420787,
      -0.000689932982442281,
      -2.319525256338587e-05,
      -0.00013051237558686247,
      0.003543180764979256,
      -0.0016937781700667772,
      0.0016893752614510794,
      0.016373894551884,
      -0.0032912964297258703,
      0.002298432988544479,
      -0.008487566413622506,
      -0.011353213634607192,
      -0.007168859116327181,
      0.002888872896014725,
      0.005200957301476049,
      -0.005800651032392778,
      0.005800651032392833,
      0.0013188658794550483,
      0.0021338334982698467,
      -0.002147997435465181,
      -0.0021552860764887205,
      -0.014518710709382484,
      -0.00121458567475936,
      0.003160371959853013,
      0.002230276188693027,
      -0.004973994998362858,
      -0.000751013013067918,
      -0.00037695073163930386,
      -0.0005916507296375699,
      0.0066730557281562625,
      -0.0022211508171191903,
      -0.007471784587693534,
      -0.0021365085739104635,
      0.0015931366465186344,
      0.00998098658363323,
      -0.002141508103129355,
      -0.0015699194807949847,
      0.015092328034994405,
      8.820641187753063e-05
    ],
    "intercept": -3.530876871065086
  },
  "intermediate-insurance-no-weights-l2-gamma": {
    "coef": [
      -0.06117061082316095,
      -0.07856802365036254,
      0.02807296467204754,
      0.10920334495165918,
      -0.03273650363631794,
      0.03519882848613472,
      0.007718776936780751,
      0.03075515362568465,
      -0.03847393056246499,
      0.03696960782480964,
      -0.027853601794377264,
      -0.062410157382807516,
      -0.039385524084600866,
      -0.0392438864100928,
      0.014765289412020982,
      0.11715827243504773,
      0.002920891313489232,
      -0.005103955098751188,
      0.08598849563642749,
      0.022350044697769383,
      0.0446249857918167,
      -0.034772088729728236,
      -0.007655710350740114,
      -0.057621957734089256,
      -0.0372623185660563,
      0.011925699316898582,
      0.003006537060507067,
      -0.025479732024054052,
      -0.006239117489605134,
      0.006239117489604786,
      -0.010168274875042646,
      -0.07987464292463399,
      0.016047575070287142,
      -0.012696875827641665,
      -0.011801900207023177,
      0.01656258047205593,
      0.13424657927994674,
      0.01666440964010263,
      -0.008440263881412608,
      -0.03192361441212613,
      -0.013811610080972373,
      -0.001777122210780303,
      -0.09289426262169026,
      -0.06922949162417703,
      -0.006164602509392107,
      0.04032161018056898,
      -0.002305139653472244,
      -0.022331917223023138,
      -0.04541432027583574,
      -0.005424374344978509,
      0.09502076762541099,
      0.08335226630848874,
      0.0018743492202978561,
      -0.0033641344038359143,
      -0.01417370969287403,
      0.006548598591154351,
      0.00042124688585246344,
      0.009321055392777524,
      0.020228816090867092,
      -0.003321487338587087,
      -0.007896209077230694,
      -0.0038947349651511243,
      -0.00019840057498528174,
      0.010453911760004977,
      -0.016951774169143785,
      -0.00634609713287784,
      0.002630290541596775,
      0.03128948095817983,
      -0.01964872381164041,
      -0.0034758930452302495,
      -0.008126433962913007,
      -0.007645296818230556,
      -0.029597383422921956,
      -0.005514575992900454,
      0.0013973271419437658,
      -0.014316143975316557,
      0.044203200341184835,
      -0.006765587306577155,
      -0.004294859333318689,
      0.021377711982708356,
      0.07453451829492998,
      -0.015856242902587962,
      0.001404367094337178,
      -0.0004351932707931897,
      -0.04275656628031761,
      0.003975139660360318,
      -0.005037046893457146,
      -0.007278921243020709,
      -0.00483645591119592,
      -0.02402197822846811,
      -0.0017850864789602174,
      -0.000493679628834049,
      -0.007739475574322446,
      -0.0016675508603118249,
      0.044952492274837566,
      -0.002902810332325012,
      -0.0025070943001499497,
      0.008555610603232075,
      -0.0012674742758198216,
      0.000721339615672159,
      -0.00069017081463885,
      0.008716953551054491,
      -0.00042059580324568026,
      0.007135266385860439,
      -0.026003673748206967
    ],
    "intercept": 7.376328401761932
  },
  "intermediate-insurance-offset-l2-gamma": {
    "coef": [
      -0.06117061082316088,
      -0.07856802365036251,
      0.028072964672047545,
      0.10920334495165923,
      -0.03273650363631794,
      0.03519882848613468,
      0.007718776936780713,
      0.03075515362568462,
      -0.038473930562464995,
      0.03696960782480964,
      -0.02785360179437718,
      -0.06241015738280749,
      -0.03938552408460088,
      -0.03924388641009286,
      0.014765289412020991,
      0.11715827243504766,
      0.0029208913134892204,
      -0.005103955098751268,
      0.08598849563642744,
      0.022350044697769387,
      0.044624985791816736,
      -0.034772088729728236,
      -0.007655710350740114,
      -0.05762195773408926,
      -0.03726231856605632,
      0.011925699316898622,
      0.0030065370605070665,
      -0.025479732024054073,
      -0.006239117489605239,
      0.0062391174896047384,
      -0.010168274875042457,
      -0.07987464292463395,
      0.016047575070287173,
      -0.012696875827641667,
      -0.011801900207023186,
      0.016562580472055857,
      0.13424657927994676,
      0.01666440964010265,
      -0.008440263881412578,
      -0.03192361441212614,
      -0.013811610080972368,
      -0.0017771222107803052,
      -0.09289426262169023,
      -0.06922949162417705,
      -0.006164602509392121,
      0.04032161018056894,
      -0.0023051396534722263,
      -0.02233191722302316,
      -0.045414320275835716,
      -0.005424374344978498,
      0.09502076762541094,
      0.08335226630848874,
      0.00187434922029786,
      -0.003364134403836244,
      -0.014173709692874183,
      0.006548598591154345,
      0.00042124688585244566,
      0.009321055392777505,
      0.020228816090867057,
      -0.0033214873385870912,
      -0.0078962090772307,
      -0.0038947349651511447,
      -0.00019840057498529904,
      0.010453911760004948,
      -0.01695177416914377,
      -0.006346097132877837,
      0.002630290541596738,
      0.0312894809581798,
      -0.01964872381164045,
      -0.003475893045230253,
      -0.008126433962913005,
      -0.007645296818230555,
      -0.02959738342292195,
      -0.005514575992900459,
      0.0013973271419437637,
      -0.014316143975316562,
      0.04420320034118482,
      -0.006765587306577153,
      -0.004294859333318696,
      0.021377711982708363,
      0.07453451829492995,
      -0.015856242902587962,
      0.0014043670943371827,
      -0.00043519327079318844,
      -0.04275656628031757,
      0.003975139660360316,
      -0.00503704689345715,
      -0.007278921243020705,
      -0.00483645591119592,
      -0.0240219782284681,
      -0.0017850864789602172,
      -0.0004936796288340488,
      -0.007739475574322446,
      -0.0016675508603118249,
      0.044952492274837615,
      -0.002902810332325011,
      -0.002507094300149949,
      0.008555610603232093,
      -0.0012674742758198207,
      0.0007213396156722245,
      -0.0006901708146388438,
      0.008716953551054495,
      -0.0004205958032456799,
      0.007135266385860441,
      -0.02600367374820678
    ],
    "intercept": 7.376328401761933
  },
  "narrow-insurance-no-weights-l2-gamma": {
    "coef": [
      -0.06020964491008933,
      -0.07925220680485434,
      0.026602600565880204,
      0.11070590221585372,
      -0.032664811658871216,
      0.03481816059208082,
      0.007046392241125826,
      0.031361783584570944,
      -0.038408175825696965,
      0.03551847680489448,
      -0.02629683784399372,
      -0.06128865618975408,
      -0.03580401287968207,
      -0.04172377418632923,
      0.014518333821409848,
      0.11507647047345475,
      0.002971840463113337,
      -0.006893484560188429,
      0.08677833464215612,
      0.02382302120640383,
      0.04375645816605235,
      -0.03487802700075773,
      -0.007824700615266553,
      -0.057819037547116765,
      -0.03725122557263263,
      0.012345276876713102,
      0.003984091311185266,
      -0.026020706906548747,
      -0.00581439453639731,
      0.005814394536397107,
      -0.008915994599773458,
      -0.07963009044889494,
      0.015724178313904207,
      -0.012564094786101866,
      -0.012265619793946914,
      0.015369090572082291,
      0.13250784316850908,
      0.016756392925138076,
      -0.00799358616528399,
      -0.03220026847412812,
      -0.013916442029630157,
      -0.0017814115020394316,
      -0.09427560735334649,
      -0.06904499474166251,
      -0.006587263495251518,
      0.04175867795517562,
      -0.0026298517268215655,
      -0.022369354928651608,
      -0.04553543997176091,
      -0.005284134515489597,
      0.09754117030785886,
      0.0845761757928627,
      0.0018446308974787145,
      -0.004373522544191932
    ],
    "intercept": 7.363707446301817
  },
  "narrow-insurance-offset-l2-gamma": {
    "coef": [
      -0.060209644910089295,
      -0.0792522068048543,
      0.026602600565880204,
      0.11070590221585377,
      -0.03266481165887121,
      0.03481816059208083,
      0.007046392241125846,
      0.03136178358457103,
      -0.038408175825696944,
      0.03551847680489448,
      -0.02629683784399374,
      -0.06128865618975412,
      -0.035804012879682046,
      -0.04172377418632923,
      0.014518333821409875,
      0.11507647047345479,
      0.0029718404631133392,
      -0.0068934845601883975,
      0.08677833464215608,
      0.023823021206403887,
      0.0437564581660524,
      -0.03487802700075773,
      -0.007824700615266546,
      -0.05781903754711674,
      -0.03725122557263262,
      0.012345276876713055,
      0.003984091311185267,
      -0.026020706906548733,
      -0.005814394536397292,
      0.005814394536397131,
      -0.00891599459977367,
      -0.07963009044889494,
      0.01572417831390422,
      -0.012564094786101866,
      -0.012265619793946919,
      0.015369090572082337,
      0.13250784316850905,
      0.016756392925138044,
      -0.007993586165284021,
      -0.03220026847412814,
      -0.01391644202963016,
      -0.0017814115020394297,
      -0.09427560735334647,
      -0.06904499474166252,
      -0.006587263495251511,
      0.04175867795517562,
      -0.0026298517268215755,
      -0.02236935492865161,
      -0.04553543997176087,
      -0.0052841345154896,
      0.09754117030785887,
      0.08457617579286271,
      0.0018446308974787334,
      -0.00437352254419164
    ],
    "intercept": 7.363707446301817
  },
  "wide-insurance-no-weights-l2-gamma": {
    "coef": [
      -0.08500026407677075,
      -0.06263229467815394,
      0.0017943762449399445,
      -0.003058922811959207,
      0.0030213229703456254,
      0.00256103393335856,
      -3.5865505398555015e-06,
      -2.6171614917094058e-05,
      0.00024054895180274994,
      -0.08500026407677076,
      0.0011386777854536163,
      -0.009239658251857918,
      0.01048103077467735,
      -0.00247699488846699,
      0.006380133019723903,
      -0.006283188439529719,
      0.0038839385051235606,
      -0.0017916992882544326,
      -0.011235002075589867,
      -0.005859945195970109,
      0.007052298688216128,
      0.007890408098490821,
      0.004440692859464379,
      0.000796634360508697,
      -0.001750897531629442,
      0.0017042388228136606,
      0.0011395471307659433,
      -0.006270214373939061,
      0.010301566413811428,
      -0.010853257267766333,
      -0.007432413461644958,
      0.002355257624105404,
      0.005059735221158234,
      0.0013505164541766992,
      0.012239746044332697,
      0.01222555862396832,
      0.00012000315904590626,
      -0.0019665969607998318,
      -0.010155932690587476,
      -0.011946928100713579,
      0.006845763318513511,
      -0.010793338297239646,
      -0.009087347409999624,
      -0.0016708482008354144,
      0.0026589892903467836,
      0.0010842210241750598,
      -0.0002788237270829942,
      0.0038016878122564494,
      0.0003040749679741379,
      -0.0018001886094817538,
      0.001169254915088645,
      0.0011427048969673576,
      0.0003407601908927809,
      0.0014431904221725853,
      0.0013016444931118788,
      -0.00027276246988693103,
      0.00014774163879692023,
      0.0001954541088348747,
      -0.00033417998821605514,
      0.0011382407791640655,
      0.0001442118631677507,
      0.0005172163565842494,
      0.0011264948913622156,
      -0.0004214173257531277,
      0.005195592364980164,
      -0.0040455764753698055,
      0.0075097522185981445,
      0.006500995414749773,
      -0.008746452357259196,
      -0.005672086236212123,
      -0.007475050704789818,
      -0.0017099947136608362,
      -0.0004567132323362228,
      -0.005261423391513747,
      0.0008422290961055682,
      -0.0030656147544675188,
      0.0031269296251401246,
      0.0008734356583688794,
      0.0003452021698829764,
      0.00033088353002777045,
      0.0034501575855828575,
      -0.017524107214047742,
      0.0016064775726450523,
      -0.010617790508195692,
      -0.003680690741711139,
      -0.003206349698783828,
      0.010763261975235435,
      0.004796450135653934,
      0.015732623814627696,
      -0.0009656410478507608,
      0.009463989101797254,
      0.0024476169942295634,
      0.01072604007561403,
      0.004876150275816414,
      0.012711758768374552,
      -0.015465595157660137,
      0.01069970783000707,
      0.003517178347045007,
      -0.0044801795829843,
      -0.008056820334499575,
      -4.488739964143141e-06,
      0.00013283602230827467,
      -0.006641631564977289,
      0.0024971953945198207,
      -0.0043871945107378735,
      0.006500206232183928,
      -0.0017347293035122535,
      -0.003312155800685881,
      0.002716085689777013,
      -0.0018061672437129387,
      0.0019637889135268485,
      0.0062586709671144,
      -0.004912249733765377,
      -0.012394937421300989,
      0.0013163449790343986,
      -0.004273193728867638,
      0.0017387015063874075,
      -0.003648330341634137,
      0.005327578912190281,
      0.004042996179991914,
      -0.000681699641622681,
      0.001984077830603081,
      -0.002282854544936166,
      -0.0023969381590972752,
      -0.005667433261417856,
      0.0010939385858822783,
      0.0016725191296487177,
      0.0023296013953487574,
      0.00014624100719021644,
      0.001278567539167782,
      -0.000922631691194964,
      0.000449390416364118,
      0.0011801439028494057,
      0.0006057699594923243,
      0.00010213866383614373,
      -0.0014606534279745812,
      -5.3004736954161815e-05,
      -0.0017401577384683826,
      -0.00010268803973211002,
      -0.008478231879689878,
      -0.021626366273149122,
      0.0029514120778121834,
      -0.0002463309965125634,
      -0.010639678592955922,
      0.009037643714534173,
      -0.002683126763457842,
      -0.0092749866444301,
      0.007150130471862374,
      0.006568242113852009,
      -0.012398954305155035,
      0.003737845821629285,
      0.024067552181258254,
      0.006146963948950501,
      -0.004880242346402614,
      0.005585746638890462,
      0.003442970360844475,
      0.004211783152135589,
      -0.007532893467741799,
      -0.001043775152992405,
      -0.0007105023234620581,
      0.003972688137776995,
      -0.004022343498495903,
      0.0024194270562338943,
      -0.0001831999430608876,
      0.000926881496354463,
      0.010816868760931343,
      -0.0012742558533106632,
      0.0075171613122438675,
      0.0025658874930447727,
      -0.013620259428487777,
      0.003239659889110325,
      0.0011779168640161655,
      -0.000601565075275413,
      -0.001598998458390202,
      0.0019776606319074543,
      0.0001589191458256679,
      -8.228116889406878e-05,
      -0.0012721886197776173,
      -0.00026623713374990965,
      -0.0006373721114866908,
      -0.0001194740533609735,
      -9.582892555346092e-06,
      -0.002112702369029181,
      -3.8563357998460036e-05,
      0.004934184115933596,
      2.753063017452813e-05,
      -0.0020674146239685297,
      2.5936422940189886e-05,
      0.0010668994678968591,
      -0.0007947216094138765,
      -0.0006900872327494387,
      0.0004600637371786795,
      -6.98525215398251e-05,
      -1.3173424872891798e-05,
      -8.779315360013185e-05,
      -0.00024008001590914755,
      -0.00011214668313659186,
      -0.00036675528203342864,
      -0.00036062997098672907,
      0.0009048692255026686,
      -0.0001979510471406268,
      0.0006749966494618932,
      -3.475872795652414e-05,
      -6.665115468287371e-05,
      0.0017489497567656775,
      0.0006217500686894343,
      -0.00013091939880621788,
      -0.0003029352387571235,
      -0.0008373402793770277,
      -9.783933347775176e-05,
      -0.0006293499087718895,
      -0.00029903228068952546,
      -9.369749363734273e-05,
      -0.0003442474758340972,
      -0.0007024243019944696,
      -0.0002672866872889869,
      -0.0010671024046251549,
      -0.0026764172239145466,
      -0.0001949920464537579,
      -0.00020347128516687323,
      0.000488537172542714,
      -0.0003238949996924286,
      -0.0037812890567615284,
      0.001029553125956337,
      -0.00924502952727418,
      0.025691847262048904,
      0.009577028380615242,
      0.005244845997140375,
      -5.61986633161868e-05,
      -0.0069580674695428404,
      0.008959350957108963,
      -0.01625433433664403,
      -0.014207706669330784,
      0.006279390916893106,
      -0.0062793909168928205,
      0.00752100725891836,
      -0.0029905662503380698,
      0.007284670342466482,
      0.0010707999119177324,
      -0.013147010308736802,
      -0.004628196127690775,
      0.0022801962225901915,
      -0.009806140506448957,
      -0.00450093492463594,
      -0.005053230650912563,
      0.001011223762191308,
      0.005159068126570284,
      0.011727793811049282,
      0.002576797922541946,
      0.008075997418183798,
      0.004298398855857067,
      0.0011362830976024607,
      -0.022282990584998615,
      0.00046961280373710904,
      0.007264210984291587,
      0.002139112020836666,
      0.0003938968150076941
    ],
    "intercept": 6.643217796430223
  },
  "wide-insurance-offset-l2-gamma": {
    "coef": [
      -0.08500026407677053,
      -0.06263229467815389,
      0.0017943762449399339,
      -0.0030589228119592186,
      0.0030213229703456306,
      0.0025610339333585652,
      -3.5865505398555002e-06,
      -2.6171614917094058e-05,
      0.00024054895180275002,
      -0.08500026407677051,
      0.0011386777854536453,
      -0.009239658251857902,
      0.01048103077467736,
      -0.0024769948884669525,
      0.006380133019723876,
      -0.0062831884395297445,
      0.003883938505123533,
      -0.0017916992882544768,
      -0.011235002075589855,
      -0.005859945195970111,
      0.007052298688216149,
      0.007890408098490809,
      0.004440692859464408,
      0.0007966343605086949,
      -0.0017508975316294529,
      0.0017042388228136632,
      0.0011395471307659405,
      -0.0062702143739390565,
      0.0103015664138114,
      -0.010853257267766378,
      -0.007432413461644951,
      0.002355257624105373,
      0.005059735221158256,
      0.0013505164541766834,
      0.012239746044332698,
      0.012225558623968302,
      0.0001200031590459204,
      -0.0019665969607998036,
      -0.010155932690587456,
      -0.01194692810071357,
      0.006845763318513522,
      -0.010793338297239618,
      -0.009087347409999653,
      -0.0016708482008354,
      0.002658989290346787,
      0.0010842210241750717,
      -0.00027882372708297503,
      0.0038016878122564663,
      0.00030407496797415037,
      -0.00180018860948176,
      0.0011692549150886522,
      0.0011427048969673568,
      0.000340760190892777,
      0.0014431904221725873,
      0.0013016444931118784,
      -0.00027276246988693374,
      0.0001477416387969205,
      0.000195454108834874,
      -0.0003341799882160524,
      0.0011382407791640642,
      0.00014421186316775013,
      0.0005172163565842469,
      0.0011264948913622184,
      -0.0004214173257531272,
      0.005195592364980156,
      -0.00404557647536981,
      0.007509752218598141,
      0.006500995414749766,
      -0.008746452357259175,
      -0.005672086236212148,
      -0.007475050704789833,
      -0.0017099947136608666,
      -0.0004567132323362319,
      -0.00526142339151376,
      0.0008422290961055899,
      -0.0030656147544675326,
      0.003126929625140113,
      0.0008734356583688717,
      0.0003452021698829737,
      0.0003308835300277701,
      0.0034501575855828805,
      -0.017524107214047718,
      0.0016064775726450668,
      -0.010617790508195661,
      -0.003680690741711133,
      -0.0032063496987837998,
      0.010763261975235467,
      0.004796450135653956,
      0.01573262381462769,
      -0.0009656410478507282,
      0.00946398910179725,
      0.0024476169942295577,
      0.010726040075614028,
      0.004876150275816407,
      0.012711758768374543,
      -0.015465595157660111,
      0.01069970783000708,
      0.0035171783470450083,
      -0.004480179582984303,
      -0.008056820334499625,
      -4.488739964121007e-06,
      0.00013283602230827282,
      -0.0066416315649772805,
      0.002497195394519812,
      -0.004387194510737878,
      0.00650020623218393,
      -0.0017347293035122487,
      -0.0033121558006858672,
      0.002716085689777025,
      -0.0018061672437129324,
      0.001963788913526853,
      0.006258670967114374,
      -0.004912249733765385,
      -0.012394937421300977,
      0.0013163449790343804,
      -0.004273193728867671,
      0.0017387015063874004,
      -0.0036483303416341385,
      0.005327578912190297,
      0.004042996179991909,
      -0.0006816996416226774,
      0.001984077830603084,
      -0.0022828545449361643,
      -0.0023969381590972717,
      -0.00566743326141786,
      0.0010939385858822557,
      0.0016725191296487016,
      0.002329601395348749,
      0.00014624100719020893,
      0.0012785675391677866,
      -0.0009226316911949648,
      0.00044939041636411667,
      0.001180143902849408,
      0.0006057699594923228,
      0.00010213866383614343,
      -0.0014606534279745817,
      -5.3004736954160785e-05,
      -0.0017401577384683826,
      -0.00010268803973211092,
      -0.00847823187968985,
      -0.021626366273149074,
      0.00295141207781219,
      -0.0002463309965125619,
      -0.010639678592955917,
      0.009037643714534162,
      -0.00268312676345783,
      -0.009274986644430105,
      0.007150130471862402,
      0.00656824211385202,
      -0.012398954305155037,
      0.003737845821629285,
      0.024067552181258244,
      0.006146963948950494,
      -0.00488024234640262,
      0.005585746638890483,
      0.003442970360844471,
      0.004211783152135576,
      -0.007532893467741749,
      -0.001043775152992408,
      -0.0007105023234620499,
      0.003972688137776996,
      -0.0040223434984958985,
      0.002419427056233894,
      -0.0001831999430608906,
      0.0009268814963544582,
      0.010816868760931367,
      -0.0012742558533106623,
      0.007517161312243858,
      0.0025658874930447745,
      -0.013620259428487762,
      0.0032396598891103324,
      0.0011779168640161574,
      -0.0006015650752754109,
      -0.0015989984583902068,
      0.001977660631907434,
      0.00015891914582567336,
      -8.228116889406813e-05,
      -0.0012721886197776164,
      -0.00026623713374990954,
      -0.0006373721114867182,
      -0.00011947405336097756,
      -9.582892555346524e-06,
      -0.002112702369029185,
      -3.8563357998460415e-05,
      0.0049341841159335756,
      2.7530630174529583e-05,
      -0.0020674146239685314,
      2.593642294018885e-05,
      0.0010668994678968596,
      -0.0007947216094139121,
      -0.0006900872327494436,
      0.0004600637371786846,
      -6.985252153982681e-05,
      -1.3173424872890011e-05,
      -8.779315360013174e-05,
      -0.0002400800159091565,
      -0.00011214668313659548,
      -0.0003667552820334274,
      -0.0003606299709867294,
      0.0009048692255026636,
      -0.00019795104714062685,
      0.0006749966494618902,
      -3.475872795652508e-05,
      -6.665115468287324e-05,
      0.0017489497567656522,
      0.0006217500686894299,
      -0.00013091939880621829,
      -0.0003029352387571605,
      -0.000837340279377029,
      -9.783933347775205e-05,
      -0.0006293499087718894,
      -0.0002990322806895264,
      -9.369749363734149e-05,
      -0.00034424747583409576,
      -0.00070242430199447,
      -0.0002672866872889891,
      -0.0010671024046251573,
      -0.0026764172239145457,
      -0.00019499204645375722,
      -0.000203471285166874,
      0.0004885371725427123,
      -0.0003238949996924286,
      -0.0037812890567615258,
      0.0010295531259563436,
      -0.009245029527274183,
      0.02569184726204888,
      0.009577028380615265,
      0.005244845997140362,
      -5.6198663316190975e-05,
      -0.006958067469542829,
      0.008959350957108982,
      -0.016254334336644062,
      -0.014207706669330779,
      0.006279390916893064,
      -0.00627939091689285,
      0.007521007258918341,
      -0.0029905662503380654,
      0.0072846703424664675,
      0.00107079991191773,
      -0.013147010308736818,
      -0.004628196127690777,
      0.0022801962225901997,
      -0.009806140506448915,
      -0.004500934924635948,
      -0.00505323065091256,
      0.0010112237621913115,
      0.005159068126570304,
      0.011727793811049306,
      0.002576797922541918,
      0.008075997418183798,
      0.004298398855857064,
      0.0011362830976024627,
      -0.022282990584998625,
      0.00046961280373711484,
      0.007264210984291565,
      0.0021391120208366747,
      0.0003938968150076926
    ],
    "intercept": 6.643217796430223
  },
  "intermediate-insurance-no-weights-l2-tweedie-p=1.5": {
    "coef": [
      -0.6445432930126267,
      0.2190835561745129,
      -0.035381420360626165,
      0.2795116516962732,
      0.01571495426796342,
      0.16561455123451224,
      -0.20492017764816464,
      0.06477715422938285,
      0.14014302341876012,
      0.9486199678866016,
      -0.21656753198266226,
      -0.9863518178869151,
      -0.15620148852572535,
      0.23287276148139366,
      0.2793380240141272,
      -0.10170991498680415,
      0.014734629829418215,
      0.30584845591470183,
      -0.22488344223042542,
      -0.2788906033837642,
      0.22602626639272747,
      -0.46878123503141045,
      0.40152700857060875,
      0.18976185332288056,
      -0.49613768409850634,
      0.21326226339003138,
      -0.3122037289214065,
      0.44447084607458304,
      0.14868405996942521,
      -0.1486840599694245,
      0.13679909199593132,
      0.08323413866257279,
      -0.03780306129046269,
      0.1423207932456809,
      -0.6440061536956014,
      -0.1764335715233254,
      0.46797669556478966,
      -0.43194970625143003,
      0.17836529574269874,
      0.21533277681113167,
      -0.23210954244253318,
      -0.11354302089807713,
      0.1775033847597275,
      0.5374528953580271,
      -0.1682859549685141,
      0.12031099840100523,
      -0.00914813172238451,
      0.10518589361323685,
      0.5112532446416975,
      -0.5070827728938654,
      -0.5503648208491619,
      0.4920608135277853,
      -0.160270193792988,
      -0.0251432779613537,
      -0.5457587612500888,
      -0.6141989201606237,
      0.2982125838193683,
      -0.2765040551990064,
      -0.23206759386312026,
      -0.5126106011307222,
      0.2711832485244893,
      0.009364799214724375,
      0.3363263851070695,
      -0.1034561479739862,
      0.4483389725431463,
      0.017839457676858954,
      1.262182807928094,
      -0.32647338600216685,
      0.281254782193293,
      -0.019404336192229216,
      -0.19454505504543917,
      -0.057308464647607325,
      -0.6581623819957224,
      0.4865464535942965,
      -0.21339110656186894,
      -0.25382209883287127,
      0.9563406206594649,
      -0.09291803580909212,
      -0.061530328916381424,
      0.15654784789307383,
      -0.27810639652595015,
      -0.18533867050953018,
      0.059220457749420294,
      -0.005897641357800949,
      0.3807061676207851,
      -0.10919813709135578,
      -0.08086970785764246,
      -0.024055674039766335,
      -0.03160650877582714,
      -0.5435512153160573,
      -0.08078679345754188,
      -0.07108234500510695,
      -0.015496649112804644,
      -0.40053932959789584,
      -0.041788898952160994,
      0.044031773537180345,
      -0.03567895324716658,
      0.41659768407030956,
      0.09806993591389652,
      -0.02099462341990705,
      -0.017966929343066106,
      0.5823457691450364
    ],
    "intercept": 3.0675316122509453
  },
  "intermediate-insurance-offset-l2-tweedie-p=1.5": {
    "coef": [
      -0.46667632121128827,
      0.06306840701817083,
      -0.09999288151031563,
      0.1872811990505063,
      0.12770560881720744,
      0.18861398783571667,
      0.12152641175313222,
      -0.03366884091580277,
      -0.08785757083734325,
      0.8924766997978114,
      -0.18870583030704824,
      -0.9209210974783523,
      -0.12830625542789525,
      0.2078816135936248,
      0.2023369392905171,
      -0.06476206946865645,
      0.018191291060587162,
      0.4012660884908982,
      -0.2642854185566587,
      -0.17683264934036638,
      0.3115405130907914,
      -0.3911302801043931,
      0.4094635912756687,
      0.1945073638808139,
      -0.3617384595411138,
      -0.10189921305297525,
      -0.2412742262960356,
      0.22038269015337283,
      0.14437346910428522,
      -0.1443734691042699,
      0.09238661803290898,
      0.031641092947176847,
      0.049174916841807415,
      -0.12346419481416707,
      -0.322199710182882,
      -0.11194080958194456,
      0.36638830982949067,
      -0.18442812259744032,
      0.1401249467183195,
      -0.008582333547103428,
      -0.14499693591424848,
      -0.05937583566738614,
      -0.04132098126368662,
      0.44919499908099136,
      -0.22208006680931242,
      0.06960988209447207,
      -0.15364423655607476,
      0.06989533828837828,
      0.3390402711171083,
      -0.2956655469905602,
      -0.21561053284385673,
      0.4743176999340814,
      -0.10607815008316784,
      0.046129896933947645,
      -0.6337676083757497,
      -0.5421535771533816,
      0.3418165160709667,
      -0.1757951541331274,
      -0.18534261549505784,
      -0.3561959822171324,
      0.20573160913571306,
      -0.17182794904416582,
      0.40905193308887655,
      0.041884559500569365,
      0.4186574066473921,
      -0.014490657710256278,
      1.2199148469549734,
      -0.16788661391883175,
      0.3453558438203269,
      0.023464528134545415,
      -0.13578494665388044,
      -0.015266907313396638,
      -0.602261455407329,
      0.28628919880351605,
      -0.14268605620005528,
      -0.13162938025319693,
      0.31312102468079356,
      -0.08623699080011735,
      -0.022287568434092204,
      0.1376721321511984,
      -0.20704621491915884,
      -0.11011551496762846,
      0.0838571155556872,
      -0.002766654702769881,
      0.07362525563015053,
      -0.05136966743676769,
      -0.05002598408846779,
      0.02370370592961595,
      -0.009836375630045757,
      -0.43417337414221685,
      -0.0550172066483366,
      -0.04979095678013687,
      -0.007346189193107345,
      -0.3424653657357061,
      -0.027388117621635684,
      0.035357704492039045,
      -0.024098583947431088,
      0.21687483803293817,
      0.10845604941403574,
      -0.013088100386398089,
      -0.007753659274154599,
      0.4910611605403994
    ],
    "intercept": 3.075889390500782
  },
  "narrow-insurance-no-weights-l2-tweedie-p=1.5": {
    "coef": [
      -0.7154216860948327,
      0.2066054306493236,
      -0.01986731130137199,
      0.30026276094946697,
      0.03524398792938283,
      0.19317681786803656,
      -0.3049258141150331,
      0.08619964868537285,
      0.21872616542966086,
      0.9482728491549862,
      -0.3025754556299671,
      -0.9976356381310454,
      -0.07758573591371051,
      0.236374082851085,
      0.3485058522774846,
      -0.15535595460883142,
      0.03349501858004834,
      0.31454956545336277,
      -0.3865729840436581,
      -0.205346280497795,
      0.22489808560439833,
      -0.44537503661797107,
      0.37170074550983595,
      0.2923416387271839,
      -0.4277159122903281,
      0.15004281090738,
      -0.24987930263507704,
      0.361356669882674,
      0.17349455710944406,
      -0.1734945571094507,
      0.05450945491744933,
      0.10434503220121925,
      -0.0684373472779242,
      0.14110892797490127,
      -0.5662980555592609,
      -0.15297965782510742,
      0.3985009681623139,
      -0.26581541536720116,
      0.13242977697715605,
      0.19586874997931633,
      -0.2589791513098554,
      -0.11749053820888208,
      0.15740597883298252,
      0.5636852010718745,
      -0.26279185064874677,
      0.06578439439040598,
      -0.02373558503689523,
      0.0470585230479736,
      0.6510846980392891,
      -0.5253713202595344,
      -0.5590855356222594,
      0.5285420436117013,
      -0.18482983717346696,
      0.09591701570793586
    ],
    "intercept": 1.7428304091202187
  },
  "narrow-insurance-offset-l2-tweedie-p=1.5": {
    "coef": [
      -0.5194676257219067,
      0.047100237741265163,
      -0.10281532773539959,
      0.18390179027864953,
      0.15779233910464602,
      0.23348858633274736,
      0.03883221089037963,
      0.003259478476283748,
      -0.04209168936666206,
      0.900231328548654,
      -0.2618605596145339,
      -0.9078724783277182,
      -0.02159409779232029,
      0.20874234356351987,
      0.23233202198149266,
      -0.14997855835909138,
      0.0353559624814789,
      0.40627802137816466,
      -0.36219689165199354,
      -0.13933649480147278,
      0.2813505423644135,
      -0.3748492313990138,
      0.36272007604821965,
      0.2641774897295767,
      -0.3193308478344005,
      -0.10721802387503918,
      -0.15911511236509596,
      0.14752047240663108,
      0.15669411531436017,
      -0.1566941153143558,
      0.04008794680680335,
      0.02531142574946785,
      0.023384687074193125,
      -0.1292181114299289,
      -0.29038640589038905,
      -0.04579042788370271,
      0.3098174415741456,
      -0.015578092202887382,
      0.11146473453277098,
      -0.014960757542514112,
      -0.1634069537459311,
      -0.06317516372401298,
      -0.05932825567887236,
      0.46172144852111136,
      -0.30390508734024363,
      0.003183736677349055,
      -0.15262727646834065,
      0.025859096829518827,
      0.3921861442182272,
      -0.30927182803646336,
      -0.24335595965007348,
      0.5449006022884796,
      -0.10682499787190608,
      0.1247502948963999
    ],
    "intercept": 1.7480436559045907
  },
  "wide-insurance-no-weights-l2-tweedie-p=1.5": {
    "coef": [
      2.5829487985117763,
      -1.2902900957576162,
      0.02605999273807199,
      0.02245983021558883,
      0.003469736469630461,
      -0.004389659592395868,
      3.4455942840981024e-05,
      7.481950642052015e-05,
      7.481950642499859e-05,
      3.412078640873223,
      -0.18451802834189715,
      -0.014046536250085763,
      -0.1018228389701096,
      0.5456929397036091,
      -0.32704672853369054,
      0.08174119239217438,
      -0.007275827865216916,
      0.1843485352545849,
      0.142400816712677,
      0.07749770982229079,
      -0.42867249436408494,
      0.007514834423793841,
      -0.4757389137836628,
      0.07898084083589282,
      0.4917096891379405,
      -0.06789612032689409,
      -0.012047434938406295,
      0.009178365091084169,
      -0.3794208209508448,
      -0.18169090932523596,
      -0.24757405652501058,
      0.5710401918833282,
      0.06081789216246056,
      -0.24064711801738708,
      0.33636823408339883,
      -0.1823502927301674,
      0.2943375643602579,
      0.14770530708151663,
      -0.05432193355892274,
      -0.32251420507564893,
      0.5407853219272203,
      0.014951264899872238,
      -0.12870592210090162,
      0.22061652388720737,
      -0.4023271647246793,
      0.019808601697631427,
      0.11223014969733096,
      -0.05947655968415754,
      -0.05509802439995127,
      -0.051649476790412915,
      -0.015014746394820007,
      0.05165986844813623,
      -0.011901456398684004,
      -0.007040915854608384,
      -0.004463476480360054,
      0.027683864792019487,
      -0.00557309476888212,
      -0.004508646969819237,
      -0.001404352606041561,
      -0.010604014467340963,
      -0.0038299152597573733,
      -0.0017546946347584934,
      -0.0026157773004426557,
      -0.005189015347672858,
      -0.0009053097928575627,
      -0.0051000583478722945,
      -0.0019136333828189372,
      -0.0019237673877265983,
      -0.0045426852239852,
      -0.003942740418611273,
      0.15668386125572822,
      0.09679752190021473,
      -0.3486971991136631,
      -0.038522197431794046,
      -0.05731693964844969,
      -0.10999778661682277,
      -0.3012587236821899,
      -0.1253990381702587,
      0.11263918481651412,
      -0.3920157268495133,
      -0.00709325472461497,
      -0.4416693994083664,
      0.0018377499276124244,
      -0.17772834644414703,
      0.46181778172788096,
      -0.3228849650695047,
      0.06616379059004267,
      0.09153607262938109,
      0.04253634883568454,
      0.11346926863923647,
      0.05160987032325801,
      0.10800946997631478,
      0.6069447790699959,
      -0.4211755984331339,
      0.33718658540479096,
      0.42711792603471216,
      -0.2608551834230004,
      0.05766773294362015,
      0.20319160883301743,
      0.058665455684931866,
      -0.007487847798202517,
      0.18132923640242174,
      0.33321917784418026,
      -0.36760721474196395,
      0.2215040249993345,
      -0.019630086182885066,
      0.24694915816478982,
      -0.18444895516357668,
      0.11972457362537252,
      0.22522071671564514,
      0.09867345123006147,
      -0.30444348482818023,
      0.4014142531576496,
      0.010230502881837304,
      0.01607127454558989,
      -0.5222248351759445,
      0.36665020092084516,
      0.011336947984585595,
      0.04023714194767945,
      -0.10232096848314161,
      0.059876871122181555,
      0.024456199209833707,
      -0.11400596306813661,
      -0.0035579382641567196,
      0.021869865203333817,
      -0.04061923742532124,
      0.1811159424986452,
      0.03790641729265214,
      0.09073463243782905,
      0.023844078821328357,
      -0.6159060085438427,
      0.019664459031939606,
      -0.3226195913535796,
      -0.029160562657111,
      -0.01869027087596692,
      -0.0029802369392617,
      -0.007813204277652133,
      -0.007644770955933372,
      -0.006630886552334916,
      -0.025745419548645124,
      -0.0032768360290364854,
      -0.007035944351515552,
      -0.0010261884905306718,
      -0.000988594665156126,
      -0.0016007154720784832,
      -0.0010454294189415829,
      -0.0011544640481411887,
      -0.0016241203039746598,
      -0.17645716048046026,
      -0.07494443692617864,
      0.14707509132918137,
      0.02377491309478392,
      -0.026422724537676683,
      -0.30773891035876133,
      -0.24875343255736349,
      0.08614247728663475,
      0.22300970366720343,
      0.005184461013472222,
      -0.2158183977827743,
      0.09830167792972136,
      0.10509968784062546,
      -0.036856213319790054,
      -0.09842515067463789,
      0.07952837152952973,
      -0.021713631790427183,
      0.044485960906572426,
      0.02974667937673697,
      0.2638754939785618,
      -0.02246096245863839,
      -0.036749989128068775,
      0.39873247933176603,
      0.04740122695999235,
      -0.005796175441552051,
      0.12170163952302344,
      0.03698125676604851,
      -0.00016299640145867468,
      0.07950972683861207,
      -0.0007680465040065004,
      0.5211216489449132,
      -0.012670856861741043,
      -0.008304576439866618,
      -0.3308719616838928,
      -0.0028595485563123915,
      0.06009152923012926,
      -0.008273699214966138,
      -0.006563796719759558,
      -0.0006874799571102608,
      -0.3408525463656383,
      -0.002229005838353788,
      0.047689695829611085,
      -0.003853483036993429,
      0.03854391172303354,
      -0.20149343735548023,
      -0.0020908547311427653,
      -0.001780083609312874,
      -0.7750514134197914,
      0.019365000661756917,
      -0.0011087926612081832,
      0.07675358318970556,
      -0.0012597060708099803,
      0.21609482451351072,
      -0.0021406204522354745,
      0.17986550902306717,
      -0.017486836977773028,
      -0.001924442484842815,
      0.050703103316544096,
      -0.0026040811468603475,
      -0.0011124008805452673,
      -0.002491800978304676,
      -0.03412398117774844,
      -0.07230978616987986,
      -0.24667716372125384,
      -0.11542390058508752,
      0.08736804497361073,
      0.17447816749087502,
      0.20271051795400455,
      -0.1035576231452342,
      0.20691799895933163,
      -0.385882455859824,
      0.2865001812812017,
      -0.06231041043697695,
      0.06231041043697713,
      -0.05201735544784297,
      0.08132470371577306,
      0.18746140306537426,
      -0.050899547420203375,
      -0.0976699633600395,
      0.3614822078448811,
      -0.3322264613664233,
      -0.5324801943434444,
      0.26534858804666495,
      -0.04332490974341899,
      -0.01408346896106614,
      0.10773764134982622,
      -0.47005979189712144,
      0.15998387512798964,
      -0.034854096529081564,
      0.1390644248379693,
      -0.1969537382873286,
      0.6365247441618984,
      -0.0635535630169147,
      -0.18882176101509632,
      0.04026685015772908,
      0.09775041307987746
    ],
    "intercept": 0.7260253616606693
  },
  "wide-insurance-offset-l2-tweedie-p=1.5": {
    "coef": [
      2.4563512632980595,
      -1.2016744143300206,
      0.030095243829734716,
      0.010216208973382606,
      0.002212677833003507,
      -0.002902108522131611,
      2.6959515744168964e-05,
      7.452167940829179e-05,
      7.452167940821275e-05,
      3.0172558477663576,
      -0.14096903066383762,
      -0.10133174920015726,
      -0.07574749018482227,
      0.4769245243031186,
      -0.19827805207160232,
      0.03940179781730232,
      -0.0006143292586813143,
      0.12106445063727711,
      0.10804001917651272,
      0.017204288710056855,
      -0.30994563629351957,
      0.016976448155454724,
      -0.2856909457147611,
      0.11802402738614767,
      0.268724745309807,
      -0.05751911250491932,
      -0.01099323739452524,
      0.014729281791150458,
      -0.1334244801869007,
      -0.1615107078356463,
      -0.3074027073936843,
      0.4661691354014097,
      -0.015431347999764155,
      -0.11369842900673473,
      0.30814959894985083,
      -0.14899559647768124,
      0.22803451548321577,
      0.06413778879418101,
      0.0027849489935366754,
      -0.2770462479986289,
      0.346650958078255,
      0.00686550797279006,
      -0.08995689854577016,
      0.09085927023936433,
      -0.3186969245718695,
      0.020625261721742234,
      0.10417962355196705,
      -0.016088180577308528,
