{
  "intermediate-insurance-weights-l2-gaussian": {
    "coef": [
      -111.20521894741981,
      -152.6528071635375,
      54.52853585770037,
      243.44561328939196,
      -67.71472140609241,
      33.59859836995938,
      -1.167963150029963,
      43.74622721379118,
      -42.57826406375689,
      76.28986368392408,
      -49.518060923796256,
      -122.1163789239399,
      -77.11494418030917,
      -110.42615751546695,
      42.76509866819324,
      240.12057919139548,
      4.692227041338985,
      -15.771647834399667,
      187.66023249727286,
      19.82238045910878,
      166.6250198373367,
      -78.88500483320074,
      -19.151064084616134,
      -141.37777066636096,
      -57.01263940947273,
      26.317711562836564,
      -14.367548521969155,
      -73.85966900653355,
      -37.97662951484597,
      37.97662951484822,
      -14.252086451771847,
      -133.17294231995632,
      79.71147210500088,
      -33.516430110976216,
      -31.32715559042639,
      4.605772854968006,
      272.8363154575458,
      5.062777172716466,
      -31.05080603315493,
      -74.7592363886413,
      -30.09184913615635,
      -3.558522896030687,
      -148.51253354559344,
      -145.51041200420218,
      -36.279821412247884,
      71.403079735712,
      -10.589180138678879,
      -48.9737709517326,
      -81.93844866239495,
      -14.661755781769955,
      228.98490967934987,
      139.01047971973202,
      22.32805824693919,
      -32.55954344382447,
      9.556666742484405,
      14.471509943355215,
      -6.713409480632261,
      15.932161664703019,
      31.268084012809442,
      -2.0399165424168384,
      -19.228611801653734,
      4.605544915953341,
      -16.813077687963045,
      10.756031046409426,
      23.579965288419725,
      -13.441143480777228,
      -17.240070809721185,
      60.43392893431515,
      -51.51533865696248,
      -5.171850295968351,
      -16.08544573715392,
      -20.14029069059065,
      -55.76869123565465,
      -14.52557511671904,
      -1.6354273579744314,
      -23.91429628842255,
      123.72800012149548,
      -18.7961018704454,
      -10.646858493002833,
      45.454438132719766,
      140.92293255411508,
      -32.38473075988229,
      0.009354275199111564,
      -0.7743209194316814,
      -97.57826458333629,
      6.555118785386605,
      -11.606277887708856,
      -15.23938776641469,
      -9.569881979774449,
      -53.6997171586036,
      -2.993464068597529,
      -1.1279842535355817,
      -14.47370817429798,
      -3.4887723567137545,
      72.1659094630608,
      -4.959948619358198,
      -5.975358210513423,
      12.89366906493659,
      -2.6253427660828943,
      -7.717454389712348,
      -5.370314230327073,
      40.34872418582817,
      -0.986228065461097,
      13.052805548383837,
      -61.48758294376354
    ],
    "intercept": 1752.2457774382992
  },
  "intermediate-insurance-no-weights-l2-gaussian": {
    "coef": [
      -122.14098309541924,
      -134.31134117376266,
      43.89992834592229,
      212.9399332868249,
      -60.28657293868539,
      59.89903557511382,
      3.1989854970787373,
      52.487179015175144,
      -55.686164512249746,
      71.35658318579706,
      -51.7402712167416,
      -111.58301183617417,
      -74.85658697795012,
      -89.12789478106454,
      25.797792418039634,
      230.15338920808858,
      4.772027157918658,
      -33.50606950484422,
      188.9191193480777,
      30.195474323416413,
      87.7482018746724,
      -66.65091901141643,
      -14.682888716272307,
      -110.10323287337758,
      -66.22554234401068,
      39.25273952201497,
      3.008416843042243,
      -57.95529946130798,
      -19.813810066294653,
      19.813810066295705,
      -16.732773764764726,
      -151.20335985717676,
      33.56115130640782,
      -29.782366786602523,
      -24.82629604956273,
      14.269089876836611,
      284.262745793894,
      15.779576409555203,
      -21.71081599523041,
      -67.28824813121938,
      -24.923263691212963,
      -3.03893197003167,
      -155.3411162427865,
      -123.79041855966143,
      -19.286177269432194,
      60.40767616962596,
      -8.25151256819051,
      -43.03151395612178,
      -83.32553949692881,
      -12.049014138148449,
      208.7458626025291,
      147.97624367805855,
      2.8462288753926765,
      -16.81171315171119,
      -20.984025283402843,
      13.828690468625528,
      -2.870808019279721,
      18.51529295850975,
      37.427331334480776,
      -7.162968654625934,
      -15.776657372248565,
      3.8411554212131045,
      -7.656034243218724,
      11.222440198090707,
      -29.887209496417803,
      -12.32504306157256,
      -2.652284615441468,
      59.872785462485616,
      -45.055742296120556,
      -7.341510886581321,
      -15.190554564655345,
      -19.84519433722006,
      -52.82614675188656,
      -10.11044843129782,
      1.3801894368119154,
      -21.969812517940984,
      114.65040163933894,
      -15.56449740332368,
      -9.090428414501858,
      49.27244640603118,
      135.29555636879462,
      -28.693544210011222,
      0.47341311234278155,
      -0.7113036073672684,
      -85.51867545752674,
      6.9552046295831484,
      -9.770760693811953,
      -13.74002895094731,
      -9.669880525972188,
      -45.19675503987817,
      -4.1856616459625915,
      -1.1462513683058728,
      -14.460491308793138,
      -3.2796705473091428,
      81.73859732053862,
      -5.254917797370817,
      -5.085306667457044,
      18.436205353413758,
      -2.604975785615963,
      -5.088503802969578,
      -2.2504415660298087,
      18.37264709513836,
      -0.8850059859077123,
      13.052863646772543,
      -50.4836795412025
    ],
    "intercept": 1695.10309245016
  },
  "intermediate-insurance-offset-l2-gaussian": {
    "coef": [
      -111.08871598336255,
      -156.0390267867859,
      52.67942952521976,
      256.2238821828064,
      -71.07640652372142,
      29.300837585824844,
      -8.77601407024099,
      58.74130713112026,
      -49.96529306087654,
      72.43642004305605,
      -40.1395574248008,
      -132.25282573206917,
      -95.07301467584533,
      -118.94817046798329,
      56.1791158349004,
      257.7980324227261,
      6.709866434669384,
      -28.289076203518324,
      177.32718625956852,
      14.390828487771866,
      222.63415034123196,
      -67.15930552210966,
      -17.618221460628927,
      -153.19350761641883,
      -69.13638751029175,
      15.746825463545907,
      -18.76180630790719,
      -75.94068593125866,
      -35.53905325672864,
      35.53905325672562,
      -13.302944132517172,
      -125.00990225503953,
      85.12752599919644,
      -43.76415085012537,
      -36.077517211140844,
      -10.656180080483782,
      274.88714408086923,
      5.241977265185333,
      -28.13326680216988,
      -85.09917175462087,
      -22.060908503989545,
      -4.629811101367501,
      -155.47576484867966,
      -146.05472119037617,
      -45.03364516121062,
      76.63705184534157,
      -16.050279737115616,
      -49.5134537859441,
      -84.43944283146973,
      -18.72265442218115,
      234.16109528570144,
      162.9380967927483,
      31.72797926685791,
      -29.99273947454653,
      11.019322286720517,
      12.409181332659104,
      -4.451541055250918,
      23.879987600461938,
      33.73367818742595,
      -1.7582327936853683,
      -20.049896718291514,
      5.477490564837374,
      -11.349339775983333,
      12.61653226335735,
      21.255026585272013,
      -16.35780924710313,
      -7.559298421774784,
      59.687700926700366,
      -53.71461991999019,
      -0.2899178409030204,
      -17.409693024990613,
      -22.788484519224056,
      -65.33610530912021,
      -10.711078324332165,
      -0.6525932151872854,
      -28.817496374886645,
      107.43215978491038,
      -13.376010416452717,
      -11.15363142655752,
      46.47453791857353,
      140.53555500597875,
      -22.809816700704534,
      -2.4009137091936497,
      -1.845479170581296,
      -99.62535816910831,
      6.528739919879527,
      -11.935491319446273,
      -14.70076251776893,
      -10.866419029096361,
      -66.66286718708997,
      -2.6801060073310476,
      -1.3192670778786217,
      -15.029784134882902,
      -4.209601557945937,
      58.38314832807542,
      -4.2651477372216915,
      -4.818736672193669,
      20.29608560445464,
      -3.053386767440491,
      -11.811378647522131,
      1.5440875022936966,
      43.62387352995545,
      -1.231957909854692,
      12.769729452422979,
      -52.624614094993014
    ],
    "intercept": 1707.3949168216616
  },
  "narrow-insurance-weights-l2-gaussian": {
    "coef": [
      -110.2157483887411,
      -152.55289456993643,
      53.52845826748079,
      244.76937943359098,
      -69.22517610470314,
      33.69598136231153,
      -2.57997855903009,
      44.405789915539074,
      -41.82581135650765,
      74.88058762912398,
      -47.94707189915375,
      -119.32484821820769,
      -75.57821176838833,
      -111.90977417403269,
      41.46272191527204,
      238.4165965153887,
      3.883771954564852,
      -15.464469810587266,
      188.0444691779782,
      19.732098075323737,
      165.9724605611591,
      -78.27968424445342,
      -18.85384427960488,
      -142.0151690346202,
      -57.61021340204766,
      26.809568476642784,
      -14.102473556265991,
      -74.23274196352232,
      -37.72503471202246,
      37.725034712024396,
      -13.794756937761994,
      -131.66867595925794,
      79.80991534695733,
      -32.70855086643985,
      -31.925343591958082,
      2.5353727964267465,
      271.81968211870526,
      5.2304773990069275,
      -30.78329131886733,
      -74.7417076270461,
      -30.197510571970536,
      -3.5072362695964125,
      -149.84967982986387,
      -146.98187244890144,
      -35.952283702911735,
      71.66670178355893,
      -9.888879619473313,
      -49.29986540381221,
      -81.73801899519304,
      -14.620158304701777,
      230.6384691486714,
      139.51441070032644,
      22.648045216342574,
      -33.40584632898182
    ],
    "intercept": 1805.5671815644728
  },
  "narrow-insurance-no-weights-l2-gaussian": {
    "coef": [
      -121.35738046821443,
      -134.32148283430593,
      43.30295971268529,
      214.00675782452626,
      -61.32188600247162,
      59.69103176777861,
      1.6851948688147327,
      52.790303028090754,
      -54.47549789690563,
      69.45116006482725,
      -50.731161233764844,
      -107.63117916822799,
      -71.20862843890909,
      -91.45199013728156,
      23.30326840317932,
      228.26853051017477,
      4.641628421831917,
      -33.16131408855252,
      189.1165561244698,
      30.066155659421607,
      86.58788415947012,
      -66.13211920601779,
      -14.591948487111738,
      -110.61820189397876,
      -66.69958964115901,
      40.21235200236723,
      3.423573591982836,
      -58.203348220892686,
      -19.5258437180055,
      19.5258437180039,
      -15.991661506379176,
      -149.8507749680059,
      33.55979068174479,
      -28.97447622322007,
      -25.672823109032713,
      12.41887228174552,
      283.24287009812434,
      15.868659960037307,
      -21.23172306752545,
      -67.59227521893777,
      -24.969155970000422,
      -2.9801163637685733,
      -156.74631254385565,
      -125.20558388103206,
      -18.80709296327024,
      60.67137694750539,
      -7.826866102024454,
      -43.274689756091576,
      -82.74149278388451,
      -12.030780466709531,
      210.3315865033917,
      148.58947378207603,
      3.2215331627316357,
      -17.70920221681821
    ],
    "intercept": 1690.9093621129798
  },
  "narrow-insurance-offset-l2-gaussian": {
    "coef": [
      -110.31972617027652,
      -155.94097658438778,
      52.037203259741716,
      257.39687200714854,
      -72.35501938612688,
      29.18164687389765,
      -9.900456789811967,
      59.1107351753102,
      -49.21027838550133,
      71.5452053749604,
      -38.85476608280576,
      -131.19664655870594,
      -94.00819880658354,
      -119.8388240123486,
      55.5780376360484,
      256.77519244943215,
      5.926997017585639,
      -27.881328723685666,
      177.63443068500672,
      14.415599365628093,
      221.99193702991977,
      -66.39666680417452,
      -17.369850821251184,
      -153.61604524372984,
      -69.79272253332809,
      16.117781203708674,
      -18.661051591562938,
      -76.44208256653292,
      -35.39101223522979,
      35.391012235224736,
      -12.996021145529443,
      -124.08362032406562,
      85.15477803956338,
      -43.033248323370465,
      -36.78239763876578,
      -12.19178167089279,
      274.02815157354644,
      5.436788281569587,
      -27.971073028264215,
      -84.98217748475068,
      -22.06601004619969,
      -4.571025434158337,
      -156.818302695115,
      -147.52843632101403,
      -44.559634124281665,
      76.98279017771844,
      -15.56541867971828,
      -49.817399429710704,
      -83.82592634952462,
      -18.743863147294917,
      235.50303963413378,
      163.38129001836242,
      32.05347697222985,
      -30.815518461129216
    ],
    "intercept": 1760.3966411541332
  },
  "wide-insurance-weights-l2-gaussian": {
    "coef": [
      -709.1634688293049,
      -3.6965451379541876,
      0.0023035083779292635,
      0.017192055593995937,
      0.7926398886806022,
      -709.1634688293041,
      -30.451755065621334,
      -12.076243379616752,
      51.90718391682428,
      -24.979309130520733,
      12.4651811633951,
      3.134942495503924,
      -55.71374563549785,
      8.991890243510156,
      -18.049416007074733,
      -21.223075235842476,
      -0.3147067313401259,
      35.849843958233336,
      5.40363571873047,
      1.1948434668990418,
      9.98075494488878,
      26.076113811420253,
      10.80976437469784,
      -3.0059029086641087,
      9.81546686176425,
      -9.034130317727806,
      -26.455386700547788,
      40.110473662461004,
      32.214290945954474,
      1.8002013559442052,
      4.5265616291868325,
      19.738738894312924,
      14.197869932255102,
      1.6563779669286913,
      6.5710218217730825,
      19.994122672275484,
      -58.21469643809735,
      -22.948671381408943,
      6.042340876932717,
      -6.862009220911453,
      -72.02813612876618,
      11.701210280689741,
      26.440697846727893,
      -0.28139115766013567,
      1.2440461197050392,
      -0.31589935258478485,
      -0.7314108552166337,
      -0.2541291271671709,
      -0.7505317416681136,
      2.7348396649753743,
      -0.19403706126477008,
      -0.520846282703139,
      -0.24682697436228018,
      -0.018800917896588387,
      -0.2698466750580172,
      0.33008015888023484,
      -0.05743073839861946,
      -0.11485247130243992,
      0.3585308957530888,
      -0.1778380438235675,
      5.407941678576129,
      12.542748967920588,
      -7.645248801495631,
      7.39190450594729,
      -42.28416504177645,
      14.828575581819853,
      10.158257994166147,
      -1.8124245166228585,
      1.234861084742725,
      -9.97966540023119,
      -0.3077473062041055,
      2.944981931077972,
      10.524208103781941,
      12.924007340557273,
      -21.27430162127415,
      17.66098989661263,
      18.160493760230942,
      -2.205349184119102,
      -53.866161474824075,
      -2.892040273744098,
      -6.665408258207462,
      5.044391438240882,
      15.046237973342892,
      9.274561912433734,
      31.75083984878077,
      -1.4380780402240587,
      18.662508315255664,
      5.3731632250399874,
      22.57843352665061,
      22.511288090478455,
      -35.624590434753685,
      -2.126769233724835,
      3.357817761629364,
      11.220584347346405,
      -68.48143342131705,
      -19.610637055477326,
      -14.761644350852913,
      1.8739165775012698,
      27.050864249154884,
      -2.7035389206683678,
      -8.883201506647449,
      0.3854297607659903,
      -99.93828775707968,
      6.687998569002275,
      5.58981825065722,
      0.4861202222487006,
      38.68850172539453,
      9.97350297586243,
      22.687268011330662,
      26.705101248637284,
      0.9379852299966,
      -13.369190188315349,
      -23.23490454524031,
      -2.0273905212127388,
      3.6331450435251784,
      17.702158222609096,
      13.448119301902274,
      1.6344945857489843,
      29.29625778683018,
      -49.108223062572534,
      20.037030650578686,
      3.461481767605751,
      1.322474453372397,
      1.067590916686955,
      0.5022518224994413,
      0.03293703140760048,
      0.7952113995794907,
      -4.855713238068167,
      1.5710633366283542,
      0.24554738290379471,
      -0.06194995621541253,
      -0.9788731389498562,
      -0.16613212128206384,
      1.9988636779036115,
      -0.1108621139071425,
      -71.0604664071392,
      -2.336486393704955,
      4.9984300680783305,
      5.777132439871134,
      15.271308254435898,
      -6.5258861638979235,
      2.0119639411878025,
      -2.218764647728332,
      8.627014091843588,
      3.32414020971593,
      -81.74886232627745,
      -0.5441710926505092,
      19.738844375784783,
      -1.101931969434722,
      1.5422862629377236,
      -6.6298008089944185,
      -2.417489989514657,
      -1.9987199313315034,
      -3.150764707358255,
      5.088001890949901,
      4.024331239657921,
      -0.9964675057843039,
      9.960843061598132,
      0.8387404403380136,
      0.3949571608214141,
      14.091867222234859,
      15.262960558615399,
      -0.28021498586012694,
      1.8232368533831638,
      0.3271554401874815,
      2.0894863177825114,
      2.0483935790068193,
      0.6799122263669921,
      0.1431809509446423,
      -1.469104561074939,
      9.020663944727135,
      -2.3466755079282935,
      -0.13213931202590168,
      -2.3001079829243465,
      -0.03698124316444247,
      37.14157952239047,
      -1.6596508358525888,
      0.20373096192275533,
      10.624801850851942,
      -0.4399852124863765,
      8.7138420369672,
      4.606204591455032,
      -28.447764372518513,
      0.026965687630551304,
      2.4417453235076096,
      16.024879470561093,
      10.915075587143177,
      1.6400480291899884,
      -0.16714622222132347,
      -0.3692583836140827,
      0.8761611046259358,
      7.234701360409829,
      0.1968981454108366,
      1.3557396340019752,
      -0.2830051001436298,
      12.883110410013972,
      1.2015182174762087,
      -0.06873515969550267,
      -0.19232293404053916,
      -0.11671743941929302,
      16.613385073069157,
      1.0710561105488963,
      0.570634536539672,
      2.281212319294089,
      -0.4818239271917561,
      -0.01687051189103698,
      -4.483054543625746,
      -0.2111782751700819,
      -0.08058680773848388,
      -0.6505913571244748,
      3.137002055980819,
      -1.1721583952807273,
      -0.14060297372324274,
      -42.13927826537194,
      0.10513709678825206,
      -0.04305841069491647,
      0.6804354913771865,
      0.8281095169176733,
      -46.02499168236086,
      36.23734454305405,
      13.532337409104008,
      -103.994040987399,
      6.472979466953403,
      7.868647798736798,
      32.525624140157134,
      -19.15495702602376,
      28.440618541493645,
      26.87888658968341,
      17.21755120656447,
      27.67658044441931,
      -27.676580444486188,
      -37.52439885874625,
      -69.5679672154259,
      2.761923521654045,
      6.556679229998877,
      19.980758352387994,
      67.31509893977774,
      18.00297285670366,
      15.282100640964215,
      2.3603992653458206,
      2.0383993891511634,
      0.3317547938847322,
      -28.829082110567782,
      11.934019710019697,
      27.300640695065056,
      -2.273964179990524,
      4.633837863590538,
      0.7935458262423659,
      -7.314757725412758,
      3.1389738730345855,
      -41.61224000625786,
      32.79804551089197,
      -28.1067403723535
    ],
    "intercept": 1748.4426270323297
  },
  "wide-insurance-no-weights-l2-gaussian": {
    "coef": [
      -574.7873059725649,
      -8.851267160425612,
      0.0005334901306485976,
      0.010645329165112303,
      0.8752325440008141,
      -574.7873059725645,
      -19.662888271013987,
      -9.123180053988065,
      27.064800667622354,
      -7.564528218838491,
      5.4154354752662455,
      3.8703604008246275,
      -24.72855784854872,
      3.2669111187142965,
      -10.922673810308522,
      -19.10897725934441,
      -0.43099521108435146,
      21.225748154135427,
      2.403784395490531,
      0.6269751554014749,
      7.149434991506762,
      16.186111890658918,
      5.050342305314038,
      -0.7181038820631559,
      5.612686829450818,
      -8.889824978167615,
      -26.227024529919206,
      24.689541722801174,
      15.094194390857272,
      -0.3628053546946816,
      8.417350251366045,
      9.156626747663775,
      9.496616592650739,
      -2.579556482343377,
      4.553783850900272,
      13.182809285998694,
      -12.518525409069708,
      -12.662353004312227,
      2.1588927680107495,
      -4.302845348133576,
      -46.81763107106673,
      6.611588945039653,
      15.424387842296557,
      0.41070247493801965,
      0.7816948140971414,
      -0.944598903254305,
      -0.07722762762153665,
      -0.020604880076992245,
      -0.29705749854910946,
      0.18499509092096283,
      -0.016803011436055164,
      -0.2372151243920538,
      -0.11291157519683398,
      0.011821352231308535,
      -0.013961597332323404,
      0.18664079445734974,
      -0.0062526104075798054,
      -0.04079929075419049,
      0.23809846602640103,
      -0.08443392309527997,
      2.848345217067018,
      6.190014190606725,
      -4.307991466408475,
      4.110245450357916,
      -31.18083107513196,
      5.915178803838661,
      5.256987435562506,
      -1.004003803179278,
      2.2373622483592093,
      -6.609724539694739,
      -0.37546450701125944,
      2.4085121389468767,
      5.404400538211045,
      7.950111603561692,
      -11.773660278182238,
      13.002004690733324,
      11.947001847666414,
      -3.2431837895606104,
      -29.0650803957147,
      -1.3684774438666543,
      -3.135952068949271,
      2.693737218461594,
      9.811752866501283,
      6.401659248332222,
      20.249807674743547,
      -2.578951885777538,
      11.812298138431435,
      -1.95843481879211,
      14.52617058616918,
      13.034987769349742,
      -21.430912692065196,
      -0.3585909746418042,
      0.9763505914196953,
      6.253137061469045,
      -11.32671908582958,
      -6.549685058088347,
      -10.488694779800863,
      2.658157685296955,
      10.104853426357822,
      -2.3595465590779803,
      -5.6957783680516165,
      0.1363323071832756,
      -65.26468589775799,
      3.4970316369330123,
      3.306606058501863,
      0.6180960526818307,
      23.98018016657557,
      6.360671071191077,
      11.021782984465633,
      13.499221417923907,
      -0.4453198919037957,
      -7.430752396961601,
      -15.42264200405382,
      -0.11019235498907455,
      2.3635225790556875,
      9.040717686354773,
      7.59055892917321,
      -1.199208958564396,
      16.670479207013802,
      -34.624596664187244,
      12.257010444737487,
      2.600029139704786,
      0.9146278051854745,
      1.0807071436068334,
      -0.04272105055602785,
      0.4272306515429467,
      0.24689725127045029,
      -3.3515282725592495,
      0.8747335481532567,
      0.13510347627788574,
      -0.0016410148155604372,
      -0.41038243042330735,
      -0.09425347114921606,
      0.8429522023907869,
      -0.04796019374188734,
      -29.21268340472008,
      0.7436904639286629,
      3.046829454062839,
      2.4181974324067412,
      8.759195402192745,
      -4.013013420468697,
      1.8208208086711124,
      -0.5157415008739512,
      5.7772140001220675,
      1.8319517775502552,
      -49.334665573892956,
      0.49382547475469857,
      11.05609942438447,
      -0.08925985264122999,
      2.171272958558503,
      -4.3649667824145695,
      -0.8794025462382972,
      -0.31026242753139505,
      0.8351552699090131,
      2.224220114965642,
      2.3628653624468097,
      0.7868177795615452,
      9.30169169746195,
      -0.4077867336697356,
      0.3127952747588063,
      8.494349331197844,
      8.840110249752925,
      -2.119096744511968,
      1.5139622656035527,
      0.4677289832974133,
      1.6691369538109209,
      1.2276876749250856,
      0.4532510146322235,
      -0.053335209682535654,
      -0.5610078786998867,
      6.737930324768054,
      -1.4910078693999977,
      -0.03955340317435672,
      -1.3045499282226718,
      0.042099101021562904,
      21.946995330364555,
      -1.236813409290066,
      -0.0265084814650493,
      4.467102095288189,
      -0.15027251121206808,
      3.1409952772084573,
      1.1919800938152758,
      -18.651405037684004,
      0.0646769796009852,
      1.5216175617894558,
      2.714363367508629,
      2.9266678758793154,
      0.43083491430826887,
      -0.07461642424064813,
      -0.1471557410048813,
      0.1806874600443034,
      4.447812213291728,
      0.19275267412303979,
      0.5379750850027784,
      -0.12651110089683082,
      8.579031553794085,
      0.3028666147104746,
      0.017792667015162456,
      -0.07738040779701284,
      -0.0635248414708924,
      9.45050937809557,
      0.6727200182842812,
      0.023932242764708126,
      1.747240352938093,
      -0.21663991603469068,
      0.03597639883481137,
      -3.524999634980777,
      -0.06692975661962891,
      -0.026760578620446014,
      -0.26264399437458574,
      0.7423384565530098,
      -1.5793867814619986,
      0.039506157265848524,
      -28.536099397671332,
      0.07465024278770353,
      -0.008665781229229065,
      0.432511038842675,
      0.20021242722156762,
      -17.13161184288995,
      24.877278610641373,
      9.548777013417181,
      -76.4093429459058,
      1.4895810404003098,
      2.6245687921219787,
      20.385761390095315,
      -11.320099225717126,
      19.662125439431588,
      17.234446305939915,
      9.038515422341046,
      13.210461224112601,
      -13.210461224234116,
      -28.90680665454129,
      -41.91921977117604,
      3.5964381677477872,
      4.844619120604964,
      11.727362782695174,
      40.031483667162234,
      10.353862338227145,
      6.116140782628831,
      2.780726446090866,
      -0.4894637146355222,
      0.4752968171659062,
      -19.692374723212705,
      5.629542924818034,
      15.90828222438484,
      -4.745876185124855,
      4.110706264434701,
      0.3791221134904878,
      -9.451801752836243,
      2.632120213699235,
      0.4279387893304415,
      16.44104669248748,
      -20.24914654356451
    ],
    "intercept": 1327.4152369943943
  },
  "wide-insurance-offset-l2-gaussian": {
    "coef": [
      -0.17842186407994912,
      -0.001682893105258628,
      -6.825011204008182e-07,
      5.204820864538643e-07,
      0.9999973421990148,
      -0.1784218640806873,
      0.000655970895947394,
      0.00019351943588095415,
      -0.0014828830110311256,
      -0.000653315206533152,
      0.0007651877523228873,
      0.0005215200707268819,
      -0.0005162455934865621,
      -0.001853891006114246,
      0.0006161741359576671,
      -0.0006451062554673896,
      5.6513943593692276e-05,
      0.0007613721411298932,
      -0.0007102649847538468,
      0.0011694727985414142,
      0.000873428774635623,
      0.0007303694029117506,
      -0.0011578404360957056,
      0.0006760170184709046,
      0.0015151477645469604,
      -4.34571136488837e-05,
      -0.0037506032102654907,
      0.0014430846681469675,
      -0.00040492121284299164,
      -0.00036174363767104507,
      0.0006407758227066178,
      -0.002184674364219751,
      0.0009640225953210827,
      -0.0016443687701350373,
      0.0005581392161541955,
      0.0008167592264108322,
      0.0006018472405011122,
      0.0020752816518080815,
      -0.0010216002302095547,
      0.0001850575435483926,
      1.0195081846071936e-05,
      0.00016388823197805065,
      -0.00023344735246870504,
      0.0007050234218759176,
      0.00013142237376586682,
      -0.0007785115470191221,
      0.00027303664185082877,
      0.00011453339605292148,
      0.00010301830859862491,
      -0.00020718418722276812,
      7.405897372541063e-05,
      4.4108483796328904e-05,
      1.9385146196220005e-05,
      1.257394440483157e-05,
      7.824063099277853e-05,
      1.848619978624884e-05,
      1.728773887794579e-05,
      2.3706407798632136e-05,
      2.627156670488356e-05,
      1.5159344630326977e-05,
      -0.0005404749587289365,
      -0.0007402675780363498,
      0.0005613300455859917,
      -0.00019741585767367657,
      -0.0029599982413122403,
      -0.0005885406037067808,
      -0.000856571542709951,
      0.00039732017613148786,
      0.001020581144583639,
      -0.00032455442000649764,
      -0.00047641664536340325,
      -0.0002497006637983235,
      -0.0004403564784377356,
      0.0013148091975945639,
      0.0012523887778785787,
      0.0018560848784382493,
      0.0005946418716248104,
      -0.000858148182562819,
      0.002098378742800489,
      -0.00029232251218892915,
      0.000928204638853593,
      -0.0005341454982521814,
      0.0004588620804803877,
      0.0004999166324329093,
      0.001662075740631875,
      -0.0011964972839655667,
      0.0002086158779085079,
      -0.0017932591635207414,
      0.0010460312445147247,
      0.0007439375961817582,
      0.0013590643555427683,
      0.0006841012270843638,
      0.0003590057841114702,
      0.00018869028623919238,
      0.0008570464977632763,
      -4.344722591214222e-05,
      0.00017617943879684328,
      0.0013142542897585817,
      -0.0020269020234514167,
      -0.0008030253078604853,
      -0.00037567435738540637,
      6.558460220626969e-05,
      -0.0011448686326727938,
      0.0001976408828114528,
      -0.00017782354704034666,
      0.0005698977047858006,
      0.0007859670994354637,
      0.00027090485331674943,
      -0.0009464835759607725,
      -0.001693387652195572,
      -0.0006779964237906382,
      0.0007103197130752775,
      -0.0002981740506398807,
      0.0008957772035536111,
      0.0009245453874331338,
      -0.0008919228408476921,
      -0.0001901513515520962,
      -0.0015048220301682545,
      -0.00046315678971050293,
      -0.0015597774599244445,
      0.000439953159137858,
      0.00044902535028332717,
      0.0001501366804309603,
      0.00034071634207791956,
      -0.00036099867531173477,
      0.00031805025029653914,
      -0.00016692738206378454,
      -0.00018245208325316092,
      -7.922715541778611e-05,
      9.368221819235678e-06,
      3.118391040735421e-05,
      0.00015166209146397862,
      4.7782507049382344e-05,
      -0.00031750785448141913,
      1.3359555766122394e-05,
      0.005549115573250003,
      0.0014000447127182425,
      -0.0001466565264245767,
      -0.0010505138954255535,
      0.00033927111460124786,
      0.0002569878436136975,
      0.0004127948998716712,
      0.0007466266499527854,
      -0.0002161835555789829,
      -4.139273350917591e-05,
      0.0011378371385943747,
      0.0005874848033011383,
      -0.0013591953884644022,
      0.00036535110025963515,
      0.000574651535564788,
      -0.00018693599042191568,
      0.00030653380046704194,
      0.0003859837186604804,
      0.0015536455568311027,
      -0.0007908007380869568,
      -0.0001287067909771309,
      0.0009080951850127269,
      0.0031110884206767947,
      -0.0009703641443811575,
      1.640618191417206e-05,
      -3.882755657602192e-05,
      0.00046326554461029136,
      -0.0018726434573379661,
      0.0003530168460320221,
      0.00017259989643122808,
      -0.00048073546229527496,
      -1.4791297803216323e-05,
      3.6449659317059285e-05,
      -0.0002547226836817287,
      0.00016151364188695866,
      0.001701352221139186,
      -0.00014492543766847306,
      2.2534030478231604e-05,
      -2.674392588996423e-05,
      8.552033292795243e-05,
      0.001505318050047804,
      -0.00015845129007281328,
      -0.0002269025338346696,
      -0.0008560445679360929,
      5.0434015079112464e-05,
      -0.0010850404786142468,
      -0.0014513600829532303,
      -0.00039638565505792904,
      2.5850860556172042e-05,
      6.624819035341462e-05,
      -0.005434304032934332,
      -0.0005221032986379177,
      -0.0005162833308493761,
      1.1760920532670702e-05,
      3.255934453990882e-05,
      -0.0003142070586589212,
      0.0008346877198875397,
      4.4654234917491184e-05,
      -0.00029456715631099635,
      2.0057612008552965e-05,
      0.0002664701280443323,
      -0.0003053964094377747,
      3.832782477266713e-05,
      2.018992775551127e-05,
      1.868754805963577e-05,
      -0.0004802577474342817,
      3.1341591320669266e-05,
      -0.0003149221242528272,
      6.140273949546744e-05,
      3.5976380199298676e-05,
      2.66764904373304e-05,
      -0.000561158671120597,
      3.116758315977349e-05,
      1.850055481871745e-05,
      8.995252383129144e-05,
      -0.0010737595902863676,
      -0.0007411365408609558,
      0.00015999884149432375,
      -0.0013363608910224706,
      1.8399553774415997e-05,
      1.915434632691423e-05,
      3.276083138553283e-05,
      -0.00031596715442401525,
      0.002365579304283929,
      0.002453087661940095,
      0.0006535641951374209,
      -0.00644777156204254,
      -0.0024307504758438923,
      -0.0002012838983409457,
      0.0002804398844260231,
      0.001328630098715205,
      0.0018284779150699194,
      0.00020454454326467993,
      -3.4517712710128445e-05,
      -0.0008591782756039623,
      0.0008591783466019678,
      -0.0013770953440217623,
      -0.0007459665513738916,
      0.0014199840401309153,
      0.0006920029499030033,
      0.0019915614820659793,
      0.00032814404113911305,
      -0.00022632236878754978,
      -0.0005501209255286787,
      0.001521295016840485,
      -0.0014603031349430951,
      0.00017775093690445415,
      -4.7488843079675595e-05,
      -0.0008372302515550468,
      0.0016101382247326883,
      -0.0007077169475639445,
      0.0008829363035572678,
      1.7739391057754115e-05,
      -0.00045787375951671636,
      0.0005635108544182303,
      0.0008791839680120817,
      -0.0021960021829645782,
      -0.0014781269321854625
    ],
    "intercept": 0.3433324479408384
  },
  "intermediate-insurance-no-weights-l2-poisson": {
    "coef": [
      -0.12099098082354051,
      0.04540551483740341,
      0.09670837907878213,
      0.11494275818886986,
      -0.0824250750851775,
      -0.05364059619633748,
      0.3800312051220355,
      -0.17680257894081755,
      -0.2032286261812179,
      0.0013597186808617023,
      0.012408689137524272,
      -0.031079051821617142,
      0.013641894875142632,
      -0.09213174185810205,
      0.13675094064566606,
      -0.04095044965947556,
      0.0097553091804098,
      -0.05716745610674946,
      -0.021385567431797408,
      -0.004123221757925371,
      0.24285781671200168,
      -0.019626749244720586,
      0.0007198780015432778,
      -0.034670123090367766,
      -0.08818998561178708,
      -0.01739919908619089,
      -0.04221828984800251,
      0.04120289746399595,
      -0.1745836250080994,
      0.17458362500809946,
      -0.01844037172484317,
      0.013164656588566448,
      0.002892039694397612,
      -0.00948851567803902,
      -0.018663603633103442,
      -0.1373891505485538,
      -0.00438989282449812,
      0.03682954961444842,
      0.0051610172489365185,
      -0.020686316433963414,
      -0.007052706478628577,
      -0.0036100204956654256,
      0.02423227997147518,
      0.08664345807650889,
      -0.025268552658989727,
      -0.048805275894286855,
      0.08556351258090845,
      -0.000677766825345546,
      0.0667676752645577,
      -0.01667758895285396,
      -0.006521172179096849,
      -0.009576521925624103,
      -0.012447104511150322,
      0.0010258206234152114,
      0.012880032411171525,
      -0.028474236199717916,
      -0.010671917310163108,
      -0.001666689835204374,
      -0.01419963877979144,
      -0.0136476912947697,
      0.0057322904916604165,
      -0.020094868600974244,
      0.00070625818316677,
      -0.006883304910640921,
      0.11418864483542084,
      -0.0003685132425448417,
      0.013043958991428135,
      0.007845724809972265,
      -0.03786965191186378,
      -0.002106257365463816,
      -0.0036903389766120434,
      -0.002275959891873692,
      -0.020014586196069814,
      0.006820076417650336,
      -0.004078775911850606,
      -0.006230384446495487,
      0.03441606065029279,
      -0.0021055380933512825,
      -0.0011105687036077243,
      0.0030674648044092634,
      0.006114398923294864,
      -0.00360563572463216,
      0.0005413863345667264,
      -0.00017570240881118263,
      0.016963539628737433,
      -0.0019296330112353658,
      -0.0014954860371528226,
      0.0005242159118196846,
      -0.000651648213632405,
      -0.02306524175227705,
      -0.0014759001397955957,
      -0.002366497569192472,
      -0.0007424934459462606,
      -0.014372866247537995,
      -0.0007493142096002055,
      0.0005050356329337265,
      -0.0005315587622233636,
      -0.022658454946839636,
      0.0019779092418200834,
      -0.0008643044904203923,
      -0.0005418541401351163,
      0.025388515502081942
    ],
    "intercept": -1.9480186212943047
  },
  "intermediate-insurance-offset-l2-poisson": {
    "coef": [
      -0.017075107812028808,
      -0.011271905838913642,
      0.009910407013661497,
      0.010868892212624938,
      -0.004932320468036768,
      0.012500034892692774,
      0.058324692736029575,
      -0.017498979425244192,
      -0.040825713310785376,
      -0.003107712812079972,
      0.0019144296054411259,
      -0.013365503033566348,
      -0.012021477784418528,
      0.0075112467676014165,
      0.022970958819717023,
      -0.0039019415626947327,
      0.020607569633451225,
      0.006105035726026985,
      -0.002350691757194746,
      0.001260652727721548,
      0.03402698667305614,
      -0.004211729491902364,
      0.0021356189840603555,
      -0.01641467761279333,
      -0.015353352135410107,
      -0.009207404469976754,
      -0.0001294157534833778,
      0.004138977109895649,
      -0.0021802208751308845,
      0.0021802208751308724,
      0.04691991686716515,
      0.008715411906016678,
      0.002206039203695012,
      -0.002812972492032961,
      -0.0024268739978365963,
      -0.011449131475687222,
      -0.0016566255188344861,
      0.004167232410408767,
      0.0011428314030494124,
      -0.006572386490428495,
      -0.0010440067260932707,
      -0.0004768578257184037,
      -0.0033433405202405835,
      0.006132659451290602,
      -0.004397714619624087,
      -0.009323054178262347,
      -0.002264209902520069,
      0.0019031933453593866,
      0.00785134102896971,
      -0.0020061987188104706,
      -0.0030063113423663824,
      0.018546853618487694,
      0.000114121441178109,
      0.023507676917780166,
      -0.011683430116793911,
      -0.0038591273181657814,
      0.0003520869503017093,
      0.001036473939052418,
      -0.00019712189629104998,
      -0.001117046752231297,
      0.003209668284408792,
      0.000295079784664941,
      0.0048701555642982185,
      0.0005281284716142342,
      0.003297618000306167,
      8.089619159129404e-05,
      0.012981159180592934,
      0.0012981507922238465,
      -0.0036465058856829245,
      0.0007916523080138413,
      -0.0010943482620494284,
      0.0006785459552605008,
      -0.005146677018905754,
      0.00460086838978782,
      -0.001136531398776803,
      -0.0006160437096880083,
      -0.0032838676377235317,
      -0.0007940179412086071,
      -9.102480526289558e-05,
      0.0027579288981808303,
      -0.0007877141938478999,
      -0.00014869981051338833,
      0.0019088769114735424,
      -2.2210847617803486e-05,
      0.0009666143296130523,
      -0.00037000220867882766,
      -0.00035994745298284194,
      0.0016152064001824793,
      -3.8884514708234424e-05,
      -0.006166870306680997,
      -0.00037899453181333915,
      -0.00044764280614169257,
      -3.059512684674802e-05,
      -0.00260340053478699,
      -0.00018550549579032924,
      0.0004106348809313713,
      -0.00023080072915735288,
      -0.007984091382848385,
      0.002329036023588654,
      -0.00011908477940809045,
      -4.3125403654103826e-05,
      0.008574531612170384
    ],
    "intercept": -3.814196509367213
  },
  "narrow-insurance-no-weights-l2-poisson": {
    "coef": [
      -0.12114291768120361,
      0.045423753361220634,
      0.09673341536016931,
      0.11474143519097742,
      -0.08233926394933853,
      -0.05341642228182521,
      0.3801240295376261,
      -0.17710307405383083,
      -0.20302095548379542,
      0.0015596347358890234,
      0.011975233525616786,
      -0.031501047309407726,
      0.013635166580395043,
      -0.0920412602760836,
      0.1372412398305675,
      -0.04086896708697703,
      0.009616289108779623,
      -0.05715055623157519,
      -0.021347726877370354,
      -0.0041897204234682415,
      0.2429324050898821,
      -0.019719971902210844,
      0.000717204026238444,
      -0.034480269257882605,
      -0.08807273315270674,
      -0.017521038436546784,
      -0.04232194109316463,
      0.04115434825880493,
      -0.17474082816565334,
      0.17474082816565337,
      -0.01841709334715947,
      0.012882049164812883,
      0.0029165580105231176,
      -0.009539448222052611,
      -0.01863202350790643,
      -0.13744976559653685,
      -0.004427132806269279,
      0.036865418704128135,
      0.005524350232770829,
      -0.0206243284125832,
      -0.007021738830528159,
      -0.0036435095670589966,
      0.024243098614545842,
      0.08684631475604929,
      -0.02522067515252306,
      -0.04896448222221021,
      0.08556020681739107,
      -0.0006601522937961175,
      0.06670069073355918,
      -0.016714290363497766,
      -0.006563295170189922,
      -0.009600995877102746,
      -0.012476849011524968,
      0.0010206136346618952
    ],
    "intercept": -1.9311032810088824
  },
  "narrow-insurance-offset-l2-poisson": {
    "coef": [
      -0.017076139394364063,
      -0.011263670931487748,
      0.009903775295227108,
      0.010851876386365865,
      -0.0049124538844715305,
      0.01249661252873037,
      0.05832959975891604,
      -0.01751071232939097,
      -0.040818887429525094,
      -0.0031083240013817506,
      0.0018832465126164277,
      -0.013307489346170383,
      -0.011885425951706599,
      0.007483082979060448,
      0.02287820414031336,
      -0.003943294332731527,
      0.02085384515253013,
      0.0060977092619938986,
      -0.0023399240987143238,
      0.0012654340101332926,
      0.034005872271063775,
      -0.004209433220613481,
      0.00213360357675337,
      -0.016428950124002743,
      -0.015341410820949473,
      -0.009197807836468707,
      -0.00011337734246257462,
      0.004128284323266959,
      -0.002157839908715887,
      0.0021578399087158846,
      0.046958733941130135,
      0.008718694697974955,
      0.002205863806874255,
      -0.002809622556884692,
      -0.0024262886262856266,
      -0.011470452030037452,
      -0.0016583984856032767,
      0.004172331178602785,
      0.0011511287090530064,
      -0.006580857725672887,
      -0.0010481130127426568,
      -0.0004794952883048619,
      -0.0033518711213370122,
      0.006130940155382687,
      -0.004401753936137495,
      -0.009331459022985872,
      -0.002264897448561195,
      0.0019018694728274786,
      0.00788283303779462,
      -0.002006817828770716,
      -0.0030022047060543834,
      0.01855349776956736,
      0.0001150729613009734,
      0.023538296246868852
    ],
    "intercept": -3.8361053513103944
  },
  "wide-insurance-no-weights-l2-poisson": {
    "coef": [
      1.5340982412329582,
      -0.5124856864682696,
      7.997065919313571e-06,
      2.0783389080760155e-05,
      2.0783389077823654e-05,
      0.31409929318261776,
      -0.04166699411461313,
      0.06119810495185602,
      0.09880100806515427,
      -0.05022889967945504,
      -0.08327250271306978,
      0.015169283490127753,
      -0.09212269979737822,
      0.05898792287672416,
      0.08839016618903288,
      0.10936596955883442,
      -0.08159670436341385,
      -0.010599549222756447,
      -0.0316632657350205,
      -0.03646906831855416,
      0.016331522654170774,
      -0.006529665864688882,
      -0.005161300023666492,
      -0.008933327953283608,
      0.35329299184442337,
      -0.08252999506941343,
      -0.032100775177198615,
      0.020173029899336295,
      -0.053803034237530176,
      -0.02405986846972973,
      -0.03814040706036793,
      -0.028303696542799982,
      -0.005031889706285227,
      -0.03582008901423948,
      0.10264674445770912,
      -0.03594044787632083,
      0.004648895737190694,
      -0.03734100259736683,
      -0.024186495013180247,
      -0.007696925102837847,
      -0.01279396824626178,
      -0.018821590441797674,
      -0.011104334910118845,
      -0.01295484980329559,
      -0.005872512130773157,
      -0.005450454132773473,
      -0.0012799206444625674,
      -0.0013420369085973439,
      -0.0011799582851826052,
      -0.0009014450483042457,
      -0.0005395779834072295,
      0.0009583220440470002,
      -0.00048539610524841515,
      -0.00033241880798860583,
      -1.1391128862060543e-05,
      -0.0010572093778236167,
      -0.00046505284880788745,
      -0.00022157638857240604,
      -0.0002803065452751104,
      -0.0004158248599552365,
      -0.00013423495508264714,
      -0.00044435747029930925,
      -0.00016876995088098152,
      -0.0001540627207737348,
      -0.00016178862914920743,
      -0.00019231979174238112,
      -0.00016372224918037925,
      0.0035776191013088036,
      -0.0011958617406145754,
      0.0039223982384601125,
      0.01674985766972059,
      0.0008052438689986221,
      0.001914773422139299,
      -0.009541153568570172,
      -0.007446524381189838,
      -0.010389736631475823,
      0.03595119884875702,
      -0.007917645587824783,
      -0.023597443163312134,
      -0.009947581004877951,
      0.025367469804417068,
      0.11370593660904166,
      -0.027779647785427145,
      -0.01816597305538095,
      -0.0014234144442220149,
      -0.007356641572594212,
      -0.0245302916076995,
      -0.008530011188715103,
      -0.021161468540857698,
      -0.04158333511921032,
      0.02960395671778986,
      -0.007211315096128416,
      -0.022432709161800485,
      -0.03026172891886051,
      -0.018824003592385712,
      -0.023202980913359327,
      -0.008588069091282817,
      -0.009089586678898087,
      -0.022984582622940536,
      -0.0059395559742765015,
      0.0665295454234597,
      0.028997683454236246,
      0.005945350073204772,
      -0.01917952906695914,
      0.0055915418090135985,
      -0.013605509363628983,
      0.002653294671220064,
      0.002814259796027156,
      -0.013069526997441901,
      -0.016757720404728033,
      -0.014172705732621773,
      -0.018168148230542844,
      0.01633175226704548,
      0.00925874618573554,
      -0.016600623545121214,
      -0.0123151790028673,
      0.07224128582263238,
      0.010875804132042302,
      0.0850346536269191,
      -0.010223940181595115,
      -0.010193295419846097,
      -0.00820999498039114,
      -0.008539789675901742,
      0.004173196016798179,
      0.004186838405511391,
      -0.0035810671066574488,
      0.0011153210659154869,
      -0.0030820830438859264,
      -0.006034637216086051,
      -0.0032887750468061877,
      -0.0022870274414657347,
      -0.0021736885709431226,
      -0.0009279396079132887,
      -2.2658718731616177e-05,
      -0.0005172639856340943,
      0.0069246309008031155,
      -0.0003010229225316978,
      -0.0008352048191864975,
      -0.0001170598105447362,
      -0.00013335569784922774,
      -0.00022038796818134315,
      -0.00011313716932316216,
      -0.00019717812937638648,
      -0.0001389243833507708,
      0.011288359682670496,
      -0.02592250096189174,
      -0.010833724573825733,
      -0.0020424574130803504,
      -0.013913140012227246,
      -0.01456896046763154,
      -0.0022682789771240656,
      -0.02022118033814692,
      -0.0014225663102473535,
      -0.005763453856513969,
      0.10221537943514086,
      -0.00023641786750658157,
      -0.0009420061046414539,
      0.007628875230757951,
      -0.036980124936713446,
      -0.0018821989452229369,
      -0.002504116797030086,
      -0.0019153619155274032,
      -0.012433781745249084,
      0.003578942767089328,
      -0.0027451884863557334,
      -0.004720477836672888,
      0.041438866542158524,
      -0.0011564147650164867,
      -0.0009453940645582677,
      0.0008530048277218415,
      0.009920928801981583,
      -0.0024032273389559527,
      -0.0007569988424362259,
      -0.0001146291892597762,
      0.022400829672780696,
      -0.0014015576013499057,
      -0.0008887061688101245,
      -0.003133819442134987,
      -0.0004442804623587825,
      -0.008129044119477964,
      -0.0008213801434607983,
      -0.0012884069960897666,
      -0.0003907853314960745,
      -0.010914643954150415,
      -0.0003694305639251906,
      6.558114068373867e-05,
      -0.0003008936993891214,
      -0.007055948694784857,
      -0.004520513712364599,
      -0.0004613195079503007,
      -0.00025988176304737637,
      -0.008683291752957735,
      0.0007649204582645261,
      -0.00011666917765043793,
      -0.003108501591188855,
      -0.00017994940198494576,
      0.006869523461641004,
      -0.00011057370872243573,
      0.01114205567263173,
      0.0021102195752866577,
      -0.00024242306910356553,
      0.0001857486311464006,
      -0.00043266288560014774,
      -0.0002610701635369275,
      -0.000254880242584951,
      -0.07250828365589626,
      -0.023060258339691095,
      -0.008487613229452243,
      0.2229845632282308,
      -0.01289559626004208,
      -0.0002589603388825552,
      -0.01591642279924125,
      -0.07014158903391246,
      -0.006282846480360459,
      -0.0430714768894119,
      0.02963848379865953,
      -0.1797852769659656,
      0.17978527696596566,
      -0.003697935543931482,
      0.003706146618448208,
      -0.0059400226509952235,
      -0.014968846587138183,
      -0.11633649055399405,
      -0.00019898042262698107,
      0.029703149310787155,
      -0.0014065807237682974,
      -0.012812466632198672,
      -0.005600569877215221,
      -0.002585780451050365,
      0.02139616966755166,
      0.06583420791012715,
      -0.017654325713685488,
      -0.038511455161396944,
      0.09175443126328249,
      -0.007632041903821693,
      0.07105129382641667,
      -0.012190445056217195,
      -0.0009333463668544475,
      -0.03410454459712098,
      -0.008871566354598187
    ],
    "intercept": -1.6901474567204637
  },
  "wide-insurance-offset-l2-poisson": {
    "coef": [
      0.514090688788121,
      -0.07596574759925168,
      3.401159081239962e-05,
      4.4375207693831935e-05,
      4.437520769384478e-05,
      0.353317566893,
      -0.009158257886975638,
      -0.013338804149846206,
      0.0012996693172297083,
      0.008140992637852375,
      0.01650437539131584,
      -0.0034479753095760855,
      -0.010945446490594504,
      -0.0051711044674351,
      0.012026642616809403,
      0.0032960281027254556,
      -0.006467757830187579,
      0.004152999748906406,
      0.001966320362545208,
      0.0012243008836517269,
      0.0022957778316998944,
      -0.0012641272484216336,
      -0.0008758877866517622,
      -0.00023774572304751925,
      0.05675971850846096,
      -0.015005378245519316,
      -0.013083506363473253,
      0.0015970094039773693,
      0.0022251179244588766,
      -0.0013308299128478149,
      -0.002234984478260166,
      0.000870529701395301,
      0.002135098316866359,
      -0.007862233580048677,
      0.008743914120155868,
      -0.0038407684544961252,
      0.0023204215943550184,
      -0.009171068573819077,
      -0.002257695757419851,
      -0.005137927122687596,
      -0.00302829840163015,
      -0.004478803842073638,
      0.0002974669815837779,
      -0.001688320983476485,
      -0.0023979416512631834,
      -0.0018982728003017924,
      -0.0004643668380971773,
      0.00011248399131556245,
      -0.0004084696913690209,
      -0.00010316833677865984,
      -0.00029488609305457295,
      0.0005530780431633216,
      -0.00018271565959295725,
      -5.5130181380112646e-05,
      0.00046885161955750426,
      -0.00019613184129340026,
      -0.00013800754842499798,
      -0.00016878844571344977,
      -0.00017306744778993247,
      -0.00010952843101497996,
      -8.319592908144624e-05,
      -0.00017248162410242983,
      -4.51601019514045e-05,
      -4.223404896809889e-05,
      -2.8565981772009093e-05,
      -1.7618375881545448e-06,
      0.000672394927738837,
      -9.040167484587385e-05,
      -0.009772195626987959,
      0.00028573990127335,
      0.0011626348014516159,
      0.0037286780304442817,
      0.0076623252139287334,
      0.0026393606611880226,
      -0.0011306887321457877,
      0.0031026582849287424,
      -0.002206505552980321,
      0.0052029153291062525,
      -0.0029871148850438463,
      0.0011446743795810756,
      0.0025144990133793284,
      0.0003261605323589797,
      -0.0037610866955567375,
      -0.0014681516134374653,
      0.002662267903907091,
      -0.004459112418150409,
      -0.004449589159327717,
      0.00031835361843016516,
      -8.131834576616e-05,
      -0.004902139022463277,
      0.006161456235500201,
      0.0014863009824729848,
      -0.0033752815394864147,
      -0.005663598334699627,
      0.0033427702445982623,
      -0.0039367419995247075,
      0.0014311254573602117,
      0.0005248904509513581,
      0.005374018725982003,
      -0.0005620914283382708,
      0.0029297254009755477,
      0.006678970570229143,
      0.0014823017940240719,
      0.004873928301193921,
      0.0013653713795153018,
      -0.00291500558063469,
      0.0013649686330637213,
      -0.00015039840898827014,
      -0.0011557721827293067,
      -0.0011464564809333516,
      -0.0028862001913264965,
      0.0003803181903791247,
      0.0005133016833088203,
      9.507957209883292e-05,
      -0.0005942643591264743,
      -0.0024863870123203787,
      0.0003862054750660439,
      -6.895183771718033e-05,
      -0.00155386256738085,
      -0.0008363277689000392,
      -0.0020310163502605463,
      -0.002139448475015546,
      -0.0021389068352308496,
      0.0007438450240215473,
      -0.00018405934648979905,
      -0.0007578839647103142,
      0.0009571918330690782,
      -0.0009236906131269326,
      0.0004289897900201754,
      -0.0013050680688676602,
      -0.0011642129866932852,
      2.9167156173157567e-05,
      -0.0004210918224985484,
      0.0006872857118847952,
      -0.0002889762979533794,
      0.002199910703439498,
      -0.0001118746268114241,
      -0.00026686515253096765,
      -7.994953362769993e-05,
      -8.6868154910276e-05,
      -0.00016293915651265618,
      -7.980764444840334e-05,
      -2.252406829742029e-05,
      -5.495939624696214e-05,
      -0.05288506074830502,
      -0.005499225833155808,
      -0.0005164635083835335,
      0.0006985831284127479,
      -0.0014449026888089908,
      -0.00177480775722906,
      0.002741963434064846,
      -0.0009715509231718478,
      0.003711141891233675,
      0.0003800140103882838,
      0.0011823250629044845,
      0.00014385856639201658,
      0.009274662089553956,
      0.0013471418106347096,
      -0.0037493557285004846,
      0.0007625915509356919,
      -0.0008774335477822999,
      0.0006644919126637379,
      -0.0023856165830569813,
      0.004471754702953571,
      -0.0008387176117371642,
      -0.000370459257130151,
      0.0007709464234230132,
      -0.0003949088678634989,
      -6.272542140515302e-05,
      0.002778733290190771,
      0.003699308834017136,
      6.576377181885372e-05,
      0.0018904096501571944,
      -1.5320442763509456e-05,
      0.006395096822465342,
      -0.00021034304069670592,
      -0.00020321203793813907,
      0.0011048524676486385,
      -2.1098813820884194e-05,
      0.0007411815152451405,
      -0.00019558430006919579,
      -0.00022855743322862097,
      -1.4631560990478349e-05,
      0.005394408341006541,
      -8.346559274293366e-05,
      0.0005931224279438514,
      -0.00010565390846176427,
      0.00230151169535821,
      0.002047809588022436,
      -5.1402556303040654e-05,
      -1.6494907488814524e-05,
      0.006709037533331741,
      0.0008470209463275525,
      -7.423427155542499e-05,
      0.000606231037218418,
      -6.361977316457936e-05,
      0.004294004668707317,
      -2.3555692367218995e-05,
      0.006765819541928681,
      0.00045932917032785633,
      -0.00019525997716424571,
      0.0006216023933260354,
      -0.00015786959942538483,
      -3.988755796302585e-06,
      -2.9197138095234038e-05,
      -0.0035541736325134963,
      -0.001736743538089811,
      0.0017169402090797979,
      0.032353983533421594,
      -0.0033115736077748855,
      0.002035375042742535,
      -0.015080702074116293,
      -0.011854133740279046,
      -0.007775624683750672,
      0.001349393467459789,
      0.005857259023820478,
      -0.0012769889816963615,
      0.001276988981696374,
      0.005232108733069125,
      0.0020869482293739906,
      -0.0017430555206023129,
      -0.0023261747328872707,
      -0.022725917611395495,
      -0.0012052101853972056,
      0.0037201574012836196,
      0.003168803144178377,
      -0.0053600599108563265,
      -0.000725635335217855,
      -0.0003057236388331682,
      -0.001491391631288855,
      0.006044094379132113,
      -0.0030995370921349814,
      -0.007117757595809163,
      -0.0013824419972825403,
      0.0016211318508219789,
      0.010816408973655855,
      -0.0017348539182369899,
      -0.0010969254087249342,
      0.016972266768959805,
      0.0006527650981922185
    ],
    "intercept": -2.3436216377188743
  },
  "intermediate-insurance-no-weights-l2-gamma": {
    "coef": [
      -0.061170610823160936,
      -0.07856802365036247,
      0.028072964672047517,
      0.10920334495165915,
      -0.03273650363631794,
      0.03519882848613477,
      0.007718776936780659,
      0.03075515362568442,
      -0.03847393056246511,
      0.03696960782480969,
      -0.027853601794377174,
      -0.06241015738280748,
      -0.03938552408460083,
      -0.03924388641009282,
      0.014765289412020998,
      0.1171582724350477,
      0.0029208913134892225,
      -0.005103955098751242,
      0.08598849563642748,
      0.02235004469776945,
      0.04462498579181666,
      -0.03477208872972824,
      -0.007655710350740119,
      -0.0576219577340893,
      -0.037262318566056336,
      0.011925699316898549,
      0.0030065370605070634,
      -0.025479732024054066,
      -0.00623911748960496,
      0.006239117489604942,
      -0.010168274875043628,
      -0.07987464292463389,
      0.016047575070287173,
      -0.012696875827641665,
      -0.011801900207023186,
      0.01656258047205601,
      0.13424657927994674,
      0.016664409640102632,
      -0.008440263881412611,
      -0.031923614412126114,
      -0.01381161008097237,
      -0.0017771222107803052,
      -0.09289426262169022,
      -0.069229491624177,
      -0.0061646025093921005,
      0.04032161018056895,
      -0.0023051396534722476,
      -0.02233191722302318,
      -0.045414320275835585,
      -0.0054243743449785215,
      0.09502076762541092,
      0.08335226630848877,
      0.0018743492202978297,
      -0.0033641344038346827,
      -0.014173709692874063,
      0.006548598591154295,
      0.0004212468858524487,
      0.0093210553927775,
      0.020228816090867074,
      -0.003321487338587108,
      -0.007896209077230704,
      -0.0038947349651511243,
      -0.00019840057498524813,
      0.010453911760004972,
      -0.016951774169143768,
      -0.0063460971328778305,
      0.0026302905415967375,
      0.03128948095817989,
      -0.01964872381164041,
      -0.003475893045230243,
      -0.008126433962913002,
      -0.007645296818230556,
      -0.029597383422921935,
      -0.005514575992900447,
      0.0013973271419437689,
      -0.014316143975316562,
      0.04420320034118472,
      -0.006765587306577156,
      -0.004294859333318692,
      0.02137771198270836,
      0.07453451829492999,
      -0.01585624290258796,
      0.0014043670943371868,
      -0.00043519327079318356,
      -0.04275656628031756,
      0.003975139660360321,
      -0.005037046893457144,
      -0.007278921243020706,
      -0.004836455911195919,
      -0.02402197822846808,
      -0.0017850864789602146,
      -0.0004936796288340484,
      -0.007739475574322446,
      -0.001667550860311826,
      0.04495249227483766,
      -0.0029028103323250126,
      -0.0025070943001499497,
      0.00855561060323209,
      -0.001267474275819821,
      0.0007213396156722086,
      -0.0006901708146388436,
      0.008716953551054485,
      -0.00042059580324568026,
      0.007135266385860448,
      -0.02600367374820683
    ],
    "intercept": 7.376328401761935
  },
  "intermediate-insurance-offset-l2-gamma": {
    "coef": [
      -0.06117061082316092,
      -0.07856802365036247,
      0.028072964672047517,
      0.10920334495165912,
      -0.03273650363631792,
      0.035198828486134794,
      0.007718776936780704,
      0.030755153625684463,
      -0.0384739305624651,
      0.03696960782480966,
      -0.02785360179437719,
      -0.0624101573828075,
      -0.039385524084600824,
      -0.0392438864100928,
      0.014765289412021045,
      0.11715827243504766,
      0.0029208913134892286,
      -0.005103955098751247,
      0.08598849563642749,
      0.02235004469776945,
      0.04462498579181668,
      -0.03477208872972823,
      -0.0076557103507401145,
      -0.05762195773408928,
      -0.0372623185660563,
      0.011925699316898537,
      0.0030065370605070678,
      -0.025479732024054076,
      -0.00623911748960489,
      0.0062391174896049865,
      -0.01016827487504361,
      -0.0798746429246339,
      0.016047575070287156,
      -0.01269687582764166,
      -0.01180190020702317,
      0.016562580472056027,
      0.13424657927994676,
      0.016664409640102622,
      -0.008440263881412608,
      -0.0319236144121261,
      -0.01381161008097237,
      -0.0017771222107803044,
      -0.09289426262169022,
      -0.06922949162417703,
      -0.0061646025093921395,
      0.04032161018056898,
      -0.0023051396534722298,
      -0.022331917223023173,
      -0.045414320275835605,
      -0.005424374344978517,
      0.09502076762541097,
      0.08335226630848874,
      0.0018743492202978364,
      -0.0033641344038346558,
      -0.014173709692873992,
      0.006548598591154306,
      0.0004212468858524501,
      0.00932105539277753,
      0.020228816090867092,
      -0.003321487338587089,
      -0.0078962090772307,
      -0.0038947349651511174,
      -0.00019840057498527304,
      0.010453911760004975,
      -0.016951774169143768,
      -0.006346097132877826,
      0.0026302905415967544,
      0.03128948095817989,
      -0.01964872381164041,
      -0.0034758930452302456,
      -0.008126433962913005,
      -0.007645296818230552,
      -0.029597383422921952,
      -0.005514575992900445,
      0.0013973271419437682,
      -0.014316143975316558,
      0.04420320034118473,
      -0.006765587306577154,
      -0.00429485933331869,
      0.021377711982708356,
      0.07453451829492999,
      -0.01585624290258796,
      0.0014043670943371853,
      -0.000435193270793187,
      -0.04275656628031757,
      0.003975139660360321,
      -0.005037046893457143,
      -0.007278921243020705,
      -0.004836455911195919,
      -0.024021978228468084,
      -0.0017850864789602167,
      -0.0004936796288340489,
      -0.0077394755743224455,
      -0.001667550860311826,
      0.04495249227483764,
      -0.0029028103323250143,
      -0.0025070943001499497,
      0.00855561060323209,
      -0.0012674742758198214,
      0.0007213396156721674,
      -0.0006901708146388461,
      0.008716953551054485,
      -0.0004205958032456809,
      0.007135266385860449,
      -0.026003673748206894
    ],
    "intercept": 7.376328401761934
  },
  "narrow-insurance-no-weights-l2-gamma": {
    "coef": [
      -0.06020964491008929,
      -0.07925220680485431,
      0.026602600565880204,
      0.11070590221585375,
      -0.032664811658871216,
      0.03481816059208083,
      0.00704639224112588,
      0.03136178358457104,
      -0.03840817582569693,
      0.035518476804894485,
      -0.026296837843993733,
      -0.0612886561897541,
      -0.03580401287968207,
      -0.04172377418632923,
      0.014518333821409843,
      0.11507647047345478,
      0.0029718404631133366,
      -0.006893484560188393,
      0.08677833464215612,
      0.023823021206403904,
      0.04375645816605237,
      -0.03487802700075774,
      -0.007824700615266546,
      -0.0578190375471167,
      -0.03725122557263263,
      0.012345276876713059,
      0.003984091311185243,
      -0.02602070690654873,
      -0.0058143945363971624,
      0.005814394536397171,
      -0.008915994599773835,
      -0.07963009044889495,
      0.015724178313904217,
      -0.01256409478610187,
      -0.012265619793946931,
      0.015369090572082352,
      0.13250784316850908,
      0.01675639292513806,
      -0.007993586165284025,
      -0.032200268474128116,
      -0.013916442029630159,
      -0.0017814115020394318,
      -0.09427560735334645,
      -0.06904499474166255,
      -0.006587263495251516,
      0.04175867795517564,
      -0.002629851726821554,
      -0.022369354928651608,
      -0.04553543997176087,
      -0.005284134515489605,
      0.09754117030785882,
      0.08457617579286265,
      0.0018446308974787262,
      -0.004373522544191358
    ],
    "intercept": 7.363707446301816
  },
  "narrow-insurance-offset-l2-gamma": {
    "coef": [
      -0.060209644910089316,
      -0.07925220680485436,
      0.02660260056588016,
      0.11070590221585372,
      -0.03266481165887121,
      0.034818160592080795,
      0.0070463922411257976,
      0.03136178358457093,
      -0.03840817582569699,
      0.03551847680489453,
      -0.02629683784399372,
      -0.061288656189754084,
      -0.03580401287968207,
      -0.04172377418632927,
      0.01451833382140983,
      0.11507647047345476,
      0.002971840463113334,
      -0.006893484560188414,
      0.08677833464215612,
      0.023823021206403894,
      0.04375645816605236,
      -0.03487802700075775,
      -0.007824700615266555,
      -0.057819037547116724,
      -0.037251225572632655,
      0.012345276876713086,
      0.003984091311185224,
      -0.026020706906548723,
      -0.005814394536397251,
      0.005814394536397122,
      -0.008915994599773954,
      -0.07963009044889495,
      0.015724178313904234,
      -0.01256409478610187,
      -0.012265619793946927,
      0.015369090572082338,
      0.1325078431685091,
      0.01675639292513805,
      -0.007993586165284037,
      -0.03220026847412813,
      -0.01391644202963016,
      -0.0017814115020394323,
      -0.09427560735334652,
      -0.06904499474166256,
      -0.006587263495251484,
      0.04175867795517562,
      -0.0026298517268215837,
      -0.02236935492865162,
      -0.045535439971760884,
      -0.005284134515489606,
      0.09754117030785882,
      0.08457617579286267,
      0.0018446308974787282,
      -0.004373522544191205
    ],
    "intercept": 7.363707446301817
  },
  "wide-insurance-no-weights-l2-gamma": {
    "coef": [
      -0.0821845833651271,
      -0.057338988104616774,
      -3.193337900542816e-06,
      -2.6234473556684273e-05,
      0.0002408082678937469,
      -0.08218458336512709,
      -0.00035631095389872757,
      -0.009950512867444158,
      0.010282022378688879,
      -0.0008488660586231671,
      0.007413381496852875,
      -0.0065397139955756835,
      0.0026842075474118256,
      -0.0019613602081776146,
      -0.01087350954577914,
      -0.0061664038111319324,
      0.007821399330236041,
      0.006675712608286494,
      0.004163448985876027,
      0.000985053879401131,
      -0.0007962347534113093,
      0.0016058022519264792,
      0.0009642129802786588,
      -0.005102329264916654,
      0.016828208126751124,
      -0.003698774521050071,
      -0.0017629782395417756,
      0.006234147327224487,
      0.010752392047524408,
      0.004927785306941219,
      0.014216334729572294,
      0.013225070709309906,
      -0.0008496971516448302,
      -0.0037210399421553635,
      -0.013246808317981605,
      -0.015456791289692604,
      0.0033850921270787418,
      -0.013134682645931746,
      -0.01214345541572974,
      -0.005941870190051399,
      -0.0010868602911832637,
      -0.0017794201965210443,
      -0.0018855964329524222,
      0.002250699751231203,
      -0.0007563325180342194,
      -0.0018328784810481798,
      0.0007856750661310698,
      0.0011586250883423342,
      -1.6356918125583495e-05,
      0.0011079131515677177,
      0.0011253493061276656,
      -0.00040951743847279657,
      0.00011690903434982237,
      0.00015558935592307354,
      -0.000513661499642122,
      0.001087766135550413,
      0.00012030094010663152,
      0.00037906376903348675,
      0.0009071058010052788,
      -0.0005273062840121174,
      0.004879268654929925,
      -0.004977133031012565,
      0.005747223831072787,
      0.00627556822639973,
      -0.009524337124398378,
      -0.005291159685437425,
      -0.008406566793350445,
      -0.003552099283645736,
      -0.0021680892519013316,
      -0.008495951161612605,
      -0.0025605496827096133,
      -0.006516210238765703,
      -0.00053714244937045,
      -0.0033691829333913543,
      -0.00541327512860656,
      -0.005418558994417294,
      -0.0018572303322854818,
      -0.022371619226778404,
      -0.0036710637882927904,
      -0.01652287532775022,
      -0.008589474926084171,
      -0.007784618465682001,
      0.0057139530462734555,
      6.753412817031142e-05,
      0.011241560810643442,
      -0.0038666542228221845,
      0.005433837396084963,
      -0.0007793493576251661,
      0.008367444101666288,
      0.0028409671572158317,
      0.010365072408431354,
      -0.015720732977789725,
      0.010295030938006005,
      0.0030395140449332265,
      -0.003509419773822332,
      -0.006551772181663493,
      0.0014470858673503906,
      0.0022078120034484446,
      -0.003817581155639633,
      0.005241541374924843,
      -0.0016629470989898139,
      0.009212157626612037,
      0.001950103599187466,
      0.00042124191716831795,
      0.006752821737190939,
      0.0008321041856508731,
      0.005115511818953616,
      0.009799073613712284,
      -0.0017392696745981444,
      -0.008811676939948743,
      0.004173084809136249,
      1.8714808384704e-05,
      0.005365874031697995,
      -0.0007879301808981691,
      0.009617776559206183,
      0.008140019784413543,
      0.001693950137898224,
      0.005010901734196992,
      0.0016621684591053316,
      0.0014629832118027764,
      -0.003025719955248012,
      0.004790411269039291,
      0.004561933352761175,
      0.004227249999757758,
      0.002431528420666996,
      0.0032473553436136874,
      9.00152244286682e-05,
      0.0012542662712839068,
      0.00301529587546891,
      0.0007608963579573012,
      0.0004537260425915193,
      -0.000545915191501016,
      0.0002893411003404586,
      -0.0017102020503565309,
      4.238730461731589e-05,
      -0.030080959232107598,
      -0.028782990606231816,
      0.0012560395691678787,
      -0.0015982023170862084,
      -0.016189455966304517,
      0.00737382933763043,
      -0.004806751677188602,
      -0.015132782107002574,
      0.005363189979652806,
      0.004536997311687958,
      -0.018009176046565795,
      0.002698904038119055,
      0.024819200988384863,
      0.003811111110584244,
      -0.010226176006993305,
      0.005292013280510782,
      0.003673536908646613,
      0.0038483485565916626,
      -0.009729185037002023,
      -0.00032723528527639506,
      -0.0007011774971956634,
      0.0028141296902581825,
      -0.006397563840806807,
      0.003898202128317262,
      0.00025798782927717394,
      0.0010807464643520976,
      0.009040978313603988,
      0.0008953086949706722,
      0.008148384959175387,
      0.0029134399403381267,
      -0.014638705931040538,
      0.003533983246587028,
      0.0019571987670565375,
      0.00011567053674317205,
      -0.001330741041622009,
      0.00508348013153239,
      0.0008988491714390167,
      9.544191716100405e-05,
      -0.0004776693594382413,
      -6.167541589107346e-06,
      0.003910813086242172,
      0.00026696269413713,
      0.0004674859442604189,
      -0.002032036201518654,
      0.00018713034893588673,
      0.010021029732296346,
      0.001118520041946694,
      -0.0014825640544619465,
      9.253130046141615e-05,
      0.0011669741442244849,
      0.008269134412015811,
      -0.00022479681678721534,
      0.0012996707109457595,
      2.200332255548907e-05,
      0.00011270223091656544,
      -6.473012559342143e-05,
      0.0044178380236634725,
      0.00010135602362609318,
      -0.0003056615782789534,
      -0.00020462975601137087,
      0.006533780273771376,
      -9.200849444694754e-05,
      0.0009803029136081992,
      3.9822852785120067e-05,
      4.968854357195473e-05,
      0.008552150771518044,
      0.000740032829894538,
      2.230222535782075e-05,
      0.00853212789991777,
      -0.000689790472964193,
      4.47234556276198e-05,
      -0.00019201000571881596,
      -8.684039375772284e-05,
      7.438022086463802e-05,
      0.0004231335635283793,
      0.0014318315155275906,
      0.001379354738952018,
      0.0004756633316408338,
      -0.001481158649731088,
      0.00011463251666187505,
      0.00013837792774340192,
      0.0010064402359534607,
      -0.00010870466221920878,
      -0.006036586314332251,
      -0.00013157150234036877,
      -0.010413071208548268,
      0.03151269043378126,
      0.009818222173915252,
      0.005382917478693734,
      0.0021421780588568185,
      -0.008323390310198044,
      0.007362571762386275,
      -0.016603690581592407,
      -0.014710269990622001,
      0.0032515555915708177,
      -0.003251555591570782,
      0.008671004147748507,
      -0.0032292027597781007,
      0.006988196575759838,
      -4.81267665565723e-05,
      -0.012409122441399804,
      -0.003844101414108588,
      0.003030595783626971,
      -0.010629318439912844,
      -0.003622871707940922,
      -0.005199313939030153,
      0.001049020790090988,
      0.004045008305795205,
      0.012469123341848553,
      0.0028118177019440423,
      0.009343328162093902,
      0.0037165869119792686,
      -0.0002583588386222544,
      -0.02119372744210021,
      0.00034493171394566716,
      0.005801848083197131,
      0.0018279529273379977,
      0.0003347293040813875
    ],
    "intercept": 6.933968417984374
  },
  "wide-insurance-offset-l2-gamma": {
    "coef": [
      -0.08218458336512714,
      -0.057338988104616774,
      -3.1933379005428107e-06,
      -2.6234473556684284e-05,
      0.00024080826789374683,
      -0.08218458336512714,
      -0.00035631095389875375,
      -0.009950512867444158,
      0.010282022378688858,
      -0.000848866058623144,
      0.007413381496852872,
      -0.00653971399557569,
      0.002684207547411836,
      -0.0019613602081776007,
      -0.010873509545779139,
      -0.0061664038111319125,
      0.007821399330236014,
      0.006675712608286518,
      0.004163448985876,
      0.0009850538794011334,
      -0.0007962347534113152,
      0.0016058022519264818,
      0.0009642129802786614,
      -0.0051023292649166555,
      0.016828208126751135,
      -0.0036987745210500882,
      -0.0017629782395417542,
      0.006234147327224467,
      0.010752392047524394,
      0.004927785306941243,
      0.01421633472957228,
      0.013225070709309898,
      -0.000849697151644843,
      -0.003721039942155361,
      -0.01324680831798164,
      -0.015456791289692597,
      0.0033850921270787383,
      -0.013134682645931737,
      -0.012143455415729757,
      -0.005941870190051395,
      -0.0010868602911832516,
      -0.0017794201965210304,
      -0.0018855964329524142,
      0.002250699751231217,
      -0.0007563325180342208,
      -0.0018328784810481811,
      0.0007856750661310751,
      0.001158625088342338,
      -1.6356918125581442e-05,
      0.0011079131515677122,
      0.0011253493061276656,
      -0.00040951743847279657,
      0.00011690903434982142,
      0.0001555893559230725,
      -0.0005136614996421242,
      0.0010877661355504127,
      0.00012030094010663159,
      0.00037906376903348773,
      0.0009071058010052784,
      -0.000527306284012117,
      0.004879268654929921,
      -0.0049771330310125605,
      0.005747223831072787,
      0.006275568226399729,
      -0.009524337124398364,
      -0.0052911596854374205,
      -0.008406566793350462,
      -0.0035520992836457375,
      -0.0021680892519013338,
      -0.008495951161612609,
      -0.0025605496827096246,
      -0.006516210238765711,
      -0.0005371424493704461,
      -0.0033691829333913482,
      -0.0054132751286065815,
      -0.005418558994417262,
      -0.0018572303322855039,
      -0.02237161922677841,
      -0.0036710637882927722,
      -0.016522875327750215,
      -0.008589474926084164,
      -0.007784618465682012,
      0.0057139530462734485,
      6.753412817031512e-05,
      0.011241560810643442,
      -0.003866654222822183,
      0.005433837396084951,
      -0.000779349357625163,
      0.008367444101666285,
      0.0028409671572158547,
      0.010365072408431346,
      -0.015720732977789694,
      0.010295030938006005,
      0.0030395140449332348,
      -0.0035094197738223414,
      -0.006551772181663506,
      0.0014470858673503986,
      0.002207812003448444,
      -0.00381758115563964,
      0.005241541374924825,
      -0.0016629470989898078,
      0.009212157626612058,
      0.0019501035991874613,
      0.0004212419171683136,
      0.006752821737190939,
      0.0008321041856508921,
      0.0051155118189536025,
      0.00979907361371227,
      -0.0017392696745981433,
      -0.008811676939948752,
      0.004173084809136254,
      1.8714808384701454e-05,
      0.005365874031697994,
      -0.0007879301808981779,
      0.009617776559206183,
      0.008140019784413543,
      0.0016939501378982254,
      0.00501090173419699,
      0.0016621684591053268,
      0.0014629832118027825,
      -0.003025719955248013,
      0.0047904112690392965,
      0.004561933352761178,
      0.0042272499997577555,
      0.002431528420666999,
      0.003247355343613684,
      9.001522442866823e-05,
      0.0012542662712839074,
      0.00301529587546891,
      0.0007608963579573025,
      0.0004537260425915193,
      -0.0005459151915010165,
      0.0002893411003404587,
      -0.0017102020503565309,
      4.238730461731596e-05,
      -0.030080959232107584,
      -0.028782990606231806,
      0.001256039569167884,
      -0.0015982023170862082,
      -0.01618945596630453,
      0.007373829337630412,
      -0.004806751677188603,
      -0.015132782107002571,
      0.005363189979652797,
      0.004536997311687966,
      -0.01800917604656579,
      0.002698904038119052,
      0.024819200988384894,
      0.0038111111105842348,
      -0.010226176006993297,
      0.00529201328051078,
      0.003673536908646622,
      0.003848348556591651,
      -0.00972918503700203,
      -0.00032723528527640183,
      -0.0007011774971956716,
      0.0028141296902581743,
      -0.00639756384080681,
      0.0038982021283172513,
      0.0002579878292771705,
      0.0010807464643521048,
      0.009040978313603981,
      0.0008953086949706783,
      0.008148384959175378,
      0.002913439940338131,
      -0.014638705931040543,
      0.0035339832465870334,
      0.00195719876705654,
      0.00011567053674316429,
      -0.0013307410416220052,
      0.005083480131532381,
      0.0008988491714390194,
      9.544191716100235e-05,
      -0.000477669359438243,
      -6.167541589107838e-06,
      0.003910813086242144,
      0.00026696269413712526,
      0.0004674859442604184,
      -0.002032036201518656,
      0.0001871303489358887,
      0.01002102973229635,
      0.0011185200419466944,
      -0.001482564054461944,
      9.253130046141619e-05,
      0.0011669741442244853,
      0.008269134412015839,
      -0.00022479681678720624,
      0.0012996707109457586,
      2.2003322555489157e-05,
      0.00011270223091656731,
      -6.473012559342132e-05,
      0.004417838023663486,
      0.00010135602362609119,
      -0.0003056615782789536,
      -0.00020462975601136889,
      0.006533780273771377,
      -9.200849444694739e-05,
      0.0009803029136081995,
      3.982285278512015e-05,
      4.9688543571954784e-05,
      0.00855215077151805,
      0.000740032829894537,
      2.2302225357821072e-05,
      0.00853212789991777,
      -0.0006897904729641933,
      4.472345562761869e-05,
      -0.00019201000571881388,
      -8.684039375772294e-05,
      7.438022086463812e-05,
      0.00042313356352837464,
      0.0014318315155275926,
      0.0013793547389520243,
      0.00047566333164084096,
      -0.001481158649731086,
      0.00011463251666187513,
      0.00013837792774340312,
      0.0010064402359534618,
      -0.00010870466221921006,
      -0.00603658631433226,
      -0.00013157150234036614,
      -0.010413071208548251,
      0.03151269043378128,
      0.009818222173915247,
      0.005382917478693741,
      0.0021421780588568025,
      -0.008323390310198036,
      0.007362571762386288,
      -0.01660369058159242,
      -0.014710269990622011,
      0.0032515555915708086,
      -0.0032515555915708125,
      0.008671004147748523,
      -0.0032292027597781003,
      0.006988196575759833,
      -4.8126766556578867e-05,
      -0.012409122441399802,
      -0.0038441014141085673,
      0.003030595783626975,
      -0.010629318439912848,
      -0.0036228717079409105,
      -0.005199313939030152,
      0.0010490207900909854,
      0.004045008305795212,
      0.012469123341848576,
      0.002811817701944047,
      0.009343328162093883,
      0.0037165869119792434,
      -0.0002583588386222585,
      -0.02119372744210023,
      0.00034493171394566293,
      0.005801848083197142,
      0.0018279529273379819,
      0.00033472930408139166
    ],
    "intercept": 6.933968417984374
  },
  "intermediate-insurance-no-weights-l2-tweedie-p=1.5": {
    "coef": [
      -0.6445432930126285,
      0.219083556174511,
      -0.03538142036062788,
      0.2795116516962713,
      0.015714954267963252,
      0.16561455123451066,
      -0.2049201776481583,
      0.06477715422938975,
      0.14014302341876705,
      0.9486199678866014,
      -0.216567531982665,
      -0.9863518178869175,
      -0.1562014885257272,
      0.2328727614813901,
      0.27933802401412505,
      -0.10170991498680687,
      0.014734629829418377,
      0.3058484559146993,
      -0.22488344223042772,
      -0.27889060338376565,
      0.2260262663927254,
      -0.46878123503141156,
      0.4015270085706087,
      0.1897618533228786,
      -0.49613768409850756,
      0.21326226339002893,
      -0.3122037289214093,
      0.44447084607458043,
      0.1486840599694248,
      -0.14868405996942535,
      0.13679909199594142,
      0.08323413866257112,
      -0.0378030612904638,
      0.1423207932456796,
      -0.6440061536956018,
      -0.1764335715233256,
      0.4679766955647884,
      -0.4319497062514298,
      0.17836529574269733,
      0.21533277681113,
      -0.23210954244253315,
      -0.11354302089807701,
      0.17750338475972674,
      0.5374528953580265,
      -0.16828595496851464,
      0.12031099840100365,
      -0.009148131722383721,
      0.1051858936132369,
      0.5112532446416967,
      -0.5070827728938655,
      -0.5503648208491623,
      0.49206081352778597,
      -0.16027019379298932,
      -0.025143277961367293,
      -0.545758761250086,
      -0.6141989201606223,
      0.298212583819372,
      -0.27650405519900606,
      -0.23206759386311832,
      -0.5126106011307204,
      0.27118324852448894,
      0.009364799214725904,
      0.3363263851070706,
      -0.1034561479739855,
      0.4483389725431502,
      0.017839457676860064,
      1.262182807928094,
      -0.32647338600216674,
      0.28125478219329414,
      -0.01940433619222924,
      -0.194545055045439,
      -0.0573084646476079,
      -0.6581623819957236,
      0.48654645359429616,
      -0.21339110656186894,
      -0.2538220988328713,
      0.956340620659466,
      -0.09291803580909272,
      -0.06153032891638153,
      0.15654784789307322,
      -0.2781063965259517,
      -0.18533867050953046,
      0.05922045774942006,
      -0.005897641357800982,
      0.38070616762078313,
      -0.10919813709135584,
      -0.08086970785764236,
      -0.02405567403976667,
      -0.03160650877582715,
      -0.5435512153160593,
      -0.08078679345754196,
      -0.07108234500510696,
      -0.015496649112804652,
      -0.40053932959789856,
      -0.04178889895216102,
      0.04403177353718017,
      -0.035678953247166786,
      0.41659768407030534,
      0.09806993591389591,
      -0.02099462341990707,
      -0.01796692934306609,
      0.5823457691450301
    ],
    "intercept": 3.067531612250918
  },
  "intermediate-insurance-offset-l2-tweedie-p=1.5": {
    "coef": [
      -0.46667632121128755,
      0.06306840701817143,
      -0.09999288151031492,
      0.187281199050507,
      0.12770560881720724,
      0.18861398783571773,
      0.12152641175313707,
      -0.0336688409157967,
      -0.08785757083733814,
      0.8924766997978093,
      -0.18870583030705126,
      -0.9209210974783534,
      -0.12830625542789562,
      0.20788161359362572,
      0.2023369392905179,
      -0.06476206946865584,
      0.018191291060587853,
      0.4012660884908982,
      -0.26428541855665877,
      -0.17683264934036655,
      0.3115405130907916,
      -0.3911302801043934,
      0.40946359127566795,
      0.19450736388081383,
      -0.36173845954111367,
      -0.10189921305297432,
      -0.2412742262960344,
      0.22038269015337214,
      0.14437346910428456,
      -0.14437346910427148,
      0.09238661803290141,
      0.03164109294717648,
      0.049174916841808275,
      -0.12346419481416622,
      -0.32219971018288207,
      -0.11194080958194359,
      0.366388309829492,
      -0.1844281225974403,
      0.14012494671831993,
      -0.008582333547102921,
      -0.14499693591424853,
      -0.05937583566738628,
      -0.04132098126368658,
      0.4491949990809908,
      -0.22208006680931172,
      0.06960988209447275,
      -0.1536442365560747,
      0.06989533828837832,
      0.33904027111710866,
      -0.2956655469905602,
      -0.2156105328438564,
      0.47431769993408057,
      -0.10607815008316727,
      0.04612989693395873,
      -0.6337676083757378,
      -0.5421535771533753,
      0.3418165160709712,
      -0.17579515413312552,
      -0.1853426154950523,
      -0.35619598221712984,
      0.20573160913571667,
      -0.1718279490441603,
      0.4090519330888798,
      0.041884559500570816,
      0.4186574066473953,
      -0.014490657710255823,
      1.2199148469549768,
      -0.16788661391883092,
      0.3453558438203289,
      0.02346452813454563,
      -0.1357849466538805,
      -0.015266907313395963,
      -0.6022614554073282,
      0.2862891988035162,
      -0.14268605620005528,
      -0.1316293802531972,
      0.31312102468079095,
      -0.0862369908001176,
      -0.022287568434092256,
      0.137672132151198,
      -0.20704621491916086,
      -0.11011551496762896,
      0.0838571155556862,
      -0.0027666547027698782,
      0.07362525563014598,
      -0.0513696674367679,
      -0.050025984088468076,
      0.02370370592961552,
      -0.00983637563004581,
      -0.43417337414222235,
      -0.05501720664833696,
      -0.04979095678013722,
      -0.0073461891931073855,
      -0.3424653657357146,
      -0.027388117621635923,
      0.03535770449203829,
      -0.024098583947431234,
      0.21687483803292695,
      0.108456049414034,
      -0.01308810038639822,
      -0.007753659274154693,
      0.4910611605403799
    ],
    "intercept": 3.075889390500737
  },
  "narrow-insurance-no-weights-l2-tweedie-p=1.5": {
    "coef": [
      -0.7154216860948343,
      0.20660543064932205,
      -0.019867311301373557,
      0.3002627609494654,
      0.03524398792938165,
      0.19317681786803462,
      -0.30492581411503406,
      0.08619964868537197,
      0.21872616542965997,
      0.9482728491549868,
      -0.30257545562996707,
      -0.9976356381310456,
      -0.07758573591371093,
      0.23637408285108408,
      0.34850585227748393,
      -0.15535595460883242,
      0.033495018580048296,
      0.3145495654533616,
      -0.386572984043659,
      -0.2053462804977955,
      0.22489808560439706,
      -0.4453750366179716,
      0.37170074550983534,
      0.2923416387271828,
      -0.42771591229032924,
      0.15004281090737867,
      -0.24987930263507846,
      0.361356669882673,
      0.17349455710944625,
      -0.1734945571094485,
      0.05450945491745265,
      0.1043450322012194,
      -0.06843734727792462,
      0.1411089279749004,
      -0.5662980555592609,
      -0.15297965782510797,
      0.39850096816231334,
      -0.2658154153672011,
      0.1324297769771557,
      0.19586874997931594,
      -0.2589791513098553,
      -0.11749053820888204,
      0.1574059788329823,
      0.5636852010718743,
      -0.2627918506487473,
      0.06578439439040538,
      -0.023735585036895063,
      0.04705852304797382,
      0.651084698039289,
      -0.5253713202595345,
      -0.5590855356222594,
      0.5285420436117013,
      -0.18482983717346746,
      0.09591701570793111
    ],
    "intercept": 1.7428304091202205
  },
  "narrow-insurance-offset-l2-tweedie-p=1.5": {
    "coef": [
      -0.5194676257219081,
      0.047100237741264074,
      -0.10281532773540084,
      0.18390179027864806,
      0.15779233910464419,
      0.23348858633274605,
      0.03883221089037856,
      0.0032594784762823726,
      -0.042091689366663715,
      0.9002313285486532,
      -0.26186055961453464,
      -0.907872478327719,
      -0.021594097792321548,
      0.20874234356351917,
      0.23233202198149175,
      -0.14997855835909157,
      0.03535596248147894,
      0.40627802137816565,
      -0.3621968916519928,
      -0.13933649480147228,
      0.2813505423644142,
      -0.3748492313990135,
      0.3627200760482197,
      0.2641774897295772,
      -0.3193308478344,
      -0.10721802387503815,
      -0.15911511236509482,
      0.14752047240663188,
      0.15669411531435687,
      -0.15669411531435898,
      0.04008794680679941,
      0.025311425749468104,
      0.02338468707419348,
      -0.12921811142992873,
      -0.29038640589038917,
      -0.04579042788370263,
      0.3098174415741459,
      -0.015578092202887835,
      0.1114647345327715,
      -0.0149607575425139,
      -0.16340695374593106,
      -0.06317516372401308,
      -0.0593282556788721,
      0.46172144852111136,
      -0.3039050873402436,
      0.003183736677349466,
      -0.15262727646834046,
      0.02585909682951877,
      0.39218614421822734,
      -0.3092718280364634,
      -0.24335595965007334,
      0.5449006022884788,
      -0.10682499787190593,
      0.12475029489640509
    ],
    "intercept": 1.7480436559046009
  },
  "wide-insurance-no-weights-l2-tweedie-p=1.5": {
    "coef": [
      2.5729966082422284,
      -1.289271672856959,
      3.4758896836238e-05,
      7.414524357058967e-05,
      7.414524357070778e-05,
      3.4129119479390675,
      -0.17264883692432784,
      -0.023226422559442416,
      -0.11185258796401076,
      0.5425587782923317,
      -0.31803393470200575,
      0.08320300385745333,
      -0.08370501040268676,
      0.11987255343242781,
      0.10988241860181219,
      0.06018106189258248,
      -0.41058160074851896,
      0.02248391684948782,
      -0.4328593532945712,
      0.12475777459873709,
      0.5344679662043836,
      -0.06359364608931233,
      -0.0075151188011030965,
      0.026609037756761194,
      -0.48551165438988436,
      -0.2920053235741272,
      -0.3284898071454068,
      0.4875049769557421,
      0.009292147626534873,
      -0.29004942033551245,
      0.3108975341322463,
      -0.20895540953145206,
      0.2762248595164084,
      0.15444463446267653,
      -0.042350563222551034,
      -0.2816557124631114,
      0.5993413398038219,
      0.06450224723536344,
      -0.07406942770687158,
      0.29332728813280745,
      -0.3522623210530783,
      0.06013553460355888,
      0.16700715310327313,
      -0.028947853705458423,
      -0.04909968499579389,
      -0.045180611265877434,
      -0.012932240251766865,
      0.05948487530685022,
      -0.009947506859747095,
      -0.005878487550979258,
      -0.0035462964793061334,
      0.04922246554507915,
      -0.004538400823931545,
      -0.003616777117252867,
      0.01676966998061844,
      -0.008361172718985782,
      -0.0028966656340172125,
      -0.0013332053673101997,
      -0.0019909964055634193,
      -0.003856366119629276,
      -0.0006817335270320394,
      -0.003618639449257935,
      -0.0013526100429711756,
      -0.001209581405983958,
      -0.002346791900604105,
      -0.0014694653615158744,
      0.14470341944775145,
      0.08194283829381353,
      -0.38181504951366685,
      -0.050676126866839824,
      -0.06291750756582723,
      -0.15550591813030995,
      -0.3383075030343683,
      -0.1733157325805713,
      0.0929913238154997,
      -0.41306551596069807,
      -0.022073507852456382,
      -0.46332478221743145,
      -0.012385070749201286,
      -0.19357467998737785,
      0.4436582476497433,
      -0.3227383356030471,
      0.0650144156675123,
      0.061394824488622296,
      0.016134759064911075,
      0.11132406531696888,
      0.05049363513082562,
      0.08373345723066118,
      0.5853974589413236,
      -0.43185514682964765,
      0.3270240308021928,
      0.4235161957969005,
      -0.25298125120900644,
      0.055605731250559384,
      0.20262271452424727,
      0.06144726331978697,
      -0.003102306472101414,
      0.1845058883753456,
      0.34002961468304105,
      -0.3544254323974482,
      0.23534468405441666,
      -0.004209089600080742,
      0.2814642976587124,
      -0.17279280741012523,
      0.14969039219367689,
      0.22779874372009898,
      0.09882833492337101,
      -0.2940025245157163,
      0.42531149118998846,
      0.023937044040937456,
      0.022609188082224313,
      -0.4912333164913397,
      0.39602221243293445,
      0.05769923236885373,
      0.050130864355165575,
      -0.09667338624199968,
      0.06921249780925376,
      0.03470363100421365,
      -0.10763331700940061,
      0.0071539613414140415,
      0.02303008968585615,
      -0.036067207566149354,
      0.19436436774102914,
      0.0524661988132976,
      0.09805257183335243,
      0.028675636440021423,
      -0.5905975107166535,
      0.028654922976981134,
      -0.3093858387263419,
      -0.027778016714743947,
      -0.017489549293274734,
      0.00415809120808388,
      -0.0072021407041348,
      -0.007231800404399582,
      -0.006010795192964626,
      -0.02407054595073376,
      -0.002960166200754452,
      -0.0065340683168576925,
      -0.0009124806741953772,
      -0.0009420261271401826,
      -0.0014916343982047462,
      -0.0009901877732498906,
      -0.0011137248503765031,
      -0.0014623358247519858,
      -0.0651654383838722,
      -0.05925365287990505,
      0.17014891814908586,
      0.029617986067303804,
      3.729189282091638e-05,
      -0.28667217209951606,
      -0.23715610853522065,
      0.10203638216480061,
      0.24888583958153454,
      0.00742142940855464,
      -0.18693775370360494,
      0.10290311911852651,
      0.1337926165087266,
      -0.03153842501577742,
      -0.08503793805329898,
      0.08147157245944897,
      -0.021829386998626254,
      0.056478665230535456,
      0.04805296510757861,
      0.2756803709394186,
      -0.022289082675689128,
      -0.03669958187857,
      0.4168876549859404,
      0.04501703874613886,
      -0.005874687305513474,
      0.12716039343299912,
      0.017886615749681933,
      -0.0009191471242274154,
      0.07909241516251202,
      -0.0008224317839011372,
      0.4999629324721609,
      -0.012928270663256657,
      -0.008422535797252158,
      -0.31806759347632513,
      -0.0029125856741836474,
      0.02328563982727176,
      -0.008668280775978391,
      -0.006897165477638212,
      -0.0007431354914825596,
      -0.3799317573906558,
      -0.002393061174817158,
      0.044255138079111446,
      -0.004201017698476105,
      -0.005493803549191695,
      -0.22295440287800145,
      -0.0021981277330431932,
      -0.0018957068502992783,
      -0.8651019869587001,
      0.014467323005036599,
      -0.0010765640626282606,
      0.05642462636584729,
      -0.0012659580872861039,
      0.17866182370625286,
      -0.0023158922102197743,
      0.11830914325507964,
      -0.02006465922466847,
      -0.0021618938109419705,
      0.03930317383744007,
      -0.003102443316426219,
      -0.0013777165058172572,
      -0.002870710008794223,
      -0.03247297932248604,
      -0.073496531781739,
      -0.24661839730109292,
      -0.14546934929783117,
      0.07976925108183805,
      0.1800135569601948,
      0.21849391617716374,
      -0.10578943705599356,
      0.20062008879681287,
      -0.36876445054665613,
      0.29371433228979005,
      -0.07182185105541933,
      0.07182185105542108,
      -0.05956846188010169,
      0.09318306738004825,
      0.16997280748917018,
      -0.04408993093980573,
      -0.07876253063886092,
      0.36185409367694,
      -0.33197794606902775,
      -0.5517151750392112,
      0.2608181859099603,
      -0.0439884911639002,
      -0.014300534752573372,
      0.08775196919442403,
      -0.4617496243182021,
      0.16803858191836218,
      -0.027373950722391772,
      0.1332971047379057,
      -0.19981211052461076,
      0.6448743761613787,
      -0.06307813946409382,
      -0.18859682032710764,
      0.04241762380818829,
      0.10280590556350844
    ],
    "intercept": 0.9516962091512533
  },
  "wide-insurance-offset-l2-tweedie-p=1.5": {
    "coef": [
      2.4510003799979443,
      -1.1953006368895005,
      2.700560216808664e-05,
      7.417228437999775e-05,
      7.41722843802e-05,
      3.0161481130624526,
      -0.13579621287942714,
      -0.10579942498942395,
      -0.08107318185967753,
      0.47519796396836994,
      -0.19233383588649097,
      0.03980469164665158,
      -0.07865182519528507,
      0.06084841075411727,
      0.07458056175129962,
      0.003755305366727505,
      -0.29573996843668776,
      0.03568856429426106,
      -0.24257566073138645,
      0.16715509445372417,
      0.3006758360051563,
      -0.052956172744709665,
      -0.004487277099421275,
      0.031707131582206116,
      -0.17218715410646268,
      -0.20848637201764353,
      -0.33904316220159897,
      0.4315494969632831,
      -0.02791983689031636,
      -0.135937757964145,
      0.29674485356992225,
      -0.15958385786791715,
      0.2181596810421372,
      0.06533812237350108,
      0.006655055957145428,
      -0.25269077351837155,
      0.37197752709759896,
      0.028055437685175974,
      -0.0718175304245362,
      0.11966509932846686,
      -0.29995622289365176,
      0.03663909399461595,
      0.12456017798774724,
      -0.0029025802778858325,
      -0.041197910713491895,
      -0.036019843094499314,
      -0.010557797262664982,
      0.04752576668003138,
      -0.007852242864367795,
      -0.0036307748061266973,
      -0.003498755373292976,
      0.03649427260406694,
      -0.0035782744686143515,
      -0.0021471646784552035,
      0.018070664171724232,
      -0.005177725841646898,
      -0.002331041249963303,
      -0.0018559229675182882,
      -0.0024974406131783524,
      -0.002641743240508067,
      -0.0009635595951255358,
      -0.0034368259951787503,
      -0.001106503008146561,
      -0.0010396167802070413,
      -0.0011299215245745456,
      -0.0002469372153271219,
      0.08011967602937765,
      0.025978973907890647,
      -0.3086628451126662,
      -0.01950541372989899,
      -0.03453556437397468,
      -0.04002945119928524,
      -0.22801304834387331,
      -0.07454049857183964,
      0.054283041469783626,
      -0.19943990107299242,
      -0.027976050943236436,
      -0.3496483612561028,
      -0.07184622437481829,
      -0.07675131133660303,
      0.2495544073403391,
